<?xml version="1.0"?>
<MethodSetup Method="BDT::BDTD">
  <GeneralInfo>
    <Info name="TMVA Release" value="4.2.1 [262657]"/>
    <Info name="ROOT Release" value="6.18/04 [397828]"/>
    <Info name="Creator" value="hchou"/>
    <Info name="Date" value="Sat Mar 14 10:50:12 2020"/>
    <Info name="Host" value="Linux lcgapp-centos7-x86-64-25.cern.ch 3.10.0-957.21.3.el7.x86_64 #1 SMP Tue Jun 18 16:35:19 UTC 2019 x86_64 x86_64 x86_64 GNU/Linux"/>
    <Info name="Dir" value="/afs/cern.ch/user/h/hchou/AMSProject/apflux"/>
    <Info name="Training events" value="250000"/>
    <Info name="TrainingTime" value="6.96568928e+01"/>
    <Info name="AnalysisType" value="Classification"/>
  </GeneralInfo>
  <Options>
    <Option name="V" modified="Yes">True</Option>
    <Option name="VerbosityLevel" modified="Yes">Verbose</Option>
    <Option name="VarTransform" modified="Yes">Decorrelate</Option>
    <Option name="H" modified="Yes">True</Option>
    <Option name="CreateMVAPdfs" modified="Yes">False</Option>
    <Option name="IgnoreNegWeightsInTraining" modified="Yes">True</Option>
    <Option name="NTrees" modified="Yes">100</Option>
    <Option name="MaxDepth" modified="Yes">3</Option>
    <Option name="MinNodeSize" modified="Yes">5%</Option>
    <Option name="nCuts" modified="Yes">20</Option>
    <Option name="BoostType" modified="Yes">AdaBoost</Option>
    <Option name="AdaBoostR2Loss" modified="Yes">quadratic</Option>
    <Option name="UseBaggedBoost" modified="No">False</Option>
    <Option name="Shrinkage" modified="Yes">1.000000e-01</Option>
    <Option name="AdaBoostBeta" modified="Yes">5.000000e-01</Option>
    <Option name="UseRandomisedTrees" modified="Yes">False</Option>
    <Option name="UseNvars" modified="Yes">2</Option>
    <Option name="UsePoissonNvars" modified="Yes">True</Option>
    <Option name="BaggedSampleFraction" modified="Yes">6.000000e-01</Option>
    <Option name="UseYesNoLeaf" modified="Yes">True</Option>
    <Option name="NegWeightTreatment" modified="No">inverseboostnegweights</Option>
    <Option name="Css" modified="No">1.000000e+00</Option>
    <Option name="Cts_sb" modified="No">1.000000e+00</Option>
    <Option name="Ctb_ss" modified="No">1.000000e+00</Option>
    <Option name="Cbb" modified="No">1.000000e+00</Option>
    <Option name="NodePurityLimit" modified="Yes">5.000000e-01</Option>
    <Option name="SeparationType" modified="Yes">giniindex</Option>
    <Option name="RegressionLossFunctionBDTG" modified="No">huber</Option>
    <Option name="HuberQuantile" modified="No">7.000000e-01</Option>
    <Option name="DoBoostMonitor" modified="Yes">False</Option>
    <Option name="UseFisherCuts" modified="Yes">False</Option>
    <Option name="MinLinCorrForFisher" modified="Yes">8.000000e-01</Option>
    <Option name="UseExclusiveVars" modified="Yes">False</Option>
    <Option name="DoPreselection" modified="Yes">False</Option>
    <Option name="SigToBkgFraction" modified="Yes">1.000000e+00</Option>
    <Option name="PruneMethod" modified="Yes">nopruning</Option>
    <Option name="PruneStrength" modified="Yes">0.000000e+00</Option>
    <Option name="PruningValFraction" modified="Yes">5.000000e-01</Option>
    <Option name="SkipNormalization" modified="No">False</Option>
    <Option name="nEventsMin" modified="Yes">0</Option>
    <Option name="UseBaggedGrad" modified="Yes">False</Option>
    <Option name="GradBaggingFraction" modified="Yes">6.000000e-01</Option>
    <Option name="UseNTrainEvents" modified="Yes">0</Option>
    <Option name="NNodesMax" modified="Yes">0</Option>
  </Options>
  <Variables NVar="12">
    <Variable VarIndex="0" Expression="lxin" Label="lxin" Title="lxin" Unit="units" Internal="lxin" Type="F" Min="-1.36213408e+01" Max="3.62821341e+00"/>
    <Variable VarIndex="1" Expression="lyin" Label="lyin" Title="lyin" Unit="units" Internal="lyin" Type="F" Min="-1.26075335e+01" Max="5.60300255e+00"/>
    <Variable VarIndex="2" Expression="lxex" Label="lxex" Title="lxex" Unit="units" Internal="lxex" Type="F" Min="-5.39945793e+00" Max="3.47817993e+00"/>
    <Variable VarIndex="3" Expression="lyex" Label="lyex" Title="lyex" Unit="units" Internal="lyex" Type="F" Min="-5.38689899e+00" Max="5.96375608e+00"/>
    <Variable VarIndex="4" Expression="nlxin" Label="nlxin" Title="nlxin" Unit="units" Internal="nlxin" Type="F" Min="3.93887341e-04" Max="6.48450136e+00"/>
    <Variable VarIndex="5" Expression="nlyin" Label="nlyin" Title="nlyin" Unit="units" Internal="nlyin" Type="F" Min="1.57873239e-03" Max="1.99187241e+01"/>
    <Variable VarIndex="6" Expression="nlxex" Label="nlxex" Title="nlxex" Unit="units" Internal="nlxex" Type="F" Min="5.68397902e-02" Max="7.20413017e+00"/>
    <Variable VarIndex="7" Expression="nlyex" Label="nlyex" Title="nlyex" Unit="units" Internal="nlyex" Type="F" Min="7.53777996e-02" Max="3.31219215e+01"/>
    <Variable VarIndex="8" Expression="lxinC" Label="lxinC" Title="lxinC" Unit="units" Internal="lxinC" Type="F" Min="-1.17956791e+01" Max="5.34278679e+00"/>
    <Variable VarIndex="9" Expression="lyinC" Label="lyinC" Title="lyinC" Unit="units" Internal="lyinC" Type="F" Min="-1.30330019e+01" Max="8.29169178e+00"/>
    <Variable VarIndex="10" Expression="lxexC" Label="lxexC" Title="lxexC" Unit="units" Internal="lxexC" Type="F" Min="-5.98990488e+00" Max="4.65408278e+00"/>
    <Variable VarIndex="11" Expression="lyexC" Label="lyexC" Title="lyexC" Unit="units" Internal="lyexC" Type="F" Min="-6.09984732e+00" Max="9.26662731e+00"/>
  </Variables>
  <Spectators NSpec="0"/>
  <Classes NClass="2">
    <Class Name="Signal" Index="0"/>
    <Class Name="Background" Index="1"/>
  </Classes>
  <Transformations NTransformations="1">
    <Transform Name="Decorrelation">
      <Selection>
        <Input NInputs="12">
          <Input Type="Variable" Label="lxin" Expression="lxin"/>
          <Input Type="Variable" Label="lyin" Expression="lyin"/>
          <Input Type="Variable" Label="lxex" Expression="lxex"/>
          <Input Type="Variable" Label="lyex" Expression="lyex"/>
          <Input Type="Variable" Label="nlxin" Expression="nlxin"/>
          <Input Type="Variable" Label="nlyin" Expression="nlyin"/>
          <Input Type="Variable" Label="nlxex" Expression="nlxex"/>
          <Input Type="Variable" Label="nlyex" Expression="nlyex"/>
          <Input Type="Variable" Label="lxinC" Expression="lxinC"/>
          <Input Type="Variable" Label="lyinC" Expression="lyinC"/>
          <Input Type="Variable" Label="lxexC" Expression="lxexC"/>
          <Input Type="Variable" Label="lyexC" Expression="lyexC"/>
        </Input>
        <Output NOutputs="12">
          <Output Type="Variable" Label="lxin" Expression="lxin"/>
          <Output Type="Variable" Label="lyin" Expression="lyin"/>
          <Output Type="Variable" Label="lxex" Expression="lxex"/>
          <Output Type="Variable" Label="lyex" Expression="lyex"/>
          <Output Type="Variable" Label="nlxin" Expression="nlxin"/>
          <Output Type="Variable" Label="nlyin" Expression="nlyin"/>
          <Output Type="Variable" Label="nlxex" Expression="nlxex"/>
          <Output Type="Variable" Label="nlyex" Expression="nlyex"/>
          <Output Type="Variable" Label="lxinC" Expression="lxinC"/>
          <Output Type="Variable" Label="lyinC" Expression="lyinC"/>
          <Output Type="Variable" Label="lxexC" Expression="lxexC"/>
          <Output Type="Variable" Label="lyexC" Expression="lyexC"/>
        </Output>
      </Selection>
      <Matrix Rows="12" Columns="12">
        9.546824384805802e+00 -1.328381993737371e-01 -4.873734680238655e+00 3.489220320291025e-02 1.089004295689419e+00 -2.678255622523604e-02 -4.295671742429609e-01 -2.558744734820965e-02 -8.474594550156491e+00 1.372363498970125e-01 4.432926127323206e+00 -2.658352022153682e-02 -1.328381993737312e-01 7.117682063997087e+00 8.807304640174138e-03 -3.999654100704042e+00 -1.042872754345702e-02 1.041475601156324e+00 -1.447076898573553e-02 -3.215571845278771e-01 1.054855203801572e-01 -5.466152937035657e+00 2.041262294666857e-02 2.949253588874257e+00 -4.873734680238650e+00 8.807304640179286e-03 9.027308166855924e+00 -1.518117553852577e-01 8.702426595700571e-02 -3.549758368880522e-02 6.775243143995491e-01 -3.229933316892043e-02 4.231989360976535e+00 2.296446117213623e-02 -7.543158268335366e+00 1.410663867177990e-01 3.489220320290569e-02 -3.999654100704048e+00 -1.518117553852529e-01 7.247084308511106e+00 -3.093737464719259e-02 -2.248438609885083e-01 -1.759935146007518e-02 4.149368261688469e-01 2.033269368497974e-03 2.690099409490957e+00 1.291474067297114e-01 -4.683437006894635e+00 1.089004295689421e+00 -1.042872754345916e-02 8.702426595700301e-02 -3.093737464719137e-02 4.155739270694159e+00 -1.327725601357174e-01 -1.432867963627384e+00 1.499549655923232e-02 -2.728739514712094e+00 2.937682989108493e-02 1.448240509507502e-01 5.854846229634974e-02 -2.678255622523570e-02 1.041475601156323e+00 -3.549758368880535e-02 -2.248438609885054e-01 -1.327725601357165e-01 4.517486741757521e+00 3.076349632986699e-02 -1.524064918798143e+00 5.929830922359965e-02 -2.814731956550091e+00 5.454623821904574e-02 4.209400749719530e-01 -4.295671742429570e-01 -1.447076898573376e-02 6.775243143995477e-01 -1.759935146007668e-02 -1.432867963627382e+00 3.076349632986702e-02 4.049293416261249e+00 -1.422128705124929e-01 4.371513897031867e-01 3.001835658491756e-02 -2.329588629582167e+00 5.720452366241668e-02 -2.558744734821024e-02 -3.215571845278796e-01 -3.229933316891954e-02 4.149368261688477e-01 1.499549655923164e-02 -1.524064918798143e+00 -1.422128705124929e-01 4.135267826716211e+00 2.358359692300783e-02 2.118194602211880e-01 8.641983645723458e-02 -1.861963961345150e+00 -8.474594550156493e+00 1.054855203801638e-01 4.231989360976542e+00 2.033269368493074e-03 -2.728739514712093e+00 5.929830922360050e-02 4.371513897031914e-01 2.358359692300701e-02 1.053356787541483e+01 -1.855700380760641e-01 -5.006276598572135e+00 3.981392588231947e-02 1.372363498970078e-01 -5.466152937035658e+00 2.296446117213971e-02 2.690099409490951e+00 2.937682989108267e-02 -2.814731956550092e+00 3.001835658491887e-02 2.118194602211859e-01 -1.855700380760586e-01 7.021987601704742e+00 -2.131895408243709e-02 -2.863876849237402e+00 4.432926127323198e+00 2.041262294666263e-02 -7.543158268335366e+00 1.291474067297172e-01 1.448240509507462e-01 5.454623821904539e-02 -2.329588629582168e+00 8.641983645723536e-02 -5.006276598572125e+00 -2.131895408243287e-02 9.725831629273340e+00 -2.728228077420636e-01 -2.658352022153314e-02 2.949253588874266e+00 1.410663867177950e-01 -4.683437006894637e+00 5.854846229635113e-02 4.209400749719565e-01 5.720452366241546e-02 -1.861963961345149e+00 3.981392588231536e-02 -2.863876849237410e+00 -2.728228077420590e-01 5.693551044278234e+00 
      </Matrix>
      <Matrix Rows="12" Columns="12">
        5.598555539728134e+00 -1.945566832129655e-01 -1.359198020745512e+00 3.708116847794809e-02 5.117803679482431e-01 -1.208283495742849e-01 6.803325294686208e-02 1.025347910024993e-01 -4.493598567212414e+00 1.797504973911464e-01 1.015219319102968e+00 -9.816234130317649e-03 -1.945566832129663e-01 4.265091342004705e+00 2.235926918136693e-02 -1.652498388043239e+00 2.669897528354297e-02 3.545316766406611e-01 -9.491510741192150e-02 -3.696622128868542e-01 1.365666452630948e-01 -2.807155440900778e+00 -1.347752002712060e-02 1.735767068236040e+00 -1.359198020745511e+00 2.235926918136660e-02 4.456649109419752e+00 -9.942582002661475e-02 3.602205180067551e-01 -6.465453054657712e-02 -3.140349981616032e-01 -1.340859237068003e-01 1.014538977244990e+00 3.622068079650768e-02 -2.899094945465915e+00 1.053418256390583e-01 3.708116847794876e-02 -1.652498388043240e+00 -9.942582002661488e-02 6.320017675369131e+00 -1.549867134529697e-02 -3.515572970225745e-01 1.577503147728563e-01 3.453643648181826e-01 3.859572940196396e-02 1.362324613306844e+00 -1.197720603442321e-01 -3.244800369244860e+00 5.117803679482419e-01 2.669897528354304e-02 3.602205180067555e-01 -1.549867134529716e-02 3.265775452891496e+00 -1.265179784780757e-01 -5.774654834962308e-01 4.695120956745181e-02 -2.127308148007783e+00 1.663177750953131e-02 -2.133626452197242e-01 3.553467200084453e-02 -1.208283495742852e-01 3.545316766406604e-01 -6.465453054657704e-02 -3.515572970225743e-01 -1.265179784780760e-01 2.403791834671635e+00 5.095060718568994e-02 -1.136489647862302e+00 1.718704672128145e-01 -1.558200985978266e+00 6.246813660049126e-02 4.623531028804370e-01 6.803325294686244e-02 -9.491510741192152e-02 -3.140349981616039e-01 1.577503147728564e-01 -5.774654834962307e-01 5.095060718568979e-02 2.720520055449767e+00 -1.711773014475086e-01 -1.385387201987164e-01 4.045939412752338e-02 -1.129780012788185e+00 -2.873140665346520e-02 1.025347910024994e-01 -3.696622128868535e-01 -1.340859237068003e-01 3.453643648181823e-01 4.695120956745198e-02 -1.136489647862302e+00 -1.711773014475088e-01 2.293075411655411e+00 -1.085401000291756e-01 7.790964447659963e-01 2.720789000935072e-01 -1.373219610885916e+00 -4.493598567212413e+00 1.365666452630938e-01 1.014538977244991e+00 3.859572940196465e-02 -2.127308148007782e+00 1.718704672128140e-01 -1.385387201987161e-01 -1.085401000291753e-01 6.174338891926452e+00 -2.929899928111049e-01 -1.290774245931334e+00 1.544022970501299e-02 1.797504973911474e-01 -2.807155440900778e+00 3.622068079650748e-02 1.362324613306844e+00 1.663177750953167e-02 -1.558200985978268e+00 4.045939412752324e-02 7.790964447659974e-01 -2.929899928111060e-01 3.749685408783614e+00 9.550183388990878e-03 -2.194098176845553e+00 1.015219319102966e+00 -1.347752002712013e-02 -2.899094945465914e+00 -1.197720603442324e-01 -2.133626452197243e-01 6.246813660049159e-02 -1.129780012788185e+00 2.720789000935069e-01 -1.290774245931333e+00 9.550183388990427e-03 4.301758487779745e+00 -1.297576593605934e-01 -9.816234130318124e-03 1.735767068236040e+00 1.053418256390582e-01 -3.244800369244860e+00 3.553467200084420e-02 4.623531028804380e-01 -2.873140665346505e-02 -1.373219610885917e+00 1.544022970501363e-02 -2.194098176845554e+00 -1.297576593605935e-01 4.309910606555516e+00 
      </Matrix>
      <Matrix Rows="12" Columns="12">
        7.602990633738134e+00 -1.791932370278649e-01 -2.956261772994804e+00 -3.341555464920307e-02 8.062377067873481e-01 -3.072024091546508e-02 -6.781501664270215e-02 5.453045454370505e-02 -6.494846024710775e+00 1.557238544146445e-01 2.453124807658661e+00 9.545435837328227e-03 -1.791932370278627e-01 5.704945617527678e+00 6.208729461876082e-02 -3.286861468940709e+00 -3.623603526113711e-03 8.148889625927740e-01 -4.098288943912843e-02 -4.704193273411702e-01 1.405376121957050e-01 -4.149867733299811e+00 -1.800954383096924e-02 2.558973867820839e+00 -2.956261772994803e+00 6.208729461876134e-02 6.644907573231566e+00 -9.042825524575579e-02 3.372102312576882e-01 -1.116854864501217e-01 1.165932675979759e-01 -1.449517595888021e-01 2.368696438303262e+00 5.128666538659462e-02 -5.081170990328395e+00 6.576640719155682e-02 -3.341555464920422e-02 -3.286861468940708e+00 -9.042825524575548e-02 6.392304305509326e+00 -4.481027423603551e-02 -7.071284686048906e-02 5.608227670104046e-02 3.008233070472806e-01 1.376389982040663e-01 2.226942501176274e+00 -7.451376792556225e-02 -4.122636298132631e+00 8.062377067873496e-01 -3.623603526114801e-03 3.372102312576875e-01 -4.481027423603504e-02 3.835588030418971e+00 -1.270227399559502e-01 -1.090866586986839e+00 3.995456899069108e-02 -2.456702734009182e+00 1.532920748996355e-02 -1.071383830654336e-01 8.325705819529575e-02 -3.072024091546440e-02 8.148889625927718e-01 -1.116854864501215e-01 -7.071284686048701e-02 -1.270227399559498e-01 3.471591957655078e+00 2.049817833745227e-02 -1.380327630182249e+00 4.210101889983545e-02 -2.272658285190643e+00 1.613489942127087e-01 4.044366501167129e-01 -6.781501664270144e-02 -4.098288943912828e-02 1.165932675979754e-01 5.608227670104043e-02 -1.090866586986839e+00 2.049817833745222e-02 3.526986053594930e+00 -1.728085429849232e-01 7.627524859384716e-02 4.862871309118124e-02 -1.716188561655936e+00 -6.954239490483898e-03 5.453045454370504e-02 -4.704193273411689e-01 -1.449517595888026e-01 3.008233070472788e-01 3.995456899069091e-02 -1.380327630182249e+00 -1.728085429849237e-01 3.251216543694861e+00 -3.945715019112363e-02 6.110583826418697e-01 1.959542591484385e-01 -1.642599606702233e+00 -6.494846024710776e+00 1.405376121957076e-01 2.368696438303261e+00 1.376389982040650e-01 -2.456702734009180e+00 4.210101889983649e-02 7.627524859384750e-02 -3.945715019112378e-02 8.390918385764842e+00 -2.287004074660828e-01 -2.882372131081045e+00 1.744980486541307e-02 1.557238544146421e-01 -4.149867733299808e+00 5.128666538659510e-02 2.226942501176272e+00 1.532920748996246e-02 -2.272658285190645e+00 4.862871309118130e-02 6.110583826418710e-01 -2.287004074660798e-01 5.418657176801459e+00 -3.781726155477733e-02 -2.660414745218760e+00 2.453124807658659e+00 -1.800954383096993e-02 -5.081170990328395e+00 -7.451376792556200e-02 -1.071383830654350e-01 1.613489942127088e-01 -1.716188561655936e+00 1.959542591484378e-01 -2.882372131081044e+00 -3.781726155477656e-02 6.903315438427725e+00 -2.181064577419077e-01 9.545435837329447e-03 2.558973867820836e+00 6.576640719155680e-02 -4.122636298132630e+00 8.325705819529630e-02 4.044366501167145e-01 -6.954239490483571e-03 -1.642599606702235e+00 1.744980486541164e-02 -2.660414745218759e+00 -2.181064577419079e-01 5.064503375294477e+00 
      </Matrix>
    </Transform>
  </Transformations>
  <MVAPdfs/>
  <Weights NTrees="100" AnalysisType="0">
    <BinaryTree type="DecisionTree" boostWeight="5.9941055742520155e-01" itree="0">
      <Node pos="s" depth="0" NCoef="0" IVar="11" Cut="-2.2833530902862549e+00" cType="1" res="-9.9000000000000000e+01" rms="0.0000000000000000e+00" purity="5.0000000000000000e-01" nType="0">
        <Node pos="l" depth="1" NCoef="0" IVar="3" Cut="2.3651905059814453e+00" cType="1" res="-9.9000000000000000e+01" rms="0.0000000000000000e+00" purity="7.4208796024322510e-01" nType="0">
          <Node pos="l" depth="2" NCoef="0" IVar="-1" Cut="1.9739774465560913e+00" cType="1" res="-9.9000000000000000e+01" rms="0.0000000000000000e+00" purity="8.4999638795852661e-01" nType="1"/>
          <Node pos="r" depth="2" NCoef="0" IVar="-1" Cut="0.0000000000000000e+00" cType="1" res="-9.9000000000000000e+01" rms="0.0000000000000000e+00" purity="3.1210723519325256e-01" nType="-1"/>
        </Node>
        <Node pos="r" depth="1" NCoef="0" IVar="7" Cut="3.0142700672149658e+00" cType="1" res="-9.9000000000000000e+01" rms="0.0000000000000000e+00" purity="2.8014311194419861e-01" nType="0">
          <Node pos="l" depth="2" NCoef="0" IVar="7" Cut="2.4104263782501221e+00" cType="1" res="-9.9000000000000000e+01" rms="0.0000000000000000e+00" purity="4.7372180223464966e-01" nType="0">
            <Node pos="l" depth="3" NCoef="0" IVar="-1" Cut="0.0000000000000000e+00" cType="1" res="-9.9000000000000000e+01" rms="0.0000000000000000e+00" purity="5.1767778396606445e-01" nType="1"/>
            <Node pos="r" depth="3" NCoef="0" IVar="-1" Cut="0.0000000000000000e+00" cType="1" res="-9.9000000000000000e+01" rms="0.0000000000000000e+00" purity="4.3797013163566589e-01" nType="-1"/>
          </Node>
          <Node pos="r" depth="2" NCoef="0" IVar="-1" Cut="-1.6761248111724854e+00" cType="1" res="-9.9000000000000000e+01" rms="0.0000000000000000e+00" purity="2.1889463067054749e-01" nType="-1"/>
        </Node>
      </Node>
    </BinaryTree>
    <BinaryTree type="DecisionTree" boostWeight="4.5395431308998208e-01" itree="1">
      <Node pos="s" depth="0" NCoef="0" IVar="11" Cut="-2.2833530902862549e+00" cType="1" res="-9.9000000000000000e+01" rms="0.0000000000000000e+00" purity="5.2174496650695801e-01" nType="0">
        <Node pos="l" depth="1" NCoef="0" IVar="3" Cut="1.1916242837905884e+00" cType="1" res="-9.9000000000000000e+01" rms="0.0000000000000000e+00" purity="6.9008052349090576e-01" nType="0">
          <Node pos="l" depth="2" NCoef="0" IVar="-1" Cut="1.4219323396682739e+00" cType="1" res="-9.9000000000000000e+01" rms="0.0000000000000000e+00" purity="9.2972636222839355e-01" nType="1"/>
          <Node pos="r" depth="2" NCoef="0" IVar="3" Cut="2.0298941135406494e+00" cType="1" res="-9.9000000000000000e+01" rms="0.0000000000000000e+00" purity="6.0938298702239990e-01" nType="0">
            <Node pos="l" depth="3" NCoef="0" IVar="-1" Cut="0.0000000000000000e+00" cType="1" res="-9.9000000000000000e+01" rms="0.0000000000000000e+00" purity="7.4693053960800171e-01" nType="1"/>
            <Node pos="r" depth="3" NCoef="0" IVar="-1" Cut="0.0000000000000000e+00" cType="1" res="-9.9000000000000000e+01" rms="0.0000000000000000e+00" purity="4.6547475457191467e-01" nType="-1"/>
          </Node>
        </Node>
        <Node pos="r" depth="1" NCoef="0" IVar="3" Cut="2.3406763076782227e+00" cType="1" res="-9.9000000000000000e+01" rms="0.0000000000000000e+00" purity="3.7846496701240540e-01" nType="0">
          <Node pos="l" depth="2" NCoef="0" IVar="11" Cut="-1.3106259107589722e+00" cType="1" res="-9.9000000000000000e+01" rms="0.0000000000000000e+00" purity="4.5292368531227112e-01" nType="0">
            <Node pos="l" depth="3" NCoef="0" IVar="-1" Cut="0.0000000000000000e+00" cType="1" res="-9.9000000000000000e+01" rms="0.0000000000000000e+00" purity="6.1702603101730347e-01" nType="1"/>
            <Node pos="r" depth="3" NCoef="0" IVar="-1" Cut="0.0000000000000000e+00" cType="1" res="-9.9000000000000000e+01" rms="0.0000000000000000e+00" purity="2.7662649750709534e-01" nType="-1"/>
          </Node>
          <Node pos="r" depth="2" NCoef="0" IVar="-1" Cut="0.0000000000000000e+00" cType="1" res="-9.9000000000000000e+01" rms="0.0000000000000000e+00" purity="1.7541763186454773e-01" nType="-1"/>
        </Node>
      </Node>
    </BinaryTree>
    <BinaryTree type="DecisionTree" boostWeight="3.9200482648653634e-01" itree="2">
      <Node pos="s" depth="0" NCoef="0" IVar="11" Cut="-2.2833530902862549e+00" cType="1" res="-9.9000000000000000e+01" rms="0.0000000000000000e+00" purity="5.2490973472595215e-01" nType="0">
        <Node pos="l" depth="1" NCoef="0" IVar="3" Cut="1.1916242837905884e+00" cType="1" res="-9.9000000000000000e+01" rms="0.0000000000000000e+00" purity="6.7710685729980469e-01" nType="0">
          <Node pos="l" depth="2" NCoef="0" IVar="-1" Cut="4.1445846557617188e+00" cType="0" res="-9.9000000000000000e+01" rms="0.0000000000000000e+00" purity="8.9364624023437500e-01" nType="1"/>
          <Node pos="r" depth="2" NCoef="0" IVar="10" Cut="-2.4096310138702393e+00" cType="1" res="-9.9000000000000000e+01" rms="0.0000000000000000e+00" purity="6.1415350437164307e-01" nType="0">
            <Node pos="l" depth="3" NCoef="0" IVar="-1" Cut="0.0000000000000000e+00" cType="1" res="-9.9000000000000000e+01" rms="0.0000000000000000e+00" purity="7.3580330610275269e-01" nType="1"/>
            <Node pos="r" depth="3" NCoef="0" IVar="-1" Cut="0.0000000000000000e+00" cType="1" res="-9.9000000000000000e+01" rms="0.0000000000000000e+00" purity="4.8153305053710938e-01" nType="-1"/>
          </Node>
        </Node>
        <Node pos="r" depth="1" NCoef="0" IVar="3" Cut="1.2380784749984741e+00" cType="1" res="-9.9000000000000000e+01" rms="0.0000000000000000e+00" purity="3.9569124579429626e-01" nType="0">
          <Node pos="l" depth="2" NCoef="0" IVar="9" Cut="-4.0427484512329102e+00" cType="1" res="-9.9000000000000000e+01" rms="0.0000000000000000e+00" purity="5.7495975494384766e-01" nType="0">
            <Node pos="l" depth="3" NCoef="0" IVar="-1" Cut="0.0000000000000000e+00" cType="1" res="-9.9000000000000000e+01" rms="0.0000000000000000e+00" purity="7.1942055225372314e-01" nType="1"/>
            <Node pos="r" depth="3" NCoef="0" IVar="-1" Cut="0.0000000000000000e+00" cType="1" res="-9.9000000000000000e+01" rms="0.0000000000000000e+00" purity="4.0981578826904297e-01" nType="-1"/>
          </Node>
          <Node pos="r" depth="2" NCoef="0" IVar="-1" Cut="-3.8108253479003906e+00" cType="1" res="-9.9000000000000000e+01" rms="0.0000000000000000e+00" purity="3.0502364039421082e-01" nType="-1"/>
        </Node>
      </Node>
    </BinaryTree>
    <BinaryTree type="DecisionTree" boostWeight="3.3567653253897756e-01" itree="3">
      <Node pos="s" depth="0" NCoef="0" IVar="2" Cut="1.6837489604949951e+00" cType="1" res="-9.9000000000000000e+01" rms="0.0000000000000000e+00" purity="5.5065500736236572e-01" nType="0">
        <Node pos="l" depth="1" NCoef="0" IVar="11" Cut="-2.1450650691986084e+00" cType="1" res="-9.9000000000000000e+01" rms="0.0000000000000000e+00" purity="6.0133284330368042e-01" nType="0">
          <Node pos="l" depth="2" NCoef="0" IVar="-1" Cut="3.9673514366149902e+00" cType="1" res="-9.9000000000000000e+01" rms="0.0000000000000000e+00" purity="7.0608520507812500e-01" nType="1"/>
          <Node pos="r" depth="2" NCoef="0" IVar="3" Cut="1.2380784749984741e+00" cType="1" res="-9.9000000000000000e+01" rms="0.0000000000000000e+00" purity="4.8546397686004639e-01" nType="0">
            <Node pos="l" depth="3" NCoef="0" IVar="-1" Cut="0.0000000000000000e+00" cType="1" res="-9.9000000000000000e+01" rms="0.0000000000000000e+00" purity="6.1649048328399658e-01" nType="1"/>
            <Node pos="r" depth="3" NCoef="0" IVar="-1" Cut="0.0000000000000000e+00" cType="1" res="-9.9000000000000000e+01" rms="0.0000000000000000e+00" purity="4.1160032153129578e-01" nType="-1"/>
          </Node>
        </Node>
        <Node pos="r" depth="1" NCoef="0" IVar="-1" Cut="3.3937451839447021e+00" cType="1" res="-9.9000000000000000e+01" rms="0.0000000000000000e+00" purity="3.0532127618789673e-01" nType="-1"/>
      </Node>
    </BinaryTree>
    <BinaryTree type="DecisionTree" boostWeight="3.3496273436605511e-01" itree="4">
      <Node pos="s" depth="0" NCoef="0" IVar="9" Cut="-3.2240169048309326e+00" cType="1" res="-9.9000000000000000e+01" rms="0.0000000000000000e+00" purity="5.3997874259948730e-01" nType="0">
        <Node pos="l" depth="1" NCoef="0" IVar="7" Cut="4.0225601196289062e+00" cType="1" res="-9.9000000000000000e+01" rms="0.0000000000000000e+00" purity="5.8783000707626343e-01" nType="0">
          <Node pos="l" depth="2" NCoef="0" IVar="10" Cut="-1.8185721635818481e+00" cType="1" res="-9.9000000000000000e+01" rms="0.0000000000000000e+00" purity="6.6473716497421265e-01" nType="0">
            <Node pos="l" depth="3" NCoef="0" IVar="-1" Cut="0.0000000000000000e+00" cType="1" res="-9.9000000000000000e+01" rms="0.0000000000000000e+00" purity="7.2171115875244141e-01" nType="1"/>
            <Node pos="r" depth="3" NCoef="0" IVar="-1" Cut="0.0000000000000000e+00" cType="1" res="-9.9000000000000000e+01" rms="0.0000000000000000e+00" purity="4.7113883495330811e-01" nType="-1"/>
          </Node>
          <Node pos="r" depth="2" NCoef="0" IVar="-1" Cut="-4.7194952964782715e+00" cType="0" res="-9.9000000000000000e+01" rms="0.0000000000000000e+00" purity="3.9966309070587158e-01" nType="-1"/>
        </Node>
        <Node pos="r" depth="1" NCoef="0" IVar="-1" Cut="0.0000000000000000e+00" cType="1" res="-9.9000000000000000e+01" rms="0.0000000000000000e+00" purity="3.0898311734199524e-01" nType="-1"/>
      </Node>
    </BinaryTree>
    <BinaryTree type="DecisionTree" boostWeight="2.6775395442966499e-01" itree="5">
      <Node pos="s" depth="0" NCoef="0" IVar="9" Cut="-3.2240169048309326e+00" cType="1" res="-9.9000000000000000e+01" rms="0.0000000000000000e+00" purity="5.5024784803390503e-01" nType="0">
        <Node pos="l" depth="1" NCoef="0" IVar="3" Cut="2.6679587364196777e+00" cType="1" res="-9.9000000000000000e+01" rms="0.0000000000000000e+00" purity="5.8412671089172363e-01" nType="0">
          <Node pos="l" depth="2" NCoef="0" IVar="1" Cut="2.3473045825958252e+00" cType="1" res="-9.9000000000000000e+01" rms="0.0000000000000000e+00" purity="6.1207032203674316e-01" nType="0">
            <Node pos="l" depth="3" NCoef="0" IVar="-1" Cut="0.0000000000000000e+00" cType="1" res="-9.9000000000000000e+01" rms="0.0000000000000000e+00" purity="7.1381026506423950e-01" nType="1"/>
            <Node pos="r" depth="3" NCoef="0" IVar="-1" Cut="0.0000000000000000e+00" cType="1" res="-9.9000000000000000e+01" rms="0.0000000000000000e+00" purity="4.6360161900520325e-01" nType="-1"/>
          </Node>
          <Node pos="r" depth="2" NCoef="0" IVar="-1" Cut="0.0000000000000000e+00" cType="1" res="-9.9000000000000000e+01" rms="0.0000000000000000e+00" purity="4.1344016790390015e-01" nType="-1"/>
        </Node>
        <Node pos="r" depth="1" NCoef="0" IVar="-1" Cut="0.0000000000000000e+00" cType="1" res="-9.9000000000000000e+01" rms="0.0000000000000000e+00" purity="3.8463637232780457e-01" nType="-1"/>
      </Node>
    </BinaryTree>
    <BinaryTree type="DecisionTree" boostWeight="2.2895904770839948e-01" itree="6">
      <Node pos="s" depth="0" NCoef="0" IVar="2" Cut="1.6837489604949951e+00" cType="1" res="-9.9000000000000000e+01" rms="0.0000000000000000e+00" purity="5.6263440847396851e-01" nType="0">
        <Node pos="l" depth="1" NCoef="0" IVar="10" Cut="-8.9967316389083862e-01" cType="1" res="-9.9000000000000000e+01" rms="0.0000000000000000e+00" purity="5.9224051237106323e-01" nType="0">
          <Node pos="l" depth="2" NCoef="0" IVar="-1" Cut="1.2018533945083618e+00" cType="1" res="-9.9000000000000000e+01" rms="0.0000000000000000e+00" purity="6.1555731296539307e-01" nType="1"/>
          <Node pos="r" depth="2" NCoef="0" IVar="-1" Cut="0.0000000000000000e+00" cType="1" res="-9.9000000000000000e+01" rms="0.0000000000000000e+00" purity="4.0570926666259766e-01" nType="-1"/>
        </Node>
        <Node pos="r" depth="1" NCoef="0" IVar="6" Cut="4.0054183006286621e+00" cType="1" res="-9.9000000000000000e+01" rms="0.0000000000000000e+00" purity="4.1431137919425964e-01" nType="0">
          <Node pos="l" depth="2" NCoef="0" IVar="-1" Cut="0.0000000000000000e+00" cType="1" res="-9.9000000000000000e+01" rms="0.0000000000000000e+00" purity="5.2427309751510620e-01" nType="1"/>
          <Node pos="r" depth="2" NCoef="0" IVar="-1" Cut="0.0000000000000000e+00" cType="1" res="-9.9000000000000000e+01" rms="0.0000000000000000e+00" purity="3.1152856349945068e-01" nType="-1"/>
        </Node>
      </Node>
    </BinaryTree>
    <BinaryTree type="DecisionTree" boostWeight="1.7775450021509107e-01" itree="7">
      <Node pos="s" depth="0" NCoef="0" IVar="3" Cut="1.2018533945083618e+00" cType="1" res="-9.9000000000000000e+01" rms="0.0000000000000000e+00" purity="5.2668839693069458e-01" nType="0">
        <Node pos="l" depth="1" NCoef="0" IVar="11" Cut="-1.4037255048751831e+00" cType="1" res="-9.9000000000000000e+01" rms="0.0000000000000000e+00" purity="6.3291370868682861e-01" nType="0">
          <Node pos="l" depth="2" NCoef="0" IVar="-1" Cut="3.5738744735717773e+00" cType="1" res="-9.9000000000000000e+01" rms="0.0000000000000000e+00" purity="7.5174719095230103e-01" nType="1"/>
          <Node pos="r" depth="2" NCoef="0" IVar="-1" Cut="0.0000000000000000e+00" cType="1" res="-9.9000000000000000e+01" rms="0.0000000000000000e+00" purity="4.9489167332649231e-01" nType="-1"/>
        </Node>
        <Node pos="r" depth="1" NCoef="0" IVar="11" Cut="-2.9153032302856445e+00" cType="1" res="-9.9000000000000000e+01" rms="0.0000000000000000e+00" purity="4.8852252960205078e-01" nType="0">
          <Node pos="l" depth="2" NCoef="0" IVar="-1" Cut="5.4325073957443237e-01" cType="1" res="-9.9000000000000000e+01" rms="0.0000000000000000e+00" purity="6.4486557245254517e-01" nType="1"/>
          <Node pos="r" depth="2" NCoef="0" IVar="9" Cut="-3.8108253479003906e+00" cType="1" res="-9.9000000000000000e+01" rms="0.0000000000000000e+00" purity="4.4951346516609192e-01" nType="0">
            <Node pos="l" depth="3" NCoef="0" IVar="-1" Cut="0.0000000000000000e+00" cType="1" res="-9.9000000000000000e+01" rms="0.0000000000000000e+00" purity="5.0069779157638550e-01" nType="1"/>
            <Node pos="r" depth="3" NCoef="0" IVar="-1" Cut="0.0000000000000000e+00" cType="1" res="-9.9000000000000000e+01" rms="0.0000000000000000e+00" purity="3.3693778514862061e-01" nType="-1"/>
          </Node>
        </Node>
      </Node>
    </BinaryTree>
    <BinaryTree type="DecisionTree" boostWeight="2.2605137431942343e-01" itree="8">
      <Node pos="s" depth="0" NCoef="0" IVar="3" Cut="1.2018533945083618e+00" cType="1" res="-9.9000000000000000e+01" rms="0.0000000000000000e+00" purity="5.0967001914978027e-01" nType="0">
        <Node pos="l" depth="1" NCoef="0" IVar="3" Cut="5.7350969314575195e-01" cType="1" res="-9.9000000000000000e+01" rms="0.0000000000000000e+00" purity="6.3284426927566528e-01" nType="0">
          <Node pos="l" depth="2" NCoef="0" IVar="-1" Cut="1.4312124252319336e+00" cType="1" res="-9.9000000000000000e+01" rms="0.0000000000000000e+00" purity="7.5035214424133301e-01" nType="1"/>
          <Node pos="r" depth="2" NCoef="0" IVar="11" Cut="-2.0402088165283203e+00" cType="1" res="-9.9000000000000000e+01" rms="0.0000000000000000e+00" purity="5.4182893037796021e-01" nType="0">
            <Node pos="l" depth="3" NCoef="0" IVar="-1" Cut="0.0000000000000000e+00" cType="1" res="-9.9000000000000000e+01" rms="0.0000000000000000e+00" purity="6.8887269496917725e-01" nType="1"/>
            <Node pos="r" depth="3" NCoef="0" IVar="-1" Cut="0.0000000000000000e+00" cType="1" res="-9.9000000000000000e+01" rms="0.0000000000000000e+00" purity="4.2934912443161011e-01" nType="-1"/>
          </Node>
        </Node>
        <Node pos="r" depth="1" NCoef="0" IVar="11" Cut="-2.9153032302856445e+00" cType="1" res="-9.9000000000000000e+01" rms="0.0000000000000000e+00" purity="4.6595111489295959e-01" nType="0">
          <Node pos="l" depth="2" NCoef="0" IVar="-1" Cut="5.4325073957443237e-01" cType="1" res="-9.9000000000000000e+01" rms="0.0000000000000000e+00" purity="6.0319387912750244e-01" nType="1"/>
          <Node pos="r" depth="2" NCoef="0" IVar="7" Cut="3.2097048759460449e+00" cType="1" res="-9.9000000000000000e+01" rms="0.0000000000000000e+00" purity="4.3228012323379517e-01" nType="0">
            <Node pos="l" depth="3" NCoef="0" IVar="-1" Cut="0.0000000000000000e+00" cType="1" res="-9.9000000000000000e+01" rms="0.0000000000000000e+00" purity="5.2405792474746704e-01" nType="1"/>
            <Node pos="r" depth="3" NCoef="0" IVar="-1" Cut="0.0000000000000000e+00" cType="1" res="-9.9000000000000000e+01" rms="0.0000000000000000e+00" purity="3.8727018237113953e-01" nType="-1"/>
          </Node>
        </Node>
      </Node>
    </BinaryTree>
    <BinaryTree type="DecisionTree" boostWeight="1.6267557342114969e-01" itree="9">
      <Node pos="s" depth="0" NCoef="0" IVar="3" Cut="1.2018533945083618e+00" cType="1" res="-9.9000000000000000e+01" rms="0.0000000000000000e+00" purity="5.0775659084320068e-01" nType="0">
        <Node pos="l" depth="1" NCoef="0" IVar="-1" Cut="-1.4037255048751831e+00" cType="1" res="-9.9000000000000000e+01" rms="0.0000000000000000e+00" purity="6.1720043420791626e-01" nType="1"/>
        <Node pos="r" depth="1" NCoef="0" IVar="2" Cut="1.6837489604949951e+00" cType="1" res="-9.9000000000000000e+01" rms="0.0000000000000000e+00" purity="4.6971863508224487e-01" nType="0">
          <Node pos="l" depth="2" NCoef="0" IVar="8" Cut="-4.3951325416564941e+00" cType="0" res="-9.9000000000000000e+01" rms="0.0000000000000000e+00" purity="4.9458616971969604e-01" nType="0">
            <Node pos="l" depth="3" NCoef="0" IVar="-1" Cut="0.0000000000000000e+00" cType="1" res="-9.9000000000000000e+01" rms="0.0000000000000000e+00" purity="5.3154391050338745e-01" nType="1"/>
            <Node pos="r" depth="3" NCoef="0" IVar="-1" Cut="0.0000000000000000e+00" cType="1" res="-9.9000000000000000e+01" rms="0.0000000000000000e+00" purity="4.0240973234176636e-01" nType="-1"/>
          </Node>
          <Node pos="r" depth="2" NCoef="0" IVar="-1" Cut="0.0000000000000000e+00" cType="1" res="-9.9000000000000000e+01" rms="0.0000000000000000e+00" purity="3.4319362044334412e-01" nType="-1"/>
        </Node>
      </Node>
    </BinaryTree>
    <BinaryTree type="DecisionTree" boostWeight="1.6005220742112633e-01" itree="10">
      <Node pos="s" depth="0" NCoef="0" IVar="3" Cut="1.2018533945083618e+00" cType="1" res="-9.9000000000000000e+01" rms="0.0000000000000000e+00" purity="4.9136224389076233e-01" nType="0">
        <Node pos="l" depth="1" NCoef="0" IVar="11" Cut="-1.4037255048751831e+00" cType="1" res="-9.9000000000000000e+01" rms="0.0000000000000000e+00" purity="5.7810693979263306e-01" nType="0">
          <Node pos="l" depth="2" NCoef="0" IVar="-1" Cut="3.5738744735717773e+00" cType="1" res="-9.9000000000000000e+01" rms="0.0000000000000000e+00" purity="6.5709090232849121e-01" nType="1"/>
          <Node pos="r" depth="2" NCoef="0" IVar="-1" Cut="0.0000000000000000e+00" cType="1" res="-9.9000000000000000e+01" rms="0.0000000000000000e+00" purity="4.9309900403022766e-01" nType="-1"/>
        </Node>
        <Node pos="r" depth="1" NCoef="0" IVar="3" Cut="2.0396320819854736e+00" cType="1" res="-9.9000000000000000e+01" rms="0.0000000000000000e+00" purity="4.6145740151405334e-01" nType="0">
          <Node pos="l" depth="2" NCoef="0" IVar="3" Cut="1.7204785346984863e+00" cType="1" res="-9.9000000000000000e+01" rms="0.0000000000000000e+00" purity="5.1374816894531250e-01" nType="0">
            <Node pos="l" depth="3" NCoef="0" IVar="-1" Cut="0.0000000000000000e+00" cType="1" res="-9.9000000000000000e+01" rms="0.0000000000000000e+00" purity="5.7091939449310303e-01" nType="1"/>
            <Node pos="r" depth="3" NCoef="0" IVar="-1" Cut="0.0000000000000000e+00" cType="1" res="-9.9000000000000000e+01" rms="0.0000000000000000e+00" purity="4.3454056978225708e-01" nType="-1"/>
          </Node>
          <Node pos="r" depth="2" NCoef="0" IVar="-1" Cut="1.2280654907226562e+00" cType="1" res="-9.9000000000000000e+01" rms="0.0000000000000000e+00" purity="4.1457331180572510e-01" nType="-1"/>
        </Node>
      </Node>
    </BinaryTree>
    <BinaryTree type="DecisionTree" boostWeight="1.3799455826217386e-01" itree="11">
      <Node pos="s" depth="0" NCoef="0" IVar="6" Cut="5.6629395484924316e+00" cType="1" res="-9.9000000000000000e+01" rms="0.0000000000000000e+00" purity="5.0442951917648315e-01" nType="0">
        <Node pos="l" depth="1" NCoef="0" IVar="3" Cut="1.2018533945083618e+00" cType="1" res="-9.9000000000000000e+01" rms="0.0000000000000000e+00" purity="5.1715064048767090e-01" nType="0">
          <Node pos="l" depth="2" NCoef="0" IVar="-1" Cut="5.7350969314575195e-01" cType="1" res="-9.9000000000000000e+01" rms="0.0000000000000000e+00" purity="6.0007262229919434e-01" nType="1"/>
          <Node pos="r" depth="2" NCoef="0" IVar="11" Cut="-1.7691359519958496e+00" cType="1" res="-9.9000000000000000e+01" rms="0.0000000000000000e+00" purity="4.8899576067924500e-01" nType="0">
            <Node pos="l" depth="3" NCoef="0" IVar="-1" Cut="0.0000000000000000e+00" cType="1" res="-9.9000000000000000e+01" rms="0.0000000000000000e+00" purity="5.2603393793106079e-01" nType="1"/>
            <Node pos="r" depth="3" NCoef="0" IVar="-1" Cut="0.0000000000000000e+00" cType="1" res="-9.9000000000000000e+01" rms="0.0000000000000000e+00" purity="3.9444351196289062e-01" nType="-1"/>
          </Node>
        </Node>
        <Node pos="r" depth="1" NCoef="0" IVar="-1" Cut="0.0000000000000000e+00" cType="1" res="-9.9000000000000000e+01" rms="0.0000000000000000e+00" purity="3.4062471985816956e-01" nType="-1"/>
      </Node>
    </BinaryTree>
    <BinaryTree type="DecisionTree" boostWeight="1.5899372405665663e-01" itree="12">
      <Node pos="s" depth="0" NCoef="0" IVar="2" Cut="9.9472776055335999e-02" cType="1" res="-9.9000000000000000e+01" rms="0.0000000000000000e+00" purity="4.8827084898948669e-01" nType="0">
        <Node pos="l" depth="1" NCoef="0" IVar="0" Cut="1.0188710689544678e+00" cType="1" res="-9.9000000000000000e+01" rms="0.0000000000000000e+00" purity="5.5849426984786987e-01" nType="0">
          <Node pos="l" depth="2" NCoef="0" IVar="-1" Cut="0.0000000000000000e+00" cType="1" res="-9.9000000000000000e+01" rms="0.0000000000000000e+00" purity="6.3703930377960205e-01" nType="1"/>
          <Node pos="r" depth="2" NCoef="0" IVar="3" Cut="1.6525459289550781e+00" cType="1" res="-9.9000000000000000e+01" rms="0.0000000000000000e+00" purity="4.9918419122695923e-01" nType="0">
            <Node pos="l" depth="3" NCoef="0" IVar="-1" Cut="0.0000000000000000e+00" cType="1" res="-9.9000000000000000e+01" rms="0.0000000000000000e+00" purity="5.2678060531616211e-01" nType="1"/>
            <Node pos="r" depth="3" NCoef="0" IVar="-1" Cut="0.0000000000000000e+00" cType="1" res="-9.9000000000000000e+01" rms="0.0000000000000000e+00" purity="4.7386276721954346e-01" nType="-1"/>
          </Node>
        </Node>
        <Node pos="r" depth="1" NCoef="0" IVar="5" Cut="4.9231910705566406e+00" cType="1" res="-9.9000000000000000e+01" rms="0.0000000000000000e+00" purity="4.6765175461769104e-01" nType="0">
          <Node pos="l" depth="2" NCoef="0" IVar="3" Cut="1.7778049707412720e+00" cType="1" res="-9.9000000000000000e+01" rms="0.0000000000000000e+00" purity="4.9128526449203491e-01" nType="0">
            <Node pos="l" depth="3" NCoef="0" IVar="-1" Cut="0.0000000000000000e+00" cType="1" res="-9.9000000000000000e+01" rms="0.0000000000000000e+00" purity="5.5602711439132690e-01" nType="1"/>
            <Node pos="r" depth="3" NCoef="0" IVar="-1" Cut="0.0000000000000000e+00" cType="1" res="-9.9000000000000000e+01" rms="0.0000000000000000e+00" purity="4.2768758535385132e-01" nType="-1"/>
          </Node>
          <Node pos="r" depth="2" NCoef="0" IVar="-1" Cut="0.0000000000000000e+00" cType="1" res="-9.9000000000000000e+01" rms="0.0000000000000000e+00" purity="3.1930750608444214e-01" nType="-1"/>
        </Node>
      </Node>
    </BinaryTree>
    <BinaryTree type="DecisionTree" boostWeight="1.3282991472824496e-01" itree="13">
      <Node pos="s" depth="0" NCoef="0" IVar="2" Cut="1.6837489604949951e+00" cType="1" res="-9.9000000000000000e+01" rms="0.0000000000000000e+00" purity="4.8892891407012939e-01" nType="0">
        <Node pos="l" depth="1" NCoef="0" IVar="0" Cut="1.8902189731597900e+00" cType="1" res="-9.9000000000000000e+01" rms="0.0000000000000000e+00" purity="5.0451755523681641e-01" nType="0">
          <Node pos="l" depth="2" NCoef="0" IVar="2" Cut="7.7843761444091797e-01" cType="1" res="-9.9000000000000000e+01" rms="0.0000000000000000e+00" purity="5.3562331199645996e-01" nType="0">
            <Node pos="l" depth="3" NCoef="0" IVar="-1" Cut="0.0000000000000000e+00" cType="1" res="-9.9000000000000000e+01" rms="0.0000000000000000e+00" purity="5.7219433784484863e-01" nType="1"/>
            <Node pos="r" depth="3" NCoef="0" IVar="-1" Cut="0.0000000000000000e+00" cType="1" res="-9.9000000000000000e+01" rms="0.0000000000000000e+00" purity="4.6017152070999146e-01" nType="-1"/>
          </Node>
          <Node pos="r" depth="2" NCoef="0" IVar="3" Cut="8.4364986419677734e-01" cType="1" res="-9.9000000000000000e+01" rms="0.0000000000000000e+00" purity="4.5988965034484863e-01" nType="0">
            <Node pos="l" depth="3" NCoef="0" IVar="-1" Cut="0.0000000000000000e+00" cType="1" res="-9.9000000000000000e+01" rms="0.0000000000000000e+00" purity="5.6010603904724121e-01" nType="1"/>
            <Node pos="r" depth="3" NCoef="0" IVar="-1" Cut="0.0000000000000000e+00" cType="1" res="-9.9000000000000000e+01" rms="0.0000000000000000e+00" purity="4.3902438879013062e-01" nType="-1"/>
          </Node>
        </Node>
        <Node pos="r" depth="1" NCoef="0" IVar="-1" Cut="3.3937451839447021e+00" cType="1" res="-9.9000000000000000e+01" rms="0.0000000000000000e+00" purity="4.1004514694213867e-01" nType="-1"/>
      </Node>
    </BinaryTree>
    <BinaryTree type="DecisionTree" boostWeight="1.1755665762295883e-01" itree="14">
      <Node pos="s" depth="0" NCoef="0" IVar="1" Cut="2.2315533459186554e-01" cType="1" res="-9.9000000000000000e+01" rms="0.0000000000000000e+00" purity="4.9615657329559326e-01" nType="0">
        <Node pos="l" depth="1" NCoef="0" IVar="-1" Cut="0.0000000000000000e+00" cType="1" res="-9.9000000000000000e+01" rms="0.0000000000000000e+00" purity="6.1409538984298706e-01" nType="1"/>
        <Node pos="r" depth="1" NCoef="0" IVar="7" Cut="4.0225601196289062e+00" cType="1" res="-9.9000000000000000e+01" rms="0.0000000000000000e+00" purity="4.8599803447723389e-01" nType="0">
          <Node pos="l" depth="2" NCoef="0" IVar="11" Cut="-1.2074029445648193e+00" cType="1" res="-9.9000000000000000e+01" rms="0.0000000000000000e+00" purity="5.1171177625656128e-01" nType="0">
            <Node pos="l" depth="3" NCoef="0" IVar="-1" Cut="0.0000000000000000e+00" cType="1" res="-9.9000000000000000e+01" rms="0.0000000000000000e+00" purity="5.3491586446762085e-01" nType="1"/>
            <Node pos="r" depth="3" NCoef="0" IVar="-1" Cut="0.0000000000000000e+00" cType="1" res="-9.9000000000000000e+01" rms="0.0000000000000000e+00" purity="3.9255401492118835e-01" nType="-1"/>
          </Node>
          <Node pos="r" depth="2" NCoef="0" IVar="-1" Cut="-4.5159792900085449e+00" cType="0" res="-9.9000000000000000e+01" rms="0.0000000000000000e+00" purity="4.3147000670433044e-01" nType="-1"/>
        </Node>
      </Node>
    </BinaryTree>
    <BinaryTree type="DecisionTree" boostWeight="1.4284917649852369e-01" itree="15">
      <Node pos="s" depth="0" NCoef="0" IVar="1" Cut="1.9042066335678101e+00" cType="1" res="-9.9000000000000000e+01" rms="0.0000000000000000e+00" purity="4.9004203081130981e-01" nType="0">
        <Node pos="l" depth="1" NCoef="0" IVar="5" Cut="4.5824170112609863e+00" cType="1" res="-9.9000000000000000e+01" rms="0.0000000000000000e+00" purity="5.2615493535995483e-01" nType="0">
          <Node pos="l" depth="2" NCoef="0" IVar="-1" Cut="1.0817563533782959e+00" cType="1" res="-9.9000000000000000e+01" rms="0.0000000000000000e+00" purity="5.8769333362579346e-01" nType="1"/>
          <Node pos="r" depth="2" NCoef="0" IVar="-1" Cut="1.7371032238006592e+00" cType="0" res="-9.9000000000000000e+01" rms="0.0000000000000000e+00" purity="3.8874524831771851e-01" nType="-1"/>
        </Node>
        <Node pos="r" depth="1" NCoef="0" IVar="1" Cut="2.8648138046264648e+00" cType="1" res="-9.9000000000000000e+01" rms="0.0000000000000000e+00" purity="4.6225512027740479e-01" nType="0">
          <Node pos="l" depth="2" NCoef="0" IVar="2" Cut="1.5305528640747070e+00" cType="1" res="-9.9000000000000000e+01" rms="0.0000000000000000e+00" purity="4.9098229408264160e-01" nType="0">
            <Node pos="l" depth="3" NCoef="0" IVar="-1" Cut="0.0000000000000000e+00" cType="1" res="-9.9000000000000000e+01" rms="0.0000000000000000e+00" purity="5.1143258810043335e-01" nType="1"/>
            <Node pos="r" depth="3" NCoef="0" IVar="-1" Cut="0.0000000000000000e+00" cType="1" res="-9.9000000000000000e+01" rms="0.0000000000000000e+00" purity="4.1015547513961792e-01" nType="-1"/>
          </Node>
          <Node pos="r" depth="2" NCoef="0" IVar="-1" Cut="0.0000000000000000e+00" cType="1" res="-9.9000000000000000e+01" rms="0.0000000000000000e+00" purity="3.4317725896835327e-01" nType="-1"/>
        </Node>
      </Node>
    </BinaryTree>
    <BinaryTree type="DecisionTree" boostWeight="1.1486081630410638e-01" itree="16">
      <Node pos="s" depth="0" NCoef="0" IVar="1" Cut="1.9042066335678101e+00" cType="1" res="-9.9000000000000000e+01" rms="0.0000000000000000e+00" purity="4.7814762592315674e-01" nType="0">
        <Node pos="l" depth="1" NCoef="0" IVar="5" Cut="4.5824170112609863e+00" cType="1" res="-9.9000000000000000e+01" rms="0.0000000000000000e+00" purity="5.1273119449615479e-01" nType="0">
          <Node pos="l" depth="2" NCoef="0" IVar="-1" Cut="1.0817563533782959e+00" cType="1" res="-9.9000000000000000e+01" rms="0.0000000000000000e+00" purity="5.5270069837570190e-01" nType="1"/>
          <Node pos="r" depth="2" NCoef="0" IVar="-1" Cut="1.7371032238006592e+00" cType="0" res="-9.9000000000000000e+01" rms="0.0000000000000000e+00" purity="4.2317810654640198e-01" nType="-1"/>
        </Node>
        <Node pos="r" depth="1" NCoef="0" IVar="1" Cut="2.8648138046264648e+00" cType="1" res="-9.9000000000000000e+01" rms="0.0000000000000000e+00" purity="4.5170015096664429e-01" nType="0">
          <Node pos="l" depth="2" NCoef="0" IVar="7" Cut="3.7573704719543457e+00" cType="1" res="-9.9000000000000000e+01" rms="0.0000000000000000e+00" purity="4.6961027383804321e-01" nType="0">
            <Node pos="l" depth="3" NCoef="0" IVar="-1" Cut="0.0000000000000000e+00" cType="1" res="-9.9000000000000000e+01" rms="0.0000000000000000e+00" purity="5.0735741853713989e-01" nType="1"/>
            <Node pos="r" depth="3" NCoef="0" IVar="-1" Cut="0.0000000000000000e+00" cType="1" res="-9.9000000000000000e+01" rms="0.0000000000000000e+00" purity="4.2239668965339661e-01" nType="-1"/>
          </Node>
          <Node pos="r" depth="2" NCoef="0" IVar="-1" Cut="0.0000000000000000e+00" cType="1" res="-9.9000000000000000e+01" rms="0.0000000000000000e+00" purity="3.7605708837509155e-01" nType="-1"/>
        </Node>
      </Node>
    </BinaryTree>
    <BinaryTree type="DecisionTree" boostWeight="1.1081685988389095e-01" itree="17">
      <Node pos="s" depth="0" NCoef="0" IVar="3" Cut="2.6679587364196777e+00" cType="1" res="-9.9000000000000000e+01" rms="0.0000000000000000e+00" purity="4.7487175464630127e-01" nType="0">
        <Node pos="l" depth="1" NCoef="0" IVar="7" Cut="4.4008216857910156e+00" cType="1" res="-9.9000000000000000e+01" rms="0.0000000000000000e+00" purity="4.8793697357177734e-01" nType="0">
          <Node pos="l" depth="2" NCoef="0" IVar="9" Cut="-4.9180021286010742e+00" cType="1" res="-9.9000000000000000e+01" rms="0.0000000000000000e+00" purity="5.1594477891921997e-01" nType="0">
            <Node pos="l" depth="3" NCoef="0" IVar="-1" Cut="0.0000000000000000e+00" cType="1" res="-9.9000000000000000e+01" rms="0.0000000000000000e+00" purity="6.6178387403488159e-01" nType="1"/>
            <Node pos="r" depth="3" NCoef="0" IVar="-1" Cut="0.0000000000000000e+00" cType="1" res="-9.9000000000000000e+01" rms="0.0000000000000000e+00" purity="4.9330630898475647e-01" nType="-1"/>
          </Node>
          <Node pos="r" depth="2" NCoef="0" IVar="-1" Cut="0.0000000000000000e+00" cType="1" res="-9.9000000000000000e+01" rms="0.0000000000000000e+00" purity="3.5630515217781067e-01" nType="-1"/>
        </Node>
        <Node pos="r" depth="1" NCoef="0" IVar="-1" Cut="0.0000000000000000e+00" cType="1" res="-9.9000000000000000e+01" rms="0.0000000000000000e+00" purity="4.0711930394172668e-01" nType="-1"/>
      </Node>
    </BinaryTree>
    <BinaryTree type="DecisionTree" boostWeight="1.2540694419688148e-01" itree="18">
      <Node pos="s" depth="0" NCoef="0" IVar="6" Cut="5.6629395484924316e+00" cType="1" res="-9.9000000000000000e+01" rms="0.0000000000000000e+00" purity="4.9739038944244385e-01" nType="0">
        <Node pos="l" depth="1" NCoef="0" IVar="3" Cut="2.6679587364196777e+00" cType="1" res="-9.9000000000000000e+01" rms="0.0000000000000000e+00" purity="5.0522434711456299e-01" nType="0">
          <Node pos="l" depth="2" NCoef="0" IVar="7" Cut="4.4008216857910156e+00" cType="1" res="-9.9000000000000000e+01" rms="0.0000000000000000e+00" purity="5.1925086975097656e-01" nType="0">
            <Node pos="l" depth="3" NCoef="0" IVar="-1" Cut="0.0000000000000000e+00" cType="1" res="-9.9000000000000000e+01" rms="0.0000000000000000e+00" purity="5.4628354310989380e-01" nType="1"/>
            <Node pos="r" depth="3" NCoef="0" IVar="-1" Cut="0.0000000000000000e+00" cType="1" res="-9.9000000000000000e+01" rms="0.0000000000000000e+00" purity="3.8929003477096558e-01" nType="-1"/>
          </Node>
          <Node pos="r" depth="2" NCoef="0" IVar="-1" Cut="0.0000000000000000e+00" cType="1" res="-9.9000000000000000e+01" rms="0.0000000000000000e+00" purity="4.3222087621688843e-01" nType="-1"/>
        </Node>
        <Node pos="r" depth="1" NCoef="0" IVar="-1" Cut="0.0000000000000000e+00" cType="1" res="-9.9000000000000000e+01" rms="0.0000000000000000e+00" purity="3.9359143376350403e-01" nType="-1"/>
      </Node>
    </BinaryTree>
    <BinaryTree type="DecisionTree" boostWeight="1.0594769472594215e-01" itree="19">
      <Node pos="s" depth="0" NCoef="0" IVar="1" Cut="1.9042066335678101e+00" cType="1" res="-9.9000000000000000e+01" rms="0.0000000000000000e+00" purity="4.8817637562751770e-01" nType="0">
        <Node pos="l" depth="1" NCoef="0" IVar="9" Cut="-3.3154242038726807e+00" cType="1" res="-9.9000000000000000e+01" rms="0.0000000000000000e+00" purity="5.2353012561798096e-01" nType="0">
          <Node pos="l" depth="2" NCoef="0" IVar="-1" Cut="8.9085465669631958e-01" cType="1" res="-9.9000000000000000e+01" rms="0.0000000000000000e+00" purity="5.5663132667541504e-01" nType="1"/>
          <Node pos="r" depth="2" NCoef="0" IVar="-1" Cut="0.0000000000000000e+00" cType="1" res="-9.9000000000000000e+01" rms="0.0000000000000000e+00" purity="4.5128092169761658e-01" nType="-1"/>
        </Node>
        <Node pos="r" depth="1" NCoef="0" IVar="2" Cut="3.5810163617134094e-01" cType="1" res="-9.9000000000000000e+01" rms="0.0000000000000000e+00" purity="4.6127784252166748e-01" nType="0">
          <Node pos="l" depth="2" NCoef="0" IVar="0" Cut="1.3102332353591919e+00" cType="1" res="-9.9000000000000000e+01" rms="0.0000000000000000e+00" purity="5.0438618659973145e-01" nType="0">
            <Node pos="l" depth="3" NCoef="0" IVar="-1" Cut="0.0000000000000000e+00" cType="1" res="-9.9000000000000000e+01" rms="0.0000000000000000e+00" purity="5.4401135444641113e-01" nType="1"/>
            <Node pos="r" depth="3" NCoef="0" IVar="-1" Cut="0.0000000000000000e+00" cType="1" res="-9.9000000000000000e+01" rms="0.0000000000000000e+00" purity="4.6671926975250244e-01" nType="-1"/>
          </Node>
          <Node pos="r" depth="2" NCoef="0" IVar="-1" Cut="4.5085215568542480e+00" cType="1" res="-9.9000000000000000e+01" rms="0.0000000000000000e+00" purity="4.4250601530075073e-01" nType="-1"/>
        </Node>
      </Node>
    </BinaryTree>
    <BinaryTree type="DecisionTree" boostWeight="7.9959805747638349e-02" itree="20">
      <Node pos="s" depth="0" NCoef="0" IVar="1" Cut="2.2315533459186554e-01" cType="1" res="-9.9000000000000000e+01" rms="0.0000000000000000e+00" purity="4.9448144435882568e-01" nType="0">
        <Node pos="l" depth="1" NCoef="0" IVar="-1" Cut="0.0000000000000000e+00" cType="1" res="-9.9000000000000000e+01" rms="0.0000000000000000e+00" purity="5.8264464139938354e-01" nType="1"/>
        <Node pos="r" depth="1" NCoef="0" IVar="4" Cut="3.6962850093841553e+00" cType="0" res="-9.9000000000000000e+01" rms="0.0000000000000000e+00" purity="4.8709774017333984e-01" nType="0">
          <Node pos="l" depth="2" NCoef="0" IVar="3" Cut="5.7115471363067627e-01" cType="1" res="-9.9000000000000000e+01" rms="0.0000000000000000e+00" purity="5.0476926565170288e-01" nType="0">
            <Node pos="l" depth="3" NCoef="0" IVar="-1" Cut="0.0000000000000000e+00" cType="1" res="-9.9000000000000000e+01" rms="0.0000000000000000e+00" purity="6.5797805786132812e-01" nType="1"/>
            <Node pos="r" depth="3" NCoef="0" IVar="-1" Cut="0.0000000000000000e+00" cType="1" res="-9.9000000000000000e+01" rms="0.0000000000000000e+00" purity="4.8663789033889771e-01" nType="-1"/>
          </Node>
          <Node pos="r" depth="2" NCoef="0" IVar="-1" Cut="4.8803839683532715e+00" cType="1" res="-9.9000000000000000e+01" rms="0.0000000000000000e+00" purity="4.4581708312034607e-01" nType="-1"/>
        </Node>
      </Node>
    </BinaryTree>
    <BinaryTree type="DecisionTree" boostWeight="8.7750008938402277e-02" itree="21">
      <Node pos="s" depth="0" NCoef="0" IVar="10" Cut="-1.4745061397552490e+00" cType="1" res="-9.9000000000000000e+01" rms="0.0000000000000000e+00" purity="5.0866836309432983e-01" nType="0">
        <Node pos="l" depth="1" NCoef="0" IVar="9" Cut="-3.9670808315277100e+00" cType="1" res="-9.9000000000000000e+01" rms="0.0000000000000000e+00" purity="5.2030473947525024e-01" nType="0">
          <Node pos="l" depth="2" NCoef="0" IVar="-1" Cut="1.5349813699722290e+00" cType="1" res="-9.9000000000000000e+01" rms="0.0000000000000000e+00" purity="5.3956133127212524e-01" nType="1"/>
          <Node pos="r" depth="2" NCoef="0" IVar="7" Cut="3.3480072021484375e+00" cType="0" res="-9.9000000000000000e+01" rms="0.0000000000000000e+00" purity="4.9116525053977966e-01" nType="0">
            <Node pos="l" depth="3" NCoef="0" IVar="-1" Cut="0.0000000000000000e+00" cType="1" res="-9.9000000000000000e+01" rms="0.0000000000000000e+00" purity="5.2195930480957031e-01" nType="1"/>
            <Node pos="r" depth="3" NCoef="0" IVar="-1" Cut="0.0000000000000000e+00" cType="1" res="-9.9000000000000000e+01" rms="0.0000000000000000e+00" purity="4.3273049592971802e-01" nType="-1"/>
          </Node>
        </Node>
        <Node pos="r" depth="1" NCoef="0" IVar="2" Cut="4.2404878139495850e-01" cType="1" res="-9.9000000000000000e+01" rms="0.0000000000000000e+00" purity="4.5700538158416748e-01" nType="0">
          <Node pos="l" depth="2" NCoef="0" IVar="-1" Cut="0.0000000000000000e+00" cType="1" res="-9.9000000000000000e+01" rms="0.0000000000000000e+00" purity="5.2579951286315918e-01" nType="1"/>
          <Node pos="r" depth="2" NCoef="0" IVar="-1" Cut="0.0000000000000000e+00" cType="1" res="-9.9000000000000000e+01" rms="0.0000000000000000e+00" purity="4.0214452147483826e-01" nType="-1"/>
        </Node>
      </Node>
    </BinaryTree>
    <BinaryTree type="DecisionTree" boostWeight="7.1438840330614345e-02" itree="22">
      <Node pos="s" depth="0" NCoef="0" IVar="4" Cut="3.3578009605407715e+00" cType="0" res="-9.9000000000000000e+01" rms="0.0000000000000000e+00" purity="4.9612852931022644e-01" nType="0">
        <Node pos="l" depth="1" NCoef="0" IVar="5" Cut="5.0833334922790527e+00" cType="1" res="-9.9000000000000000e+01" rms="0.0000000000000000e+00" purity="5.0657427310943604e-01" nType="0">
          <Node pos="l" depth="2" NCoef="0" IVar="-1" Cut="5.2590495347976685e-01" cType="1" res="-9.9000000000000000e+01" rms="0.0000000000000000e+00" purity="5.2170521020889282e-01" nType="1"/>
          <Node pos="r" depth="2" NCoef="0" IVar="-1" Cut="0.0000000000000000e+00" cType="1" res="-9.9000000000000000e+01" rms="0.0000000000000000e+00" purity="3.6873966455459595e-01" nType="-1"/>
        </Node>
        <Node pos="r" depth="1" NCoef="0" IVar="-1" Cut="4.8803839683532715e+00" cType="1" res="-9.9000000000000000e+01" rms="0.0000000000000000e+00" purity="4.5082390308380127e-01" nType="-1"/>
      </Node>
    </BinaryTree>
    <BinaryTree type="DecisionTree" boostWeight="9.9329100576435347e-02" itree="23">
      <Node pos="s" depth="0" NCoef="0" IVar="3" Cut="1.2018533945083618e+00" cType="1" res="-9.9000000000000000e+01" rms="0.0000000000000000e+00" purity="4.8780515789985657e-01" nType="0">
        <Node pos="l" depth="1" NCoef="0" IVar="3" Cut="5.7350969314575195e-01" cType="1" res="-9.9000000000000000e+01" rms="0.0000000000000000e+00" purity="5.2271902561187744e-01" nType="0">
          <Node pos="l" depth="2" NCoef="0" IVar="-1" Cut="1.4312124252319336e+00" cType="1" res="-9.9000000000000000e+01" rms="0.0000000000000000e+00" purity="6.1169493198394775e-01" nType="1"/>
          <Node pos="r" depth="2" NCoef="0" IVar="-1" Cut="4.4178676605224609e+00" cType="1" res="-9.9000000000000000e+01" rms="0.0000000000000000e+00" purity="4.5905032753944397e-01" nType="-1"/>
        </Node>
        <Node pos="r" depth="1" NCoef="0" IVar="8" Cut="-3.5842514038085938e+00" cType="0" res="-9.9000000000000000e+01" rms="0.0000000000000000e+00" purity="4.7637817263603210e-01" nType="0">
          <Node pos="l" depth="2" NCoef="0" IVar="-1" Cut="1.8545931577682495e+00" cType="0" res="-9.9000000000000000e+01" rms="0.0000000000000000e+00" purity="5.3444057703018188e-01" nType="1"/>
          <Node pos="r" depth="2" NCoef="0" IVar="0" Cut="7.9989552497863770e-01" cType="1" res="-9.9000000000000000e+01" rms="0.0000000000000000e+00" purity="4.5755353569984436e-01" nType="0">
            <Node pos="l" depth="3" NCoef="0" IVar="-1" Cut="0.0000000000000000e+00" cType="1" res="-9.9000000000000000e+01" rms="0.0000000000000000e+00" purity="5.0716435909271240e-01" nType="1"/>
            <Node pos="r" depth="3" NCoef="0" IVar="-1" Cut="0.0000000000000000e+00" cType="1" res="-9.9000000000000000e+01" rms="0.0000000000000000e+00" purity="4.4520297646522522e-01" nType="-1"/>
          </Node>
        </Node>
      </Node>
    </BinaryTree>
    <BinaryTree type="DecisionTree" boostWeight="8.3738327240327259e-02" itree="24">
      <Node pos="s" depth="0" NCoef="0" IVar="3" Cut="1.2018533945083618e+00" cType="1" res="-9.9000000000000000e+01" rms="0.0000000000000000e+00" purity="4.9269583821296692e-01" nType="0">
        <Node pos="l" depth="1" NCoef="0" IVar="3" Cut="5.7350969314575195e-01" cType="1" res="-9.9000000000000000e+01" rms="0.0000000000000000e+00" purity="5.2702158689498901e-01" nType="0">
          <Node pos="l" depth="2" NCoef="0" IVar="-1" Cut="1.4312124252319336e+00" cType="1" res="-9.9000000000000000e+01" rms="0.0000000000000000e+00" purity="5.8785694837570190e-01" nType="1"/>
          <Node pos="r" depth="2" NCoef="0" IVar="5" Cut="4.4178676605224609e+00" cType="1" res="-9.9000000000000000e+01" rms="0.0000000000000000e+00" purity="4.8379635810852051e-01" nType="0">
            <Node pos="l" depth="3" NCoef="0" IVar="-1" Cut="0.0000000000000000e+00" cType="1" res="-9.9000000000000000e+01" rms="0.0000000000000000e+00" purity="5.2202224731445312e-01" nType="1"/>
            <Node pos="r" depth="3" NCoef="0" IVar="-1" Cut="0.0000000000000000e+00" cType="1" res="-9.9000000000000000e+01" rms="0.0000000000000000e+00" purity="4.1604354977607727e-01" nType="-1"/>
          </Node>
        </Node>
        <Node pos="r" depth="1" NCoef="0" IVar="11" Cut="-2.9153032302856445e+00" cType="1" res="-9.9000000000000000e+01" rms="0.0000000000000000e+00" purity="4.8149251937866211e-01" nType="0">
          <Node pos="l" depth="2" NCoef="0" IVar="3" Cut="2.0396542549133301e+00" cType="0" res="-9.9000000000000000e+01" rms="0.0000000000000000e+00" purity="5.3769540786743164e-01" nType="0">
            <Node pos="l" depth="3" NCoef="0" IVar="-1" Cut="0.0000000000000000e+00" cType="1" res="-9.9000000000000000e+01" rms="0.0000000000000000e+00" purity="5.9236973524093628e-01" nType="1"/>
            <Node pos="r" depth="3" NCoef="0" IVar="-1" Cut="0.0000000000000000e+00" cType="1" res="-9.9000000000000000e+01" rms="0.0000000000000000e+00" purity="4.9452927708625793e-01" nType="-1"/>
          </Node>
          <Node pos="r" depth="2" NCoef="0" IVar="-1" Cut="-1.6383975744247437e+00" cType="1" res="-9.9000000000000000e+01" rms="0.0000000000000000e+00" purity="4.6720299124717712e-01" nType="-1"/>
        </Node>
      </Node>
    </BinaryTree>
    <BinaryTree type="DecisionTree" boostWeight="5.4016114233343557e-02" itree="25">
      <Node pos="s" depth="0" NCoef="0" IVar="10" Cut="-1.4745061397552490e+00" cType="1" res="-9.9000000000000000e+01" rms="0.0000000000000000e+00" purity="5.0268065929412842e-01" nType="0">
        <Node pos="l" depth="1" NCoef="0" IVar="9" Cut="-3.9670808315277100e+00" cType="1" res="-9.9000000000000000e+01" rms="0.0000000000000000e+00" purity="5.1145023107528687e-01" nType="0">
          <Node pos="l" depth="2" NCoef="0" IVar="-1" Cut="1.5349813699722290e+00" cType="1" res="-9.9000000000000000e+01" rms="0.0000000000000000e+00" purity="5.2637988328933716e-01" nType="1"/>
          <Node pos="r" depth="2" NCoef="0" IVar="1" Cut="1.6663272380828857e+00" cType="0" res="-9.9000000000000000e+01" rms="0.0000000000000000e+00" purity="4.8885294795036316e-01" nType="0">
            <Node pos="l" depth="3" NCoef="0" IVar="-1" Cut="0.0000000000000000e+00" cType="1" res="-9.9000000000000000e+01" rms="0.0000000000000000e+00" purity="5.0718188285827637e-01" nType="1"/>
            <Node pos="r" depth="3" NCoef="0" IVar="-1" Cut="0.0000000000000000e+00" cType="1" res="-9.9000000000000000e+01" rms="0.0000000000000000e+00" purity="4.5730823278427124e-01" nType="-1"/>
          </Node>
        </Node>
        <Node pos="r" depth="1" NCoef="0" IVar="2" Cut="4.2404878139495850e-01" cType="1" res="-9.9000000000000000e+01" rms="0.0000000000000000e+00" purity="4.6341630816459656e-01" nType="0">
          <Node pos="l" depth="2" NCoef="0" IVar="-1" Cut="0.0000000000000000e+00" cType="1" res="-9.9000000000000000e+01" rms="0.0000000000000000e+00" purity="5.0455319881439209e-01" nType="1"/>
          <Node pos="r" depth="2" NCoef="0" IVar="-1" Cut="0.0000000000000000e+00" cType="1" res="-9.9000000000000000e+01" rms="0.0000000000000000e+00" purity="4.3055367469787598e-01" nType="-1"/>
        </Node>
      </Node>
    </BinaryTree>
    <BinaryTree type="DecisionTree" boostWeight="4.7216378002003019e-02" itree="26">
      <Node pos="s" depth="0" NCoef="0" IVar="1" Cut="2.2315533459186554e-01" cType="1" res="-9.9000000000000000e+01" rms="0.0000000000000000e+00" purity="4.9514034390449524e-01" nType="0">
        <Node pos="l" depth="1" NCoef="0" IVar="-1" Cut="0.0000000000000000e+00" cType="1" res="-9.9000000000000000e+01" rms="0.0000000000000000e+00" purity="5.5644685029983521e-01" nType="1"/>
        <Node pos="r" depth="1" NCoef="0" IVar="8" Cut="-4.5799608230590820e+00" cType="0" res="-9.9000000000000000e+01" rms="0.0000000000000000e+00" purity="4.9007648229598999e-01" nType="0">
          <Node pos="l" depth="2" NCoef="0" IVar="7" Cut="2.8101947307586670e+00" cType="1" res="-9.9000000000000000e+01" rms="0.0000000000000000e+00" purity="5.0188475847244263e-01" nType="0">
            <Node pos="l" depth="3" NCoef="0" IVar="-1" Cut="0.0000000000000000e+00" cType="1" res="-9.9000000000000000e+01" rms="0.0000000000000000e+00" purity="5.4400539398193359e-01" nType="1"/>
            <Node pos="r" depth="3" NCoef="0" IVar="-1" Cut="0.0000000000000000e+00" cType="1" res="-9.9000000000000000e+01" rms="0.0000000000000000e+00" purity="4.9375939369201660e-01" nType="-1"/>
          </Node>
          <Node pos="r" depth="2" NCoef="0" IVar="-1" Cut="1.4489542245864868e+00" cType="1" res="-9.9000000000000000e+01" rms="0.0000000000000000e+00" purity="4.5063412189483643e-01" nType="-1"/>
        </Node>
      </Node>
    </BinaryTree>
    <BinaryTree type="DecisionTree" boostWeight="7.4791248320078177e-02" itree="27">
      <Node pos="s" depth="0" NCoef="0" IVar="4" Cut="4.5756406784057617e+00" cType="0" res="-9.9000000000000000e+01" rms="0.0000000000000000e+00" purity="5.0243061780929565e-01" nType="0">
        <Node pos="l" depth="1" NCoef="0" IVar="10" Cut="-2.5455038547515869e+00" cType="1" res="-9.9000000000000000e+01" rms="0.0000000000000000e+00" purity="5.2321118116378784e-01" nType="0">
          <Node pos="l" depth="2" NCoef="0" IVar="-1" Cut="1.9671825170516968e+00" cType="1" res="-9.9000000000000000e+01" rms="0.0000000000000000e+00" purity="5.4719710350036621e-01" nType="1"/>
          <Node pos="r" depth="2" NCoef="0" IVar="11" Cut="-2.6355459690093994e+00" cType="1" res="-9.9000000000000000e+01" rms="0.0000000000000000e+00" purity="5.0514763593673706e-01" nType="0">
            <Node pos="l" depth="3" NCoef="0" IVar="-1" Cut="0.0000000000000000e+00" cType="1" res="-9.9000000000000000e+01" rms="0.0000000000000000e+00" purity="5.6772851943969727e-01" nType="1"/>
            <Node pos="r" depth="3" NCoef="0" IVar="-1" Cut="0.0000000000000000e+00" cType="1" res="-9.9000000000000000e+01" rms="0.0000000000000000e+00" purity="4.7232702374458313e-01" nType="-1"/>
          </Node>
        </Node>
        <Node pos="r" depth="1" NCoef="0" IVar="6" Cut="4.8803839683532715e+00" cType="1" res="-9.9000000000000000e+01" rms="0.0000000000000000e+00" purity="4.9048760533332825e-01" nType="0">
          <Node pos="l" depth="2" NCoef="0" IVar="11" Cut="-1.6316074132919312e+00" cType="1" res="-9.9000000000000000e+01" rms="0.0000000000000000e+00" purity="5.0443828105926514e-01" nType="0">
            <Node pos="l" depth="3" NCoef="0" IVar="-1" Cut="0.0000000000000000e+00" cType="1" res="-9.9000000000000000e+01" rms="0.0000000000000000e+00" purity="5.2071040868759155e-01" nType="1"/>
            <Node pos="r" depth="3" NCoef="0" IVar="-1" Cut="0.0000000000000000e+00" cType="1" res="-9.9000000000000000e+01" rms="0.0000000000000000e+00" purity="4.6586447954177856e-01" nType="-1"/>
          </Node>
          <Node pos="r" depth="2" NCoef="0" IVar="-1" Cut="0.0000000000000000e+00" cType="1" res="-9.9000000000000000e+01" rms="0.0000000000000000e+00" purity="4.2487692832946777e-01" nType="-1"/>
        </Node>
      </Node>
    </BinaryTree>
    <BinaryTree type="DecisionTree" boostWeight="6.7806297897506779e-02" itree="28">
      <Node pos="s" depth="0" NCoef="0" IVar="3" Cut="2.6679587364196777e+00" cType="1" res="-9.9000000000000000e+01" rms="0.0000000000000000e+00" purity="4.9881222844123840e-01" nType="0">
        <Node pos="l" depth="1" NCoef="0" IVar="7" Cut="4.4008216857910156e+00" cType="1" res="-9.9000000000000000e+01" rms="0.0000000000000000e+00" purity="5.0548970699310303e-01" nType="0">
          <Node pos="l" depth="2" NCoef="0" IVar="-1" Cut="4.0328998565673828e+00" cType="0" res="-9.9000000000000000e+01" rms="0.0000000000000000e+00" purity="5.2348721027374268e-01" nType="1"/>
          <Node pos="r" depth="2" NCoef="0" IVar="-1" Cut="0.0000000000000000e+00" cType="1" res="-9.9000000000000000e+01" rms="0.0000000000000000e+00" purity="4.1846558451652527e-01" nType="-1"/>
        </Node>
        <Node pos="r" depth="1" NCoef="0" IVar="-1" Cut="0.0000000000000000e+00" cType="1" res="-9.9000000000000000e+01" rms="0.0000000000000000e+00" purity="4.6397531032562256e-01" nType="-1"/>
      </Node>
    </BinaryTree>
    <BinaryTree type="DecisionTree" boostWeight="5.3064749335837345e-02" itree="29">
      <Node pos="s" depth="0" NCoef="0" IVar="1" Cut="2.2315533459186554e-01" cType="1" res="-9.9000000000000000e+01" rms="0.0000000000000000e+00" purity="4.9217391014099121e-01" nType="0">
        <Node pos="l" depth="1" NCoef="0" IVar="-1" Cut="0.0000000000000000e+00" cType="1" res="-9.9000000000000000e+01" rms="0.0000000000000000e+00" purity="5.5102050304412842e-01" nType="1"/>
        <Node pos="r" depth="1" NCoef="0" IVar="1" Cut="1.3438903093338013e+00" cType="1" res="-9.9000000000000000e+01" rms="0.0000000000000000e+00" purity="4.8730027675628662e-01" nType="0">
          <Node pos="l" depth="2" NCoef="0" IVar="9" Cut="-4.0496711730957031e+00" cType="1" res="-9.9000000000000000e+01" rms="0.0000000000000000e+00" purity="5.2598851919174194e-01" nType="0">
            <Node pos="l" depth="3" NCoef="0" IVar="-1" Cut="0.0000000000000000e+00" cType="1" res="-9.9000000000000000e+01" rms="0.0000000000000000e+00" purity="5.7419508695602417e-01" nType="1"/>
            <Node pos="r" depth="3" NCoef="0" IVar="-1" Cut="0.0000000000000000e+00" cType="1" res="-9.9000000000000000e+01" rms="0.0000000000000000e+00" purity="4.8645353317260742e-01" nType="-1"/>
          </Node>
          <Node pos="r" depth="2" NCoef="0" IVar="-1" Cut="1.9940074682235718e+00" cType="1" res="-9.9000000000000000e+01" rms="0.0000000000000000e+00" purity="4.7902834415435791e-01" nType="-1"/>
        </Node>
      </Node>
    </BinaryTree>
    <BinaryTree type="DecisionTree" boostWeight="6.3991550317780505e-02" itree="30">
      <Node pos="s" depth="0" NCoef="0" IVar="4" Cut="4.5756406784057617e+00" cType="0" res="-9.9000000000000000e+01" rms="0.0000000000000000e+00" purity="5.0146585702896118e-01" nType="0">
        <Node pos="l" depth="1" NCoef="0" IVar="2" Cut="7.6701802015304565e-01" cType="1" res="-9.9000000000000000e+01" rms="0.0000000000000000e+00" purity="5.2133095264434814e-01" nType="0">
          <Node pos="l" depth="2" NCoef="0" IVar="6" Cut="4.5066766738891602e+00" cType="0" res="-9.9000000000000000e+01" rms="0.0000000000000000e+00" purity="5.4305779933929443e-01" nType="0">
            <Node pos="l" depth="3" NCoef="0" IVar="-1" Cut="0.0000000000000000e+00" cType="1" res="-9.9000000000000000e+01" rms="0.0000000000000000e+00" purity="5.7531571388244629e-01" nType="1"/>
            <Node pos="r" depth="3" NCoef="0" IVar="-1" Cut="0.0000000000000000e+00" cType="1" res="-9.9000000000000000e+01" rms="0.0000000000000000e+00" purity="4.8694464564323425e-01" nType="-1"/>
          </Node>
          <Node pos="r" depth="2" NCoef="0" IVar="9" Cut="-4.1085686683654785e+00" cType="1" res="-9.9000000000000000e+01" rms="0.0000000000000000e+00" purity="5.0401407480239868e-01" nType="0">
            <Node pos="l" depth="3" NCoef="0" IVar="-1" Cut="0.0000000000000000e+00" cType="1" res="-9.9000000000000000e+01" rms="0.0000000000000000e+00" purity="5.1996278762817383e-01" nType="1"/>
            <Node pos="r" depth="3" NCoef="0" IVar="-1" Cut="0.0000000000000000e+00" cType="1" res="-9.9000000000000000e+01" rms="0.0000000000000000e+00" purity="4.8469230532646179e-01" nType="-1"/>
          </Node>
        </Node>
        <Node pos="r" depth="1" NCoef="0" IVar="6" Cut="4.0978283882141113e+00" cType="1" res="-9.9000000000000000e+01" rms="0.0000000000000000e+00" purity="4.9005115032196045e-01" nType="0">
          <Node pos="l" depth="2" NCoef="0" IVar="3" Cut="1.4361965656280518e+00" cType="1" res="-9.9000000000000000e+01" rms="0.0000000000000000e+00" purity="5.0786620378494263e-01" nType="0">
            <Node pos="l" depth="3" NCoef="0" IVar="-1" Cut="0.0000000000000000e+00" cType="1" res="-9.9000000000000000e+01" rms="0.0000000000000000e+00" purity="5.4188919067382812e-01" nType="1"/>
            <Node pos="r" depth="3" NCoef="0" IVar="-1" Cut="0.0000000000000000e+00" cType="1" res="-9.9000000000000000e+01" rms="0.0000000000000000e+00" purity="4.9120235443115234e-01" nType="-1"/>
          </Node>
          <Node pos="r" depth="2" NCoef="0" IVar="2" Cut="7.0976549386978149e-01" cType="1" res="-9.9000000000000000e+01" rms="0.0000000000000000e+00" purity="4.6037793159484863e-01" nType="0">
            <Node pos="l" depth="3" NCoef="0" IVar="-1" Cut="0.0000000000000000e+00" cType="1" res="-9.9000000000000000e+01" rms="0.0000000000000000e+00" purity="5.1346439123153687e-01" nType="1"/>
            <Node pos="r" depth="3" NCoef="0" IVar="-1" Cut="0.0000000000000000e+00" cType="1" res="-9.9000000000000000e+01" rms="0.0000000000000000e+00" purity="4.2499458789825439e-01" nType="-1"/>
          </Node>
        </Node>
      </Node>
    </BinaryTree>
    <BinaryTree type="DecisionTree" boostWeight="5.9361670708230320e-02" itree="31">
      <Node pos="s" depth="0" NCoef="0" IVar="6" Cut="3.3152730464935303e+00" cType="1" res="-9.9000000000000000e+01" rms="0.0000000000000000e+00" purity="5.0339943170547485e-01" nType="0">
        <Node pos="l" depth="1" NCoef="0" IVar="-1" Cut="1.0094187259674072e+00" cType="0" res="-9.9000000000000000e+01" rms="0.0000000000000000e+00" purity="5.3001904487609863e-01" nType="1"/>
        <Node pos="r" depth="1" NCoef="0" IVar="3" Cut="9.8052406311035156e-01" cType="1" res="-9.9000000000000000e+01" rms="0.0000000000000000e+00" purity="4.9622619152069092e-01" nType="0">
          <Node pos="l" depth="2" NCoef="0" IVar="7" Cut="3.9861865043640137e+00" cType="0" res="-9.9000000000000000e+01" rms="0.0000000000000000e+00" purity="5.4829579591751099e-01" nType="0">
            <Node pos="l" depth="3" NCoef="0" IVar="-1" Cut="0.0000000000000000e+00" cType="1" res="-9.9000000000000000e+01" rms="0.0000000000000000e+00" purity="6.0069733858108521e-01" nType="1"/>
            <Node pos="r" depth="3" NCoef="0" IVar="-1" Cut="0.0000000000000000e+00" cType="1" res="-9.9000000000000000e+01" rms="0.0000000000000000e+00" purity="4.9305933713912964e-01" nType="-1"/>
          </Node>
          <Node pos="r" depth="2" NCoef="0" IVar="7" Cut="3.1320531368255615e+00" cType="1" res="-9.9000000000000000e+01" rms="0.0000000000000000e+00" purity="4.8488739132881165e-01" nType="0">
            <Node pos="l" depth="3" NCoef="0" IVar="-1" Cut="0.0000000000000000e+00" cType="1" res="-9.9000000000000000e+01" rms="0.0000000000000000e+00" purity="5.1590740680694580e-01" nType="1"/>
            <Node pos="r" depth="3" NCoef="0" IVar="-1" Cut="0.0000000000000000e+00" cType="1" res="-9.9000000000000000e+01" rms="0.0000000000000000e+00" purity="4.7288033366203308e-01" nType="-1"/>
          </Node>
        </Node>
      </Node>
    </BinaryTree>
    <BinaryTree type="DecisionTree" boostWeight="5.0721771067737738e-02" itree="32">
      <Node pos="s" depth="0" NCoef="0" IVar="4" Cut="4.5756406784057617e+00" cType="0" res="-9.9000000000000000e+01" rms="0.0000000000000000e+00" purity="5.0444364547729492e-01" nType="0">
        <Node pos="l" depth="1" NCoef="0" IVar="2" Cut="7.6701802015304565e-01" cType="1" res="-9.9000000000000000e+01" rms="0.0000000000000000e+00" purity="5.2096515893936157e-01" nType="0">
          <Node pos="l" depth="2" NCoef="0" IVar="-1" Cut="4.5066766738891602e+00" cType="0" res="-9.9000000000000000e+01" rms="0.0000000000000000e+00" purity="5.4306578636169434e-01" nType="1"/>
          <Node pos="r" depth="2" NCoef="0" IVar="1" Cut="1.9042066335678101e+00" cType="1" res="-9.9000000000000000e+01" rms="0.0000000000000000e+00" purity="5.0336402654647827e-01" nType="0">
            <Node pos="l" depth="3" NCoef="0" IVar="-1" Cut="0.0000000000000000e+00" cType="1" res="-9.9000000000000000e+01" rms="0.0000000000000000e+00" purity="5.2325975894927979e-01" nType="1"/>
            <Node pos="r" depth="3" NCoef="0" IVar="-1" Cut="0.0000000000000000e+00" cType="1" res="-9.9000000000000000e+01" rms="0.0000000000000000e+00" purity="4.8859435319900513e-01" nType="-1"/>
          </Node>
        </Node>
        <Node pos="r" depth="1" NCoef="0" IVar="8" Cut="-4.9562997817993164e+00" cType="0" res="-9.9000000000000000e+01" rms="0.0000000000000000e+00" purity="4.9494943022727966e-01" nType="0">
          <Node pos="l" depth="2" NCoef="0" IVar="6" Cut="4.2934303283691406e+00" cType="1" res="-9.9000000000000000e+01" rms="0.0000000000000000e+00" purity="5.0316506624221802e-01" nType="0">
            <Node pos="l" depth="3" NCoef="0" IVar="-1" Cut="0.0000000000000000e+00" cType="1" res="-9.9000000000000000e+01" rms="0.0000000000000000e+00" purity="5.1465934514999390e-01" nType="1"/>
            <Node pos="r" depth="3" NCoef="0" IVar="-1" Cut="0.0000000000000000e+00" cType="1" res="-9.9000000000000000e+01" rms="0.0000000000000000e+00" purity="4.7249969840049744e-01" nType="-1"/>
          </Node>
          <Node pos="r" depth="2" NCoef="0" IVar="-1" Cut="0.0000000000000000e+00" cType="1" res="-9.9000000000000000e+01" rms="0.0000000000000000e+00" purity="4.3854480981826782e-01" nType="-1"/>
        </Node>
      </Node>
    </BinaryTree>
    <BinaryTree type="DecisionTree" boostWeight="5.9077112919511537e-02" itree="33">
      <Node pos="s" depth="0" NCoef="0" IVar="4" Cut="4.5756406784057617e+00" cType="0" res="-9.9000000000000000e+01" rms="0.0000000000000000e+00" purity="5.0060212612152100e-01" nType="0">
        <Node pos="l" depth="1" NCoef="0" IVar="8" Cut="-4.6514167785644531e+00" cType="0" res="-9.9000000000000000e+01" rms="0.0000000000000000e+00" purity="5.1641178131103516e-01" nType="0">
          <Node pos="l" depth="2" NCoef="0" IVar="11" Cut="-1.4969800710678101e+00" cType="1" res="-9.9000000000000000e+01" rms="0.0000000000000000e+00" purity="5.2594250440597534e-01" nType="0">
            <Node pos="l" depth="3" NCoef="0" IVar="-1" Cut="0.0000000000000000e+00" cType="1" res="-9.9000000000000000e+01" rms="0.0000000000000000e+00" purity="5.4947239160537720e-01" nType="1"/>
            <Node pos="r" depth="3" NCoef="0" IVar="-1" Cut="0.0000000000000000e+00" cType="1" res="-9.9000000000000000e+01" rms="0.0000000000000000e+00" purity="4.6424949169158936e-01" nType="-1"/>
          </Node>
          <Node pos="r" depth="2" NCoef="0" IVar="-1" Cut="0.0000000000000000e+00" cType="1" res="-9.9000000000000000e+01" rms="0.0000000000000000e+00" purity="4.8076075315475464e-01" nType="-1"/>
        </Node>
        <Node pos="r" depth="1" NCoef="0" IVar="1" Cut="1.6328916549682617e+00" cType="1" res="-9.9000000000000000e+01" rms="0.0000000000000000e+00" purity="4.9151912331581116e-01" nType="0">
          <Node pos="l" depth="2" NCoef="0" IVar="11" Cut="-2.1638233661651611e+00" cType="0" res="-9.9000000000000000e+01" rms="0.0000000000000000e+00" purity="5.1515913009643555e-01" nType="0">
            <Node pos="l" depth="3" NCoef="0" IVar="-1" Cut="0.0000000000000000e+00" cType="1" res="-9.9000000000000000e+01" rms="0.0000000000000000e+00" purity="5.4264992475509644e-01" nType="1"/>
            <Node pos="r" depth="3" NCoef="0" IVar="-1" Cut="0.0000000000000000e+00" cType="1" res="-9.9000000000000000e+01" rms="0.0000000000000000e+00" purity="4.8133933544158936e-01" nType="-1"/>
          </Node>
          <Node pos="r" depth="2" NCoef="0" IVar="-1" Cut="-1.6316074132919312e+00" cType="1" res="-9.9000000000000000e+01" rms="0.0000000000000000e+00" purity="4.8052880167961121e-01" nType="-1"/>
        </Node>
      </Node>
    </BinaryTree>
    <BinaryTree type="DecisionTree" boostWeight="8.4080865558722101e-02" itree="34">
      <Node pos="s" depth="0" NCoef="0" IVar="9" Cut="-5.4671735763549805e+00" cType="1" res="-9.9000000000000000e+01" rms="0.0000000000000000e+00" purity="5.0593948364257812e-01" nType="0">
        <Node pos="l" depth="1" NCoef="0" IVar="-1" Cut="0.0000000000000000e+00" cType="1" res="-9.9000000000000000e+01" rms="0.0000000000000000e+00" purity="5.4486012458801270e-01" nType="1"/>
        <Node pos="r" depth="1" NCoef="0" IVar="3" Cut="2.5077214837074280e-01" cType="1" res="-9.9000000000000000e+01" rms="0.0000000000000000e+00" purity="5.0255036354064941e-01" nType="0">
          <Node pos="l" depth="2" NCoef="0" IVar="-1" Cut="0.0000000000000000e+00" cType="1" res="-9.9000000000000000e+01" rms="0.0000000000000000e+00" purity="6.5854358673095703e-01" nType="1"/>
          <Node pos="r" depth="2" NCoef="0" IVar="11" Cut="-1.5790431499481201e+00" cType="1" res="-9.9000000000000000e+01" rms="0.0000000000000000e+00" purity="4.9310332536697388e-01" nType="0">
            <Node pos="l" depth="3" NCoef="0" IVar="-1" Cut="0.0000000000000000e+00" cType="1" res="-9.9000000000000000e+01" rms="0.0000000000000000e+00" purity="5.1777517795562744e-01" nType="1"/>
            <Node pos="r" depth="3" NCoef="0" IVar="-1" Cut="0.0000000000000000e+00" cType="1" res="-9.9000000000000000e+01" rms="0.0000000000000000e+00" purity="4.0584984421730042e-01" nType="-1"/>
          </Node>
        </Node>
      </Node>
    </BinaryTree>
    <BinaryTree type="DecisionTree" boostWeight="7.6745695508141809e-02" itree="35">
      <Node pos="s" depth="0" NCoef="0" IVar="11" Cut="-2.2833530902862549e+00" cType="0" res="-9.9000000000000000e+01" rms="0.0000000000000000e+00" purity="4.9293997883796692e-01" nType="0">
        <Node pos="l" depth="1" NCoef="0" IVar="5" Cut="4.4039707183837891e+00" cType="1" res="-9.9000000000000000e+01" rms="0.0000000000000000e+00" purity="5.0830554962158203e-01" nType="0">
          <Node pos="l" depth="2" NCoef="0" IVar="-1" Cut="2.9886500835418701e+00" cType="1" res="-9.9000000000000000e+01" rms="0.0000000000000000e+00" purity="5.3444653749465942e-01" nType="1"/>
          <Node pos="r" depth="2" NCoef="0" IVar="-1" Cut="3.6516270637512207e+00" cType="0" res="-9.9000000000000000e+01" rms="0.0000000000000000e+00" purity="4.5703467726707458e-01" nType="-1"/>
        </Node>
        <Node pos="r" depth="1" NCoef="0" IVar="3" Cut="2.3651905059814453e+00" cType="0" res="-9.9000000000000000e+01" rms="0.0000000000000000e+00" purity="4.7534397244453430e-01" nType="0">
          <Node pos="l" depth="2" NCoef="0" IVar="-1" Cut="0.0000000000000000e+00" cType="1" res="-9.9000000000000000e+01" rms="0.0000000000000000e+00" purity="5.2758425474166870e-01" nType="1"/>
          <Node pos="r" depth="2" NCoef="0" IVar="-1" Cut="-2.5788655281066895e+00" cType="1" res="-9.9000000000000000e+01" rms="0.0000000000000000e+00" purity="4.5626649260520935e-01" nType="-1"/>
        </Node>
      </Node>
    </BinaryTree>
    <BinaryTree type="DecisionTree" boostWeight="6.2562909836005279e-02" itree="36">
      <Node pos="s" depth="0" NCoef="0" IVar="3" Cut="2.6679587364196777e+00" cType="1" res="-9.9000000000000000e+01" rms="0.0000000000000000e+00" purity="4.9375528097152710e-01" nType="0">
        <Node pos="l" depth="1" NCoef="0" IVar="11" Cut="-8.7967884540557861e-01" cType="1" res="-9.9000000000000000e+01" rms="0.0000000000000000e+00" purity="5.0079488754272461e-01" nType="0">
          <Node pos="l" depth="2" NCoef="0" IVar="-1" Cut="9.4712388515472412e-01" cType="1" res="-9.9000000000000000e+01" rms="0.0000000000000000e+00" purity="5.1763468980789185e-01" nType="1"/>
          <Node pos="r" depth="2" NCoef="0" IVar="-1" Cut="0.0000000000000000e+00" cType="1" res="-9.9000000000000000e+01" rms="0.0000000000000000e+00" purity="4.0856733918190002e-01" nType="-1"/>
        </Node>
        <Node pos="r" depth="1" NCoef="0" IVar="-1" Cut="0.0000000000000000e+00" cType="1" res="-9.9000000000000000e+01" rms="0.0000000000000000e+00" purity="4.5730841159820557e-01" nType="-1"/>
      </Node>
    </BinaryTree>
    <BinaryTree type="DecisionTree" boostWeight="9.2666799142808801e-02" itree="37">
      <Node pos="s" depth="0" NCoef="0" IVar="11" Cut="-2.2833530902862549e+00" cType="0" res="-9.9000000000000000e+01" rms="0.0000000000000000e+00" purity="4.8720347881317139e-01" nType="0">
        <Node pos="l" depth="1" NCoef="0" IVar="3" Cut="2.3406763076782227e+00" cType="1" res="-9.9000000000000000e+01" rms="0.0000000000000000e+00" purity="4.9922162294387817e-01" nType="0">
          <Node pos="l" depth="2" NCoef="0" IVar="1" Cut="2.6783220767974854e+00" cType="1" res="-9.9000000000000000e+01" rms="0.0000000000000000e+00" purity="5.1689535379409790e-01" nType="0">
            <Node pos="l" depth="3" NCoef="0" IVar="-1" Cut="0.0000000000000000e+00" cType="1" res="-9.9000000000000000e+01" rms="0.0000000000000000e+00" purity="5.4567921161651611e-01" nType="1"/>
            <Node pos="r" depth="3" NCoef="0" IVar="-1" Cut="0.0000000000000000e+00" cType="1" res="-9.9000000000000000e+01" rms="0.0000000000000000e+00" purity="4.4731152057647705e-01" nType="-1"/>
          </Node>
          <Node pos="r" depth="2" NCoef="0" IVar="-1" Cut="0.0000000000000000e+00" cType="1" res="-9.9000000000000000e+01" rms="0.0000000000000000e+00" purity="4.4856518507003784e-01" nType="-1"/>
        </Node>
        <Node pos="r" depth="1" NCoef="0" IVar="10" Cut="-2.4096310138702393e+00" cType="0" res="-9.9000000000000000e+01" rms="0.0000000000000000e+00" purity="4.7350031137466431e-01" nType="0">
          <Node pos="l" depth="2" NCoef="0" IVar="0" Cut="7.8495150804519653e-01" cType="1" res="-9.9000000000000000e+01" rms="0.0000000000000000e+00" purity="5.0264650583267212e-01" nType="0">
            <Node pos="l" depth="3" NCoef="0" IVar="-1" Cut="0.0000000000000000e+00" cType="1" res="-9.9000000000000000e+01" rms="0.0000000000000000e+00" purity="5.7352954149246216e-01" nType="1"/>
            <Node pos="r" depth="3" NCoef="0" IVar="-1" Cut="0.0000000000000000e+00" cType="1" res="-9.9000000000000000e+01" rms="0.0000000000000000e+00" purity="4.8167002201080322e-01" nType="-1"/>
          </Node>
          <Node pos="r" depth="2" NCoef="0" IVar="-1" Cut="3.6006031036376953e+00" cType="0" res="-9.9000000000000000e+01" rms="0.0000000000000000e+00" purity="4.4409298896789551e-01" nType="-1"/>
        </Node>
      </Node>
    </BinaryTree>
    <BinaryTree type="DecisionTree" boostWeight="3.5746589008027692e-02" itree="38">
      <Node pos="s" depth="0" NCoef="0" IVar="1" Cut="2.2315533459186554e-01" cType="1" res="-9.9000000000000000e+01" rms="0.0000000000000000e+00" purity="4.9491509795188904e-01" nType="0">
        <Node pos="l" depth="1" NCoef="0" IVar="-1" Cut="0.0000000000000000e+00" cType="1" res="-9.9000000000000000e+01" rms="0.0000000000000000e+00" purity="5.3371262550354004e-01" nType="1"/>
        <Node pos="r" depth="1" NCoef="0" IVar="8" Cut="-4.5799608230590820e+00" cType="0" res="-9.9000000000000000e+01" rms="0.0000000000000000e+00" purity="4.9170529842376709e-01" nType="0">
          <Node pos="l" depth="2" NCoef="0" IVar="0" Cut="9.4836992025375366e-01" cType="0" res="-9.9000000000000000e+01" rms="0.0000000000000000e+00" purity="4.9914771318435669e-01" nType="0">
            <Node pos="l" depth="3" NCoef="0" IVar="-1" Cut="0.0000000000000000e+00" cType="1" res="-9.9000000000000000e+01" rms="0.0000000000000000e+00" purity="5.0491648912429810e-01" nType="1"/>
            <Node pos="r" depth="3" NCoef="0" IVar="-1" Cut="0.0000000000000000e+00" cType="1" res="-9.9000000000000000e+01" rms="0.0000000000000000e+00" purity="4.7476097941398621e-01" nType="-1"/>
          </Node>
          <Node pos="r" depth="2" NCoef="0" IVar="7" Cut="3.3603997230529785e+00" cType="1" res="-9.9000000000000000e+01" rms="0.0000000000000000e+00" purity="4.6676120162010193e-01" nType="0">
            <Node pos="l" depth="3" NCoef="0" IVar="-1" Cut="0.0000000000000000e+00" cType="1" res="-9.9000000000000000e+01" rms="0.0000000000000000e+00" purity="5.1416754722595215e-01" nType="1"/>
            <Node pos="r" depth="3" NCoef="0" IVar="-1" Cut="0.0000000000000000e+00" cType="1" res="-9.9000000000000000e+01" rms="0.0000000000000000e+00" purity="4.4362828135490417e-01" nType="-1"/>
          </Node>
        </Node>
      </Node>
    </BinaryTree>
    <BinaryTree type="DecisionTree" boostWeight="3.2893083678491003e-02" itree="39">
      <Node pos="s" depth="0" NCoef="0" IVar="1" Cut="2.2315533459186554e-01" cType="1" res="-9.9000000000000000e+01" rms="0.0000000000000000e+00" purity="4.9095472693443298e-01" nType="0">
        <Node pos="l" depth="1" NCoef="0" IVar="-1" Cut="0.0000000000000000e+00" cType="1" res="-9.9000000000000000e+01" rms="0.0000000000000000e+00" purity="5.2480679750442505e-01" nType="1"/>
        <Node pos="r" depth="1" NCoef="0" IVar="1" Cut="7.8354161977767944e-01" cType="1" res="-9.9000000000000000e+01" rms="0.0000000000000000e+00" purity="4.8815575242042542e-01" nType="0">
          <Node pos="l" depth="2" NCoef="0" IVar="-1" Cut="0.0000000000000000e+00" cType="1" res="-9.9000000000000000e+01" rms="0.0000000000000000e+00" purity="5.3018116950988770e-01" nType="1"/>
          <Node pos="r" depth="2" NCoef="0" IVar="-1" Cut="2.9182169437408447e+00" cType="1" res="-9.9000000000000000e+01" rms="0.0000000000000000e+00" purity="4.8524925112724304e-01" nType="-1"/>
        </Node>
      </Node>
    </BinaryTree>
    <BinaryTree type="DecisionTree" boostWeight="3.1847539930368512e-02" itree="40">
      <Node pos="s" depth="0" NCoef="0" IVar="10" Cut="-1.4745061397552490e+00" cType="1" res="-9.9000000000000000e+01" rms="0.0000000000000000e+00" purity="4.9693718552589417e-01" nType="0">
        <Node pos="l" depth="1" NCoef="0" IVar="5" Cut="2.8636970520019531e+00" cType="0" res="-9.9000000000000000e+01" rms="0.0000000000000000e+00" purity="5.0104320049285889e-01" nType="0">
          <Node pos="l" depth="2" NCoef="0" IVar="9" Cut="-5.1683535575866699e+00" cType="1" res="-9.9000000000000000e+01" rms="0.0000000000000000e+00" purity="5.0667178630828857e-01" nType="0">
            <Node pos="l" depth="3" NCoef="0" IVar="-1" Cut="0.0000000000000000e+00" cType="1" res="-9.9000000000000000e+01" rms="0.0000000000000000e+00" purity="5.6855875253677368e-01" nType="1"/>
            <Node pos="r" depth="3" NCoef="0" IVar="-1" Cut="0.0000000000000000e+00" cType="1" res="-9.9000000000000000e+01" rms="0.0000000000000000e+00" purity="4.9964156746864319e-01" nType="-1"/>
          </Node>
          <Node pos="r" depth="2" NCoef="0" IVar="-1" Cut="0.0000000000000000e+00" cType="1" res="-9.9000000000000000e+01" rms="0.0000000000000000e+00" purity="4.5440855622291565e-01" nType="-1"/>
        </Node>
        <Node pos="r" depth="1" NCoef="0" IVar="11" Cut="-2.6619954109191895e+00" cType="1" res="-9.9000000000000000e+01" rms="0.0000000000000000e+00" purity="4.7841227054595947e-01" nType="0">
          <Node pos="l" depth="2" NCoef="0" IVar="-1" Cut="0.0000000000000000e+00" cType="1" res="-9.9000000000000000e+01" rms="0.0000000000000000e+00" purity="5.2434754371643066e-01" nType="1"/>
          <Node pos="r" depth="2" NCoef="0" IVar="-1" Cut="0.0000000000000000e+00" cType="1" res="-9.9000000000000000e+01" rms="0.0000000000000000e+00" purity="4.5884650945663452e-01" nType="-1"/>
        </Node>
      </Node>
    </BinaryTree>
    <BinaryTree type="DecisionTree" boostWeight="3.5870487506717244e-02" itree="41">
      <Node pos="s" depth="0" NCoef="0" IVar="10" Cut="-1.4745061397552490e+00" cType="1" res="-9.9000000000000000e+01" rms="0.0000000000000000e+00" purity="5.0285059213638306e-01" nType="0">
        <Node pos="l" depth="1" NCoef="0" IVar="5" Cut="2.8636970520019531e+00" cType="0" res="-9.9000000000000000e+01" rms="0.0000000000000000e+00" purity="5.0755780935287476e-01" nType="0">
          <Node pos="l" depth="2" NCoef="0" IVar="-1" Cut="4.0225601196289062e+00" cType="0" res="-9.9000000000000000e+01" rms="0.0000000000000000e+00" purity="5.1301181316375732e-01" nType="1"/>
          <Node pos="r" depth="2" NCoef="0" IVar="-1" Cut="0.0000000000000000e+00" cType="1" res="-9.9000000000000000e+01" rms="0.0000000000000000e+00" purity="4.6231502294540405e-01" nType="-1"/>
        </Node>
        <Node pos="r" depth="1" NCoef="0" IVar="9" Cut="-4.1277546882629395e+00" cType="1" res="-9.9000000000000000e+01" rms="0.0000000000000000e+00" purity="4.8159611225128174e-01" nType="0">
          <Node pos="l" depth="2" NCoef="0" IVar="-1" Cut="0.0000000000000000e+00" cType="1" res="-9.9000000000000000e+01" rms="0.0000000000000000e+00" purity="5.0976568460464478e-01" nType="1"/>
          <Node pos="r" depth="2" NCoef="0" IVar="-1" Cut="0.0000000000000000e+00" cType="1" res="-9.9000000000000000e+01" rms="0.0000000000000000e+00" purity="4.5360663533210754e-01" nType="-1"/>
        </Node>
      </Node>
    </BinaryTree>
    <BinaryTree type="DecisionTree" boostWeight="7.3734034142507524e-02" itree="42">
      <Node pos="s" depth="0" NCoef="0" IVar="3" Cut="1.2018533945083618e+00" cType="1" res="-9.9000000000000000e+01" rms="0.0000000000000000e+00" purity="4.9709248542785645e-01" nType="0">
        <Node pos="l" depth="1" NCoef="0" IVar="3" Cut="5.7350969314575195e-01" cType="1" res="-9.9000000000000000e+01" rms="0.0000000000000000e+00" purity="5.1053136587142944e-01" nType="0">
          <Node pos="l" depth="2" NCoef="0" IVar="-1" Cut="0.0000000000000000e+00" cType="1" res="-9.9000000000000000e+01" rms="0.0000000000000000e+00" purity="5.6225353479385376e-01" nType="1"/>
          <Node pos="r" depth="2" NCoef="0" IVar="3" Cut="9.0264141559600830e-01" cType="1" res="-9.9000000000000000e+01" rms="0.0000000000000000e+00" purity="4.7390449047088623e-01" nType="0">
            <Node pos="l" depth="3" NCoef="0" IVar="-1" Cut="0.0000000000000000e+00" cType="1" res="-9.9000000000000000e+01" rms="0.0000000000000000e+00" purity="5.2155911922454834e-01" nType="1"/>
            <Node pos="r" depth="3" NCoef="0" IVar="-1" Cut="0.0000000000000000e+00" cType="1" res="-9.9000000000000000e+01" rms="0.0000000000000000e+00" purity="4.3774279952049255e-01" nType="-1"/>
          </Node>
        </Node>
        <Node pos="r" depth="1" NCoef="0" IVar="11" Cut="-2.9153032302856445e+00" cType="1" res="-9.9000000000000000e+01" rms="0.0000000000000000e+00" purity="4.9276486039161682e-01" nType="0">
          <Node pos="l" depth="2" NCoef="0" IVar="-1" Cut="2.0396542549133301e+00" cType="0" res="-9.9000000000000000e+01" rms="0.0000000000000000e+00" purity="5.3850591182708740e-01" nType="1"/>
          <Node pos="r" depth="2" NCoef="0" IVar="3" Cut="1.7942067384719849e+00" cType="1" res="-9.9000000000000000e+01" rms="0.0000000000000000e+00" purity="4.8101055622100830e-01" nType="0">
            <Node pos="l" depth="3" NCoef="0" IVar="-1" Cut="0.0000000000000000e+00" cType="1" res="-9.9000000000000000e+01" rms="0.0000000000000000e+00" purity="5.1899027824401855e-01" nType="1"/>
            <Node pos="r" depth="3" NCoef="0" IVar="-1" Cut="0.0000000000000000e+00" cType="1" res="-9.9000000000000000e+01" rms="0.0000000000000000e+00" purity="4.6506690979003906e-01" nType="-1"/>
          </Node>
        </Node>
      </Node>
    </BinaryTree>
    <BinaryTree type="DecisionTree" boostWeight="3.2283639102889748e-02" itree="43">
      <Node pos="s" depth="0" NCoef="0" IVar="1" Cut="2.2315533459186554e-01" cType="1" res="-9.9000000000000000e+01" rms="0.0000000000000000e+00" purity="4.9726656079292297e-01" nType="0">
        <Node pos="l" depth="1" NCoef="0" IVar="-1" Cut="0.0000000000000000e+00" cType="1" res="-9.9000000000000000e+01" rms="0.0000000000000000e+00" purity="5.2558302879333496e-01" nType="1"/>
        <Node pos="r" depth="1" NCoef="0" IVar="8" Cut="-4.5799608230590820e+00" cType="0" res="-9.9000000000000000e+01" rms="0.0000000000000000e+00" purity="4.9492704868316650e-01" nType="0">
          <Node pos="l" depth="2" NCoef="0" IVar="9" Cut="-4.5159792900085449e+00" cType="1" res="-9.9000000000000000e+01" rms="0.0000000000000000e+00" purity="5.0047153234481812e-01" nType="0">
            <Node pos="l" depth="3" NCoef="0" IVar="-1" Cut="0.0000000000000000e+00" cType="1" res="-9.9000000000000000e+01" rms="0.0000000000000000e+00" purity="5.1793730258941650e-01" nType="1"/>
            <Node pos="r" depth="3" NCoef="0" IVar="-1" Cut="0.0000000000000000e+00" cType="1" res="-9.9000000000000000e+01" rms="0.0000000000000000e+00" purity="4.9286603927612305e-01" nType="-1"/>
          </Node>
          <Node pos="r" depth="2" NCoef="0" IVar="0" Cut="1.4489542245864868e+00" cType="1" res="-9.9000000000000000e+01" rms="0.0000000000000000e+00" purity="4.7630479931831360e-01" nType="0">
            <Node pos="l" depth="3" NCoef="0" IVar="-1" Cut="0.0000000000000000e+00" cType="1" res="-9.9000000000000000e+01" rms="0.0000000000000000e+00" purity="5.0775218009948730e-01" nType="1"/>
            <Node pos="r" depth="3" NCoef="0" IVar="-1" Cut="0.0000000000000000e+00" cType="1" res="-9.9000000000000000e+01" rms="0.0000000000000000e+00" purity="4.4037574529647827e-01" nType="-1"/>
          </Node>
        </Node>
      </Node>
    </BinaryTree>
    <BinaryTree type="DecisionTree" boostWeight="2.2958230107043960e-02" itree="44">
      <Node pos="s" depth="0" NCoef="0" IVar="10" Cut="-1.4745061397552490e+00" cType="1" res="-9.9000000000000000e+01" rms="0.0000000000000000e+00" purity="4.9879541993141174e-01" nType="0">
        <Node pos="l" depth="1" NCoef="0" IVar="5" Cut="2.8636970520019531e+00" cType="0" res="-9.9000000000000000e+01" rms="0.0000000000000000e+00" purity="5.0275385379791260e-01" nType="0">
          <Node pos="l" depth="2" NCoef="0" IVar="-1" Cut="-5.1683535575866699e+00" cType="1" res="-9.9000000000000000e+01" rms="0.0000000000000000e+00" purity="5.0620442628860474e-01" nType="1"/>
          <Node pos="r" depth="2" NCoef="0" IVar="-1" Cut="0.0000000000000000e+00" cType="1" res="-9.9000000000000000e+01" rms="0.0000000000000000e+00" purity="4.7417184710502625e-01" nType="-1"/>
        </Node>
        <Node pos="r" depth="1" NCoef="0" IVar="11" Cut="-2.6619954109191895e+00" cType="1" res="-9.9000000000000000e+01" rms="0.0000000000000000e+00" purity="4.8089608550071716e-01" nType="0">
          <Node pos="l" depth="2" NCoef="0" IVar="-1" Cut="0.0000000000000000e+00" cType="1" res="-9.9000000000000000e+01" rms="0.0000000000000000e+00" purity="5.1111060380935669e-01" nType="1"/>
          <Node pos="r" depth="2" NCoef="0" IVar="-1" Cut="0.0000000000000000e+00" cType="1" res="-9.9000000000000000e+01" rms="0.0000000000000000e+00" purity="4.6797439455986023e-01" nType="-1"/>
        </Node>
      </Node>
    </BinaryTree>
    <BinaryTree type="DecisionTree" boostWeight="3.7600851139642927e-02" itree="45">
      <Node pos="s" depth="0" NCoef="0" IVar="10" Cut="-3.2549598217010498e+00" cType="0" res="-9.9000000000000000e+01" rms="0.0000000000000000e+00" purity="4.9552357196807861e-01" nType="0">
