<?xml version="1.0"?>
<MethodSetup Method="DL::DNN_CPU">
  <GeneralInfo>
    <Info name="TMVA Release" value="4.2.1 [262657]"/>
    <Info name="ROOT Release" value="6.18/04 [397828]"/>
    <Info name="Creator" value="hchou"/>
    <Info name="Date" value="Sun Feb 16 14:18:37 2020"/>
    <Info name="Host" value="Linux lcgapp-centos7-x86-64-25.cern.ch 3.10.0-957.21.3.el7.x86_64 #1 SMP Tue Jun 18 16:35:19 UTC 2019 x86_64 x86_64 x86_64 GNU/Linux"/>
    <Info name="Dir" value="/afs/cern.ch/user/h/hchou/AMSProject/apflux"/>
    <Info name="Training events" value="250000"/>
    <Info name="TrainingTime" value="5.18076270e+01"/>
    <Info name="AnalysisType" value="Classification"/>
  </GeneralInfo>
  <Options>
    <Option name="V" modified="Yes">True</Option>
    <Option name="VerbosityLevel" modified="No">Verbose</Option>
    <Option name="VarTransform" modified="Yes">N</Option>
    <Option name="H" modified="Yes">False</Option>
    <Option name="CreateMVAPdfs" modified="No">False</Option>
    <Option name="IgnoreNegWeightsInTraining" modified="No">False</Option>
    <Option name="InputLayout" modified="No">0|0|0</Option>
    <Option name="BatchLayout" modified="No">0|0|0</Option>
    <Option name="Layout" modified="Yes">TANH|16,TANH|16,TANH|16,LINEAR</Option>
    <Option name="ErrorStrategy" modified="Yes">CROSSENTROPY</Option>
    <Option name="WeightInitialization" modified="Yes">XAVIERUNIFORM</Option>
    <Option name="RandomSeed" modified="No">0</Option>
    <Option name="ValidationSize" modified="No">20%</Option>
    <Option name="Architecture" modified="Yes">CPU</Option>
    <Option name="TrainingStrategy" modified="Yes">LearningRate=1e-2,Momentum=0.9,Repetitions=1,ConvergenceSteps=30,BatchSize=256,TestRepetitions=10,WeightDecay=1e-4,Regularization=None,DropConfig=0.0+0.5+0.5+0.5,</Option>
  </Options>
  <Variables NVar="4">
    <Variable VarIndex="0" Expression="lxex" Label="lxex" Title="lxex" Unit="units" Internal="lxex" Type="F" Min="-5.76041174e+00" Max="2.93556643e+00"/>
    <Variable VarIndex="1" Expression="lyex" Label="lyex" Title="lyex" Unit="units" Internal="lyex" Type="F" Min="-6.57445478e+00" Max="3.21065164e+00"/>
    <Variable VarIndex="2" Expression="dxex" Label="dxex" Title="dxex" Unit="units" Internal="dxex" Type="F" Min="-1.22807360e+00" Max="1.25565777e+01"/>
    <Variable VarIndex="3" Expression="dyex" Label="dyex" Title="dyex" Unit="units" Internal="dyex" Type="F" Min="-6.90307260e-01" Max="8.59008884e+00"/>
  </Variables>
  <Spectators NSpec="0"/>
  <Classes NClass="2">
    <Class Name="Signal" Index="0"/>
    <Class Name="Background" Index="1"/>
  </Classes>
  <Transformations NTransformations="1">
    <Transform Name="Normalize">
      <Selection>
        <Input NInputs="4">
          <Input Type="Variable" Label="lxex" Expression="lxex"/>
          <Input Type="Variable" Label="lyex" Expression="lyex"/>
          <Input Type="Variable" Label="dxex" Expression="dxex"/>
          <Input Type="Variable" Label="dyex" Expression="dyex"/>
        </Input>
        <Output NOutputs="4">
          <Output Type="Variable" Label="lxex" Expression="lxex"/>
          <Output Type="Variable" Label="lyex" Expression="lyex"/>
          <Output Type="Variable" Label="dxex" Expression="dxex"/>
          <Output Type="Variable" Label="dyex" Expression="dyex"/>
        </Output>
      </Selection>
      <Class ClassIndex="0">
        <Ranges>
          <Range Index="0" Min="-5.7604117393493652e+00" Max="2.5657448768615723e+00"/>
          <Range Index="1" Min="-6.5744547843933105e+00" Max="2.6834070682525635e+00"/>
          <Range Index="2" Min="-1.2280735969543457e+00" Max="1.2556577682495117e+01"/>
          <Range Index="3" Min="-6.9030725955963135e-01" Max="8.5900888442993164e+00"/>
        </Ranges>
      </Class>
      <Class ClassIndex="1">
        <Ranges>
          <Range Index="0" Min="-4.5399341583251953e+00" Max="2.9355664253234863e+00"/>
          <Range Index="1" Min="-3.0878570079803467e+00" Max="3.2106516361236572e+00"/>
          <Range Index="2" Min="-7.0215344429016113e-01" Max="8.3258066177368164e+00"/>
          <Range Index="3" Min="-6.6773808002471924e-01" Max="7.5504641532897949e+00"/>
        </Ranges>
      </Class>
      <Class ClassIndex="2">
        <Ranges>
          <Range Index="0" Min="-5.7604117393493652e+00" Max="2.9355664253234863e+00"/>
          <Range Index="1" Min="-6.5744547843933105e+00" Max="3.2106516361236572e+00"/>
          <Range Index="2" Min="-1.2280735969543457e+00" Max="1.2556577682495117e+01"/>
          <Range Index="3" Min="-6.9030725955963135e-01" Max="8.5900888442993164e+00"/>
        </Ranges>
      </Class>
    </Transform>
  </Transformations>
  <MVAPdfs/>
  <Weights NetDepth="4" InputDepth="1" InputHeight="1" InputWidth="4" BatchSize="1" BatchDepth="1" BatchHeight="256" BatchWidth="4" LossFunction="C" Initialization="F" Regularization="0" OutputFunction="S" WeightDecay="9.9999997473787516e-05">
    <DenseLayer Width="16" ActivationFunction="3">
      <Weights Rows="16" Columns="4">
        6.853707e-01  5.089161e+00  1.580281e+00  2.839417e+00  -2.263106e-01  -5.700668e+00  -1.872291e+00  -2.670500e+00  -2.637982e-01  -5.230299e+00  -1.734485e+00  -1.939725e+00  6.407697e-01  4.672858e+00  1.558724e+00  1.894017e+00  1.772022e+00  2.329600e+00  -2.149870e+00  -1.374712e+00  5.034249e-01  5.245414e+00  1.700866e+00  2.859227e+00  -9.817087e-03  5.168667e+00  1.096024e+00  2.226787e+00  3.922930e-01  5.458087e+00  2.459409e+00  2.184525e+00  6.424769e-01  4.417781e+00  1.452729e+00  2.052255e+00  3.866107e-01  4.568267e+00  2.146508e+00  1.629586e+00  1.714577e+00  2.485494e+00  -2.378358e+00  -1.364843e+00  -7.706743e-01  -4.650658e+00  -1.659506e+00  -1.892508e+00  1.625978e+00  2.231306e+00  -2.718689e+00  -1.526631e+00  -3.806900e-01  -3.543722e+00  -1.442954e+00  -1.577676e+00  -5.921237e-01  -5.088538e+00  -1.639731e+00  -2.319592e+00  -1.335903e+00  -4.158577e+00  -1.927312e+00  -1.546227e+00  
      </Weights>
      <Biases Rows="16" Columns="1">
        6.848314e-01  -1.126978e-01  4.620051e-01  5.591590e-01  2.660029e+00  3.984118e-01  -8.147820e-01  6.650055e-01  7.088178e-01  7.174503e-01  2.729680e+00  6.770746e-01  3.251720e+00  -4.193232e-01  4.621010e-01  7.287640e-01  
      </Biases>
    </DenseLayer>
    <DenseLayer Width="16" ActivationFunction="3">
      <Weights Rows="16" Columns="16">
        -6.760863e+00  9.141043e-01  5.166472e-01  -2.020509e+00  -3.126349e-02  -1.328741e+00  -2.595529e-01  -4.411282e+00  -2.335224e+00  -7.451060e+00  -1.063458e-01  2.312783e-01  -6.562299e-02  5.056575e+00  2.480483e-01  3.561940e-01  -1.058995e+00  8.213115e+00  6.278032e+00  -4.241428e-01  -3.498510e-02  -4.316978e+00  -1.684381e+00  -1.299855e+00  -3.783146e-01  -6.902109e-01  -6.673664e-02  1.759852e+00  1.399405e-01  1.360247e+00  2.871879e+00  1.152960e+00  -1.780670e-01  9.511051e-01  1.915607e+00  -3.946625e-02  -1.648428e-02  -7.533510e-01  -4.846731e+00  -3.818058e-01  2.090633e-01  -1.323470e-01  9.662579e-02  5.358157e+00  -3.291704e-02  2.360516e-01  3.046032e+00  4.129005e+00  2.939073e-01  -1.055218e+00  -2.240784e+00  6.695236e-02  -6.533992e-02  8.397057e-01  5.792597e+00  2.104420e-01  -1.396795e-01  2.438863e-01  -7.101521e-02  -5.431525e+00  9.908842e-02  -4.434425e-01  -3.530250e+00  -3.036123e+00  -7.279280e-01  2.190531e+00  7.001256e+00  -1.497157e-01  1.802591e-02  -1.408271e+00  -3.112454e+00  -5.717203e-01  -5.063181e-02  -3.239265e-01  -2.034158e-02  3.317823e+00  -1.218946e-05  9.137204e-01  7.846665e+00  1.946284e+00  1.727005e+00  -1.806134e-01  -4.204081e-01  6.236619e+00  1.489574e-01  8.534442e-01  8.617492e-02  1.072193e+00  6.405193e+00  4.044840e+00  1.742148e-01  -3.687003e-02  1.615181e-02  -2.215364e+00  -7.271050e-02  -1.077937e-01  4.824286e+00  -1.792287e+00  -1.002188e+00  8.312797e-01  4.552269e-02  3.097781e+00  5.852720e-01  9.438589e+00  1.066909e+00  2.793162e+00  4.642471e-02  -5.604851e-01  -4.759468e-03  -5.365170e+00  -5.324255e-01  -6.509809e-01  -2.598115e+00  3.806586e+00  1.422511e+00  -9.111474e-01  8.745293e-02  -7.131801e+00  -7.433955e-01  -4.851892e+00  -7.942750e-01  -1.958882e+00  -9.702397e-02  7.071126e-01  -7.723251e-04  3.733841e+00  8.345841e-01  7.732992e-01  -2.476291e+00  7.350511e-01  3.522677e-01  -4.421417e+00  -1.247632e-02  -7.871273e-01  -2.342530e-01  -1.737465e+00  -4.470256e+00  -4.999231e+00  -5.223592e-03  9.942787e-02  -8.692719e-02  2.814303e+00  4.059314e-01  2.042492e-01  5.623755e-01  -1.658571e+00  -5.754500e+00  6.596435e-02  -1.636910e-02  1.126573e+00  4.659974e+00  3.754722e-01  8.473258e-02  3.538437e-01  -9.048069e-04  -5.043452e+00  -4.519129e-02  -6.621128e-01  -9.049124e+00  -2.333070e+00  1.437095e+00  -1.015336e+01  -3.526163e+00  5.318722e-01  -1.253533e-01  7.566779e+00  1.155997e+00  1.921767e+00  5.827727e-01  8.307952e-01  -9.857450e-02  -9.883518e-01  -6.446648e-02  -2.075738e+00  -1.515673e+00  -9.468524e-01  -7.042701e+00  1.089582e+00  6.144679e-01  -9.480537e-01  9.036341e-02  -1.844764e+00  -4.915687e-01  -8.743129e+00  -1.309911e+00  -3.653484e+00  -7.663734e-02  2.940410e-01  5.689646e-02  6.065279e+00  4.727953e-01  3.747079e-01  1.642651e+00  -4.433497e-01  -2.396576e-01  5.926480e+00  1.893869e-01  8.014112e-01  -3.345403e-02  1.184382e+00  6.785903e+00  3.997648e+00  1.226314e-01  -1.164695e-01  -1.240202e-02  -2.148660e+00  -7.928316e-02  -1.138793e-02  -2.037751e+00  5.169757e+00  1.919164e+00  -5.336461e-01  -7.866062e-02  -8.351523e+00  -9.938400e-01  -3.539076e+00  -6.660292e-01  -1.367301e+00  1.232485e-01  9.012254e-01  2.097229e-02  2.794683e+00  1.078026e+00  6.214905e-01  1.270091e-01  -1.245721e+00  -2.087522e+00  9.830546e-02  -3.351982e-02  5.636445e-01  5.097411e+00  1.600607e-01  -1.166980e-01  1.682633e-01  -8.363186e-02  -5.401197e+00  4.622266e-02  -2.537395e-01  -3.174784e+00  -3.671947e+00  -8.291020e-01  5.404472e+00  9.380960e+00  -2.022043e-01  -4.336230e-02  -2.518840e+00  -2.156716e+00  -8.631390e-01  -1.869852e-01  -4.605561e-01  3.008067e-03  2.691643e+00  -8.007050e-02  1.233250e+00  5.361189e+00  1.556176e+00  
      </Weights>
      <Biases Rows="16" Columns="1">
        -1.487041e+00  6.562465e-01  2.321095e+00  -2.262252e+00  1.252433e+00  2.431555e+00  8.279567e-01  -3.143415e-01  -2.209929e+00  -1.562321e+00  -3.502514e-01  -9.574257e-01  2.390448e+00  -3.639193e-02  -2.414147e+00  9.445627e-01  
      </Biases>
    </DenseLayer>
    <DenseLayer Width="16" ActivationFunction="3">
      <Weights Rows="16" Columns="16">
        2.074038e+00  1.804388e-01  1.101678e-01  -2.926662e-02  1.636613e-01  -5.101798e-01  -2.315114e+00  8.802783e-01  9.556496e-01  -4.993987e-02  -3.352032e-01  5.317580e+00  -3.039170e-01  5.454942e-01  7.887100e-02  1.424755e-01  3.061169e-01  1.008791e+00  -5.557004e-02  -9.661379e-02  3.234500e-01  -1.392674e-01  -1.154631e+00  3.281538e+00  2.494202e-01  -1.991343e-01  -2.041530e+00  5.432296e-01  -1.795364e-01  4.464626e+00  -2.014802e-01  7.616029e-01  1.735219e-02  4.515396e-01  1.592470e+00  -1.877846e+00  1.370882e+00  6.843009e-02  -1.494357e-01  1.276675e-01  -5.071320e-02  -2.663685e+00  -2.729895e-01  1.239511e-01  4.271993e-02  1.708623e-01  -1.650367e+00  6.764809e-01  -1.330841e+00  -1.537485e-01  -5.100909e-02  -6.644057e-03  -1.531047e-01  3.505613e-01  5.145111e+00  -1.293910e+00  -5.370759e-01  1.393255e-01  4.746380e-01  -2.633190e+00  2.957573e-01  -9.033944e-01  -4.440325e-02  -1.350958e-01  3.522630e-01  4.363041e-01  8.728006e-02  6.008425e-04  1.090783e-01  -2.200374e-02  -2.123752e+00  3.275002e+00  4.435606e-01  -1.545716e-01  -9.261177e-01  1.337297e+00  -2.025253e-01  1.759120e+00  -1.208176e-01  3.668184e-01  1.320038e-01  1.523172e+00  5.523882e-01  -5.524985e-01  2.677301e+00  -4.254138e-02  -3.625781e-02  2.490570e-01  -1.468633e-02  -1.911163e+00  -5.506170e-01  -9.732781e-02  1.308719e-02  5.316064e-01  -4.587336e-01  3.892376e+00  4.530050e-02  -3.987877e+00  -1.482240e-01  2.647888e-01  -9.503788e-01  -1.271749e-02  3.170063e-01  -6.979425e-01  3.865791e-02  5.540588e-01  2.838689e+00  -1.522994e-01  1.268525e-01  -1.115239e+00  6.709562e-02  -1.623940e+00  1.004107e-01  1.265302e-02  4.844615e+00  -2.790223e+00  1.040678e+00  -1.132639e-01  1.325114e-01  1.151860e-01  7.523142e-02  -1.045580e+00  -2.649239e-02  5.129249e-02  7.205641e-03  1.226859e-01  -4.518521e+00  3.234564e-01  -5.507740e+00  1.866000e-03  -2.183929e-01  1.144253e-01  -2.083772e-01  7.832393e-01  1.076806e+00  -4.815713e-01  -1.593191e+00  8.535563e-02  1.508558e-01  -2.023776e+00  8.299769e-01  -3.159448e-01  -1.680929e-01  -1.781921e-01  9.573060e-01  3.566900e-02  -6.369793e-02  -6.250479e-03  -7.044972e-02  -5.049309e+00  -2.579500e-01  9.762450e-02  2.278236e+00  -6.437154e-02  9.582957e-03  6.116676e-01  -5.022662e+00  -4.783979e-02  -6.566608e-03  9.104422e-02  2.313250e+00  2.902482e-01  -5.374581e-02  -2.043119e-01  -7.435747e-03  -1.540090e+00  -6.306608e-01  4.283716e-01  2.629732e+00  -1.461685e-01  -8.214650e-02  7.565874e-01  -1.435900e+00  2.397360e-01  -7.563524e-02  1.955077e-01  -8.915070e-02  -3.267394e-01  -2.675552e+00  4.368528e+00  -7.353693e-01  -1.176346e-02  -8.654878e-02  -1.567008e-01  7.908598e-02  7.919238e-01  -8.708584e-02  -1.625078e-01  1.577719e-01  -1.740167e-01  3.118538e+00  -7.298888e-01  -1.071601e-01  -2.439880e+00  -3.836425e-01  4.218229e-01  -1.349889e+00  1.101078e-01  8.368015e-02  -3.289952e-01  1.498511e-02  9.589808e-01  1.300940e+00  -6.855129e-02  3.742922e-02  -5.889907e-01  3.016301e-01  -5.371044e+00  5.359925e-02  -5.263318e-01  -9.257174e-01  1.127555e+00  -3.570188e+00  7.186795e-02  7.513736e-02  -1.158606e-01  -1.774224e-01  5.313383e+00  1.682126e-01  -7.852463e-02  2.288623e-02  -3.234892e-01  9.311181e-01  -1.183393e+00  1.838120e-01  1.818338e+00  -1.143295e-02  -2.574504e-01  3.118916e-01  -4.294547e-02  -5.100940e-01  1.316249e+00  1.759634e-01  -2.715224e-01  -4.294194e+00  8.408699e-02  9.801526e-03  2.093872e+00  -1.307628e-01  9.017416e-01  -1.010277e+00  -4.479854e-02  7.825309e-03  -8.525915e-02  -1.138646e-01  3.182836e+00  5.315033e-01  -3.002107e-01  -3.671222e+00  2.146873e-01  1.124637e-01  -9.341248e-01  3.191384e+00  -4.680366e-02  3.762171e-02  3.606962e-02  
      </Weights>
      <Biases Rows="16" Columns="1">
        -3.933612e-01  -7.017366e-02  8.799833e-01  2.748720e-01  -1.955831e-01  4.014976e-01  -2.240895e-01  1.566733e+00  5.499551e-01  -1.477695e+00  -8.294528e-01  -1.208779e+00  -3.313702e-01  -7.651380e-01  7.612097e-02  1.235441e+00  
      </Biases>
    </DenseLayer>
    <DenseLayer Width="1" ActivationFunction="0">
      <Weights Rows="1" Columns="16">
        1.338712e-01  1.487781e-01  1.311707e-01  -1.483175e-01  1.380877e-01  1.209513e-01  -1.775448e-01  1.243208e-01  -1.239374e-01  1.347324e-01  1.209521e-01  -1.585611e-01  -1.527543e-01  -1.368403e-01  1.313070e-01  -1.491828e-01  
      </Weights>
      <Biases Rows="1" Columns="1">
        1.126590e+00  
      </Biases>
    </DenseLayer>
  </Weights>
</MethodSetup>
