<?xml version="1.0"?>
<MethodSetup Method="BDT::BDTD">
  <GeneralInfo>
    <Info name="TMVA Release" value="4.2.1 [262657]"/>
    <Info name="ROOT Release" value="6.18/04 [397828]"/>
    <Info name="Creator" value="hchou"/>
    <Info name="Date" value="Sat Mar 14 14:17:03 2020"/>
    <Info name="Host" value="Linux lcgapp-centos7-x86-64-25.cern.ch 3.10.0-957.21.3.el7.x86_64 #1 SMP Tue Jun 18 16:35:19 UTC 2019 x86_64 x86_64 x86_64 GNU/Linux"/>
    <Info name="Dir" value="/afs/cern.ch/user/h/hchou/AMSProject/apflux"/>
    <Info name="Training events" value="215000"/>
    <Info name="TrainingTime" value="9.75058289e+01"/>
    <Info name="AnalysisType" value="Classification"/>
  </GeneralInfo>
  <Options>
    <Option name="V" modified="Yes">True</Option>
    <Option name="VerbosityLevel" modified="Yes">Verbose</Option>
    <Option name="VarTransform" modified="Yes">Decorrelate</Option>
    <Option name="H" modified="Yes">True</Option>
    <Option name="CreateMVAPdfs" modified="Yes">False</Option>
    <Option name="IgnoreNegWeightsInTraining" modified="Yes">True</Option>
    <Option name="NTrees" modified="Yes">100</Option>
    <Option name="MaxDepth" modified="Yes">3</Option>
    <Option name="MinNodeSize" modified="Yes">5%</Option>
    <Option name="nCuts" modified="Yes">20</Option>
    <Option name="BoostType" modified="Yes">AdaBoost</Option>
    <Option name="AdaBoostR2Loss" modified="Yes">quadratic</Option>
    <Option name="UseBaggedBoost" modified="No">False</Option>
    <Option name="Shrinkage" modified="Yes">1.000000e-01</Option>
    <Option name="AdaBoostBeta" modified="Yes">5.000000e-01</Option>
    <Option name="UseRandomisedTrees" modified="Yes">False</Option>
    <Option name="UseNvars" modified="Yes">2</Option>
    <Option name="UsePoissonNvars" modified="Yes">True</Option>
    <Option name="BaggedSampleFraction" modified="Yes">6.000000e-01</Option>
    <Option name="UseYesNoLeaf" modified="Yes">True</Option>
    <Option name="NegWeightTreatment" modified="No">inverseboostnegweights</Option>
    <Option name="Css" modified="No">1.000000e+00</Option>
    <Option name="Cts_sb" modified="No">1.000000e+00</Option>
    <Option name="Ctb_ss" modified="No">1.000000e+00</Option>
    <Option name="Cbb" modified="No">1.000000e+00</Option>
    <Option name="NodePurityLimit" modified="Yes">5.000000e-01</Option>
    <Option name="SeparationType" modified="Yes">giniindex</Option>
    <Option name="RegressionLossFunctionBDTG" modified="No">huber</Option>
    <Option name="HuberQuantile" modified="No">7.000000e-01</Option>
    <Option name="DoBoostMonitor" modified="Yes">False</Option>
    <Option name="UseFisherCuts" modified="Yes">False</Option>
    <Option name="MinLinCorrForFisher" modified="Yes">8.000000e-01</Option>
    <Option name="UseExclusiveVars" modified="Yes">False</Option>
    <Option name="DoPreselection" modified="Yes">False</Option>
    <Option name="SigToBkgFraction" modified="Yes">1.000000e+00</Option>
    <Option name="PruneMethod" modified="Yes">nopruning</Option>
    <Option name="PruneStrength" modified="Yes">0.000000e+00</Option>
    <Option name="PruningValFraction" modified="Yes">5.000000e-01</Option>
    <Option name="SkipNormalization" modified="No">False</Option>
    <Option name="nEventsMin" modified="Yes">0</Option>
    <Option name="UseBaggedGrad" modified="Yes">False</Option>
    <Option name="GradBaggingFraction" modified="Yes">6.000000e-01</Option>
    <Option name="UseNTrainEvents" modified="Yes">0</Option>
    <Option name="NNodesMax" modified="Yes">0</Option>
  </Options>
  <Variables NVar="29">
    <Variable VarIndex="0" Expression="lxin" Label="lxin" Title="lxin" Unit="units" Internal="lxin" Type="F" Min="-1.27267380e+01" Max="3.17083526e+00"/>
    <Variable VarIndex="1" Expression="lyin" Label="lyin" Title="lyin" Unit="units" Internal="lyin" Type="F" Min="-1.14653664e+01" Max="3.79140949e+00"/>
    <Variable VarIndex="2" Expression="lxl1" Label="lxl1" Title="lxl1" Unit="units" Internal="lxl1" Type="F" Min="-9.09180927e+00" Max="2.73467207e+00"/>
    <Variable VarIndex="3" Expression="lyl1" Label="lyl1" Title="lyl1" Unit="units" Internal="lyl1" Type="F" Min="-8.05434608e+00" Max="3.56588769e+00"/>
    <Variable VarIndex="4" Expression="lxl9" Label="lxl9" Title="lxl9" Unit="units" Internal="lxl9" Type="F" Min="-7.22382021e+00" Max="2.73347163e+00"/>
    <Variable VarIndex="5" Expression="lyl9" Label="lyl9" Title="lyl9" Unit="units" Internal="lyl9" Type="F" Min="-6.95582724e+00" Max="3.61110353e+00"/>
    <Variable VarIndex="6" Expression="lxfs" Label="lxfs" Title="lxfs" Unit="units" Internal="lxfs" Type="F" Min="-6.46799898e+00" Max="3.48220897e+00"/>
    <Variable VarIndex="7" Expression="lyfs" Label="lyfs" Title="lyfs" Unit="units" Internal="lyfs" Type="F" Min="-5.34901142e+00" Max="3.53381467e+00"/>
    <Variable VarIndex="8" Expression="nlxin" Label="nlxin" Title="nlxin" Unit="units" Internal="nlxin" Type="F" Min="6.17413316e-04" Max="6.62311554e+00"/>
    <Variable VarIndex="9" Expression="nlyin" Label="nlyin" Title="nlyin" Unit="units" Internal="nlyin" Type="F" Min="2.38190941e-03" Max="1.24452477e+01"/>
    <Variable VarIndex="10" Expression="nlxl1" Label="nlxl1" Title="nlxl1" Unit="units" Internal="nlxl1" Type="F" Min="1.26207517e-02" Max="6.73316526e+00"/>
    <Variable VarIndex="11" Expression="nlyl1" Label="nlyl1" Title="nlyl1" Unit="units" Internal="nlyl1" Type="F" Min="2.33826321e-02" Max="1.24469213e+01"/>
    <Variable VarIndex="12" Expression="nlxl9" Label="nlxl9" Title="nlxl9" Unit="units" Internal="nlxl9" Type="F" Min="2.66936403e-02" Max="6.61560488e+00"/>
    <Variable VarIndex="13" Expression="nlyl9" Label="nlyl9" Title="nlyl9" Unit="units" Internal="nlyl9" Type="F" Min="2.95367613e-02" Max="1.11210957e+01"/>
    <Variable VarIndex="14" Expression="nlxfs" Label="nlxfs" Title="nlxfs" Unit="units" Internal="nlxfs" Type="F" Min="4.79765646e-02" Max="8.49512482e+00"/>
    <Variable VarIndex="15" Expression="nlyfs" Label="nlyfs" Title="nlyfs" Unit="units" Internal="nlyfs" Type="F" Min="7.95618072e-02" Max="9.85155106e+00"/>
    <Variable VarIndex="16" Expression="lxinC" Label="lxinC" Title="lxinC" Unit="units" Internal="lxinC" Type="F" Min="-1.33064337e+01" Max="5.01076984e+00"/>
    <Variable VarIndex="17" Expression="lyinC" Label="lyinC" Title="lyinC" Unit="units" Internal="lyinC" Type="F" Min="-1.16553373e+01" Max="6.76998997e+00"/>
    <Variable VarIndex="18" Expression="lxl1C" Label="lxl1C" Title="lxl1C" Unit="units" Internal="lxl1C" Type="F" Min="-9.06858635e+00" Max="4.67337322e+00"/>
    <Variable VarIndex="19" Expression="lyl1C" Label="lyl1C" Title="lyl1C" Unit="units" Internal="lyl1C" Type="F" Min="-7.80382061e+00" Max="6.58198738e+00"/>
    <Variable VarIndex="20" Expression="lxl9C" Label="lxl9C" Title="lxl9C" Unit="units" Internal="lxl9C" Type="F" Min="-7.70377159e+00" Max="4.65318775e+00"/>
    <Variable VarIndex="21" Expression="lyl9C" Label="lyl9C" Title="lyl9C" Unit="units" Internal="lyl9C" Type="F" Min="-7.51619530e+00" Max="6.57195854e+00"/>
    <Variable VarIndex="22" Expression="lxfsC" Label="lxfsC" Title="lxfsC" Unit="units" Internal="lxfsC" Type="F" Min="-6.69403124e+00" Max="5.20491791e+00"/>
    <Variable VarIndex="23" Expression="lyfsC" Label="lyfsC" Title="lyfsC" Unit="units" Internal="lyfsC" Type="F" Min="-6.09718418e+00" Max="6.39906931e+00"/>
    <Variable VarIndex="24" Expression="lrin" Label="lrin" Title="lrin" Unit="units" Internal="lrin" Type="F" Min="1.72853322e-06" Max="1.36104088e+01"/>
    <Variable VarIndex="25" Expression="lrfs" Label="lrfs" Title="lrfs" Unit="units" Internal="lrfs" Type="F" Min="1.43051045e-06" Max="3.47387457e+00"/>
    <Variable VarIndex="26" Expression="lrinC" Label="lrinC" Title="lrinC" Unit="units" Internal="lrinC" Type="F" Min="6.62354432e-06" Max="8.97263622e+00"/>
    <Variable VarIndex="27" Expression="lrfsC" Label="lrfsC" Title="lrfsC" Unit="units" Internal="lrfsC" Type="F" Min="9.05986508e-06" Max="5.39761305e+00"/>
    <Variable VarIndex="28" Expression="llr" Label="llr" Title="llr" Unit="units" Internal="llr" Type="F" Min="2.53524631e-01" Max="2.52597904e+00"/>
  </Variables>
  <Spectators NSpec="0"/>
  <Classes NClass="2">
    <Class Name="Signal" Index="0"/>
    <Class Name="Background" Index="1"/>
  </Classes>
  <Transformations NTransformations="1">
    <Transform Name="Decorrelation">
      <Selection>
        <Input NInputs="29">
          <Input Type="Variable" Label="lxin" Expression="lxin"/>
          <Input Type="Variable" Label="lyin" Expression="lyin"/>
          <Input Type="Variable" Label="lxl1" Expression="lxl1"/>
          <Input Type="Variable" Label="lyl1" Expression="lyl1"/>
          <Input Type="Variable" Label="lxl9" Expression="lxl9"/>
          <Input Type="Variable" Label="lyl9" Expression="lyl9"/>
          <Input Type="Variable" Label="lxfs" Expression="lxfs"/>
          <Input Type="Variable" Label="lyfs" Expression="lyfs"/>
          <Input Type="Variable" Label="nlxin" Expression="nlxin"/>
          <Input Type="Variable" Label="nlyin" Expression="nlyin"/>
          <Input Type="Variable" Label="nlxl1" Expression="nlxl1"/>
          <Input Type="Variable" Label="nlyl1" Expression="nlyl1"/>
          <Input Type="Variable" Label="nlxl9" Expression="nlxl9"/>
          <Input Type="Variable" Label="nlyl9" Expression="nlyl9"/>
          <Input Type="Variable" Label="nlxfs" Expression="nlxfs"/>
          <Input Type="Variable" Label="nlyfs" Expression="nlyfs"/>
          <Input Type="Variable" Label="lxinC" Expression="lxinC"/>
          <Input Type="Variable" Label="lyinC" Expression="lyinC"/>
          <Input Type="Variable" Label="lxl1C" Expression="lxl1C"/>
          <Input Type="Variable" Label="lyl1C" Expression="lyl1C"/>
          <Input Type="Variable" Label="lxl9C" Expression="lxl9C"/>
          <Input Type="Variable" Label="lyl9C" Expression="lyl9C"/>
          <Input Type="Variable" Label="lxfsC" Expression="lxfsC"/>
          <Input Type="Variable" Label="lyfsC" Expression="lyfsC"/>
          <Input Type="Variable" Label="lrin" Expression="lrin"/>
          <Input Type="Variable" Label="lrfs" Expression="lrfs"/>
          <Input Type="Variable" Label="lrinC" Expression="lrinC"/>
          <Input Type="Variable" Label="lrfsC" Expression="lrfsC"/>
          <Input Type="Variable" Label="llr" Expression="llr"/>
        </Input>
        <Output NOutputs="29">
          <Output Type="Variable" Label="lxin" Expression="lxin"/>
          <Output Type="Variable" Label="lyin" Expression="lyin"/>
          <Output Type="Variable" Label="lxl1" Expression="lxl1"/>
          <Output Type="Variable" Label="lyl1" Expression="lyl1"/>
          <Output Type="Variable" Label="lxl9" Expression="lxl9"/>
          <Output Type="Variable" Label="lyl9" Expression="lyl9"/>
          <Output Type="Variable" Label="lxfs" Expression="lxfs"/>
          <Output Type="Variable" Label="lyfs" Expression="lyfs"/>
          <Output Type="Variable" Label="nlxin" Expression="nlxin"/>
          <Output Type="Variable" Label="nlyin" Expression="nlyin"/>
          <Output Type="Variable" Label="nlxl1" Expression="nlxl1"/>
          <Output Type="Variable" Label="nlyl1" Expression="nlyl1"/>
          <Output Type="Variable" Label="nlxl9" Expression="nlxl9"/>
          <Output Type="Variable" Label="nlyl9" Expression="nlyl9"/>
          <Output Type="Variable" Label="nlxfs" Expression="nlxfs"/>
          <Output Type="Variable" Label="nlyfs" Expression="nlyfs"/>
          <Output Type="Variable" Label="lxinC" Expression="lxinC"/>
          <Output Type="Variable" Label="lyinC" Expression="lyinC"/>
          <Output Type="Variable" Label="lxl1C" Expression="lxl1C"/>
          <Output Type="Variable" Label="lyl1C" Expression="lyl1C"/>
          <Output Type="Variable" Label="lxl9C" Expression="lxl9C"/>
          <Output Type="Variable" Label="lyl9C" Expression="lyl9C"/>
          <Output Type="Variable" Label="lxfsC" Expression="lxfsC"/>
          <Output Type="Variable" Label="lyfsC" Expression="lyfsC"/>
          <Output Type="Variable" Label="lrin" Expression="lrin"/>
          <Output Type="Variable" Label="lrfs" Expression="lrfs"/>
          <Output Type="Variable" Label="lrinC" Expression="lrinC"/>
          <Output Type="Variable" Label="lrfsC" Expression="lrfsC"/>
          <Output Type="Variable" Label="llr" Expression="llr"/>
        </Output>
      </Selection>
      <Matrix Rows="29" Columns="29">
        1.210085406121803e+01 -1.534468798473723e-01 -3.737078302260013e+00 2.813961815755498e-02 -4.583721019419826e+00 7.186553535776805e-02 -2.466563807583073e-01 -5.354331319878210e-02 1.550093866664465e+00 -5.415837457796961e-02 -5.198479318008429e-01 9.184199835814078e-03 -7.902763843904298e-01 -9.035312765827584e-04 -9.609221075974522e-02 -3.244563984489260e-02 -1.090040671531299e+01 1.502473429441910e-01 3.287580333026902e+00 -2.350135441082376e-02 4.189910735972716e+00 -7.474527182933791e-02 4.251224154238593e-01 1.118600659881553e-01 -4.915710275994364e-02 -4.011454169890676e-02 -2.799940571916837e-02 2.673726610174447e-02 -1.837890445493032e-02 -1.534468798473773e-01 9.926747974836584e+00 1.052064634891392e-01 -3.131512964585903e+00 -2.057218788606386e-02 -4.607819345484307e+00 -1.972087329071125e-02 1.059202660071267e-01 -2.297070825893378e-02 1.541971332858306e+00 9.246356898110677e-03 -3.630251465795674e-01 7.817711354149477e-03 -1.010804172312877e+00 -1.527343696013991e-02 -1.555841689297369e-01 1.482705825858507e-01 -8.372158928421566e+00 -1.062782668624878e-01 2.414880357921174e+00 1.277923571299999e-02 4.134336304319836e+00 2.999683709418928e-02 1.091990764287889e-01 1.720102526389899e-02 -3.356907789447553e-02 4.096158340985298e-02 -1.318137920295487e-01 -5.683430532944571e-02 -3.737078302260015e+00 1.052064634891395e-01 1.273226846503594e+01 -1.467302305834227e-01 -2.186883595039627e+00 1.596737727441551e-02 -3.499247978962766e+00 -1.015377401995779e-01 -1.073825683752284e-01 3.030314163324912e-02 1.334829187755702e+00 -1.062276527838761e-01 -1.002739434098490e-01 -3.312134896336913e-02 -4.430488588021579e-01 2.315903695460080e-02 3.225625358200940e+00 -1.373962289858701e-01 -1.076496527838306e+01 2.412462681927547e-01 1.870753123996821e+00 7.935640012098541e-02 2.882244913306352e+00 -3.654465602119239e-02 -2.881357704887034e-02 3.335579680649358e-01 5.357265268206662e-02 -3.272695946882015e-01 6.316920233306277e-03 2.813961815755837e-02 -3.131512964585915e+00 -1.467302305834241e-01 1.009892509494431e+01 8.484298250621670e-02 -4.223773705451448e-01 -1.782542086650561e-02 -4.209107313794462e+00 -1.472828685063495e-02 -4.445920960945861e-01 -3.676981404447908e-02 9.337780252046699e-01 2.033875303345928e-02 1.268719285631899e-01 1.356429534901956e-02 -3.402630946156696e-01 -1.886700733638038e-02 2.284116355420023e+00 1.205817606766278e-01 -7.235244043156522e+00 -6.766744294471555e-02 3.691535301743633e-01 2.698765820046140e-02 2.936068578810834e+00 6.414892344083289e-02 5.000922422656102e-01 -8.876360318362021e-02 -3.394988319453039e-01 -3.067106913551372e-02 -4.583721019419833e+00 -2.057218788606683e-02 -2.186883595039630e+00 8.484298250621752e-02 1.455810045162371e+01 -1.616594536856256e-01 -4.286383867467066e+00 5.941491865203009e-02 -2.497149850375035e-01 -4.129887304061944e-02 -7.423820100284582e-02 1.758759389579208e-02 1.773552614685900e+00 -3.528623577239280e-02 -6.491838367815206e-01 -5.909189248641436e-03 4.068690588599535e+00 4.444321785470636e-02 1.901334768810736e+00 -1.285286574296553e-01 -1.274279023779603e+01 1.564387262512971e-01 3.791103429970265e+00 -8.436333188640427e-05 3.462755433433469e-02 -9.640267694762591e-02 -1.858981949887030e-02 -2.583224933861629e-03 2.273618817009482e-02 7.186553535777365e-02 -4.607819345484303e+00 1.596737727441378e-02 -4.223773705451637e-01 -1.616594536856270e-01 1.176342717146375e+01 2.893017339415090e-02 -4.351934081538996e+00 -2.322048996456003e-03 3.880237291715807e-02 3.388604517252547e-02 -2.573107253109455e-01 -7.287433215276554e-02 1.475709795364763e+00 -4.535398277799016e-03 -5.226154033224998e-01 -7.173216408184244e-02 3.815715308530033e+00 9.047719914547954e-03 3.441582190991304e-01 1.566393229015186e-01 -9.193979922012680e+00 -2.231868542619683e-02 3.126893118627919e+00 6.143957362554589e-02 1.745577951013248e-01 -3.085831151283598e-02 -2.630258763263023e-02 -4.621415126621112e-02 -2.466563807582977e-01 -1.972087329071188e-02 -3.499247978962770e+00 -1.782542086650377e-02 -4.286383867467069e+00 2.893017339414944e-02 1.142779607190436e+01 1.794119834908098e-03 -1.377947594875279e-01 -9.616186986157189e-03 -1.246521736514134e-01 1.563476185422147e-02 -1.730676921635749e-01 2.129233671260952e-02 1.185641373031130e+00 -1.463106849366059e-02 2.502173183464921e-01 2.462174350888457e-02 2.757207206345994e+00 3.482009564097109e-02 3.700151729292628e+00 -2.614672592051771e-02 -9.370761618426917e+00 -5.894183922514327e-02 -1.137633319416293e-03 -7.490484304861153e-02 -1.536920546295422e-02 2.770459005488324e-01 -5.286392139690004e-03 -5.354331319878670e-02 1.059202660071363e-01 -1.015377401995750e-01 -4.209107313794455e+00 5.941491865203113e-02 -4.351934081539008e+00 1.794119834906698e-03 1.181670753454250e+01 2.391586485234564e-02 -2.285241551523792e-01 -6.041053176534818e-02 -1.144095143191745e-01 3.710213785329730e-02 -2.286422820334077e-01 -2.758625697473702e-02 1.288777607971628e+00 5.252239780231964e-02 1.347829710311003e-01 1.400132198823891e-01 2.755830358607549e+00 -6.020222028238768e-02 2.814764631951108e+00 -5.640632732949945e-02 -7.937293375001162e+00 -2.216888002119183e-01 -1.564366352366978e+00 -7.721664836452435e-02 1.064472454381702e+00 1.321728203461633e-01 1.550093866664465e+00 -2.297070825893320e-02 -1.073825683752294e-01 -1.472828685063552e-02 -2.497149850374992e-01 -2.322048996457217e-03 -1.377947594875315e-01 2.391586485234661e-02 4.429326985852197e+00 -1.094399415271749e-01 -1.234652477809178e+00 2.516455375412145e-03 -1.211250813556894e+00 -2.355934129122090e-02 4.488662034598429e-02 -2.280415654525862e-02 -3.049837414341040e+00 3.817485145792167e-02 3.356203394676314e-01 2.108430673775672e-02 4.556756717005182e-01 2.407204453311021e-02 1.897557137830909e-01 1.199281941872468e-02 -2.119637928558004e-02 1.588976000169320e-02 -2.276476597410236e-03 5.088728310829633e-02 -8.688666984975916e-03 -5.415837457797042e-02 1.541971332858311e+00 3.030314163324896e-02 -4.445920960945827e-01 -4.129887304061809e-02 3.880237291715408e-02 -9.616186986158518e-03 -2.285241551523844e-01 -1.094399415271743e-01 5.225359550384795e+00 1.750036055536067e-02 -1.517232249572089e+00 -4.220040840229127e-02 -1.422949711624090e+00 -1.706424026230467e-03 2.070395283736080e-02 9.552489129220354e-02 -3.425856932334985e+00 -3.855843368092884e-02 9.042272277930906e-01 6.069397170645256e-02 3.207737820303544e-01 3.506531338253643e-02 1.454586860075688e-01 -2.276525626155731e-02 2.037191075657210e-03 -2.989754485033268e-02 1.907301368610013e-01 -9.601007482344720e-03 -5.198479318008429e-01 9.246356898110795e-03 1.334829187755696e+00 -3.676981404447775e-02 -7.423820100284280e-02 3.388604517252442e-02 -1.246521736514098e-01 -6.041053176534870e-02 -1.234652477809178e+00 1.750036055536084e-02 5.449944025986148e+00 -1.715681286606983e-01 -8.999929339400907e-01 2.062562257901492e-02 -9.749890103211624e-01 3.771857710030686e-02 6.441601435492597e-01 -5.265923713457077e-02 -3.574943115800727e+00 6.553283753919353e-02 5.353017937684263e-01 5.471314209219900e-02 4.633080424979756e-01 3.575564162118847e-02 -2.372159121073279e-02 2.146934220094253e-01 -3.402761054220989e-03 -1.273757602267158e-01 1.914163148792687e-02 9.184199835815194e-03 -3.630251465795729e-01 -1.062276527838774e-01 9.337780252046720e-01 1.758759389579043e-02 -2.573107253109375e-01 1.563476185422302e-02 -1.144095143191770e-01 2.516455375411993e-03 -1.517232249572090e+00 -1.715681286606988e-01 5.553410435829860e+00 1.884726468088445e-02 -2.276407312662930e-01 4.241932293139231e-02 -1.649088297387273e+00 -2.222865539641853e-02 6.256459075134411e-01 1.279486706833247e-01 -3.042160383140900e+00 1.484718134680272e-02 5.874827635819586e-01 -7.933168322185498e-04 3.275856990951083e-01 3.437923916394309e-02 2.479344923329694e-01 1.491463969247973e-02 2.922573206461726e-02 2.931943945757492e-02 -7.902763843904302e-01 7.817711354147923e-03 -1.002739434098486e-01 2.033875303346076e-02 1.773552614685896e+00 -7.287433215276437e-02 -1.730676921635732e-01 3.710213785329637e-02 -1.211250813556896e+00 -4.220040840229118e-02 -8.999929339400908e-01 1.884726468088502e-02 5.573245527103111e+00 -9.518684294796581e-02 -1.030795535087563e+00 2.958317822550431e-02 8.956128888716037e-01 5.410902762687796e-03 5.432587850968503e-01 1.577989783681155e-02 -4.022042859645330e+00 3.662021078833830e-02 5.080914309540967e-01 -8.960164644801557e-03 8.649880021053867e-03 1.149579914613293e-03 -9.588028589269678e-03 3.177920456491782e-02 6.868886527990531e-03 -9.035312765807555e-04 -1.010804172312876e+00 -3.312134896337236e-02 1.268719285631857e-01 -3.528623577239162e-02 1.475709795364762e+00 2.129233671261110e-02 -2.286422820334025e-01 -2.355934129122072e-02 -1.422949711624089e+00 2.062562257901432e-02 -2.276407312662948e-01 -9.518684294796524e-02 5.929911804739102e+00 7.859591348949483e-03 -1.668933662380706e+00 -3.466404127874119e-03 1.080788908709806e+00 7.814992507069274e-02 2.078064940095893e-01 3.864501935800656e-02 -3.625947860742432e+00 -1.721039473523583e-02 4.708359296690652e-01 6.491322324996004e-02 -4.443249557300986e-02 2.281000496111244e-02 2.700723866407279e-01 6.322368345096938e-04 -9.609221075974235e-02 -1.527343696013963e-02 -4.430488588021573e-01 1.356429534901912e-02 -6.491838367815241e-01 -4.535398277799310e-03 1.185641373031132e+00 -2.758625697473608e-02 4.488662034598551e-02 -1.706424026229978e-03 -9.749890103211634e-01 4.241932293139192e-02 -1.030795535087563e+00 7.859591348949133e-03 3.861655101059149e+00 -9.818246161199207e-02 2.194007578151946e-01 3.850484866107714e-02 6.710033837871433e-01 -9.989849287187873e-04 8.234961304711588e-01 1.623727000443857e-02 -3.079717713614268e+00 -3.914317376614360e-02 8.271475346584848e-03 -1.493896878782029e-01 1.943397655403164e-02 2.273473843712975e-02 -6.329904781148777e-03 -3.244563984489439e-02 -1.555841689297352e-01 2.315903695460347e-02 -3.402630946156701e-01 -5.909189248640058e-03 -5.226154033224980e-01 -1.463106849366314e-02 1.288777607971625e+00 -2.280415654525859e-02 2.070395283736208e-02 3.771857710030768e-02 -1.649088297387274e+00 2.958317822550477e-02 -1.668933662380707e+00 -9.818246161199295e-02 6.189179609383213e+00 3.604737849276606e-02 3.594985637163049e-01 -2.823636546442125e-02 2.916199235171119e-01 1.519472688292843e-02 4.162862576760449e-01 1.442774574696126e-02 -2.981813663367424e+00 2.613707049443507e-02 -7.415692356817183e-02 -1.250708802280134e-01 -6.179957518275100e-01 3.056412351223282e-02 -1.090040671531299e+01 1.482705825858453e-01 3.225625358200939e+00 -1.886700733637666e-02 4.068690588599528e+00 -7.173216408183605e-02 2.502173183465030e-01 5.252239780231425e-02 -3.049837414341041e+00 9.552489129220286e-02 6.441601435492597e-01 -2.222865539641762e-02 8.956128888716032e-01 -3.466404127872030e-03 2.194007578151978e-01 3.604737849276443e-02 1.301023960080742e+01 -1.992748969893982e-01 -3.897742797375350e+00 2.153588273822143e-02 -4.762034802089646e+00 6.803587331156460e-02 -2.593623339237729e-01 -9.052690039326665e-02 5.391955579344838e-02 2.872786676565107e-02 3.582216770504209e-02 -4.590470766923807e-02 2.847022379844144e-02 1.502473429441963e-01 -8.372158928421570e+00 -1.373962289858691e-01 2.284116355420009e+00 4.444321785470318e-02 3.815715308530040e+00 2.462174350888395e-02 1.347829710311122e-01 3.817485145792206e-02 -3.425856932334981e+00 -5.265923713457037e-02 6.256459075134351e-01 5.410902762686512e-03 1.080788908709807e+00 3.850484866107756e-02 3.594985637163071e-01 -1.992748969894038e-01 1.041311293002157e+01 1.477590292965167e-01 -2.819580638464539e+00 -4.257638280473428e-02 -4.550095571709484e+00 -1.132447519630929e-02 -1.390357807240475e-01 -1.973500018246451e-02 5.809950856136580e-02 -4.777400567396763e-02 3.119860973294147e-02 5.688608715484426e-02 3.287580333026904e+00 -1.062782668624884e-01 -1.076496527838305e+01 1.205817606766251e-01 1.901334768810731e+00 9.047719914547347e-03 2.757207206345985e+00 1.400132198823924e-01 3.356203394676319e-01 -3.855843368092922e-02 -3.574943115800735e+00 1.279486706833231e-01 5.432587850968501e-01 7.814992507068975e-02 6.710033837871436e-01 -2.823636546441818e-02 -3.897742797375352e+00 1.477590292965182e-01 1.369696077160342e+01 -3.304841711832861e-01 -2.073163534415928e+00 -7.098965201198711e-02 -3.688237102682214e+00 3.046906491141192e-02 2.672946908185331e-02 -3.613400013801673e-01 -6.785832103571464e-02 3.987443279274764e-01 -1.483609199862674e-03 -2.350135441082800e-02 2.414880357921186e+00 2.412462681927565e-01 -7.235244043156519e+00 -1.285286574296531e-01 3.441582190991073e-01 3.482009564097218e-02 2.755830358607557e+00 2.108430673775632e-02 9.042272277930947e-01 6.553283753919514e-02 -3.042160383140898e+00 1.577989783681286e-02 2.078064940095835e-01 -9.989849287192773e-04 2.916199235171121e-01 2.153588273822590e-02 -2.819580638464554e+00 -3.304841711832894e-01 9.666073802516669e+00 1.593423095450244e-01 -7.337390109050639e-01 -4.101910494006178e-02 -3.546487780057602e+00 3.048510486632679e-02 -9.455703223006240e-02 1.714374428764216e-01 7.962072874376613e-01 9.904644154402535e-02 4.189910735972726e+00 1.277923571300497e-02 1.870753123996823e+00 -6.766744294471742e-02 -1.274279023779603e+01 1.566393229015149e-01 3.700151729292624e+00 -6.020222028238532e-02 4.556756717005238e-01 6.069397170645419e-02 5.353017937684291e-01 1.484718134680071e-02 -4.022042859645334e+00 3.864501935800741e-02 8.234961304711558e-01 1.519472688293029e-02 -4.762034802089654e+00 -4.257638280473947e-02 -2.073163534415932e+00 1.593423095450276e-01 1.582055249430931e+01 -2.430807512184054e-01 -4.724445304951632e+00 -4.235169550501940e-03 -3.165738004386615e-02 1.394452420379033e-01 1.525478784424247e-02 3.855411925947543e-02 -1.105500237768496e-02 -7.474527182934450e-02 4.134336304319832e+00 7.935640012098866e-02 3.691535301743814e-01 1.564387262512982e-01 -9.193979922012678e+00 -2.614672592051944e-02 2.814764631951095e+00 2.407204453310892e-02 3.207737820303505e-01 5.471314209219844e-02 5.874827635819677e-01 3.662021078833919e-02 -3.625947860742434e+00 1.623727000443806e-02 4.162862576760457e-01 6.803587331157203e-02 -4.550095571709479e+00 -7.098965201198919e-02 -7.337390109050879e-01 -2.430807512184087e-01 1.174733782079593e+01 2.302365958024382e-02 -3.387733235703290e+00 -4.507790174680585e-02 1.946143177289184e-01 9.449494277169419e-02 3.822990131002965e-01 9.926360991665278e-02 4.251224154238471e-01 2.999683709418943e-02 2.882244913306359e+00 2.698765820046030e-02 3.791103429970271e+00 -2.231868542619488e-02 -9.370761618426918e+00 -5.640632732950226e-02 1.897557137830855e-01 3.506531338253482e-02 4.633080424979811e-01 -7.933168322169505e-04 5.080914309540994e-01 -1.721039473523422e-02 -3.079717713614268e+00 1.442774574695814e-02 -2.593623339237591e-01 -1.132447519630927e-02 -3.688237102682224e+00 -4.101910494006147e-02 -4.724445304951640e+00 2.302365958024153e-02 1.244507949037782e+01 2.906090802514388e-03 1.083886072483355e-02 1.082043359016341e-02 2.335016906035760e-02 -3.771923389677775e-01 -3.696532887462682e-02 1.118600659881603e-01 1.091990764287794e-01 -3.654465602119646e-02 2.936068578810827e+00 -8.436333188793671e-05 3.126893118627931e+00 -5.894183922514146e-02 -7.937293375001163e+00 1.199281941872527e-02 1.454586860075620e-01 3.575564162118754e-02 3.275856990951062e-01 -8.960164644802414e-03 4.708359296690721e-01 -3.914317376614243e-02 -2.981813663367428e+00 -9.052690039327219e-02 -1.390357807240344e-01 3.046906491141673e-02 -3.546487780057594e+00 -4.235169550499059e-03 -3.387733235703305e+00 2.906090802510918e-03 1.038814381324821e+01 -1.982376844350166e-02 9.634009739956650e-02 -8.515068035101783e-02 -2.028075154573259e+00 -3.442100588583809e-01 -4.915710275994394e-02 1.720102526389920e-02 -2.881357704887036e-02 6.414892344083242e-02 3.462755433433477e-02 6.143957362554555e-02 -1.137633319416103e-03 -2.216888002119175e-01 -2.119637928558010e-02 -2.276525626155722e-02 -2.372159121073276e-02 3.437923916394313e-02 8.649880021053876e-03 6.491322324995993e-02 8.271475346584818e-03 2.613707049443515e-02 5.391955579344870e-02 -1.973500018246471e-02 2.672946908185331e-02 3.048510486632721e-02 -3.165738004386623e-02 -4.507790174680543e-02 1.083886072483335e-02 -1.982376844350264e-02 2.339863331911774e+00 -5.179418331856743e-01 -8.477472616339721e-01 1.374875572197885e-01 2.272872848867160e-02 -4.011454169890609e-02 -3.356907789447652e-02 3.335579680649354e-01 5.000922422656110e-01 -9.640267694762601e-02 1.745577951013264e-01 -7.490484304861103e-02 -1.564366352366979e+00 1.588976000169347e-02 2.037191075656975e-03 2.146934220094252e-01 2.479344923329691e-01 1.149579914613169e-03 -4.443249557300988e-02 -1.493896878782026e-01 -7.415692356817104e-02 2.872786676565029e-02 5.809950856136654e-02 -3.613400013801669e-01 -9.455703223006312e-02 1.394452420379035e-01 1.946143177289171e-01 1.082043359016296e-02 9.634009739956897e-02 -5.179418331856745e-01 6.242641334681177e+00 2.120595186363445e-01 -2.753082772087717e+00 5.032876711725665e-02 -2.799940571916855e-02 4.096158340985288e-02 5.357265268206680e-02 -8.876360318361980e-02 -1.858981949887008e-02 -3.085831151283633e-02 -1.536920546295451e-02 -7.721664836452428e-02 -2.276476597410267e-03 -2.989754485033271e-02 -3.402761054220908e-03 1.491463969247978e-02 -9.588028589269658e-03 2.281000496111236e-02 1.943397655403162e-02 -1.250708802280133e-01 3.582216770504223e-02 -4.777400567396758e-02 -6.785832103571489e-02 1.714374428764213e-01 1.525478784424223e-02 9.449494277169453e-02 2.335016906035798e-02 -8.515068035101782e-02 -8.477472616339722e-01 2.120595186363440e-01 2.140611282007087e+00 -4.514864343512175e-01 1.256688271398039e-02 2.673726610174385e-02 -1.318137920295457e-01 -3.272695946882009e-01 -3.394988319453032e-01 -2.583224933861999e-03 -2.630258763263393e-02 2.770459005488325e-01 1.064472454381703e+00 5.088728310829631e-02 1.907301368610033e-01 -1.273757602267158e-01 2.922573206461765e-02 3.177920456491772e-02 2.700723866407261e-01 2.273473843712971e-02 -6.179957518275092e-01 -4.590470766923731e-02 3.119860973293781e-02 3.987443279274758e-01 7.962072874376608e-01 3.855411925947574e-02 3.822990131003011e-01 -3.771923389677775e-01 -2.028075154573262e+00 1.374875572197886e-01 -2.753082772087715e+00 -4.514864343512180e-01 6.409204662492131e+00 2.064802357593266e-01 -1.837890445493035e-02 -5.683430532944549e-02 6.316920233306315e-03 -3.067106913551360e-02 2.273618817009479e-02 -4.621415126621144e-02 -5.286392139689976e-03 1.321728203461635e-01 -8.688666984975908e-03 -9.601007482344511e-03 1.914163148792685e-02 2.931943945757501e-02 6.868886527990520e-03 6.322368345094689e-04 -6.329904781148748e-03 3.056412351223298e-02 2.847022379844148e-02 5.688608715484389e-02 -1.483609199862707e-03 9.904644154402514e-02 -1.105500237768495e-02 9.926360991665323e-02 -3.696532887462685e-02 -3.442100588583810e-01 2.272872848867157e-02 5.032876711725674e-02 1.256688271398037e-02 2.064802357593265e-01 1.027380800863538e+01 
      </Matrix>
      <Matrix Rows="29" Columns="29">
        1.035225433369807e+01 -1.499919127789210e-01 -2.368955490430662e+00 2.678254589505526e-02 -3.055185348597304e+00 -1.224942900077644e-02 -9.478417775340703e-02 -6.301888029721278e-02 1.293487878123502e+00 -8.897498199829418e-02 -9.078988532211756e-02 2.274304343266826e-04 -5.248347073464589e-01 -6.814296785714773e-02 5.873240334486077e-02 5.076065976371876e-02 -9.202372869857840e+00 1.930978253139151e-01 1.822399214308030e+00 -6.683429537687872e-02 2.677349074111543e+00 2.367695050645015e-02 1.783723980889057e-01 1.460313321893256e-01 -5.595013086384862e-02 -2.048939352663562e-01 1.303462890870589e-02 1.212621973502689e-01 3.230395556762886e-03 -1.499919127789219e-01 6.620714921949003e+00 1.032883854572778e-01 -2.312776110660756e+00 -8.724390222913157e-02 -2.713118182815263e+00 -2.345662330649750e-02 1.141652136639691e-01 -5.197930802288708e-02 1.114606080839825e+00 -4.965863667203026e-03 -9.643805563114358e-02 -9.261205904180447e-03 -7.604475299944077e-01 -4.614243809262572e-02 -1.191989520404679e-02 1.213151391985411e-01 -5.361986539164871e+00 -7.123918925482198e-02 1.532222254436243e+00 1.139541802943580e-01 2.449311668414645e+00 1.439079163414220e-02 8.778559419670617e-02 -2.427182357117009e-02 -1.179773472905985e-02 7.076894616618061e-02 -1.176878966881552e-01 -1.473787713289966e-01 -2.368955490430659e+00 1.032883854572749e-01 7.110317647319494e+00 -3.678891299107917e-01 -3.272356742944560e-01 -1.089306073166846e-02 -8.727356624691105e-01 -1.447965476742170e-01 6.675930339206276e-02 1.155653220999349e-01 1.587646305842920e-01 -2.589524811774555e-01 5.370258004225015e-02 -1.478402229922495e-01 -1.322544345129051e-01 -3.314114587409194e-02 1.859342835936064e+00 -2.040742848079207e-01 -5.340431844726383e+00 4.500792453526916e-01 5.846546416684977e-01 2.986080092078038e-01 2.950987906974368e-01 -5.946681309111115e-02 -3.207429922664295e-03 5.941510888632104e-01 8.008490500351025e-03 -5.546071123845494e-01 5.198024281753616e-02 2.678254589505634e-02 -2.312776110660755e+00 -3.678891299107929e-01 6.535870358420167e+00 1.426586336180563e-01 2.117957888540843e-01 -5.070923724548756e-02 -1.058169249008797e+00 -4.946595049104933e-02 -2.881775972667269e-01 4.702417725406512e-02 8.531184162792225e-01 4.568125614032845e-02 -1.779725507387627e-01 3.262644637839545e-02 -1.073546885338559e-01 -1.109287118619320e-02 1.616394502470338e+00 2.746241718601345e-01 -4.535549256247604e+00 -6.528382138031966e-02 2.852215686883032e-01 -6.323257072398401e-02 7.102387640056478e-01 1.472846834210394e-03 2.480748933083187e-01 -7.357800308809226e-03 -2.186217073322424e-01 -2.703163512989071e-02 -3.055185348597305e+00 -8.724390222912970e-02 -3.272356742944509e-01 1.426586336180562e-01 8.976878255485484e+00 -9.092663309741392e-02 -1.220745614691022e+00 1.894951745355797e-01 5.823695626972400e-02 -9.385280813917052e-02 2.566689041861601e-02 1.177894634226624e-01 8.232205721632022e-01 1.771945569746375e-01 -2.659060160351978e-01 -1.536020173232939e-01 2.585419566068639e+00 9.356507169887993e-02 5.117248225473882e-01 -6.852775658115370e-02 -7.433939321725200e+00 -1.110219006564573e-01 7.983958237071992e-01 -2.856699280831832e-02 3.666627201729054e-03 9.186864607472245e-02 -1.547565641898448e-02 -6.228586805770581e-02 -8.107438274901003e-03 -1.224942900077634e-02 -2.713118182815263e+00 -1.089306073167161e-02 2.117957888540836e-01 -9.092663309741027e-02 7.531410419648420e+00 9.155441579314680e-02 -1.469381273479252e+00 9.893097175260700e-03 -1.324768832085698e-01 1.040220570908666e-02 -1.248763804276206e-01 2.612308968883634e-03 1.068229601274393e+00 -1.303783446187901e-02 -2.138115178985483e-01 3.205827075728605e-02 2.151550561037745e+00 3.641061286579755e-02 2.550803707643417e-01 -6.347439974639553e-03 -5.669423355885107e+00 -5.905763227448966e-02 1.017971730746966e+00 1.525804788003121e-01 2.334393088594413e-01 -9.411789413187112e-02 -2.021540952237633e-01 2.367484221871371e-02 -9.478417775340145e-02 -2.345662330649650e-02 -8.727356624691132e-01 -5.070923724548911e-02 -1.220745614691023e+00 9.155441579314660e-02 6.160553371782838e+00 -9.723939259438023e-02 -1.617911327677701e-01 2.769552482089611e-02 2.669691749329216e-01 2.584945122579536e-02 3.117000150329171e-01 7.438822658501348e-03 8.645591574397704e-03 -6.700082787194636e-02 1.589167974323985e-02 -2.757006474643871e-02 2.145568573833211e-01 8.818066279873052e-02 5.983895805028951e-01 -4.613113707275397e-02 -3.442158827070978e+00 -9.629685424133841e-02 -2.230433925051265e-02 -3.282331027174573e-02 5.083224340396882e-03 3.825003396448757e-01 -7.003665788848489e-02 -6.301888029721348e-02 1.141652136639694e-01 -1.447965476742163e-01 -1.058169249008798e+00 1.894951745355786e-01 -1.469381273479253e+00 -9.723939259438016e-02 8.730611601226876e+00 2.021229114595893e-02 -1.353272910931725e-01 -1.102582014762064e-01 6.542366893492479e-02 5.125178042527247e-02 -2.592322479144039e-01 -3.983766000496630e-02 1.091939909816255e+00 3.964864147805693e-02 2.540616978435277e-02 2.006101431039792e-01 6.685234549052698e-01 -1.926434234101153e-01 1.121088880234275e+00 7.228618960916781e-02 -4.952956741053149e+00 -1.605602319196265e-01 -6.005950565233755e-01 -8.625023038366227e-02 -1.890970525365901e-02 -1.388223907773720e-01 1.293487878123504e+00 -5.197930802288789e-02 6.675930339206317e-02 -4.946595049104904e-02 5.823695626972391e-02 9.893097175261477e-03 -1.617911327677710e-01 2.021229114595894e-02 4.111273678580881e+00 -9.030009015576954e-02 -9.456088773779061e-01 3.633906702549733e-02 -7.960047969888605e-01 -4.331025858495041e-02 -1.424240030421162e-02 -3.110745774433490e-02 -2.749926858356075e+00 2.469731731279505e-02 -2.884380209643926e-02 5.078852879920512e-02 -5.078829348046404e-03 6.719765223863200e-02 3.884702405815470e-01 -2.631273424840071e-02 -4.142895790639330e-02 -9.389847905018563e-02 1.609030040849434e-04 7.529881543957522e-03 5.214581108078498e-02 -8.897498199829443e-02 1.114606080839828e+00 1.155653220999357e-01 -2.881775972667286e-01 -9.385280813917056e-02 -1.324768832085711e-01 2.769552482089554e-02 -1.353272910931723e-01 -9.030009015576934e-02 4.217521232775642e+00 1.082234228215325e-01 -9.878342484989264e-01 -6.119646836530358e-02 -8.419478854643696e-01 -2.181121627638994e-02 -8.108768911030940e-02 9.299604355869853e-02 -2.801859893180175e+00 -1.666484275263679e-01 3.792919071408312e-01 1.430482059044146e-01 1.376588190981133e-01 9.164335761627545e-03 2.921664696357326e-01 -4.892933474109330e-02 -7.363975276703169e-02 -5.790583291772586e-02 5.675245398165519e-02 4.158966792121196e-02 -9.078988532211787e-02 -4.965863667203398e-03 1.587646305842905e-01 4.702417725406546e-02 2.566689041861579e-02 1.040220570908684e-02 2.669691749329223e-01 -1.102582014762062e-01 -9.456088773779067e-01 1.082234228215319e-01 3.784501007057788e+00 -3.220879187077318e-01 -2.016273208904714e-01 -4.227718789125319e-02 -1.738377961430419e-01 3.884802760867327e-02 9.953442788246458e-02 -6.292724802879138e-02 -1.857429228459135e+00 1.449140915110098e-01 1.111842874307186e-01 4.846544892492077e-02 -1.633899681187838e-01 1.166354989499669e-01 1.809611440003268e-02 3.677618876672759e-01 -1.657094335287199e-04 -3.362739460924959e-01 -1.973851272056300e-02 2.274304343264283e-04 -9.643805563114287e-02 -2.589524811774543e-01 8.531184162792205e-01 1.177894634226624e-01 -1.248763804276196e-01 2.584945122579582e-02 6.542366893492600e-02 3.633906702549747e-02 -9.878342484989255e-01 -3.220879187077318e-01 3.711790215978175e+00 6.543904778862414e-02 -1.765364941021750e-01 5.301104901611978e-02 -6.911161201409001e-01 -2.932679668390361e-03 2.387900137471691e-01 4.223453985418434e-01 -2.345666564684945e+00 -1.660763495725223e-01 4.847430139073416e-01 -1.675261955171778e-02 1.052655873862009e-01 4.125248405351600e-02 3.320028152188383e-01 1.783068772700382e-03 -2.558700912532916e-01 5.697732718523390e-03 -5.248347073464555e-01 -9.261205904179171e-03 5.370258004225039e-02 4.568125614032716e-02 8.232205721632013e-01 2.612308968882989e-03 3.117000150329166e-01 5.125178042527283e-02 -7.960047969888601e-01 -6.119646836530342e-02 -2.016273208904715e-01 6.543904778862417e-02 3.887968558031481e+00 1.927655201066054e-02 -3.329261393503424e-01 -9.309190976108520e-02 5.513790984860099e-01 3.049671404643563e-02 1.283103449325225e-01 -3.949272087517075e-02 -2.712801917239912e+00 -6.913127403331530e-02 -1.415104260095736e-01 2.825687780054459e-02 3.331528943976591e-02 1.949271622906262e-02 -1.055038166305068e-02 1.091543373592629e-01 -1.974654485902402e-02 -6.814296785714771e-02 -7.604475299944075e-01 -1.478402229922505e-01 -1.779725507387618e-01 1.771945569746389e-01 1.068229601274393e+00 7.438822658501041e-03 -2.592322479144047e-01 -4.331025858495076e-02 -8.419478854643687e-01 -4.227718789125349e-02 -1.765364941021748e-01 1.927655201066097e-02 3.968497997741903e+00 -3.755490698990410e-02 -5.035938136378156e-01 6.104829272404419e-02 8.058949891367507e-01 1.770879907569510e-01 4.411956585937947e-01 -1.739905260522698e-01 -2.885025382458878e+00 1.135904005611807e-02 2.299692211452748e-01 7.170183359315997e-02 -1.560331664282581e-01 1.080636978940345e-01 8.313158659653699e-02 1.896390638220078e-02 5.873240334486054e-02 -4.614243809262646e-02 -1.322544345129058e-01 3.262644637839545e-02 -2.659060160351975e-01 -1.303783446187880e-02 8.645591574398398e-03 -3.983766000496623e-02 -1.424240030421172e-02 -2.181121627639018e-02 -1.738377961430419e-01 5.301104901611973e-02 -3.329261393503422e-01 -3.755490698990377e-02 2.361041860119174e+00 -1.467645858232184e-01 1.433599908173087e-01 4.281783559614668e-02 2.086641469922182e-01 -4.074149648775510e-02 3.760812673565391e-01 2.984761933333106e-02 -1.878960600231382e+00 1.963162304264524e-02 1.001269415243621e-02 -1.413187503778338e-01 3.127568915702631e-03 1.925686230663418e-01 2.715401073098695e-02 5.076065976371794e-02 -1.191989520404788e-02 -3.314114587409187e-02 -1.073546885338551e-01 -1.536020173232935e-01 -2.138115178985484e-01 -6.700082787194628e-02 1.091939909816254e+00 -3.110745774433533e-02 -8.108768911030974e-02 3.884802760867333e-02 -6.911161201409007e-01 -9.309190976108489e-02 -5.035938136378159e-01 -1.467645858232183e-01 5.114280190395045e+00 -1.467754395058828e-02 3.187374677590403e-01 -3.986039538398847e-02 6.377559745553030e-02 1.736528156712365e-01 3.222021137334018e-01 2.319086322239289e-01 -3.106089244496919e+00 -1.658074907319530e-02 -2.506631804494737e-01 5.030264324781051e-03 1.257500855378353e-01 9.975411392797227e-02 -9.202372869857841e+00 1.213151391985408e-01 1.859342835936066e+00 -1.109287118619220e-02 2.585419566068640e+00 3.205827075728555e-02 1.589167974324564e-02 3.964864147805626e-02 -2.749926858356075e+00 9.299604355869852e-02 9.953442788246437e-02 -2.932679668390381e-03 5.513790984860137e-01 6.104829272404378e-02 1.433599908173082e-01 -1.467754395058927e-02 1.125836350813606e+01 -1.999154100122713e-01 -2.381992850009460e+00 5.514421541115432e-02 -3.177000632740440e+00 -3.020791203281728e-02 8.917533338345655e-02 -1.882169273673129e-01 7.529151686550306e-02 1.830148522744037e-01 -1.369875193274703e-02 -1.274396307745740e-01 2.659818220708700e-03 1.930978253139168e-01 -5.361986539164870e+00 -2.040742848079243e-01 1.616394502470340e+00 9.356507169888115e-02 2.151550561037746e+00 -2.757006474643766e-02 2.540616978435273e-02 2.469731731279430e-02 -2.801859893180175e+00 -6.292724802879204e-02 2.387900137471698e-01 3.049671404643679e-02 8.058949891367511e-01 4.281783559614580e-02 3.187374677590387e-01 -1.999154100122722e-01 7.252767270806311e+00 2.000436432966713e-01 -1.964285317124284e+00 -1.226313152740073e-01 -2.944780735539867e+00 3.469219582097213e-02 5.834129472797640e-02 -9.465307581110229e-03 -1.065389809807468e-02 -9.538953685903262e-02 -6.748268282346269e-02 1.623727435290557e-01 1.822399214308028e+00 -7.123918925481955e-02 -5.340431844726381e+00 2.746241718601332e-01 5.117248225473937e-01 3.641061286579498e-02 2.145568573833184e-01 2.006101431039796e-01 -2.884380209643886e-02 -1.666484275263667e-01 -1.857429228459136e+00 4.223453985418441e-01 1.283103449325226e-01 1.770879907569502e-01 2.086641469922175e-01 -3.986039538398849e-02 -2.381992850009457e+00 2.000436432966680e-01 7.472074829556469e+00 -6.555728359757041e-01 -3.708460201520025e-01 -2.065159336852920e-01 -8.793981078291585e-01 3.065343184022813e-02 1.293422924535539e-02 -6.906387093565918e-01 1.099218118295715e-02 7.248759320225525e-01 -2.015222475604459e-02 -6.683429537687953e-02 1.532222254436240e+00 4.500792453526915e-01 -4.535549256247602e+00 -6.852775658115419e-02 2.550803707643412e-01 8.818066279872924e-02 6.685234549052685e-01 5.078852879920525e-02 3.792919071408289e-01 1.449140915110102e-01 -2.345666564684946e+00 -3.949272087517201e-02 4.411956585937956e-01 -4.074149648775501e-02 6.377559745553091e-02 5.514421541115528e-02 -1.964285317124281e+00 -6.555728359757048e-01 6.084940423079121e+00 1.495126992356649e-01 -1.984751276163388e-01 -6.717813407814140e-02 -1.386832576382503e+00 1.023189475441996e-01 -2.163683735002834e-01 1.477310517420370e-01 6.945374439986675e-01 -2.366786137370389e-03 2.677349074111540e+00 1.139541802943552e-01 5.846546416684937e-01 -6.528382138031878e-02 -7.433939321725199e+00 -6.347439974636004e-03 5.983895805028929e-01 -1.926434234101164e-01 -5.078829348047074e-03 1.430482059044145e-01 1.111842874307181e-01 -1.660763495725227e-01 -2.712801917239913e+00 -1.739905260522681e-01 3.760812673565394e-01 1.736528156712369e-01 -3.177000632740437e+00 -1.226313152740052e-01 -3.708460201519976e-01 1.495126992356642e-01 9.797312756514657e+00 -3.767426211748606e-02 -1.372436121698783e+00 1.053755538867010e-01 -1.068071009592176e-02 -6.010307802974874e-03 1.511774233495301e-02 8.773062639227247e-02 -7.391310820953500e-03 2.367695050644939e-02 2.449311668414643e+00 2.986080092078072e-01 2.852215686883035e-01 -1.110219006564611e-01 -5.669423355885105e+00 -4.613113707275353e-02 1.121088880234276e+00 6.719765223863289e-02 1.376588190981126e-01 4.846544892492105e-02 4.847430139073427e-01 -6.913127403331640e-02 -2.885025382458878e+00 2.984761933333168e-02 3.222021137334021e-01 -3.020791203281747e-02 -2.944780735539866e+00 -2.065159336852946e-01 -1.984751276163398e-01 -3.767426211748165e-02 7.656792412067856e+00 -1.277741340621066e-02 -1.617652386036263e+00 7.782768765287912e-03 -1.453768535021979e-02 2.054790710403500e-01 4.683400975280988e-01 -1.556707910640640e-01 1.783723980889014e-01 1.439079163414277e-02 2.950987906974403e-01 -6.323257072398275e-02 7.983958237071996e-01 -5.905763227448994e-02 -3.442158827070979e+00 7.228618960916770e-02 3.884702405815463e-01 9.164335761627597e-03 -1.633899681187831e-01 -1.675261955171736e-02 -1.415104260095745e-01 1.135904005611723e-02 -1.878960600231381e+00 2.319086322239292e-01 8.917533338346040e-02 3.469219582097150e-02 -8.793981078291614e-01 -6.717813407814235e-02 -1.372436121698784e+00 -1.277741340620933e-02 5.496825513171439e+00 -2.120496103659583e-02 2.621365475528291e-02 5.898714938916186e-02 3.562493267792533e-02 -4.847082878163275e-01 -6.801634769053055e-02 1.460313321893270e-01 8.778559419670746e-02 -5.946681309111193e-02 7.102387640056474e-01 -2.856699280831783e-02 1.017971730746965e+00 -9.629685424133881e-02 -4.952956741053148e+00 -2.631273424840050e-02 2.921664696357333e-01 1.166354989499670e-01 1.052655873862021e-01 2.825687780054480e-02 2.299692211452738e-01 1.963162304264515e-02 -3.106089244496920e+00 -1.882169273673145e-01 5.834129472797478e-02 3.065343184022866e-02 -1.386832576382503e+00 1.053755538867004e-01 -1.617652386036261e+00 -2.120496103659553e-02 7.166416466081086e+00 -1.403951418593439e-01 -3.123146162574816e-01 -1.911542681896349e-01 -9.696466993151488e-01 -2.665104439036051e-01 -5.595013086384879e-02 -2.427182357117023e-02 -3.207429922664394e-03 1.472846834210400e-03 3.666627201729348e-03 1.525804788003125e-01 -2.230433925051253e-02 -1.605602319196265e-01 -4.142895790639325e-02 -4.892933474109326e-02 1.809611440003254e-02 4.125248405351612e-02 3.331528943976600e-02 7.170183359315981e-02 1.001269415243621e-02 -1.658074907319524e-02 7.529151686550328e-02 -9.465307581110092e-03 1.293422924535552e-02 1.023189475441994e-01 -1.068071009592213e-02 7.782768765287836e-03 2.621365475528285e-02 -1.403951418593441e-01 1.483731829769695e+00 -1.204299595602187e-01 -5.609618734912699e-01 2.252201757556695e-02 5.717114594848494e-02 -2.048939352663557e-01 -1.179773472906016e-02 5.941510888632103e-01 2.480748933083184e-01 9.186864607472210e-02 2.334393088594416e-01 -3.282331027174533e-02 -6.005950565233747e-01 -9.389847905018556e-02 -7.363975276703162e-02 3.677618876672761e-01 3.320028152188382e-01 1.949271622906255e-02 -1.560331664282580e-01 -1.413187503778336e-01 -2.506631804494739e-01 1.830148522744032e-01 -1.065389809807434e-02 -6.906387093565918e-01 -2.163683735002832e-01 -6.010307802974428e-03 -1.453768535022032e-02 5.898714938916131e-02 -3.123146162574823e-01 -1.204299595602188e-01 4.094021190119072e+00 4.302788758759434e-02 -1.707196547970312e+00 -1.549093558337547e-01 1.303462890870573e-02 7.076894616618044e-02 8.008490500351271e-03 -7.357800308808852e-03 -1.547565641898470e-02 -9.411789413187144e-02 5.083224340396797e-03 -8.625023038366190e-02 1.609030040849186e-04 -5.790583291772601e-02 -1.657094335286253e-04 1.783068772700496e-03 -1.055038166305074e-02 1.080636978940344e-01 3.127568915702627e-03 5.030264324781297e-03 -1.369875193274685e-02 -9.538953685903240e-02 1.099218118295685e-02 1.477310517420366e-01 1.511774233495320e-02 2.054790710403503e-01 3.562493267792543e-02 -1.911542681896351e-01 -5.609618734912700e-01 4.302788758759441e-02 1.410373138225652e+00 -1.967382368194305e-01 8.062453551470341e-03 1.212621973502685e-01 -1.176878966881549e-01 -5.546071123845492e-01 -2.186217073322420e-01 -6.228586805770572e-02 -2.021540952237631e-01 3.825003396448754e-01 -1.890970525366074e-02 7.529881543957600e-03 5.675245398165506e-02 -3.362739460924963e-01 -2.558700912532914e-01 1.091543373592628e-01 8.313158659653754e-02 1.925686230663417e-01 1.257500855378353e-01 -1.274396307745736e-01 -6.748268282346287e-02 7.248759320225527e-01 6.945374439986671e-01 8.773062639227232e-02 4.683400975280986e-01 -4.847082878163271e-01 -9.696466993151476e-01 2.252201757556690e-02 -1.707196547970312e+00 -1.967382368194303e-01 4.156894303197348e+00 1.311579084633643e-01 3.230395556762748e-03 -1.473787713289964e-01 5.198024281753608e-02 -2.703163512989059e-02 -8.107438274900833e-03 2.367484221871349e-02 -7.003665788848476e-02 -1.388223907773720e-01 5.214581108078489e-02 4.158966792121207e-02 -1.973851272056296e-02 5.697732718523286e-03 -1.974654485902394e-02 1.896390638220077e-02 2.715401073098691e-02 9.975411392797234e-02 2.659818220708876e-03 1.623727435290556e-01 -2.015222475604454e-02 -2.366786137370402e-03 -7.391310820953716e-03 -1.556707910640639e-01 -6.801634769053057e-02 -2.665104439036051e-01 5.717114594848494e-02 -1.549093558337548e-01 8.062453551470361e-03 1.311579084633643e-01 9.001251193106512e+00 
      </Matrix>
      <Matrix Rows="29" Columns="29">
        1.182014646537946e+01 -1.662908313035841e-01 -3.456512686293983e+00 5.360261801518147e-02 -4.378715677803101e+00 9.510948955764596e-02 -3.581395315834910e-01 -7.546271390193024e-02 1.511395207000762e+00 -6.117916839804640e-02 -4.296415640319010e-01 1.696731610115053e-02 -7.696242697285214e-01 -1.528887594292083e-02 -1.069558976573916e-01 -1.287717186921642e-02 -1.062094834508008e+01 1.709847507076352e-01 2.984386954321825e+00 -7.034932020369040e-02 3.987216796725347e+00 -1.004081903994029e-01 5.308992381424325e-01 1.543348592758924e-01 -4.275298333104641e-02 -9.048866675308330e-02 -2.053585517791220e-02 4.302990708469503e-02 -2.748561580052224e-02 -1.662908313035877e-01 9.447526372687500e+00 1.078204141882467e-01 -3.056773174285970e+00 -4.701205194543785e-02 -4.295734156829639e+00 9.522806618803115e-03 1.340761981270465e-01 -3.298630801517920e-02 1.482651317742545e+00 2.164702316242565e-02 -3.028350897142256e-01 6.089094886572902e-03 -9.844875914314599e-01 -2.385293493111369e-02 -1.551951412677668e-01 1.572036745072226e-01 -7.925638175353761e+00 -1.115600531739170e-01 2.303320802371349e+00 5.132386022886770e-02 3.870812410984966e+00 -1.873725752366068e-03 8.314660912882213e-02 9.259275659434381e-03 -3.207716652763576e-02 5.129220358707071e-02 -1.124025852479124e-01 -6.927416835425071e-02 -3.456512686293979e+00 1.078204141882462e-01 1.128888018219313e+01 -2.097497948239360e-01 -2.096788643004903e+00 -3.672241533067445e-02 -2.456296813968525e+00 -7.537213594926008e-02 -8.459474094898692e-02 5.631880461107267e-02 1.051177405725982e+00 -1.541845469649850e-01 -3.694281341221245e-02 -6.110537871068010e-02 -3.040033258318406e-01 2.847336629356266e-02 2.930084102553563e+00 -1.544368607276482e-01 -9.318857330339728e+00 2.869861893191092e-01 1.891338723508660e+00 2.045255450726144e-01 1.767448888430544e+00 -9.410862806827487e-02 -3.682588298132508e-02 4.149138435869599e-01 4.209587472033181e-02 -3.956471219789726e-01 3.599478696952616e-02 5.360261801518482e-02 -3.056773174285972e+00 -2.097497948239366e-01 9.424741385131165e+00 8.643490743964577e-02 -3.888988571418338e-01 -1.436994641119557e-03 -3.644183673728744e+00 -2.371284637138527e-02 -4.112165118951782e-01 -2.371402349176216e-02 9.286080648684505e-01 3.036203158744609e-02 7.023500357811899e-02 2.676409009401391e-03 -3.174203820109319e-01 -4.355191331500455e-02 2.228440097549965e+00 1.679446643927496e-01 -6.698438239204748e+00 -4.863607409714529e-02 3.980307934747866e-01 -1.922300713846727e-03 2.439128334857925e+00 4.211871414387896e-02 4.366607990084124e-01 -7.433867763562541e-02 -2.473807012295741e-01 -1.665583595579876e-02 -4.378715677803099e+00 -4.701205194543978e-02 -2.096788643004897e+00 8.643490743964607e-02 1.326049318134256e+01 -1.646791278830574e-01 -3.219418711642200e+00 1.143745157225246e-01 -2.221951358027020e-01 -6.349365053917193e-02 -4.585885362358599e-03 5.098928245173173e-02 1.558157917079589e+00 3.655182209249732e-03 -5.306513659878376e-01 -2.099848424341368e-02 3.862734388451945e+00 7.907878956993473e-02 1.880437504636668e+00 -1.023156854830046e-01 -1.145151813817215e+01 8.299436155912340e-02 2.666227053722926e+00 -3.083541446528586e-02 3.234398387993078e-02 -1.277214619515333e-01 -2.177790339989392e-02 4.460840186489701e-02 1.564610307460899e-02 9.510948955764939e-02 -4.295734156829643e+00 -3.672241533067708e-02 -3.888988571418341e-01 -1.646791278830606e-01 1.100075563554130e+01 5.624533244718043e-02 -3.892439676344417e+00 -3.083181769742184e-04 1.380404909650657e-02 1.548801133793319e-02 -2.457925810625329e-01 -5.999535888592845e-02 1.450857307118816e+00 -1.219558502777683e-03 -5.050152802836616e-01 -9.207187750484466e-02 3.536151694992318e+00 7.522990118109672e-02 3.964230806294620e-01 1.411625597235763e-01 -8.577379148650408e+00 -4.806461671544100e-02 2.722338369474856e+00 7.445036409603875e-02 1.519056538716616e-01 -5.406432559590162e-02 6.091732845783178e-03 -2.211548053394372e-02 -3.581395315834931e-01 9.522806618801899e-03 -2.456296813968524e+00 -1.436994641118145e-03 -3.219418711642200e+00 5.624533244717884e-02 9.421019199706553e+00 -5.622275666512339e-02 -1.377692577658278e-01 3.418653797249829e-03 -3.242836763868875e-02 2.121636891471864e-02 -3.951536462877718e-02 2.993887441776596e-02 9.219727935889814e-01 -5.339989447101234e-02 3.739367615382280e-01 -1.027002063156956e-02 1.687493474101344e+00 4.738715179072842e-02 2.543202598772996e+00 -3.779496313230740e-02 -7.205900496361716e+00 -5.222446307580378e-02 -1.062691116865466e-02 -8.280996571613503e-02 -1.395226453886592e-02 2.701981472511769e-01 -8.671458602125435e-04 -7.546271390193221e-02 1.340761981270532e-01 -7.537213594925887e-02 -3.644183673728747e+00 1.143745157225257e-01 -3.892439676344417e+00 -5.622275666512302e-02 1.072302986880534e+01 4.425696086875190e-02 -1.543438742481288e-01 -1.127085354479329e-01 -1.525593424077136e-01 3.658618145592525e-02 -2.071897501962847e-01 -4.469245749130379e-03 1.166256185589729e+00 7.800702852119366e-02 8.953003625824915e-02 1.413362410996747e-01 2.357672228058516e+00 -1.328067990645492e-01 2.451926484146707e+00 -1.116516219742053e-02 -7.053695995030156e+00 -2.264822995663401e-01 -1.252862572977650e+00 -7.824150680571548e-02 7.528026268379104e-01 1.645017220762831e-01 1.511395207000763e+00 -3.298630801517883e-02 -8.459474094898704e-02 -2.371284637138535e-02 -2.221951358027044e-01 -3.083181769743257e-04 -1.377692577658274e-01 4.425696086875144e-02 4.386025884051483e+00 -1.123476220841162e-01 -1.199202981740830e+00 1.501652097346563e-02 -1.163677652847048e+00 -2.477682863838545e-02 3.283494810581566e-02 -2.901089249491631e-02 -3.009331865871222e+00 4.291427184609209e-02 2.853636430489728e-01 2.289159073872582e-02 4.195940594891368e-01 3.754455116218868e-02 2.173737961214815e-01 -6.906288761504365e-03 -2.423470054657393e-02 -1.167888527289725e-02 -3.053075436927778e-03 6.113659572977768e-02 -3.138772933141315e-03 -6.117916839804804e-02 1.482651317742551e+00 5.631880461107321e-02 -4.112165118951789e-01 -6.349365053917080e-02 1.380404909650701e-02 3.418653797250187e-03 -1.543438742481320e-01 -1.123476220841165e-01 5.093295103499181e+00 4.270404981148500e-02 -1.446131527765087e+00 -5.133853952569133e-02 -1.342935969237604e+00 -3.535596077297566e-03 2.294843498433098e-02 9.906011511357476e-02 -3.351476307167708e+00 -8.154679477135782e-02 8.012984805891910e-01 9.060498727351127e-02 3.107564793325154e-01 2.992356576545894e-02 1.563624834800875e-01 -2.068319284549916e-02 -3.099552701642758e-02 -3.132981512585273e-02 1.919760939740098e-01 -1.571283268657892e-02 -4.296415640319044e-01 2.164702316242610e-02 1.051177405725984e+00 -2.371402349176216e-02 -4.585885362357501e-03 1.548801133793276e-02 -3.242836763869109e-02 -1.127085354479331e-01 -1.199202981740830e+00 4.270404981148491e-02 5.136776756378726e+00 -2.235167399108368e-01 -8.163811737597305e-01 3.968387042153930e-03 -7.729810271356473e-01 5.472045575285454e-02 5.430335121054328e-01 -7.649450132925276e-02 -3.218767530925856e+00 1.001846368039686e-01 4.160905490177969e-01 7.032482880116928e-02 3.547169160182880e-01 7.390935519694163e-02 -1.352944208103761e-02 3.347208064431573e-01 5.032310649569440e-03 -2.149278284136431e-01 2.144070567538245e-02 1.696731610115272e-02 -3.028350897142299e-01 -1.541845469649851e-01 9.286080648684545e-01 5.098928245172968e-02 -2.457925810625286e-01 2.121636891471857e-02 -1.525593424077148e-01 1.501652097346619e-02 -1.446131527765088e+00 -2.235167399108375e-01 5.279720842745310e+00 3.021277279316468e-02 -2.304812236494471e-01 6.684639234085252e-02 -1.481830935975700e+00 -2.922181966941913e-02 5.456275230944492e-01 2.021556871557821e-01 -2.977641821329054e+00 -4.075553203384686e-02 5.816588543252773e-01 -5.704270258939931e-03 3.652705935304040e-01 4.010807819315809e-02 2.938850210667269e-01 1.446043224011460e-02 -5.205094050293360e-02 2.150938697220967e-02 -7.696242697285210e-01 6.089094886571317e-03 -3.694281341221105e-02 3.036203158744655e-02 1.558157917079588e+00 -5.999535888592720e-02 -3.951536462877393e-02 3.658618145592458e-02 -1.163677652847048e+00 -5.133853952569224e-02 -8.163811737597289e-01 3.021277279316512e-02 5.312059202262144e+00 -6.750874905491303e-02 -8.890642664921349e-01 1.228156060390544e-02 8.695812443475887e-01 1.060685921160676e-02 4.603831966138180e-01 4.381752522954627e-03 -3.775966979138685e+00 1.482368959662059e-03 3.577742369862312e-01 9.825884002180263e-03 1.838332498654743e-02 3.980428338013070e-03 -7.345747945682744e-03 5.929260146348763e-02 -7.480682405526907e-04 -1.528887594292091e-02 -9.844875914314625e-01 -6.110537871068092e-02 7.023500357812044e-02 3.655182209249434e-03 1.450857307118816e+00 2.993887441776616e-02 -2.071897501962863e-01 -2.477682863838552e-02 -1.342935969237605e+00 3.968387042154127e-03 -2.304812236494496e-01 -6.750874905491361e-02 5.615141295849859e+00 -2.120926430283769e-03 -1.454043532962521e+00 1.143273913437165e-02 1.052791630299041e+00 1.157308164210814e-01 2.979846828946679e-01 -1.105525287958542e-02 -3.616153155198681e+00 -2.978296838295321e-02 4.439621724882217e-01 7.871402433711389e-02 -7.850543422657549e-02 4.422193482836419e-02 2.089793326450622e-01 -1.525480640982231e-02 -1.069558976573921e-01 -2.385293493111342e-02 -3.040033258318401e-01 2.676409009401799e-03 -5.306513659878359e-01 -1.219558502778651e-03 9.219727935889805e-01 -4.469245749129987e-03 3.283494810581601e-02 -3.535596077297443e-03 -7.729810271356473e-01 6.684639234085225e-02 -8.890642664921352e-01 -2.120926430284207e-03 3.497479191259266e+00 -1.132122858647315e-01 2.427110551571985e-01 5.593531203306319e-02 5.166064306468751e-01 -1.095675742214076e-02 7.218229651375097e-01 1.825649545749021e-02 -2.835925002532817e+00 -8.584818944275162e-02 -9.517554661497042e-03 -2.549488118173516e-01 3.775544442402521e-03 7.109737303661483e-02 4.096866589209976e-03 -1.287717186921701e-02 -1.551951412677625e-01 2.847336629356189e-02 -3.174203820109328e-01 -2.099848424341265e-02 -5.050152802836653e-01 -5.339989447101189e-02 1.166256185589731e+00 -2.901089249491653e-02 2.294843498433289e-02 5.472045575285479e-02 -1.481830935975698e+00 1.228156060390588e-02 -1.454043532962523e+00 -1.132122858647320e-01 5.824061082688355e+00 2.006305186675329e-02 3.732916016335711e-01 -4.593360538386408e-02 2.778907255461810e-01 4.812846022799561e-02 4.712206307761475e-01 5.613745220060026e-02 -3.015523777151877e+00 -9.089659645254225e-03 -1.190650281238848e-02 -1.298004814100068e-01 -4.990845972760846e-01 9.446879213390488e-02 -1.062094834508008e+01 1.572036745072197e-01 2.930084102553566e+00 -4.355191331500159e-02 3.862734388451946e+00 -9.207187750484214e-02 3.739367615382263e-01 7.800702852119258e-02 -3.009331865871221e+00 9.906011511357327e-02 5.430335121054292e-01 -2.922181966941659e-02 8.695812443475892e-01 1.143273913437129e-02 2.427110551571982e-01 2.006305186675273e-02 1.271834506845632e+01 -2.163455011465738e-01 -3.578213839999804e+00 6.699485887283665e-02 -4.545373557775747e+00 9.686110425008002e-02 -3.693936357864335e-01 -1.372514534242129e-01 5.121239419081401e-02 7.500960748094349e-02 2.856421489783621e-02 -5.559075078477232e-02 3.785150132326310e-02 1.709847507076396e-01 -7.925638175353765e+00 -1.544368607276484e-01 2.228440097549961e+00 7.907878956993153e-02 3.536151694992317e+00 -1.027002063157065e-02 8.953003625825727e-02 4.291427184609297e-02 -3.351476307167706e+00 -7.649450132925230e-02 5.456275230944437e-01 1.060685921160434e-02 1.052791630299039e+00 5.593531203306354e-02 3.732916016335760e-01 -2.163455011465776e-01 9.948676247522727e+00 1.660202651712674e-01 -2.715439095626965e+00 -9.264641259482435e-02 -4.296642456100028e+00 3.651186306276667e-02 -7.234776389464459e-02 -9.353254711480345e-03 8.607150113324578e-02 -5.357424743773451e-02 4.474656330524650e-03 6.903447019009086e-02 2.984386954321822e+00 -1.115600531739168e-01 -9.318857330339730e+00 1.679446643927491e-01 1.880437504636672e+00 7.522990118109434e-02 1.687493474101347e+00 1.413362410996757e-01 2.853636430489739e-01 -8.154679477135765e-02 -3.218767530925855e+00 2.021556871557815e-01 4.603831966138192e-01 1.157308164210808e-01 5.166064306468753e-01 -4.593360538386479e-02 -3.578213839999805e+00 1.660202651712675e-01 1.209959877581497e+01 -4.204176535797992e-01 -2.048462842904408e+00 -1.699152869867254e-01 -2.501396549002465e+00 8.810504014731432e-02 4.241239358398263e-02 -4.485999123705647e-01 -4.837630374919835e-02 5.037044941283947e-01 -3.587629002268020e-02 -7.034932020369454e-02 2.303320802371356e+00 2.869861893191087e-01 -6.698438239204754e+00 -1.023156854830021e-01 3.964230806294598e-01 4.738715179072978e-02 2.357672228058516e+00 2.289159073872516e-02 8.012984805891904e-01 1.001846368039687e-01 -2.977641821329051e+00 4.381752522955876e-03 2.979846828946678e-01 -1.095675742214055e-02 2.778907255461804e-01 6.699485887284078e-02 -2.715439095626973e+00 -4.204176535797987e-01 8.923010276323605e+00 1.650296830951937e-01 -6.636377038366208e-01 -5.467381297700950e-02 -3.059172500524628e+00 5.323164825299491e-02 -1.450668908784017e-01 1.645967935293082e-01 7.410358787713055e-01 6.813952893148802e-02 3.987216796725348e+00 5.132386022886969e-02 1.891338723508654e+00 -4.863607409714549e-02 -1.145151813817215e+01 1.411625597235739e-01 2.543202598772996e+00 -1.328067990645487e-01 4.195940594891355e-01 9.060498727351272e-02 4.160905490177965e-01 -4.075553203384900e-02 -3.775966979138686e+00 -1.105525287958552e-02 7.218229651375114e-01 4.812846022799641e-02 -4.545373557775747e+00 -9.264641259482788e-02 -2.048462842904403e+00 1.650296830951963e-01 1.438731128956321e+01 -2.013986080754827e-01 -3.464913947299639e+00 5.517132081841025e-02 -2.514904877725863e-02 2.194445967881291e-01 2.260132953965128e-02 -2.365478079750142e-02 -1.066122304859227e-02 -1.004081903994056e-01 3.870812410984970e+00 2.045255450726166e-01 3.980307934747865e-01 8.299436155912675e-02 -8.577379148650408e+00 -3.779496313230913e-02 2.451926484146707e+00 3.754455116218848e-02 3.107564793325139e-01 7.032482880116867e-02 5.816588543252830e-01 1.482368959663829e-03 -3.616153155198682e+00 1.825649545748922e-02 4.712206307761438e-01 9.686110425008204e-02 -4.296642456100028e+00 -1.699152869867276e-01 -6.636377038366237e-01 -2.013986080754853e-01 1.100537950147074e+01 3.124352424878393e-02 -3.003764353500505e+00 -2.084477199684752e-02 1.857323905125199e-01 1.293063700946998e-01 3.365449277258283e-01 5.154238902008284e-02 5.308992381424340e-01 -1.873725752365152e-03 1.767448888430546e+00 -1.922300713848608e-03 2.666227053722924e+00 -4.806461671543916e-02 -7.205900496361719e+00 -1.116516219741992e-02 2.173737961214819e-01 2.992356576545929e-02 3.547169160182866e-01 -5.704270258939911e-03 3.577742369862343e-01 -2.978296838295300e-02 -2.835925002532819e+00 5.613745220060067e-02 -3.693936357864355e-01 3.651186306276589e-02 -2.501396549002465e+00 -5.467381297700777e-02 -3.464913947299638e+00 3.124352424878203e-02 1.002169283284013e+01 -3.443290671220944e-02 8.471909803060354e-04 -3.650947707759772e-02 1.202726068409433e-02 -4.011072023406170e-01 -3.691669036143042e-02 1.543348592758947e-01 8.314660912881612e-02 -9.410862806827429e-02 2.439128334857927e+00 -3.083541446528842e-02 2.722338369474855e+00 -5.222446307580418e-02 -7.053695995030156e+00 -6.906288761504395e-03 1.563624834800848e-01 7.390935519694170e-02 3.652705935304011e-01 9.825884002179078e-03 4.439621724882210e-01 -8.584818944275109e-02 -3.015523777151876e+00 -1.372514534242146e-01 -7.234776389463761e-02 8.810504014731359e-02 -3.059172500524628e+00 5.517132081841240e-02 -3.003764353500505e+00 -3.443290671220889e-02 9.446061569097552e+00 -7.331355937368642e-02 -1.211030327955221e-01 -1.302506649951486e-01 -1.756000037032499e+00 -3.381637192618804e-01 -4.275298333104569e-02 9.259275659433850e-03 -3.682588298132532e-02 4.211871414387879e-02 3.234398387993058e-02 7.445036409603908e-02 -1.062691116865478e-02 -2.264822995663400e-01 -2.423470054657382e-02 -2.068319284549940e-02 -1.352944208103769e-02 4.010807819315820e-02 1.838332498654742e-02 7.871402433711397e-02 -9.517554661497070e-03 -9.089659645254031e-03 5.121239419081330e-02 -9.353254711479742e-03 4.241239358398289e-02 5.323164825299501e-02 -2.514904877725847e-02 -2.084477199684794e-02 8.471909803062049e-04 -7.331355937368671e-02 2.206973838239667e+00 -4.689644223735054e-01 -8.236417604300136e-01 1.035117779433696e-01 3.941535195628877e-02 -9.048866675308269e-02 -3.207716652763550e-02 4.149138435869588e-01 4.366607990084121e-01 -1.277214619515335e-01 1.519056538716617e-01 -8.280996571613404e-02 -1.252862572977651e+00 -1.167888527289706e-02 -3.099552701642793e-02 3.347208064431570e-01 2.938850210667274e-01 3.980428338012766e-03 -7.850543422657562e-02 -2.549488118173511e-01 -1.190650281238924e-02 7.500960748094318e-02 8.607150113324591e-02 -4.485999123705637e-01 -1.450668908784021e-01 2.194445967881294e-01 1.857323905125198e-01 -3.650947707759886e-02 -1.211030327955211e-01 -4.689644223735053e-01 5.535212696133421e+00 1.561564164003756e-01 -2.520042288153396e+00 9.580824666772386e-03 -2.053585517791281e-02 5.129220358707103e-02 4.209587472033191e-02 -7.433867763562520e-02 -2.177790339989353e-02 -5.406432559590168e-02 -1.395226453886603e-02 -7.824150680571612e-02 -3.053075436927900e-03 -3.132981512585285e-02 5.032310649569397e-03 1.446043224011489e-02 -7.345747945682667e-03 4.422193482836429e-02 3.775544442402503e-03 -1.298004814100074e-01 2.856421489783685e-02 -5.357424743773469e-02 -4.837630374919841e-02 1.645967935293077e-01 2.260132953965092e-02 1.293063700946998e-01 1.202726068409438e-02 -1.302506649951477e-01 -8.236417604300136e-01 1.561564164003757e-01 2.035233672397628e+00 -4.187569325578617e-01 1.556136305665531e-02 4.302990708469458e-02 -1.124025852479128e-01 -3.956471219789721e-01 -2.473807012295741e-01 4.460840186489780e-02 6.091732845784891e-03 2.701981472511760e-01 7.528026268379097e-01 6.113659572977748e-02 1.919760939740102e-01 -2.149278284136427e-01 -5.205094050293402e-02 5.929260146348792e-02 2.089793326450627e-01 7.109737303661431e-02 -4.990845972760841e-01 -5.559075078477201e-02 4.474656330524753e-03 5.037044941283940e-01 7.410358787713054e-01 -2.365478079750222e-02 3.365449277258266e-01 -4.011072023406158e-01 -1.756000037032498e+00 1.035117779433694e-01 -2.520042288153396e+00 -4.187569325578614e-01 5.959728850447553e+00 2.087001111454148e-01 -2.748561580052227e-02 -6.927416835425061e-02 3.599478696952615e-02 -1.665583595579877e-02 1.564610307460907e-02 -2.211548053394361e-02 -8.671458602126092e-04 1.645017220762830e-01 -3.138772933141301e-03 -1.571283268657880e-02 2.144070567538245e-02 2.150938697220972e-02 -7.480682405526812e-04 -1.525480640982224e-02 4.096866589209942e-03 9.446879213390483e-02 3.785150132326311e-02 6.903447019009068e-02 -3.587629002268018e-02 6.813952893148797e-02 -1.066122304859233e-02 5.154238902008275e-02 -3.691669036143035e-02 -3.381637192618803e-01 3.941535195628872e-02 9.580824666772458e-03 1.556136305665535e-02 2.087001111454148e-01 1.011140314734387e+01 
      </Matrix>
    </Transform>
  </Transformations>
  <MVAPdfs/>
  <Weights NTrees="100" AnalysisType="0">
    <BinaryTree type="DecisionTree" boostWeight="8.1259020584849395e-01" itree="0">
      <Node pos="s" depth="0" NCoef="0" IVar="25" Cut="2.2085342407226562e+00" cType="1" res="-9.9000000000000000e+01" rms="0.0000000000000000e+00" purity="5.0000000000000000e-01" nType="0">
        <Node pos="l" depth="1" NCoef="0" IVar="14" Cut="4.2009615898132324e+00" cType="1" res="-9.9000000000000000e+01" rms="0.0000000000000000e+00" purity="6.7505306005477905e-01" nType="0">
          <Node pos="l" depth="2" NCoef="0" IVar="23" Cut="-4.3272356986999512e+00" cType="1" res="-9.9000000000000000e+01" rms="0.0000000000000000e+00" purity="7.9006648063659668e-01" nType="0">
            <Node pos="l" depth="3" NCoef="0" IVar="-1" Cut="0.0000000000000000e+00" cType="1" res="-9.9000000000000000e+01" rms="0.0000000000000000e+00" purity="8.6010980606079102e-01" nType="1"/>
            <Node pos="r" depth="3" NCoef="0" IVar="-1" Cut="0.0000000000000000e+00" cType="1" res="-9.9000000000000000e+01" rms="0.0000000000000000e+00" purity="3.5936638712882996e-01" nType="-1"/>
          </Node>
          <Node pos="r" depth="2" NCoef="0" IVar="-1" Cut="0.0000000000000000e+00" cType="1" res="-9.9000000000000000e+01" rms="0.0000000000000000e+00" purity="2.2466515004634857e-01" nType="-1"/>
        </Node>
        <Node pos="r" depth="1" NCoef="0" IVar="-1" Cut="-5.5616960525512695e+00" cType="1" res="-9.9000000000000000e+01" rms="0.0000000000000000e+00" purity="1.2817321717739105e-01" nType="-1"/>
      </Node>
    </BinaryTree>
    <BinaryTree type="DecisionTree" boostWeight="5.4172324807022543e-01" itree="1">
      <Node pos="s" depth="0" NCoef="0" IVar="25" Cut="2.2085342407226562e+00" cType="1" res="-9.9000000000000000e+01" rms="0.0000000000000000e+00" purity="5.1775187253952026e-01" nType="0">
        <Node pos="l" depth="1" NCoef="0" IVar="7" Cut="2.5806925296783447e+00" cType="1" res="-9.9000000000000000e+01" rms="0.0000000000000000e+00" purity="6.3743126392364502e-01" nType="0">
          <Node pos="l" depth="2" NCoef="0" IVar="-1" Cut="-5.2854914665222168e+00" cType="1" res="-9.9000000000000000e+01" rms="0.0000000000000000e+00" purity="7.6663631200790405e-01" nType="1"/>
          <Node pos="r" depth="2" NCoef="0" IVar="24" Cut="6.6919648647308350e-01" cType="1" res="-9.9000000000000000e+01" rms="0.0000000000000000e+00" purity="3.8831689953804016e-01" nType="0">
            <Node pos="l" depth="3" NCoef="0" IVar="-1" Cut="0.0000000000000000e+00" cType="1" res="-9.9000000000000000e+01" rms="0.0000000000000000e+00" purity="5.9935927391052246e-01" nType="1"/>
            <Node pos="r" depth="3" NCoef="0" IVar="-1" Cut="0.0000000000000000e+00" cType="1" res="-9.9000000000000000e+01" rms="0.0000000000000000e+00" purity="2.0379388332366943e-01" nType="-1"/>
          </Node>
        </Node>
        <Node pos="r" depth="1" NCoef="0" IVar="-1" Cut="-5.5616960525512695e+00" cType="1" res="-9.9000000000000000e+01" rms="0.0000000000000000e+00" purity="2.4887561798095703e-01" nType="-1"/>
      </Node>
    </BinaryTree>
    <BinaryTree type="DecisionTree" boostWeight="4.3939332451852475e-01" itree="2">
      <Node pos="s" depth="0" NCoef="0" IVar="23" Cut="-5.1711835861206055e+00" cType="1" res="-9.9000000000000000e+01" rms="0.0000000000000000e+00" purity="5.0037467479705811e-01" nType="0">
        <Node pos="l" depth="1" NCoef="0" IVar="7" Cut="2.8848280906677246e+00" cType="1" res="-9.9000000000000000e+01" rms="0.0000000000000000e+00" purity="6.2109977006912231e-01" nType="0">
          <Node pos="l" depth="2" NCoef="0" IVar="22" Cut="-2.5734941959381104e+00" cType="1" res="-9.9000000000000000e+01" rms="0.0000000000000000e+00" purity="7.0608758926391602e-01" nType="0">
            <Node pos="l" depth="3" NCoef="0" IVar="-1" Cut="0.0000000000000000e+00" cType="1" res="-9.9000000000000000e+01" rms="0.0000000000000000e+00" purity="7.6614075899124146e-01" nType="1"/>
            <Node pos="r" depth="3" NCoef="0" IVar="-1" Cut="0.0000000000000000e+00" cType="1" res="-9.9000000000000000e+01" rms="0.0000000000000000e+00" purity="4.2647996544837952e-01" nType="-1"/>
          </Node>
          <Node pos="r" depth="2" NCoef="0" IVar="-1" Cut="0.0000000000000000e+00" cType="1" res="-9.9000000000000000e+01" rms="0.0000000000000000e+00" purity="3.8577204942703247e-01" nType="-1"/>
        </Node>
        <Node pos="r" depth="1" NCoef="0" IVar="26" Cut="5.8154582977294922e-01" cType="1" res="-9.9000000000000000e+01" rms="0.0000000000000000e+00" purity="3.0834347009658813e-01" nType="0">
          <Node pos="l" depth="2" NCoef="0" IVar="5" Cut="1.6589393615722656e+00" cType="1" res="-9.9000000000000000e+01" rms="0.0000000000000000e+00" purity="4.2931619286537170e-01" nType="0">
            <Node pos="l" depth="3" NCoef="0" IVar="-1" Cut="0.0000000000000000e+00" cType="1" res="-9.9000000000000000e+01" rms="0.0000000000000000e+00" purity="5.6488531827926636e-01" nType="1"/>
            <Node pos="r" depth="3" NCoef="0" IVar="-1" Cut="0.0000000000000000e+00" cType="1" res="-9.9000000000000000e+01" rms="0.0000000000000000e+00" purity="3.6808410286903381e-01" nType="-1"/>
          </Node>
          <Node pos="r" depth="2" NCoef="0" IVar="-1" Cut="0.0000000000000000e+00" cType="1" res="-9.9000000000000000e+01" rms="0.0000000000000000e+00" purity="1.2976533174514771e-01" nType="-1"/>
        </Node>
      </Node>
    </BinaryTree>
    <BinaryTree type="DecisionTree" boostWeight="4.0975298930001558e-01" itree="3">
      <Node pos="s" depth="0" NCoef="0" IVar="14" Cut="4.6021280288696289e+00" cType="1" res="-9.9000000000000000e+01" rms="0.0000000000000000e+00" purity="5.1396173238754272e-01" nType="0">
        <Node pos="l" depth="1" NCoef="0" IVar="27" Cut="1.9186433553695679e+00" cType="1" res="-9.9000000000000000e+01" rms="0.0000000000000000e+00" purity="5.8633887767791748e-01" nType="0">
          <Node pos="l" depth="2" NCoef="0" IVar="15" Cut="6.8161358833312988e+00" cType="1" res="-9.9000000000000000e+01" rms="0.0000000000000000e+00" purity="6.8401348590850830e-01" nType="0">
            <Node pos="l" depth="3" NCoef="0" IVar="-1" Cut="0.0000000000000000e+00" cType="1" res="-9.9000000000000000e+01" rms="0.0000000000000000e+00" purity="7.6507538557052612e-01" nType="1"/>
            <Node pos="r" depth="3" NCoef="0" IVar="-1" Cut="0.0000000000000000e+00" cType="1" res="-9.9000000000000000e+01" rms="0.0000000000000000e+00" purity="4.2982646822929382e-01" nType="-1"/>
          </Node>
          <Node pos="r" depth="2" NCoef="0" IVar="-1" Cut="-5.7889847755432129e+00" cType="1" res="-9.9000000000000000e+01" rms="0.0000000000000000e+00" purity="4.0222129225730896e-01" nType="-1"/>
        </Node>
        <Node pos="r" depth="1" NCoef="0" IVar="-1" Cut="0.0000000000000000e+00" cType="1" res="-9.9000000000000000e+01" rms="0.0000000000000000e+00" purity="2.3781870305538177e-01" nType="-1"/>
      </Node>
    </BinaryTree>
    <BinaryTree type="DecisionTree" boostWeight="3.2954632104465775e-01" itree="4">
      <Node pos="s" depth="0" NCoef="0" IVar="14" Cut="4.6021280288696289e+00" cType="1" res="-9.9000000000000000e+01" rms="0.0000000000000000e+00" purity="5.3871685266494751e-01" nType="0">
        <Node pos="l" depth="1" NCoef="0" IVar="24" Cut="1.8911532163619995e+00" cType="1" res="-9.9000000000000000e+01" rms="0.0000000000000000e+00" purity="5.9396350383758545e-01" nType="0">
          <Node pos="l" depth="2" NCoef="0" IVar="6" Cut="2.5716452598571777e+00" cType="1" res="-9.9000000000000000e+01" rms="0.0000000000000000e+00" purity="6.3650166988372803e-01" nType="0">
            <Node pos="l" depth="3" NCoef="0" IVar="-1" Cut="0.0000000000000000e+00" cType="1" res="-9.9000000000000000e+01" rms="0.0000000000000000e+00" purity="6.9359546899795532e-01" nType="1"/>
            <Node pos="r" depth="3" NCoef="0" IVar="-1" Cut="0.0000000000000000e+00" cType="1" res="-9.9000000000000000e+01" rms="0.0000000000000000e+00" purity="4.7998121380805969e-01" nType="-1"/>
          </Node>
          <Node pos="r" depth="2" NCoef="0" IVar="-1" Cut="0.0000000000000000e+00" cType="1" res="-9.9000000000000000e+01" rms="0.0000000000000000e+00" purity="3.0156680941581726e-01" nType="-1"/>
        </Node>
        <Node pos="r" depth="1" NCoef="0" IVar="-1" Cut="0.0000000000000000e+00" cType="1" res="-9.9000000000000000e+01" rms="0.0000000000000000e+00" purity="3.1974959373474121e-01" nType="-1"/>
      </Node>
    </BinaryTree>
    <BinaryTree type="DecisionTree" boostWeight="3.7106269509289863e-01" itree="5">
      <Node pos="s" depth="0" NCoef="0" IVar="23" Cut="-5.1711835861206055e+00" cType="1" res="-9.9000000000000000e+01" rms="0.0000000000000000e+00" purity="5.3897970914840698e-01" nType="0">
        <Node pos="l" depth="1" NCoef="0" IVar="19" Cut="-2.7005276679992676e+00" cType="1" res="-9.9000000000000000e+01" rms="0.0000000000000000e+00" purity="6.1835128068923950e-01" nType="0">
          <Node pos="l" depth="2" NCoef="0" IVar="21" Cut="-3.7937068939208984e+00" cType="1" res="-9.9000000000000000e+01" rms="0.0000000000000000e+00" purity="6.7896211147308350e-01" nType="0">
            <Node pos="l" depth="3" NCoef="0" IVar="-1" Cut="0.0000000000000000e+00" cType="1" res="-9.9000000000000000e+01" rms="0.0000000000000000e+00" purity="7.2212553024291992e-01" nType="1"/>
            <Node pos="r" depth="3" NCoef="0" IVar="-1" Cut="0.0000000000000000e+00" cType="1" res="-9.9000000000000000e+01" rms="0.0000000000000000e+00" purity="4.3450343608856201e-01" nType="-1"/>
          </Node>
          <Node pos="r" depth="2" NCoef="0" IVar="-1" Cut="0.0000000000000000e+00" cType="1" res="-9.9000000000000000e+01" rms="0.0000000000000000e+00" purity="4.1897380352020264e-01" nType="-1"/>
        </Node>
        <Node pos="r" depth="1" NCoef="0" IVar="25" Cut="1.8373199701309204e+00" cType="1" res="-9.9000000000000000e+01" rms="0.0000000000000000e+00" purity="4.0577596426010132e-01" nType="0">
          <Node pos="l" depth="2" NCoef="0" IVar="26" Cut="2.4517123401165009e-01" cType="1" res="-9.9000000000000000e+01" rms="0.0000000000000000e+00" purity="5.4694551229476929e-01" nType="0">
            <Node pos="l" depth="3" NCoef="0" IVar="-1" Cut="0.0000000000000000e+00" cType="1" res="-9.9000000000000000e+01" rms="0.0000000000000000e+00" purity="6.9084256887435913e-01" nType="1"/>
            <Node pos="r" depth="3" NCoef="0" IVar="-1" Cut="0.0000000000000000e+00" cType="1" res="-9.9000000000000000e+01" rms="0.0000000000000000e+00" purity="4.1561344265937805e-01" nType="-1"/>
          </Node>
          <Node pos="r" depth="2" NCoef="0" IVar="-1" Cut="0.0000000000000000e+00" cType="1" res="-9.9000000000000000e+01" rms="0.0000000000000000e+00" purity="2.5608378648757935e-01" nType="-1"/>
        </Node>
      </Node>
    </BinaryTree>
    <BinaryTree type="DecisionTree" boostWeight="2.7171922163550705e-01" itree="6">
      <Node pos="s" depth="0" NCoef="0" IVar="26" Cut="9.5585983991622925e-01" cType="1" res="-9.9000000000000000e+01" rms="0.0000000000000000e+00" purity="5.4167139530181885e-01" nType="0">
        <Node pos="l" depth="1" NCoef="0" IVar="22" Cut="-2.0843081474304199e+00" cType="1" res="-9.9000000000000000e+01" rms="0.0000000000000000e+00" purity="5.8247178792953491e-01" nType="0">
          <Node pos="l" depth="2" NCoef="0" IVar="28" Cut="8.3802576065063477e+00" cType="0" res="-9.9000000000000000e+01" rms="0.0000000000000000e+00" purity="6.2171179056167603e-01" nType="0">
            <Node pos="l" depth="3" NCoef="0" IVar="-1" Cut="0.0000000000000000e+00" cType="1" res="-9.9000000000000000e+01" rms="0.0000000000000000e+00" purity="6.6564363241195679e-01" nType="1"/>
            <Node pos="r" depth="3" NCoef="0" IVar="-1" Cut="0.0000000000000000e+00" cType="1" res="-9.9000000000000000e+01" rms="0.0000000000000000e+00" purity="4.8157644271850586e-01" nType="-1"/>
          </Node>
          <Node pos="r" depth="2" NCoef="0" IVar="-1" Cut="0.0000000000000000e+00" cType="1" res="-9.9000000000000000e+01" rms="0.0000000000000000e+00" purity="3.7135958671569824e-01" nType="-1"/>
        </Node>
        <Node pos="r" depth="1" NCoef="0" IVar="23" Cut="-6.0421113967895508e+00" cType="1" res="-9.9000000000000000e+01" rms="0.0000000000000000e+00" purity="3.6869680881500244e-01" nType="0">
          <Node pos="l" depth="2" NCoef="0" IVar="-1" Cut="0.0000000000000000e+00" cType="1" res="-9.9000000000000000e+01" rms="0.0000000000000000e+00" purity="5.1808542013168335e-01" nType="1"/>
          <Node pos="r" depth="2" NCoef="0" IVar="-1" Cut="0.0000000000000000e+00" cType="1" res="-9.9000000000000000e+01" rms="0.0000000000000000e+00" purity="2.9927492141723633e-01" nType="-1"/>
        </Node>
      </Node>
    </BinaryTree>
    <BinaryTree type="DecisionTree" boostWeight="2.1889405552189950e-01" itree="7">
      <Node pos="s" depth="0" NCoef="0" IVar="15" Cut="7.2648468017578125e+00" cType="1" res="-9.9000000000000000e+01" rms="0.0000000000000000e+00" purity="5.3201264142990112e-01" nType="0">
        <Node pos="l" depth="1" NCoef="0" IVar="27" Cut="1.3336582183837891e+00" cType="1" res="-9.9000000000000000e+01" rms="0.0000000000000000e+00" purity="5.6535977125167847e-01" nType="0">
          <Node pos="l" depth="2" NCoef="0" IVar="-1" Cut="-4.6897749900817871e+00" cType="1" res="-9.9000000000000000e+01" rms="0.0000000000000000e+00" purity="6.6507971286773682e-01" nType="1"/>
          <Node pos="r" depth="2" NCoef="0" IVar="7" Cut="1.5392748117446899e+00" cType="1" res="-9.9000000000000000e+01" rms="0.0000000000000000e+00" purity="4.9768033623695374e-01" nType="0">
            <Node pos="l" depth="3" NCoef="0" IVar="-1" Cut="0.0000000000000000e+00" cType="1" res="-9.9000000000000000e+01" rms="0.0000000000000000e+00" purity="6.3009905815124512e-01" nType="1"/>
            <Node pos="r" depth="3" NCoef="0" IVar="-1" Cut="0.0000000000000000e+00" cType="1" res="-9.9000000000000000e+01" rms="0.0000000000000000e+00" purity="4.6222302317619324e-01" nType="-1"/>
          </Node>
        </Node>
        <Node pos="r" depth="1" NCoef="0" IVar="-1" Cut="0.0000000000000000e+00" cType="1" res="-9.9000000000000000e+01" rms="0.0000000000000000e+00" purity="3.5600441694259644e-01" nType="-1"/>
      </Node>
    </BinaryTree>
    <BinaryTree type="DecisionTree" boostWeight="2.1235963422995666e-01" itree="8">
      <Node pos="s" depth="0" NCoef="0" IVar="26" Cut="9.5585983991622925e-01" cType="1" res="-9.9000000000000000e+01" rms="0.0000000000000000e+00" purity="5.3884685039520264e-01" nType="0">
        <Node pos="l" depth="1" NCoef="0" IVar="3" Cut="2.2613339424133301e+00" cType="1" res="-9.9000000000000000e+01" rms="0.0000000000000000e+00" purity="5.7240664958953857e-01" nType="0">
          <Node pos="l" depth="2" NCoef="0" IVar="-1" Cut="1.7096968889236450e+00" cType="1" res="-9.9000000000000000e+01" rms="0.0000000000000000e+00" purity="6.1710512638092041e-01" nType="1"/>
          <Node pos="r" depth="2" NCoef="0" IVar="-1" Cut="-3.2186396121978760e+00" cType="1" res="-9.9000000000000000e+01" rms="0.0000000000000000e+00" purity="4.3494114279747009e-01" nType="-1"/>
        </Node>
        <Node pos="r" depth="1" NCoef="0" IVar="-1" Cut="7.7736121416091919e-01" cType="1" res="-9.9000000000000000e+01" rms="0.0000000000000000e+00" purity="3.9419108629226685e-01" nType="-1"/>
      </Node>
    </BinaryTree>
    <BinaryTree type="DecisionTree" boostWeight="2.0385715618121117e-01" itree="9">
      <Node pos="s" depth="0" NCoef="0" IVar="23" Cut="-5.1711835861206055e+00" cType="1" res="-9.9000000000000000e+01" rms="0.0000000000000000e+00" purity="5.2755385637283325e-01" nType="0">
        <Node pos="l" depth="1" NCoef="0" IVar="7" Cut="1.9452620744705200e+00" cType="1" res="-9.9000000000000000e+01" rms="0.0000000000000000e+00" purity="5.7465082406997681e-01" nType="0">
          <Node pos="l" depth="2" NCoef="0" IVar="-1" Cut="1.7148625850677490e+00" cType="1" res="-9.9000000000000000e+01" rms="0.0000000000000000e+00" purity="7.0617395639419556e-01" nType="1"/>
          <Node pos="r" depth="2" NCoef="0" IVar="21" Cut="-4.9720506668090820e+00" cType="1" res="-9.9000000000000000e+01" rms="0.0000000000000000e+00" purity="5.2684110403060913e-01" nType="0">
            <Node pos="l" depth="3" NCoef="0" IVar="-1" Cut="0.0000000000000000e+00" cType="1" res="-9.9000000000000000e+01" rms="0.0000000000000000e+00" purity="6.0163360834121704e-01" nType="1"/>
            <Node pos="r" depth="3" NCoef="0" IVar="-1" Cut="0.0000000000000000e+00" cType="1" res="-9.9000000000000000e+01" rms="0.0000000000000000e+00" purity="4.9188491702079773e-01" nType="-1"/>
          </Node>
        </Node>
        <Node pos="r" depth="1" NCoef="0" IVar="25" Cut="1.8373199701309204e+00" cType="1" res="-9.9000000000000000e+01" rms="0.0000000000000000e+00" purity="4.4779720902442932e-01" nType="0">
          <Node pos="l" depth="2" NCoef="0" IVar="25" Cut="1.1288088560104370e+00" cType="1" res="-9.9000000000000000e+01" rms="0.0000000000000000e+00" purity="5.4929333925247192e-01" nType="0">
            <Node pos="l" depth="3" NCoef="0" IVar="-1" Cut="0.0000000000000000e+00" cType="1" res="-9.9000000000000000e+01" rms="0.0000000000000000e+00" purity="6.3875025510787964e-01" nType="1"/>
            <Node pos="r" depth="3" NCoef="0" IVar="-1" Cut="0.0000000000000000e+00" cType="1" res="-9.9000000000000000e+01" rms="0.0000000000000000e+00" purity="4.4308605790138245e-01" nType="-1"/>
          </Node>
          <Node pos="r" depth="2" NCoef="0" IVar="-1" Cut="0.0000000000000000e+00" cType="1" res="-9.9000000000000000e+01" rms="0.0000000000000000e+00" purity="3.3750730752944946e-01" nType="-1"/>
        </Node>
      </Node>
    </BinaryTree>
    <BinaryTree type="DecisionTree" boostWeight="2.5354640210033458e-01" itree="10">
      <Node pos="s" depth="0" NCoef="0" IVar="24" Cut="1.8911532163619995e+00" cType="1" res="-9.9000000000000000e+01" rms="0.0000000000000000e+00" purity="5.3648257255554199e-01" nType="0">
        <Node pos="l" depth="1" NCoef="0" IVar="25" Cut="1.2518090009689331e+00" cType="1" res="-9.9000000000000000e+01" rms="0.0000000000000000e+00" purity="5.6015330553054810e-01" nType="0">
          <Node pos="l" depth="2" NCoef="0" IVar="26" Cut="-1.9008772075176239e-01" cType="0" res="-9.9000000000000000e+01" rms="0.0000000000000000e+00" purity="6.4936769008636475e-01" nType="0">
            <Node pos="l" depth="3" NCoef="0" IVar="-1" Cut="0.0000000000000000e+00" cType="1" res="-9.9000000000000000e+01" rms="0.0000000000000000e+00" purity="7.0051306486129761e-01" nType="1"/>
            <Node pos="r" depth="3" NCoef="0" IVar="-1" Cut="0.0000000000000000e+00" cType="1" res="-9.9000000000000000e+01" rms="0.0000000000000000e+00" purity="4.2720374464988708e-01" nType="-1"/>
          </Node>
          <Node pos="r" depth="2" NCoef="0" IVar="26" Cut="3.5605505108833313e-01" cType="1" res="-9.9000000000000000e+01" rms="0.0000000000000000e+00" purity="5.1434743404388428e-01" nType="0">
            <Node pos="l" depth="3" NCoef="0" IVar="-1" Cut="0.0000000000000000e+00" cType="1" res="-9.9000000000000000e+01" rms="0.0000000000000000e+00" purity="5.8340680599212646e-01" nType="1"/>
            <Node pos="r" depth="3" NCoef="0" IVar="-1" Cut="0.0000000000000000e+00" cType="1" res="-9.9000000000000000e+01" rms="0.0000000000000000e+00" purity="3.7717449665069580e-01" nType="-1"/>
          </Node>
        </Node>
        <Node pos="r" depth="1" NCoef="0" IVar="-1" Cut="0.0000000000000000e+00" cType="1" res="-9.9000000000000000e+01" rms="0.0000000000000000e+00" purity="3.7328454852104187e-01" nType="-1"/>
      </Node>
    </BinaryTree>
    <BinaryTree type="DecisionTree" boostWeight="1.5706716532998849e-01" itree="11">
      <Node pos="s" depth="0" NCoef="0" IVar="14" Cut="4.6021280288696289e+00" cType="1" res="-9.9000000000000000e+01" rms="0.0000000000000000e+00" purity="5.2143502235412598e-01" nType="0">
        <Node pos="l" depth="1" NCoef="0" IVar="7" Cut="1.4194803237915039e+00" cType="1" res="-9.9000000000000000e+01" rms="0.0000000000000000e+00" purity="5.5010515451431274e-01" nType="0">
          <Node pos="l" depth="2" NCoef="0" IVar="-1" Cut="1.6113494634628296e+00" cType="1" res="-9.9000000000000000e+01" rms="0.0000000000000000e+00" purity="6.6883814334869385e-01" nType="1"/>
          <Node pos="r" depth="2" NCoef="0" IVar="23" Cut="-5.9192585945129395e+00" cType="1" res="-9.9000000000000000e+01" rms="0.0000000000000000e+00" purity="5.2448129653930664e-01" nType="0">
            <Node pos="l" depth="3" NCoef="0" IVar="-1" Cut="0.0000000000000000e+00" cType="1" res="-9.9000000000000000e+01" rms="0.0000000000000000e+00" purity="5.8836460113525391e-01" nType="1"/>
            <Node pos="r" depth="3" NCoef="0" IVar="-1" Cut="0.0000000000000000e+00" cType="1" res="-9.9000000000000000e+01" rms="0.0000000000000000e+00" purity="4.7432994842529297e-01" nType="-1"/>
          </Node>
        </Node>
        <Node pos="r" depth="1" NCoef="0" IVar="-1" Cut="0.0000000000000000e+00" cType="1" res="-9.9000000000000000e+01" rms="0.0000000000000000e+00" purity="4.0537521243095398e-01" nType="-1"/>
      </Node>
    </BinaryTree>
    <BinaryTree type="DecisionTree" boostWeight="1.8712319956961360e-01" itree="12">
      <Node pos="s" depth="0" NCoef="0" IVar="2" Cut="1.9558417797088623e+00" cType="1" res="-9.9000000000000000e+01" rms="0.0000000000000000e+00" purity="5.2706247568130493e-01" nType="0">
        <Node pos="l" depth="1" NCoef="0" IVar="25" Cut="1.5424158573150635e+00" cType="1" res="-9.9000000000000000e+01" rms="0.0000000000000000e+00" purity="5.4892826080322266e-01" nType="0">
          <Node pos="l" depth="2" NCoef="0" IVar="-1" Cut="1.9178490638732910e+00" cType="1" res="-9.9000000000000000e+01" rms="0.0000000000000000e+00" purity="6.2602978944778442e-01" nType="1"/>
          <Node pos="r" depth="2" NCoef="0" IVar="24" Cut="9.1433912515640259e-01" cType="1" res="-9.9000000000000000e+01" rms="0.0000000000000000e+00" purity="4.8054289817810059e-01" nType="0">
            <Node pos="l" depth="3" NCoef="0" IVar="-1" Cut="0.0000000000000000e+00" cType="1" res="-9.9000000000000000e+01" rms="0.0000000000000000e+00" purity="5.2940988540649414e-01" nType="1"/>
            <Node pos="r" depth="3" NCoef="0" IVar="-1" Cut="0.0000000000000000e+00" cType="1" res="-9.9000000000000000e+01" rms="0.0000000000000000e+00" purity="3.6536893248558044e-01" nType="-1"/>
          </Node>
        </Node>
        <Node pos="r" depth="1" NCoef="0" IVar="-1" Cut="0.0000000000000000e+00" cType="1" res="-9.9000000000000000e+01" rms="0.0000000000000000e+00" purity="4.0149897336959839e-01" nType="-1"/>
      </Node>
    </BinaryTree>
    <BinaryTree type="DecisionTree" boostWeight="1.3686704713626302e-01" itree="13">
      <Node pos="s" depth="0" NCoef="0" IVar="13" Cut="6.6396460533142090e+00" cType="1" res="-9.9000000000000000e+01" rms="0.0000000000000000e+00" purity="5.0691658258438110e-01" nType="0">
        <Node pos="l" depth="1" NCoef="0" IVar="19" Cut="-1.8799442052841187e+00" cType="1" res="-9.9000000000000000e+01" rms="0.0000000000000000e+00" purity="5.2370971441268921e-01" nType="0">
          <Node pos="l" depth="2" NCoef="0" IVar="5" Cut="2.2736425399780273e+00" cType="1" res="-9.9000000000000000e+01" rms="0.0000000000000000e+00" purity="5.4748445749282837e-01" nType="0">
            <Node pos="l" depth="3" NCoef="0" IVar="-1" Cut="0.0000000000000000e+00" cType="1" res="-9.9000000000000000e+01" rms="0.0000000000000000e+00" purity="6.1130732297897339e-01" nType="1"/>
            <Node pos="r" depth="3" NCoef="0" IVar="-1" Cut="0.0000000000000000e+00" cType="1" res="-9.9000000000000000e+01" rms="0.0000000000000000e+00" purity="4.9766603112220764e-01" nType="-1"/>
          </Node>
          <Node pos="r" depth="2" NCoef="0" IVar="-1" Cut="0.0000000000000000e+00" cType="1" res="-9.9000000000000000e+01" rms="0.0000000000000000e+00" purity="3.7247437238693237e-01" nType="-1"/>
        </Node>
        <Node pos="r" depth="1" NCoef="0" IVar="-1" Cut="0.0000000000000000e+00" cType="1" res="-9.9000000000000000e+01" rms="0.0000000000000000e+00" purity="3.7316262722015381e-01" nType="-1"/>
      </Node>
    </BinaryTree>
    <BinaryTree type="DecisionTree" boostWeight="2.1121467191093582e-01" itree="14">
      <Node pos="s" depth="0" NCoef="0" IVar="22" Cut="-3.0849978923797607e+00" cType="1" res="-9.9000000000000000e+01" rms="0.0000000000000000e+00" purity="5.1825273036956787e-01" nType="0">
        <Node pos="l" depth="1" NCoef="0" IVar="6" Cut="2.1669948101043701e+00" cType="1" res="-9.9000000000000000e+01" rms="0.0000000000000000e+00" purity="5.4874765872955322e-01" nType="0">
          <Node pos="l" depth="2" NCoef="0" IVar="-1" Cut="1.4693326950073242e+00" cType="1" res="-9.9000000000000000e+01" rms="0.0000000000000000e+00" purity="6.1403626203536987e-01" nType="1"/>
          <Node pos="r" depth="2" NCoef="0" IVar="25" Cut="1.5424158573150635e+00" cType="1" res="-9.9000000000000000e+01" rms="0.0000000000000000e+00" purity="4.7458878159523010e-01" nType="0">
            <Node pos="l" depth="3" NCoef="0" IVar="-1" Cut="0.0000000000000000e+00" cType="1" res="-9.9000000000000000e+01" rms="0.0000000000000000e+00" purity="5.5741655826568604e-01" nType="1"/>
            <Node pos="r" depth="3" NCoef="0" IVar="-1" Cut="0.0000000000000000e+00" cType="1" res="-9.9000000000000000e+01" rms="0.0000000000000000e+00" purity="4.1105896234512329e-01" nType="-1"/>
          </Node>
        </Node>
        <Node pos="r" depth="1" NCoef="0" IVar="18" Cut="-2.1396424770355225e+00" cType="0" res="-9.9000000000000000e+01" rms="0.0000000000000000e+00" purity="4.5315024256706238e-01" nType="0">
          <Node pos="l" depth="2" NCoef="0" IVar="-1" Cut="0.0000000000000000e+00" cType="1" res="-9.9000000000000000e+01" rms="0.0000000000000000e+00" purity="5.9891396760940552e-01" nType="1"/>
          <Node pos="r" depth="2" NCoef="0" IVar="14" Cut="2.6227421760559082e+00" cType="1" res="-9.9000000000000000e+01" rms="0.0000000000000000e+00" purity="4.0959823131561279e-01" nType="0">
            <Node pos="l" depth="3" NCoef="0" IVar="-1" Cut="0.0000000000000000e+00" cType="1" res="-9.9000000000000000e+01" rms="0.0000000000000000e+00" purity="5.5471241474151611e-01" nType="1"/>
            <Node pos="r" depth="3" NCoef="0" IVar="-1" Cut="0.0000000000000000e+00" cType="1" res="-9.9000000000000000e+01" rms="0.0000000000000000e+00" purity="3.3272117376327515e-01" nType="-1"/>
          </Node>
        </Node>
      </Node>
    </BinaryTree>
    <BinaryTree type="DecisionTree" boostWeight="1.5828421502048243e-01" itree="15">
      <Node pos="s" depth="0" NCoef="0" IVar="9" Cut="3.4531848430633545e+00" cType="0" res="-9.9000000000000000e+01" rms="0.0000000000000000e+00" purity="5.0155693292617798e-01" nType="0">
        <Node pos="l" depth="1" NCoef="0" IVar="24" Cut="1.0573667287826538e+00" cType="1" res="-9.9000000000000000e+01" rms="0.0000000000000000e+00" purity="5.2441430091857910e-01" nType="0">
          <Node pos="l" depth="2" NCoef="0" IVar="19" Cut="-2.8170921802520752e+00" cType="1" res="-9.9000000000000000e+01" rms="0.0000000000000000e+00" purity="5.5039978027343750e-01" nType="0">
            <Node pos="l" depth="3" NCoef="0" IVar="-1" Cut="0.0000000000000000e+00" cType="1" res="-9.9000000000000000e+01" rms="0.0000000000000000e+00" purity="5.8658081293106079e-01" nType="1"/>
            <Node pos="r" depth="3" NCoef="0" IVar="-1" Cut="0.0000000000000000e+00" cType="1" res="-9.9000000000000000e+01" rms="0.0000000000000000e+00" purity="4.7415569424629211e-01" nType="-1"/>
          </Node>
          <Node pos="r" depth="2" NCoef="0" IVar="27" Cut="1.2184833288192749e+00" cType="1" res="-9.9000000000000000e+01" rms="0.0000000000000000e+00" purity="4.5029458403587341e-01" nType="0">
            <Node pos="l" depth="3" NCoef="0" IVar="-1" Cut="0.0000000000000000e+00" cType="1" res="-9.9000000000000000e+01" rms="0.0000000000000000e+00" purity="5.9059554338455200e-01" nType="1"/>
            <Node pos="r" depth="3" NCoef="0" IVar="-1" Cut="0.0000000000000000e+00" cType="1" res="-9.9000000000000000e+01" rms="0.0000000000000000e+00" purity="3.8910397887229919e-01" nType="-1"/>
          </Node>
        </Node>
        <Node pos="r" depth="1" NCoef="0" IVar="26" Cut="1.2688159942626953e-01" cType="1" res="-9.9000000000000000e+01" rms="0.0000000000000000e+00" purity="4.2844155430793762e-01" nType="0">
          <Node pos="l" depth="2" NCoef="0" IVar="4" Cut="1.6909430027008057e+00" cType="1" res="-9.9000000000000000e+01" rms="0.0000000000000000e+00" purity="4.8510047793388367e-01" nType="0">
            <Node pos="l" depth="3" NCoef="0" IVar="-1" Cut="0.0000000000000000e+00" cType="1" res="-9.9000000000000000e+01" rms="0.0000000000000000e+00" purity="5.2242928743362427e-01" nType="1"/>
            <Node pos="r" depth="3" NCoef="0" IVar="-1" Cut="0.0000000000000000e+00" cType="1" res="-9.9000000000000000e+01" rms="0.0000000000000000e+00" purity="4.4561260938644409e-01" nType="-1"/>
          </Node>
          <Node pos="r" depth="2" NCoef="0" IVar="-1" Cut="0.0000000000000000e+00" cType="1" res="-9.9000000000000000e+01" rms="0.0000000000000000e+00" purity="3.6406752467155457e-01" nType="-1"/>
        </Node>
      </Node>
    </BinaryTree>
    <BinaryTree type="DecisionTree" boostWeight="1.4059159253946751e-01" itree="16">
      <Node pos="s" depth="0" NCoef="0" IVar="28" Cut="8.3802576065063477e+00" cType="0" res="-9.9000000000000000e+01" rms="0.0000000000000000e+00" purity="5.0095933675765991e-01" nType="0">
        <Node pos="l" depth="1" NCoef="0" IVar="21" Cut="-3.7937068939208984e+00" cType="1" res="-9.9000000000000000e+01" rms="0.0000000000000000e+00" purity="5.2521300315856934e-01" nType="0">
          <Node pos="l" depth="2" NCoef="0" IVar="-1" Cut="5.7515444755554199e+00" cType="1" res="-9.9000000000000000e+01" rms="0.0000000000000000e+00" purity="5.5532777309417725e-01" nType="1"/>
          <Node pos="r" depth="2" NCoef="0" IVar="-1" Cut="3.6095365881919861e-01" cType="1" res="-9.9000000000000000e+01" rms="0.0000000000000000e+00" purity="4.4050845503807068e-01" nType="-1"/>
        </Node>
        <Node pos="r" depth="1" NCoef="0" IVar="28" Cut="7.5999307632446289e+00" cType="0" res="-9.9000000000000000e+01" rms="0.0000000000000000e+00" purity="4.2718815803527832e-01" nType="0">
          <Node pos="l" depth="2" NCoef="0" IVar="17" Cut="-3.5698492527008057e+00" cType="0" res="-9.9000000000000000e+01" rms="0.0000000000000000e+00" purity="5.2375918626785278e-01" nType="0">
