<?xml version="1.0"?>
<MethodSetup Method="BDT::BDTD">
  <GeneralInfo>
    <Info name="TMVA Release" value="4.2.1 [262657]"/>
    <Info name="ROOT Release" value="6.18/04 [397828]"/>
    <Info name="Creator" value="hchou"/>
    <Info name="Date" value="Sat Mar 14 10:48:49 2020"/>
    <Info name="Host" value="Linux lcgapp-centos7-x86-64-25.cern.ch 3.10.0-957.21.3.el7.x86_64 #1 SMP Tue Jun 18 16:35:19 UTC 2019 x86_64 x86_64 x86_64 GNU/Linux"/>
    <Info name="Dir" value="/afs/cern.ch/user/h/hchou/AMSProject/apflux"/>
    <Info name="Training events" value="215000"/>
    <Info name="TrainingTime" value="9.86183310e+01"/>
    <Info name="AnalysisType" value="Classification"/>
  </GeneralInfo>
  <Options>
    <Option name="V" modified="Yes">True</Option>
    <Option name="VerbosityLevel" modified="Yes">Verbose</Option>
    <Option name="VarTransform" modified="Yes">Decorrelate</Option>
    <Option name="H" modified="Yes">True</Option>
    <Option name="CreateMVAPdfs" modified="Yes">False</Option>
    <Option name="IgnoreNegWeightsInTraining" modified="Yes">True</Option>
    <Option name="NTrees" modified="Yes">100</Option>
    <Option name="MaxDepth" modified="Yes">3</Option>
    <Option name="MinNodeSize" modified="Yes">5%</Option>
    <Option name="nCuts" modified="Yes">20</Option>
    <Option name="BoostType" modified="Yes">AdaBoost</Option>
    <Option name="AdaBoostR2Loss" modified="Yes">quadratic</Option>
    <Option name="UseBaggedBoost" modified="No">False</Option>
    <Option name="Shrinkage" modified="Yes">1.000000e-01</Option>
    <Option name="AdaBoostBeta" modified="Yes">5.000000e-01</Option>
    <Option name="UseRandomisedTrees" modified="Yes">False</Option>
    <Option name="UseNvars" modified="Yes">2</Option>
    <Option name="UsePoissonNvars" modified="Yes">True</Option>
    <Option name="BaggedSampleFraction" modified="Yes">6.000000e-01</Option>
    <Option name="UseYesNoLeaf" modified="Yes">True</Option>
    <Option name="NegWeightTreatment" modified="No">inverseboostnegweights</Option>
    <Option name="Css" modified="No">1.000000e+00</Option>
    <Option name="Cts_sb" modified="No">1.000000e+00</Option>
    <Option name="Ctb_ss" modified="No">1.000000e+00</Option>
    <Option name="Cbb" modified="No">1.000000e+00</Option>
    <Option name="NodePurityLimit" modified="Yes">5.000000e-01</Option>
    <Option name="SeparationType" modified="Yes">giniindex</Option>
    <Option name="RegressionLossFunctionBDTG" modified="No">huber</Option>
    <Option name="HuberQuantile" modified="No">7.000000e-01</Option>
    <Option name="DoBoostMonitor" modified="Yes">False</Option>
    <Option name="UseFisherCuts" modified="Yes">False</Option>
    <Option name="MinLinCorrForFisher" modified="Yes">8.000000e-01</Option>
    <Option name="UseExclusiveVars" modified="Yes">False</Option>
    <Option name="DoPreselection" modified="Yes">False</Option>
    <Option name="SigToBkgFraction" modified="Yes">1.000000e+00</Option>
    <Option name="PruneMethod" modified="Yes">nopruning</Option>
    <Option name="PruneStrength" modified="Yes">0.000000e+00</Option>
    <Option name="PruningValFraction" modified="Yes">5.000000e-01</Option>
    <Option name="SkipNormalization" modified="No">False</Option>
    <Option name="nEventsMin" modified="Yes">0</Option>
    <Option name="UseBaggedGrad" modified="Yes">False</Option>
    <Option name="GradBaggingFraction" modified="Yes">6.000000e-01</Option>
    <Option name="UseNTrainEvents" modified="Yes">0</Option>
    <Option name="NNodesMax" modified="Yes">0</Option>
  </Options>
  <Variables NVar="28">
    <Variable VarIndex="0" Expression="lxin" Label="lxin" Title="lxin" Unit="units" Internal="lxin" Type="F" Min="-1.27267380e+01" Max="3.17083526e+00"/>
    <Variable VarIndex="1" Expression="lyin" Label="lyin" Title="lyin" Unit="units" Internal="lyin" Type="F" Min="-1.14653664e+01" Max="3.79140949e+00"/>
    <Variable VarIndex="2" Expression="lxl1" Label="lxl1" Title="lxl1" Unit="units" Internal="lxl1" Type="F" Min="-9.09180927e+00" Max="2.73467207e+00"/>
    <Variable VarIndex="3" Expression="lyl1" Label="lyl1" Title="lyl1" Unit="units" Internal="lyl1" Type="F" Min="-8.05434608e+00" Max="3.56588769e+00"/>
    <Variable VarIndex="4" Expression="lxl9" Label="lxl9" Title="lxl9" Unit="units" Internal="lxl9" Type="F" Min="-7.22382021e+00" Max="2.73347163e+00"/>
    <Variable VarIndex="5" Expression="lyl9" Label="lyl9" Title="lyl9" Unit="units" Internal="lyl9" Type="F" Min="-6.95582724e+00" Max="3.61110353e+00"/>
    <Variable VarIndex="6" Expression="lxfs" Label="lxfs" Title="lxfs" Unit="units" Internal="lxfs" Type="F" Min="-6.46799898e+00" Max="3.48220897e+00"/>
    <Variable VarIndex="7" Expression="lyfs" Label="lyfs" Title="lyfs" Unit="units" Internal="lyfs" Type="F" Min="-5.34901142e+00" Max="3.53381467e+00"/>
    <Variable VarIndex="8" Expression="nlxin" Label="nlxin" Title="nlxin" Unit="units" Internal="nlxin" Type="F" Min="6.17413316e-04" Max="6.62311554e+00"/>
    <Variable VarIndex="9" Expression="nlyin" Label="nlyin" Title="nlyin" Unit="units" Internal="nlyin" Type="F" Min="2.38190941e-03" Max="1.24452477e+01"/>
    <Variable VarIndex="10" Expression="nlxl1" Label="nlxl1" Title="nlxl1" Unit="units" Internal="nlxl1" Type="F" Min="1.26207517e-02" Max="6.73316526e+00"/>
    <Variable VarIndex="11" Expression="nlyl1" Label="nlyl1" Title="nlyl1" Unit="units" Internal="nlyl1" Type="F" Min="2.33826321e-02" Max="1.24469213e+01"/>
    <Variable VarIndex="12" Expression="nlxl9" Label="nlxl9" Title="nlxl9" Unit="units" Internal="nlxl9" Type="F" Min="2.66936403e-02" Max="6.61560488e+00"/>
    <Variable VarIndex="13" Expression="nlyl9" Label="nlyl9" Title="nlyl9" Unit="units" Internal="nlyl9" Type="F" Min="2.95367613e-02" Max="1.11210957e+01"/>
    <Variable VarIndex="14" Expression="nlxfs" Label="nlxfs" Title="nlxfs" Unit="units" Internal="nlxfs" Type="F" Min="4.79765646e-02" Max="8.49512482e+00"/>
    <Variable VarIndex="15" Expression="nlyfs" Label="nlyfs" Title="nlyfs" Unit="units" Internal="nlyfs" Type="F" Min="7.95618072e-02" Max="9.85155106e+00"/>
    <Variable VarIndex="16" Expression="lxinC" Label="lxinC" Title="lxinC" Unit="units" Internal="lxinC" Type="F" Min="-1.33064337e+01" Max="5.01076984e+00"/>
    <Variable VarIndex="17" Expression="lyinC" Label="lyinC" Title="lyinC" Unit="units" Internal="lyinC" Type="F" Min="-1.16553373e+01" Max="6.76998997e+00"/>
    <Variable VarIndex="18" Expression="lxl1C" Label="lxl1C" Title="lxl1C" Unit="units" Internal="lxl1C" Type="F" Min="-9.06858635e+00" Max="4.67337322e+00"/>
    <Variable VarIndex="19" Expression="lyl1C" Label="lyl1C" Title="lyl1C" Unit="units" Internal="lyl1C" Type="F" Min="-7.80382061e+00" Max="6.58198738e+00"/>
    <Variable VarIndex="20" Expression="lxl9C" Label="lxl9C" Title="lxl9C" Unit="units" Internal="lxl9C" Type="F" Min="-7.70377159e+00" Max="4.65318775e+00"/>
    <Variable VarIndex="21" Expression="lyl9C" Label="lyl9C" Title="lyl9C" Unit="units" Internal="lyl9C" Type="F" Min="-7.51619530e+00" Max="6.57195854e+00"/>
    <Variable VarIndex="22" Expression="lxfsC" Label="lxfsC" Title="lxfsC" Unit="units" Internal="lxfsC" Type="F" Min="-6.69403124e+00" Max="5.20491791e+00"/>
    <Variable VarIndex="23" Expression="lyfsC" Label="lyfsC" Title="lyfsC" Unit="units" Internal="lyfsC" Type="F" Min="-6.09718418e+00" Max="6.39906931e+00"/>
    <Variable VarIndex="24" Expression="lrin" Label="lrin" Title="lrin" Unit="units" Internal="lrin" Type="F" Min="1.72853322e-06" Max="1.36104088e+01"/>
    <Variable VarIndex="25" Expression="lrfs" Label="lrfs" Title="lrfs" Unit="units" Internal="lrfs" Type="F" Min="1.43051045e-06" Max="3.47387457e+00"/>
    <Variable VarIndex="26" Expression="lrinC" Label="lrinC" Title="lrinC" Unit="units" Internal="lrinC" Type="F" Min="6.62354432e-06" Max="8.97263622e+00"/>
    <Variable VarIndex="27" Expression="lrfsC" Label="lrfsC" Title="lrfsC" Unit="units" Internal="lrfsC" Type="F" Min="9.05986508e-06" Max="5.39761305e+00"/>
  </Variables>
  <Spectators NSpec="0"/>
  <Classes NClass="2">
    <Class Name="Signal" Index="0"/>
    <Class Name="Background" Index="1"/>
  </Classes>
  <Transformations NTransformations="1">
    <Transform Name="Decorrelation">
      <Selection>
        <Input NInputs="28">
          <Input Type="Variable" Label="lxin" Expression="lxin"/>
          <Input Type="Variable" Label="lyin" Expression="lyin"/>
          <Input Type="Variable" Label="lxl1" Expression="lxl1"/>
          <Input Type="Variable" Label="lyl1" Expression="lyl1"/>
          <Input Type="Variable" Label="lxl9" Expression="lxl9"/>
          <Input Type="Variable" Label="lyl9" Expression="lyl9"/>
          <Input Type="Variable" Label="lxfs" Expression="lxfs"/>
          <Input Type="Variable" Label="lyfs" Expression="lyfs"/>
          <Input Type="Variable" Label="nlxin" Expression="nlxin"/>
          <Input Type="Variable" Label="nlyin" Expression="nlyin"/>
          <Input Type="Variable" Label="nlxl1" Expression="nlxl1"/>
          <Input Type="Variable" Label="nlyl1" Expression="nlyl1"/>
          <Input Type="Variable" Label="nlxl9" Expression="nlxl9"/>
          <Input Type="Variable" Label="nlyl9" Expression="nlyl9"/>
          <Input Type="Variable" Label="nlxfs" Expression="nlxfs"/>
          <Input Type="Variable" Label="nlyfs" Expression="nlyfs"/>
          <Input Type="Variable" Label="lxinC" Expression="lxinC"/>
          <Input Type="Variable" Label="lyinC" Expression="lyinC"/>
          <Input Type="Variable" Label="lxl1C" Expression="lxl1C"/>
          <Input Type="Variable" Label="lyl1C" Expression="lyl1C"/>
          <Input Type="Variable" Label="lxl9C" Expression="lxl9C"/>
          <Input Type="Variable" Label="lyl9C" Expression="lyl9C"/>
          <Input Type="Variable" Label="lxfsC" Expression="lxfsC"/>
          <Input Type="Variable" Label="lyfsC" Expression="lyfsC"/>
          <Input Type="Variable" Label="lrin" Expression="lrin"/>
          <Input Type="Variable" Label="lrfs" Expression="lrfs"/>
          <Input Type="Variable" Label="lrinC" Expression="lrinC"/>
          <Input Type="Variable" Label="lrfsC" Expression="lrfsC"/>
        </Input>
        <Output NOutputs="28">
          <Output Type="Variable" Label="lxin" Expression="lxin"/>
          <Output Type="Variable" Label="lyin" Expression="lyin"/>
          <Output Type="Variable" Label="lxl1" Expression="lxl1"/>
          <Output Type="Variable" Label="lyl1" Expression="lyl1"/>
          <Output Type="Variable" Label="lxl9" Expression="lxl9"/>
          <Output Type="Variable" Label="lyl9" Expression="lyl9"/>
          <Output Type="Variable" Label="lxfs" Expression="lxfs"/>
          <Output Type="Variable" Label="lyfs" Expression="lyfs"/>
          <Output Type="Variable" Label="nlxin" Expression="nlxin"/>
          <Output Type="Variable" Label="nlyin" Expression="nlyin"/>
          <Output Type="Variable" Label="nlxl1" Expression="nlxl1"/>
          <Output Type="Variable" Label="nlyl1" Expression="nlyl1"/>
          <Output Type="Variable" Label="nlxl9" Expression="nlxl9"/>
          <Output Type="Variable" Label="nlyl9" Expression="nlyl9"/>
          <Output Type="Variable" Label="nlxfs" Expression="nlxfs"/>
          <Output Type="Variable" Label="nlyfs" Expression="nlyfs"/>
          <Output Type="Variable" Label="lxinC" Expression="lxinC"/>
          <Output Type="Variable" Label="lyinC" Expression="lyinC"/>
          <Output Type="Variable" Label="lxl1C" Expression="lxl1C"/>
          <Output Type="Variable" Label="lyl1C" Expression="lyl1C"/>
          <Output Type="Variable" Label="lxl9C" Expression="lxl9C"/>
          <Output Type="Variable" Label="lyl9C" Expression="lyl9C"/>
          <Output Type="Variable" Label="lxfsC" Expression="lxfsC"/>
          <Output Type="Variable" Label="lyfsC" Expression="lyfsC"/>
          <Output Type="Variable" Label="lrin" Expression="lrin"/>
          <Output Type="Variable" Label="lrfs" Expression="lrfs"/>
          <Output Type="Variable" Label="lrinC" Expression="lrinC"/>
          <Output Type="Variable" Label="lrfsC" Expression="lrfsC"/>
        </Output>
      </Selection>
      <Matrix Rows="28" Columns="28">
        1.210072906589231e+01 -1.536484727477504e-01 -3.737056430604224e+00 2.784397149543505e-02 -4.583616205873179e+00 7.150711571830945e-02 -2.466347922057636e-01 -5.264706704654321e-02 1.550053983715376e+00 -5.422823247874162e-02 -5.197949939390137e-01 9.232174000078516e-03 -7.902453593337804e-01 -9.444669838943555e-04 -9.609660019354782e-02 -3.222467466807655e-02 -1.090026121879545e+01 1.504482683172227e-01 3.287566895873545e+00 -2.302812999250308e-02 4.189835632236459e+00 -7.425815130186494e-02 4.250022164155712e-01 1.104237575701628e-01 -4.911086470878683e-02 -4.006847424192196e-02 -2.798276252990450e-02 2.744249162846713e-02 -1.536484727477525e-01 9.926202371490007e+00 1.052563585824638e-01 -3.131890713019603e+00 -2.037102890331777e-02 -4.608324411844142e+00 -1.971354837170461e-02 1.073894014167893e-01 -2.305256350070283e-02 1.541840089810469e+00 9.392141885795227e-03 -3.628239928435914e-01 7.876763527008460e-03 -1.010824665492923e+00 -1.530181048255148e-02 -1.552296812781193e-01 1.485314932274648e-01 -8.371635925953198e+00 -1.062997567380866e-01 2.415783127884013e+00 1.266672976322501e-02 4.135245923668847e+00 2.970422328059057e-02 1.061661582111598e-01 1.734426910200537e-02 -3.327709624256131e-02 4.102420585860483e-02 -1.301056094020864e-01 -3.737056430604212e+00 1.052563585824630e-01 1.273226307922535e+01 -1.466861173100656e-01 -2.186905577540541e+00 1.602564928376287e-02 -3.499247825249628e+00 -1.016937184262773e-01 -1.073740353811333e-01 3.031522240368070e-02 1.334814170188531e+00 -1.062475076783383e-01 -1.002804729157378e-01 -3.311776396654982e-02 -4.430455184088858e-01 2.312153763209319e-02 3.225596807775527e+00 -1.374451292750003e-01 -1.076496308778017e+01 2.411490250261248e-01 1.870766092566146e+00 7.925753574017952e-02 2.882275252472227e+00 -3.622733158284565e-02 -2.882909508619533e-02 3.335277083080398e-01 5.356528072348207e-02 -3.274452795489960e-01 2.784397149543815e-02 -3.131890713019605e+00 -1.466861173100656e-01 1.009817597533203e+01 8.507375557584017e-02 -4.232603797381225e-01 -1.775904833273701e-02 -4.206988256184647e+00 -1.481363144802772e-02 -4.447516340156554e-01 -3.667480995846712e-02 9.338297374514206e-01 2.040738130021587e-02 1.267533584576218e-01 1.356462163676581e-02 -3.397364706126266e-01 -1.853544123634022e-02 2.284504599575276e+00 1.205500002843359e-01 -7.234195264673843e+00 -6.784852584249718e-02 3.702408309905697e-01 2.675066732618941e-02 2.933019317050312e+00 6.422452416015666e-02 5.000885700584875e-01 -8.874186238985793e-02 -3.381125460283140e-01 -4.583616205873185e+00 -2.037102890331860e-02 -2.186905577540533e+00 8.507375557584437e-02 1.455800397786953e+01 -1.613685426155370e-01 -4.286392536076990e+00 5.866619760733097e-02 -2.496779677990611e-01 -4.124113827408137e-02 -7.429590932926991e-02 1.752092650088220e-02 1.773523989585722e+00 -3.525999297128786e-02 -6.491740666360896e-01 -6.091507162823511e-03 4.068561282749489e+00 4.424437696979222e-02 1.901345619980593e+00 -1.289592450949362e-01 -1.274272749424548e+01 1.559982077569590e-01 3.791225736112971e+00 1.272216231939407e-03 3.457137608375253e-02 -9.649312453254692e-02 -1.861436104286369e-02 -3.295071864292974e-03 7.150711571830680e-02 -4.608324411844136e+00 1.602564928376049e-02 -4.232603797381264e-01 -1.613685426155322e-01 1.176237200722173e+01 2.899907691939031e-02 -4.349368359334287e+00 -2.430465667153586e-03 3.860895508110207e-02 3.401903457557769e-02 -2.572123973351899e-01 -7.278785863472588e-02 1.475577365080992e+00 -4.542559719046092e-03 -5.219806729631025e-01 -7.132124375667453e-02 3.816229007116242e+00 9.009505162934722e-03 3.454735892642535e-01 1.564205363610325e-01 -9.192620126722122e+00 -2.263422699393564e-02 3.122993402432260e+00 6.155331547363429e-02 1.746218076665687e-01 -3.081908641298352e-02 -2.445951943927793e-02 -2.466347922057685e-01 -1.971354837170515e-02 -3.499247825249625e+00 -1.775904833273805e-02 -4.286392536076990e+00 2.899907691939011e-02 1.142778114980113e+01 1.634803060255874e-03 -1.377913851001727e-01 -9.601558312937655e-03 -1.246474806225182e-01 1.565356623052145e-02 -1.730700698557600e-01 2.130706423703200e-02 1.185635098338148e+00 -1.467291801113588e-02 2.502006819507347e-01 2.461460035100068e-02 2.757210200666040e+00 3.477481626287288e-02 3.700164307847042e+00 -2.619585346175567e-02 -9.370763581961883e+00 -5.885130318555996e-02 -1.126208830195244e-03 -7.485782805390932e-02 -1.535961187842189e-02 2.770473511492020e-01 -5.264706704654413e-02 1.073894014167832e-01 -1.016937184262765e-01 -4.206988256184643e+00 5.866619760733124e-02 -4.349368359334284e+00 1.634803060254895e-03 1.181025956411085e+01 2.420138491221038e-02 -2.280152997740790e-01 -6.078941801345343e-02 -1.147526083299433e-01 3.688050814499619e-02 -2.283507218265360e-01 -2.755579095616556e-02 1.287187052436629e+00 5.147926437574169e-02 1.333178227300379e-01 1.401096883452938e-01 2.752441667203552e+00 -5.966572732776960e-02 2.811280110374928e+00 -5.554223892028806e-02 -7.926983663151308e+00 -2.220193160345344e-01 -1.564685829428974e+00 -7.733464306902472e-02 1.059413815632010e+00 1.550053983715383e+00 -2.305256350070255e-02 -1.073740353811354e-01 -1.481363144802849e-02 -2.496779677990647e-01 -2.430465667153699e-03 -1.377913851001729e-01 2.420138491221138e-02 4.429312542846751e+00 -1.094627640419699e-01 -1.234629604778520e+00 2.543869846464455e-03 -1.211239878182580e+00 -2.356834656087983e-02 4.488285933957887e-02 -2.273466217420821e-02 -3.049788194014505e+00 3.825474437617576e-02 3.356161421142289e-01 2.124978289027626e-02 4.556521760814209e-01 2.424092755229899e-02 1.897078601981661e-01 1.146581327838876e-02 -2.117448634361621e-02 1.592721762258216e-02 -2.267171032056370e-03 5.116744205224450e-02 -5.422823247874372e-02 1.541840089810476e+00 3.031522240368173e-02 -4.447516340156603e-01 -4.124113827408036e-02 3.860895508110128e-02 -9.601558312938317e-03 -2.280152997740770e-01 -1.094627640419701e-01 5.225315698740406e+00 1.753093585281048e-02 -1.517202646266935e+00 -4.218347328428832e-02 -1.422970071908476e+00 -1.708008238120159e-03 2.082980450146005e-02 9.560534804921468e-02 -3.425728929162399e+00 -3.856624964383648e-02 9.044913499343050e-01 6.065364788195474e-02 3.210437818090575e-01 3.499616811472690e-02 1.446386140669143e-01 -2.274022234734125e-02 2.063010684496477e-03 -2.988998383318613e-02 1.911384879241666e-01 -5.197949939390135e-01 9.392141885794134e-03 1.334814170188528e+00 -3.667480995846626e-02 -7.429590932926929e-02 3.401903457557904e-02 -1.246474806225186e-01 -6.078941801345461e-02 -1.234629604778520e+00 1.753093585281072e-02 5.449899820344372e+00 -1.716321086934287e-01 -9.000100509317315e-01 2.062879313228666e-02 -9.749778439405737e-01 3.762860791882866e-02 6.440872796313455e-01 -5.280050771541132e-02 -3.574937947649524e+00 6.527856524164735e-02 5.353324137044243e-01 5.445667007187854e-02 4.633943127009018e-01 3.661577038781214e-02 -2.376860736622154e-02 2.145909532713777e-01 -3.425878455715769e-03 -1.278740920932682e-01 9.232174000078976e-03 -3.628239928435951e-01 -1.062475076783382e-01 9.338297374514242e-01 1.752092650088158e-02 -2.572123973351862e-01 1.565356623052142e-02 -1.147526083299476e-01 2.543869846464673e-03 -1.517202646266935e+00 -1.716321086934293e-01 5.553304264425988e+00 1.882750239950053e-02 -2.276538308141861e-01 4.243930380907923e-02 -1.649166110073656e+00 -2.230655395521172e-02 6.254543889711017e-01 1.279528449807518e-01 -3.042449330305913e+00 1.487327178941254e-02 5.871961343575154e-01 -6.764792304525154e-04 3.286418275560921e-01 3.430714679533235e-02 2.477508727474400e-01 1.487675926522871e-02 2.855403161347351e-02 -7.902453593337857e-01 7.876763527009245e-03 -1.002804729157366e-01 2.040738130021622e-02 1.773523989585724e+00 -7.278785863472753e-02 -1.730700698557577e-01 3.688050814499641e-02 -1.211239878182579e+00 -4.218347328428877e-02 -9.000100509317308e-01 1.882750239950099e-02 5.573237012488056e+00 -9.517902485984346e-02 -1.030792530339660e+00 2.952923317704404e-02 8.955744568825539e-01 5.352232844126511e-03 5.432619505922017e-01 1.565216890123294e-02 -4.022024226408955e+00 3.648956704195604e-02 5.081277973542647e-01 -8.558052870382468e-03 8.632999710931899e-03 1.122574391169169e-03 -9.595537946444374e-03 3.156836970326899e-02 -9.444669838969829e-04 -1.010824665492919e+00 -3.311776396654879e-02 1.267533584576183e-01 -3.525999297128501e-02 1.475577365080985e+00 2.130706423703170e-02 -2.283507218265338e-01 -2.356834656088001e-02 -1.422970071908475e+00 2.062879313228719e-02 -2.276538308141876e-01 -9.517902485984317e-02 5.929888358600056e+00 7.863579085845174e-03 -1.668859787112806e+00 -3.425316877864172e-03 1.080813358545473e+00 7.814531600843719e-02 2.079276607250248e-01 3.861894707027077e-02 -3.625819078430761e+00 -1.722681382384460e-02 4.705309107825602e-01 6.491157677004468e-02 -4.447016927360425e-02 2.280622518911336e-02 2.701714839657295e-01 -9.609660019354654e-02 -1.530181048255195e-02 -4.430455184088833e-01 1.356462163676617e-02 -6.491740666360920e-01 -4.542559719045975e-03 1.185635098338148e+00 -2.755579095616573e-02 4.488285933957904e-02 -1.708008238120188e-03 -9.749778439405735e-01 4.243930380907893e-02 -1.030792530339661e+00 7.863579085845037e-03 3.861650348782026e+00 -9.817660004039090e-02 2.194115102543154e-01 3.853309491467945e-02 6.710033242094628e-01 -9.582240485046002e-04 8.234934637671414e-01 1.627718795277679e-02 -3.079737464838836e+00 -3.930127428240283e-02 8.286001799000664e-03 -1.493519304509967e-01 1.944272225160612e-02 2.284333291663598e-02 -3.222467466807623e-02 -1.552296812781228e-01 2.312153763209192e-02 -3.397364706126265e-01 -6.091507162823787e-03 -5.219806729630987e-01 -1.467291801113547e-02 1.287187052436631e+00 -2.273466217420823e-02 2.082980450145831e-02 3.762860791882883e-02 -1.649166110073655e+00 2.952923317704389e-02 -1.668859787112806e+00 -9.817660004039128e-02 6.188786637884441e+00 3.579218725131156e-02 3.591447716229825e-01 -2.821246825416213e-02 2.907933193151064e-01 1.532697455230564e-02 4.154356548754142e-01 1.463519271673934e-02 -2.979311158234399e+00 2.606020776135486e-02 -7.422222848154908e-02 -1.250970917302524e-01 -6.192119584191742e-01 -1.090026121879545e+01 1.485314932274631e-01 3.225596807775538e+00 -1.853544123633739e-02 4.068561282749489e+00 -7.132124375667796e-02 2.502006819507313e-01 5.147926437574131e-02 -3.049788194014499e+00 9.560534804921263e-02 6.440872796313456e-01 -2.230655395521132e-02 8.955744568825507e-01 -3.425316877867061e-03 2.194115102543165e-01 3.579218725131213e-02 1.301006323304038e+01 -1.995353001218474e-01 -3.897727689652879e+00 2.095578744111356e-02 -4.761947351964756e+00 6.744139200976722e-02 -2.592033752159372e-01 -8.872383109770568e-02 5.384990901910642e-02 2.863090810936286e-02 3.579271218603954e-02 -4.682704685315994e-02 1.504482683172254e-01 -8.371635925953200e+00 -1.374451292750022e-01 2.284504599575278e+00 4.424437696979180e-02 3.816229007116246e+00 2.461460035100041e-02 1.333178227300296e-01 3.825474437617589e-02 -3.425728929162392e+00 -5.280050771541212e-02 6.254543889710984e-01 5.352232844127239e-03 1.080813358545477e+00 3.853309491467885e-02 3.591447716229786e-01 -1.995353001218496e-01 1.041260654646165e+01 1.477799372082068e-01 -2.820473427222991e+00 -4.246282609835972e-02 -4.550995877197356e+00 -1.103764419419962e-02 -1.360566995244614e-01 -1.987613788767844e-02 5.782275320597216e-02 -4.783711543508404e-02 2.953620312400644e-02 3.287566895873535e+00 -1.062997567380844e-01 -1.076496308778018e+01 1.205500002843350e-01 1.901345619980598e+00 9.009505162932106e-03 2.757210200666043e+00 1.401096883452948e-01 3.356161421142261e-01 -3.856624964383550e-02 -3.574937947649525e+00 1.279528449807516e-01 5.432619505922027e-01 7.814531600843860e-02 6.710033242094660e-01 -2.821246825416335e-02 -3.897727689652868e+00 1.477799372082039e-01 1.369695920459743e+01 -3.304350117147929e-01 -2.073171523172676e+00 -7.093883702623416e-02 -3.688248962169454e+00 3.032097119633416e-02 2.673337185544817e-02 -3.613373367468140e-01 -6.785735198435151e-02 3.988157501923786e-01 -2.302812999250648e-02 2.415783127884016e+00 2.411490250261262e-01 -7.234195264673844e+00 -1.289592450949331e-01 3.454735892642458e-01 3.477481626287240e-02 2.752441667203558e+00 2.124978289027539e-02 9.044913499343010e-01 6.527856524164861e-02 -3.042449330305909e+00 1.565216890123339e-02 2.079276607250214e-01 -9.582240485042637e-04 2.907933193151065e-01 2.095578744111678e-02 -2.820473427222992e+00 -3.304350117147953e-01 9.664146661075184e+00 1.596247392350175e-01 -7.357101322762447e-01 -4.047600389495654e-02 -3.540428356301147e+00 3.024010880934602e-02 -9.493855050845010e-02 1.713323362807092e-01 7.930468653731727e-01 4.189835632236464e+00 1.266672976322527e-02 1.870766092566138e+00 -6.784852584250088e-02 -1.274272749424548e+01 1.564205363610380e-01 3.700164307847041e+00 -5.966572732776982e-02 4.556521760814183e-01 6.065364788195599e-02 5.353324137044241e-01 1.487327178941193e-02 -4.022024226408954e+00 3.861894707027352e-02 8.234934637671396e-01 1.532697455230517e-02 -4.761947351964758e+00 -4.246282609835970e-02 -2.073171523172671e+00 1.596247392350202e-01 1.582050670342334e+01 -2.427892048930438e-01 -4.724515644623872e+00 -5.083079025011351e-03 -3.163019354864991e-02 1.394694162297038e-01 1.526495564246185e-02 3.896523479137255e-02 -7.425815130185982e-02 4.135245923668839e+00 7.925753574017988e-02 3.702408309905751e-01 1.559982077569525e-01 -9.192620126722117e+00 -2.619585346175488e-02 2.811280110374930e+00 2.424092755229926e-02 3.210437818090566e-01 5.445667007187915e-02 5.871961343575188e-01 3.648956704195433e-02 -3.625819078430767e+00 1.627718795277700e-02 4.154356548754172e-01 6.744139200976121e-02 -4.550995877197350e+00 -7.093883702623434e-02 -7.357101322762529e-01 -2.427892048930369e-01 1.174531949374116e+01 2.357347041592488e-02 -3.381560438254148e+00 -4.532354573510969e-02 1.942404679106422e-01 9.439039959587170e-02 3.790957546850079e-01 4.250022164155713e-01 2.970422328059105e-02 2.882275252472228e+00 2.675066732619043e-02 3.791225736112978e+00 -2.263422699393597e-02 -9.370763581961887e+00 -5.554223892028888e-02 1.897078601981650e-01 3.499616811472624e-02 4.633943127009019e-01 -6.764792304524599e-04 5.081277973542672e-01 -1.722681382384487e-02 -3.079737464838837e+00 1.463519271673959e-02 -2.592033752159374e-01 -1.103764419419999e-02 -3.688248962169451e+00 -4.047600389495710e-02 -4.724515644623877e+00 2.357347041592611e-02 1.244490542155041e+01 1.112341478100354e-03 1.092893224834886e-02 1.099867355754089e-02 2.339330141822220e-02 -3.761898208545068e-01 1.104237575701631e-01 1.061661582111648e-01 -3.622733158284604e-02 2.933019317050308e+00 1.272216231939715e-03 3.122993402432257e+00 -5.885130318555944e-02 -7.926983663151307e+00 1.146581327838953e-02 1.446386140669159e-01 3.661577038781101e-02 3.286418275560890e-01 -8.558052870382204e-03 4.705309107825629e-01 -3.930127428240279e-02 -2.979311158234399e+00 -8.872383109770542e-02 -1.360566995244677e-01 3.032097119633459e-02 -3.540428356301141e+00 -5.083079025011979e-03 -3.381560438254147e+00 1.112341478099965e-03 1.036871027833989e+01 -1.897399593256097e-02 9.782213161412567e-02 -8.477284820693551e-02 -2.017657509117278e+00 -4.911086470878689e-02 1.734426910200514e-02 -2.882909508619536e-02 6.422452416015666e-02 3.457137608375248e-02 6.155331547363421e-02 -1.126208830194946e-03 -2.220193160345341e-01 -2.117448634361616e-02 -2.274022234734144e-02 -2.376860736622159e-02 3.430714679533238e-02 8.632999710931878e-03 6.491157677004476e-02 8.286001799000756e-03 2.606020776135477e-02 5.384990901910641e-02 -1.987613788767820e-02 2.673337185544824e-02 3.024010880934604e-02 -3.163019354864980e-02 -4.532354573510965e-02 1.092893224834854e-02 -1.897399593256114e-02 2.339809323504025e+00 -5.180643321502535e-01 -8.477761883707334e-01 1.369776807996988e-01 -4.006847424192142e-02 -3.327709624256125e-02 3.335277083080397e-01 5.000885700584874e-01 -9.649312453254719e-02 1.746218076665687e-01 -7.485782805390975e-02 -1.564685829428974e+00 1.592721762258227e-02 2.063010684496755e-03 2.145909532713778e-01 2.477508727474395e-01 1.122574391168911e-03 -4.447016927360428e-02 -1.493519304509968e-01 -7.422222848154858e-02 2.863090810936239e-02 5.782275320597201e-02 -3.613373367468139e-01 -9.493855050844945e-02 1.394694162297041e-01 1.942404679106422e-01 1.099867355754128e-02 9.782213161412556e-02 -5.180643321502530e-01 6.242304682285442e+00 2.119908911164964e-01 -2.754099046344137e+00 -2.798276252990461e-02 4.102420585860470e-02 5.356528072348216e-02 -8.874186238985798e-02 -1.861436104286364e-02 -3.081908641298355e-02 -1.535961187842189e-02 -7.733464306902454e-02 -2.267171032056338e-03 -2.988998383318604e-02 -3.425878455715752e-03 1.487675926522869e-02 -9.595537946444400e-03 2.280622518911321e-02 1.944272225160624e-02 -1.250970917302524e-01 3.579271218603961e-02 -4.783711543508393e-02 -6.785735198435154e-02 1.713323362807093e-01 1.526495564246185e-02 9.439039959587180e-02 2.339330141822193e-02 -8.477284820693570e-02 -8.477761883707333e-01 2.119908911164966e-01 2.140594463299842e+00 -4.517247420416973e-01 2.744249162846669e-02 -1.301056094020858e-01 -3.274452795489961e-01 -3.381125460283135e-01 -3.295071864293266e-03 -2.445951943927805e-02 2.770473511492026e-01 1.059413815632008e+00 5.116744205224445e-02 1.911384879241667e-01 -1.278740920932683e-01 2.855403161347420e-02 3.156836970326904e-02 2.701714839657292e-01 2.284333291663607e-02 -6.192119584191755e-01 -4.682704685315972e-02 2.953620312400576e-02 3.988157501923787e-01 7.930468653731719e-01 3.896523479137273e-02 3.790957546850086e-01 -3.761898208545072e-01 -2.017657509117277e+00 1.369776807996983e-01 -2.754099046344137e+00 -4.517247420416970e-01 6.403390311359182e+00 
      </Matrix>
      <Matrix Rows="28" Columns="28">
        1.035225202770419e+01 -1.499730480331457e-01 -2.368966156601216e+00 2.679389478688790e-02 -3.055182279822558e+00 -1.223512884096859e-02 -9.476313340260611e-02 -6.296991352756492e-02 1.293474879910207e+00 -8.899620841392822e-02 -9.078834691724498e-02 2.187495708619291e-04 -5.248303063230685e-01 -6.813951415923863e-02 5.872900312329676e-02 5.075266546156324e-02 -9.202374599882932e+00 1.930727102260757e-01 1.822402959597450e+00 -6.682821512274925e-02 2.677354240322329e+00 2.371053428330330e-02 1.783935496232155e-01 1.461002350262096e-01 -5.596752183743423e-02 -2.048543184091793e-01 1.303055998338363e-02 1.212406938509009e-01 -1.499730480331499e-01 6.616373919856227e+00 1.045417321741795e-01 -2.313126771207826e+00 -8.739608703962613e-02 -2.711473003152180e+00 -2.486163449394851e-02 1.117321574716340e-01 -5.080877633985223e-02 1.114994131927068e+00 -5.546066568058731e-03 -9.660825126124720e-02 -9.722897211424698e-03 -7.595605767973693e-01 -4.538268519630420e-02 -8.925403901271445e-03 1.213258542534813e-01 -5.357364075144026e+00 -7.173540150410618e-02 1.532368390836483e+00 1.139499787258217e-01 2.445327446733510e+00 1.305092494519557e-02 8.185295526647615e-02 -2.311419489069242e-02 -1.522665123735842e-02 7.085931639853592e-02 -1.142858739342506e-01 -2.368966156601216e+00 1.045417321741775e-01 7.109913278106212e+00 -3.677365818235141e-01 -3.271889706421899e-01 -1.126238228992288e-02 -8.722552102935263e-01 -1.439036739470946e-01 6.637482909358741e-02 1.153524026663344e-01 1.589410168395269e-01 -2.589369518479234e-01 5.385021405445953e-02 -1.480666983146240e-01 -1.324966828822646e-01 -3.403859028470575e-02 1.859334332592145e+00 -2.054205043712268e-01 -5.340273781076545e+00 4.500453568908495e-01 5.846757427453095e-01 2.997980159235434e-01 2.955556621131791e-01 -5.753928752548008e-02 -3.601226779320281e-03 5.952780119989489e-01 7.968802483422219e-03 -5.556818714448257e-01 2.679389478688982e-02 -2.313126771207827e+00 -3.677365818235164e-01 6.535770880441693e+00 1.426376105552877e-01 2.117804232287940e-01 -5.092664640448947e-02 -1.058629411956281e+00 -4.931016346751623e-02 -2.880081517561290e-01 4.697170783043494e-02 8.531568845454064e-01 4.562499096582000e-02 -1.779461552957683e-01 3.270797698571452e-02 -1.070950235138371e-01 -1.108275704098073e-02 1.616790314046770e+00 2.745663958241242e-01 -4.535560492322699e+00 -6.531465882765231e-02 2.848242137583209e-01 -6.344154042344549e-02 7.094586212035026e-01 1.650144095755469e-03 2.476136398879089e-01 -7.329194164556026e-03 -2.182471063549350e-01 -3.055182279822562e+00 -8.739608703962781e-02 -3.271889706421890e-01 1.426376105552895e-01 8.976869395269356e+00 -9.088802754832684e-02 -1.220807736303449e+00 1.893780897277726e-01 5.828400751077623e-02 -9.382368964484084e-02 2.564896215883476e-02 1.177917585704944e-01 8.232023406172506e-01 1.772175283157234e-01 -2.658830424234000e-01 -1.535081291775272e-01 2.585422000456448e+00 9.373283046119166e-02 5.117065062146806e-01 -6.853071327819182e-02 -7.433944645053138e+00 -1.111808590044976e-01 7.983345659173504e-01 -2.881417198101964e-02 3.717870222252375e-03 9.172806469822603e-02 -1.546870120499855e-02 -6.216796236532564e-02 -1.223512884096682e-02 -2.711473003152180e+00 -1.126238228992271e-02 2.117804232287926e-01 -9.088802754832662e-02 7.530475960999166e+00 9.186876623060877e-02 -1.469014003117067e+00 9.577185779186063e-03 -1.323347769373551e-01 1.061158350387606e-02 -1.247007242722596e-01 2.747691257977788e-03 1.067797777283439e+00 -1.328577792161052e-02 -2.149156289073991e-01 3.207363845217501e-02 2.149846579407150e+00 3.656255623446165e-02 2.549730909899218e-01 -6.410629398164461e-03 -5.668076246350403e+00 -5.876202736917848e-02 1.019590484403639e+00 1.523175853621864e-01 2.343538579210484e-01 -9.410706902574244e-02 -2.032400927083906e-01 -9.476313340260718e-02 -2.486163449394758e-02 -8.722552102935232e-01 -5.092664640449075e-02 -1.220807736303451e+00 9.186876623060861e-02 6.159945408006914e+00 -9.841721185201245e-02 -1.613223052741971e-01 2.802467113533350e-02 2.667734587889284e-01 2.587244117022234e-02 3.115227762241363e-01 7.659339332347317e-03 8.920876530312150e-03 -6.600778814218798e-02 1.590856396136542e-02 -2.604078058685157e-02 2.143707890950857e-01 8.819218962390547e-02 5.983429625754259e-01 -4.753330181705344e-02 -3.442741162756125e+00 -9.865834342711263e-02 -2.180618198334221e-02 -3.420379070260045e-02 5.143908046731108e-03 3.837466767386614e-01 -6.296991352756466e-02 1.117321574716337e-01 -1.439036739470955e-01 -1.058629411956280e+00 1.893780897277741e-01 -1.469014003117067e+00 -9.841721185201149e-02 8.728250064564321e+00 2.109767351103169e-02 -1.345889381828351e-01 -1.106037244737564e-01 6.553023589470702e-02 5.092271649542916e-02 -2.589022613900757e-01 -3.933399161845698e-02 1.093679975512682e+00 3.968816221128128e-02 2.808172045821845e-02 2.002678257703797e-01 6.685131425224908e-01 -1.927608638737661e-01 1.118570478505610e+00 7.115726257615529e-02 -4.957401832982344e+00 -1.595962337493806e-01 -6.032053054742633e-01 -8.611968736042906e-02 -1.663129660648340e-02 1.293474879910204e+00 -5.080877633985175e-02 6.637482909358786e-02 -4.931016346751634e-02 5.828400751077770e-02 9.577185779185298e-03 -1.613223052741968e-01 2.109767351103191e-02 4.110904050628506e+00 -9.052510794591741e-02 -9.454456613683953e-01 3.634088512022714e-02 -7.958636899304203e-01 -4.351168557087398e-02 -1.446831330872889e-02 -3.193803991713629e-02 -2.749937142152363e+00 2.343313519734971e-02 -2.869407401444798e-02 5.076617588103895e-02 -5.052096037850243e-03 6.833156747296053e-02 3.889177022608916e-01 -2.445416470399292e-02 -4.181339861636346e-02 -9.281282246530151e-02 1.188006680453089e-04 6.517950419432211e-03 -8.899620841392973e-02 1.114994131927066e+00 1.153524026663344e-01 -2.880081517561289e-01 -9.382368964484025e-02 -1.323347769373519e-01 2.802467113533320e-02 -1.345889381828348e-01 -9.052510794591763e-02 4.217212406243904e+00 1.082866883013640e-01 -9.879253587232130e-01 -6.111879824661665e-02 -8.419422186930342e-01 -2.192348298052304e-02 -8.139324470797572e-02 9.297782124698580e-02 -2.802317582985254e+00 -1.665701330676948e-01 3.793244660965979e-01 1.431077651105039e-01 1.381596464010946e-01 9.480098094405285e-03 2.932809758530260e-01 -4.919788625992701e-02 -7.297331559602759e-02 -5.795532914117598e-02 5.624905457780087e-02 -9.078834691724254e-02 -5.546066568058171e-03 1.589410168395269e-01 4.697170783043489e-02 2.564896215883308e-02 1.061158350387573e-02 2.667734587889277e-01 -1.106037244737566e-01 -9.454456613683953e-01 1.082866883013646e-01 3.784418603699442e+00 -3.221106829519066e-01 -2.016911892535156e-01 -4.215974105594002e-02 -1.737275135782204e-01 3.926759644712748e-02 9.953542561765238e-02 -6.231232173858917e-02 -1.857498854684976e+00 1.449392738759820e-01 1.111831779572863e-01 4.794039263296246e-02 -1.635745926718093e-01 1.158213870294813e-01 1.825637484383590e-02 3.672857569402869e-01 -1.536121598752251e-04 -3.357930941309051e-01 2.187495708621482e-04 -9.660825126124749e-02 -2.589369518479239e-01 8.531568845454068e-01 1.177917585704942e-01 -1.247007242722594e-01 2.587244117022264e-02 6.553023589470545e-02 3.634088512022703e-02 -9.879253587232127e-01 -3.221106829519063e-01 3.711736012993839e+00 6.543371163153645e-02 -1.764689461639569e-01 5.302840436883551e-02 -6.909961712972862e-01 -2.939518432731079e-03 2.389495578422643e-01 4.223365519796023e-01 -2.345635103479835e+00 -1.660522326044203e-01 4.846540447598412e-01 -1.672854622045405e-02 1.052554149525174e-01 4.123315529937666e-02 3.320014567368728e-01 1.769279248955041e-03 -2.557959008559425e-01 -5.248303063230697e-01 -9.722897211424778e-03 5.385021405446104e-02 4.562499096582080e-02 8.232023406172495e-01 2.747691257976928e-03 3.115227762241356e-01 5.092271649542859e-02 -7.958636899304210e-01 -6.111879824661695e-02 -2.016911892535150e-01 6.543371163153650e-02 3.887914147032701e+00 1.935855948166511e-02 -3.328396178494181e-01 -9.276658753580147e-02 5.513825870279743e-01 3.099342228033850e-02 1.282525330478963e-01 -3.948241080492192e-02 -2.712810384720942e+00 -6.957375341804867e-02 -1.416797818956142e-01 2.754546642045235e-02 3.346046689215450e-02 1.907809927900695e-02 -1.053530611656154e-02 1.095450729546550e-01 -6.813951415923783e-02 -7.595605767973693e-01 -1.480666983146240e-01 -1.779461552957682e-01 1.772175283157233e-01 1.067797777283438e+00 7.659339332347291e-03 -2.589022613900757e-01 -4.351168557087371e-02 -8.419422186930351e-01 -4.215974105593999e-02 -1.764689461639565e-01 1.935855948166555e-02 3.968283859538881e+00 -3.770466291262477e-02 -5.042067815857832e-01 6.105294098551274e-02 8.049666131958422e-01 1.771789965999114e-01 4.411464409241083e-01 -1.740107096697556e-01 -2.884269298370182e+00 1.156611535613133e-02 2.309861824780963e-01 7.151845237484755e-02 -1.554489798605531e-01 1.080598309719257e-01 8.248763444781992e-02 5.872900312329435e-02 -4.538268519630406e-02 -1.324966828822642e-01 3.270797698571426e-02 -2.658830424233989e-01 -1.328577792161046e-02 8.920876530312980e-03 -3.933399161845691e-02 -1.446831330872933e-02 -2.192348298052259e-02 -1.737275135782208e-01 5.302840436883541e-02 -3.328396178494180e-01 -3.770466291262483e-02 2.360887101744377e+00 -1.473253498846551e-01 1.433578443362342e-01 4.200882233063117e-02 2.087587118484263e-01 -4.077249620724502e-02 3.760871687869478e-01 3.054229941455279e-02 -1.878702323442613e+00 2.074908579274013e-02 9.786533020973990e-03 -1.406613663261811e-01 3.108421524603274e-03 1.919122581279602e-01 5.075266546156391e-02 -8.925403901271009e-03 -3.403859028470543e-02 -1.070950235138376e-01 -1.535081291775274e-01 -2.149156289073993e-01 -6.600778814218732e-02 1.093679975512683e+00 -3.193803991713617e-02 -8.139324470797547e-02 3.926759644712755e-02 -6.909961712972863e-01 -9.276658753580123e-02 -5.042067815857834e-01 -1.473253498846551e-01 5.112134255474179e+00 -1.468247392121204e-02 3.155609911483004e-01 -3.950590972027703e-02 6.364836976597732e-02 1.736548463000648e-01 3.249119980513374e-01 2.328464787179052e-01 -3.101934027761514e+00 -1.739603077403813e-02 -2.482396850803268e-01 4.969515494022115e-03 1.233023533514607e-01 -9.202374599882928e+00 1.213258542534761e-01 1.859334332592144e+00 -1.108275704097902e-02 2.585422000456444e+00 3.207363845217763e-02 1.590856396136383e-02 3.968816221128149e-02 -2.749937142152363e+00 9.297782124698387e-02 9.953542561765490e-02 -2.939518432731051e-03 5.513825870279729e-01 6.105294098551382e-02 1.433578443362315e-01 -1.468247392121126e-02 1.125836187244988e+01 -1.999310189597756e-01 -2.381989762385593e+00 5.514851821052388e-02 -3.176996210222709e+00 -3.018462735750994e-02 8.919232831584681e-02 -1.881622060295521e-01 7.527770620580602e-02 1.830464208124704e-01 -1.370217618088249e-02 -1.274559205748106e-01 1.930727102260790e-01 -5.357364075144024e+00 -2.054205043712278e-01 1.616790314046770e+00 9.373283046119035e-02 2.149846579407148e+00 -2.604078058685076e-02 2.808172045821795e-02 2.343313519735008e-02 -2.802317582985256e+00 -6.231232173858821e-02 2.389495578422642e-01 3.099342228033826e-02 8.049666131958412e-01 4.200882233063152e-02 3.155609911483012e-01 -1.999310189597801e-01 7.247831721729527e+00 2.005754942932950e-01 -1.964426396414383e+00 -1.226155361188548e-01 -2.940500660591891e+00 3.615302602271356e-02 6.475699335038998e-02 -1.072615240331240e-02 -6.947229340370870e-03 -9.549434271569571e-02 -7.111867685528597e-02 1.822402959597447e+00 -7.173540150410460e-02 -5.340273781076545e+00 2.745663958241228e-01 5.117065062146831e-01 3.656255623446188e-02 2.143707890950894e-01 2.002678257703786e-01 -2.869407401444815e-02 -1.665701330676949e-01 -1.857498854684976e+00 4.223365519796019e-01 1.282525330478980e-01 1.771789965999114e-01 2.087587118484264e-01 -3.950590972027694e-02 -2.381989762385590e+00 2.005754942932943e-01 7.472012807387855e+00 -6.555583185655391e-01 -3.708532105650258e-01 -2.069842473481095e-01 -8.795751114847540e-01 2.990164590586072e-02 1.308664639263263e-02 -6.910776773064869e-01 1.100705776402067e-02 7.252972405866819e-01 -6.682821512275001e-02 1.532368390836484e+00 4.500453568908505e-01 -4.535560492322701e+00 -6.853071327819031e-02 2.549730909899203e-01 8.819218962390464e-02 6.685131425224923e-01 5.076617588103907e-02 3.793244660965979e-01 1.449392738759815e-01 -2.345635103479834e+00 -3.948241080492113e-02 4.411464409241089e-01 -4.077249620724523e-02 6.364836976597599e-02 5.514851821052445e-02 -1.964426396414383e+00 -6.555583185655398e-01 6.084912897206006e+00 1.494989540023411e-01 -1.983900773038606e-01 -6.717143413219200e-02 -1.386735760990379e+00 1.023099438896015e-01 -2.163084918355296e-01 1.477379151513374e-01 6.944244529160396e-01 2.677354240322330e+00 1.139499787258243e-01 5.846757427453076e-01 -6.531465882765469e-02 -7.433944645053137e+00 -6.410629398164636e-03 5.983429625754257e-01 -1.927608638737645e-01 -5.052096037848976e-03 1.431077651105046e-01 1.111831779572841e-01 -1.660522326044201e-01 -2.712810384720941e+00 -1.740107096697556e-01 3.760871687869491e-01 1.736548463000646e-01 -3.176996210222711e+00 -1.226155361188571e-01 -3.708532105650225e-01 1.494989540023426e-01 9.797298526521065e+00 -3.771714780346708e-02 -1.372482376501926e+00 1.052389231383614e-01 -1.064298897042770e-02 -6.091928339010875e-03 1.512775026711568e-02 8.776876212624315e-02 2.371053428330227e-02 2.445327446733509e+00 2.997980159235427e-01 2.848242137583220e-01 -1.111808590044976e-01 -5.668076246350404e+00 -4.753330181705329e-02 1.118570478505610e+00 6.833156747295979e-02 1.381596464010977e-01 4.794039263296204e-02 4.846540447598414e-01 -6.957375341804961e-02 -2.884269298370181e+00 3.054229941455287e-02 3.249119980513364e-01 -3.018462735750798e-02 -2.940500660591893e+00 -2.069842473481087e-01 -1.983900773038614e-01 -3.771714780346737e-02 7.653011408689853e+00 -1.412362912213644e-02 -1.623427934611768e+00 8.937787666332769e-03 -1.787270965140939e-02 2.055899657747292e-01 4.715117205471454e-01 1.783935496232202e-01 1.305092494519432e-02 2.955556621131764e-01 -6.344154042344463e-02 7.983345659173492e-01 -5.876202736917816e-02 -3.442741162756127e+00 7.115726257615627e-02 3.889177022608926e-01 9.480098094404574e-03 -1.635745926718094e-01 -1.672854622045398e-02 -1.416797818956146e-01 1.156611535613133e-02 -1.878702323442613e+00 2.328464787179060e-01 8.919232831584149e-02 3.615302602271500e-02 -8.795751114847512e-01 -6.717143413219248e-02 -1.372482376501925e+00 -1.412362912213641e-02 5.496266302974703e+00 -2.346584930731069e-02 2.669082987093657e-02 5.766778868028882e-02 3.568412621255616e-02 -4.835271408807197e-01 1.461002350262085e-01 8.185295526647590e-02 -5.753928752547954e-02 7.094586212035034e-01 -2.881417198102044e-02 1.019590484403638e+00 -9.865834342711360e-02 -4.957401832982343e+00 -2.445416470399265e-02 2.932809758530261e-01 1.158213870294812e-01 1.052554149525158e-01 2.754546642045167e-02 2.309861824780957e-01 2.074908579274035e-02 -3.101934027761511e+00 -1.881622060295510e-01 6.475699335039009e-02 2.990164590585956e-02 -1.386735760990379e+00 1.052389231383624e-01 -1.623427934611768e+00 -2.346584930730963e-02 7.157029357499153e+00 -1.384573464127836e-01 -3.177818076057228e-01 -1.909392720857816e-01 -9.645861077528698e-01 -5.596752183743411e-02 -2.311419489069239e-02 -3.601226779320537e-03 1.650144095755275e-03 3.717870222252449e-03 1.523175853621864e-01 -2.180618198334221e-02 -1.595962337493806e-01 -4.181339861636348e-02 -4.919788625992707e-02 1.825637484383579e-02 4.123315529937673e-02 3.346046689215452e-02 7.151845237484757e-02 9.786533020973988e-03 -1.739603077403801e-02 7.527770620580594e-02 -1.072615240331241e-02 1.308664639263291e-02 1.023099438896015e-01 -1.064298897042776e-02 8.937787666332802e-03 2.669082987093653e-02 -1.384573464127837e-01 1.483323020046778e+00 -1.192981494804459e-01 -5.610116290939057e-01 2.150036102419230e-02 -2.048543184091792e-01 -1.522665123735885e-02 5.952780119989489e-01 2.476136398879096e-01 9.172806469822561e-02 2.343538579210492e-01 -3.420379070260091e-02 -6.032053054742648e-01 -9.281282246530176e-02 -7.297331559602757e-02 3.672857569402871e-01 3.320014567368731e-01 1.907809927900676e-02 -1.554489798605529e-01 -1.406613663261811e-01 -2.482396850803284e-01 1.830464208124703e-01 -6.947229340370537e-03 -6.910776773064871e-01 -2.163084918355304e-01 -6.091928339010277e-03 -1.787270965141019e-02 5.766778868028893e-02 -3.177818076057206e-01 -1.192981494804460e-01 4.090829995139016e+00 4.315357557022651e-02 -1.704236576016353e+00 1.303055998338390e-02 7.085931639853589e-02 7.968802483422046e-03 -7.329194164556111e-03 -1.546870120499835e-02 -9.410706902574238e-02 5.143908046731106e-03 -8.611968736042866e-02 1.188006680453754e-04 -5.795532914117588e-02 -1.536121598753053e-04 1.769279248955111e-03 -1.053530611656144e-02 1.080598309719257e-01 3.108421524603285e-03 4.969515494022039e-03 -1.370217618088272e-02 -9.549434271569576e-02 1.100705776402084e-02 1.477379151513375e-01 1.512775026711537e-02 2.055899657747292e-01 3.568412621255622e-02 -1.909392720857819e-01 -5.610116290939055e-01 4.315357557022637e-02 1.410364201146041e+00 -1.968321419561246e-01 1.212406938509001e-01 -1.142858739342503e-01 -5.556818714448254e-01 -2.182471063549355e-01 -6.216796236532490e-02 -2.032400927083912e-01 3.837466767386618e-01 -1.663129660648277e-02 6.517950419431866e-03 5.624905457780086e-02 -3.357930941309051e-01 -2.557959008559421e-01 1.095450729546553e-01 8.248763444781984e-02 1.919122581279600e-01 1.233023533514603e-01 -1.274559205748096e-01 -7.111867685528631e-02 7.252972405866818e-01 6.944244529160399e-01 8.776876212624220e-02 4.715117205471459e-01 -4.835271408807197e-01 -9.645861077528707e-01 2.150036102419212e-02 -1.704236576016351e+00 -1.968321419561247e-01 4.154010069254639e+00 
      </Matrix>
      <Matrix Rows="28" Columns="28">
        1.181987000663408e+01 -1.667249212474546e-01 -3.456261327120348e+00 5.327331508976236e-02 -4.378609919522006e+00 9.476978433202404e-02 -3.581054144862031e-01 -7.405377706224198e-02 1.511354104480812e+00 -6.131541419202775e-02 -4.295401666234094e-01 1.698606390559950e-02 -7.696156741965687e-01 -1.539914455873707e-02 -1.069171798923913e-01 -1.224510476471813e-02 -1.062063786035410e+01 1.714236855098727e-01 2.984129493699585e+00 -6.981558248245340e-02 3.987133705902301e+00 -9.996086680861439e-02 5.307294681482633e-01 1.522389150336348e-01 -4.262190454948997e-02 -9.058720747943882e-02 -2.050839127184503e-02 4.407071951802803e-02 -1.667249212474515e-01 9.446630118621714e+00 1.082734107790639e-01 -3.057191905698600e+00 -4.682492026418075e-02 -4.296181247510604e+00 9.573477687558216e-03 1.364778345714118e-01 -3.304620551544855e-02 1.482408840439110e+00 2.186418503900895e-02 -3.027066894995677e-01 6.092265442037659e-03 -9.846773049899386e-01 -2.378095585121605e-02 -1.540038767378244e-01 1.577165905840156e-01 -7.924752746246511e+00 -1.120209332373791e-01 2.304233623658463e+00 5.119307355019069e-02 3.871548503704326e+00 -2.248579590592364e-03 7.911105182630410e-02 9.580449273060697e-03 -3.216666412944762e-02 5.137535140764771e-02 -1.101829313768807e-01 -3.456261327120353e+00 1.082734107790664e-01 1.128863080549135e+01 -2.094838720518313e-01 -2.096894290382418e+00 -3.644016112304294e-02 -2.456322448469704e+00 -7.670437905420516e-02 -8.455896754961097e-02 5.644833916972171e-02 1.051063813760664e+00 -1.542387307993390e-01 -3.694746899723655e-02 -6.099804123771296e-02 -3.040406123610044e-01 2.783504355221136e-02 2.929790673296266e+00 -1.548901262241735e-01 -9.318603472345686e+00 2.864732460557747e-01 1.891417231649696e+00 2.041051826426993e-01 1.767640948419735e+00 -9.195066611763171e-02 -3.699062711989004e-02 4.149712491014438e-01 4.205168880467725e-02 -3.967972167677544e-01 5.327331508976531e-02 -3.057191905698604e+00 -2.094838720518335e-01 9.424292499426945e+00 8.654534050896978e-02 -3.893497305635042e-01 -1.389336965558291e-03 -3.642588740250167e+00 -2.376419049553087e-02 -4.113693331551911e-01 -2.362764959760707e-02 9.285705870290011e-01 3.037738805908280e-02 7.011450869829691e-02 2.718104613238043e-03 -3.167717931780866e-01 -4.319837456015131e-02 2.228873792216364e+00 1.676700665488794e-01 -6.697845941061965e+00 -4.873100582240916e-02 3.985410371347817e-01 -2.064435207198977e-03 2.437040162311790e+00 4.220485664531776e-02 4.364945047873808e-01 -7.433308655348572e-02 -2.464717384617859e-01 -4.378609919522007e+00 -4.682492026418043e-02 -2.096894290382405e+00 8.654534050897025e-02 1.326044756115436e+01 -1.645608112523876e-01 -3.219428185322257e+00 1.138181223992050e-01 -2.221800581468090e-01 -6.344055807577259e-02 -4.634691048634024e-03 5.096447776664065e-02 1.558155879848267e+00 3.700861366405555e-03 -5.306667462752730e-01 -2.126711241561045e-02 3.862610276065186e+00 7.889158183291857e-02 1.880544924997372e+00 -1.025325037980913e-01 -1.145148415144921e+01 8.281620256595519e-02 2.666308634302815e+00 -2.992295850118292e-02 3.227247639797244e-02 -1.277008927485071e-01 -2.179781686186260e-02 4.411839374311039e-02 9.476978433201397e-02 -4.296181247510606e+00 -3.644016112303628e-02 -3.893497305634980e-01 -1.645608112523831e-01 1.100029891905172e+01 5.629075287849354e-02 -3.890781193904236e+00 -3.606700553935738e-04 1.364607398793907e-02 1.558550496688652e-02 -2.458165478037116e-01 -5.998051471109337e-02 1.450729746964135e+00 -1.176532342503929e-03 -5.043248383754049e-01 -9.170210502693096e-02 3.536613555893731e+00 7.493925827273555e-02 3.970448103196613e-01 1.410623139842203e-01 -8.576846979767453e+00 -4.822517529921617e-02 2.720093791169222e+00 7.455831587348070e-02 1.517495379908946e-01 -5.404926475527263e-02 7.104790957746693e-03 -3.581054144861965e-01 9.573477687558006e-03 -2.456322448469717e+00 -1.389336965558095e-03 -3.219428185322250e+00 5.629075287849516e-02 9.421010576509168e+00 -5.639357060769901e-02 -1.377637640702955e-01 3.436839410446108e-03 -3.243493620928624e-02 2.122469330358815e-02 -3.951691039852535e-02 2.994981704058613e-02 9.219671403705232e-01 -5.346639559824894e-02 3.739029458400948e-01 -1.032027957325070e-02 1.687520485670404e+00 4.732920531588414e-02 2.543210183533022e+00 -3.784583058026611e-02 -7.205888808323659e+00 -5.202200064803539e-02 -1.062790872022527e-02 -8.278347560387586e-02 -1.394682275517367e-02 2.701183301550285e-01 -7.405377706223831e-02 1.364778345714116e-01 -7.670437905420882e-02 -3.642588740250171e+00 1.138181223992035e-01 -3.890781193904228e+00 -5.639357060769815e-02 1.071567826126058e+01 4.446207985790245e-02 -1.536232878208247e-01 -1.132758965323721e-01 -1.527408891892236e-01 3.655158845838421e-02 -2.066129033097315e-01 -4.675678129492933e-03 1.162860223852523e+00 7.640103849460242e-02 8.711750517158133e-02 1.426978736658390e-01 2.354885594487194e+00 -1.323831361603790e-01 2.449618587777569e+00 -1.020385031296403e-02 -7.042359298090192e+00 -2.272542644332947e-01 -1.252417857403427e+00 -7.841973778572300e-02 7.469865535362780e-01 1.511354104480812e+00 -3.304620551545003e-02 -8.455896754961063e-02 -2.376419049553086e-02 -2.221800581468079e-01 -3.606700553904780e-04 -1.377637640702965e-01 4.446207985790121e-02 4.386019626171402e+00 -1.123673541301844e-01 -1.199189518571919e+00 1.501655903060470e-02 -1.163676119620620e+00 -2.479264445745947e-02 3.284058789829686e-02 -2.892184958529172e-02 -3.009286640394202e+00 4.297507008955454e-02 2.853268737722593e-01 2.296880213633296e-02 4.195819255315796e-01 3.761011699876213e-02 2.173515110295038e-01 -7.198465535785034e-03 -2.421886341119501e-02 -1.169591375368643e-02 -3.050656797715519e-03 6.127587064986842e-02 -6.131541419202781e-02 1.482408840439109e+00 5.644833916972070e-02 -4.113693331551869e-01 -6.344055807577242e-02 1.364607398793900e-02 3.436839410446819e-03 -1.536232878208271e-01 -1.123673541301843e-01 5.093223004639304e+00 4.275930379342520e-02 -1.446113544978451e+00 -5.133555449020055e-02 -1.342991456199376e+00 -3.514795682531061e-03 2.328227498499523e-02 9.921505560886543e-02 -3.351233630961208e+00 -8.167929278467215e-02 8.015686652442808e-01 9.056523356556226e-02 3.109791955985866e-01 2.982872591052219e-02 1.552512530255049e-01 -2.060857473630740e-02 -3.104118886318454e-02 -3.131370167687689e-02 1.925475364681454e-01 -4.295401666234092e-01 2.186418503901084e-02 1.051063813760665e+00 -2.362764959760692e-02 -4.634691048638157e-03 1.558550496688282e-02 -3.243493620928177e-02 -1.132758965323702e-01 -1.199189518571917e+00 4.275930379342514e-02 5.136717494734036e+00 -2.235620205783329e-01 -8.163811463494591e-01 4.016181616988711e-03 -7.729972233904081e-01 5.442403917828041e-02 5.429080796252445e-01 -7.670930254822969e-02 -3.218652834484987e+00 9.996040159895653e-02 4.161243505145499e-01 7.014648761978820e-02 3.548177440030373e-01 7.493577399703354e-02 -1.362458467611087e-02 3.347229505892647e-01 5.002210282439346e-03 -2.155184659509270e-01 1.698606390560122e-02 -3.027066894995687e-01 -1.542387307993405e-01 9.285705870289990e-01 5.096447776664120e-02 -2.458165478037137e-01 2.122469330358775e-02 -1.527408891892202e-01 1.501655903060484e-02 -1.446113544978450e+00 -2.235620205783332e-01 5.279652593553251e+00 3.021764678775606e-02 -2.304610001488437e-01 6.684037407816809e-02 -1.481985268023358e+00 -2.926296644446756e-02 5.455059274003702e-01 2.022082764656160e-01 -2.977727530305852e+00 -4.074393352796519e-02 5.816034937152363e-01 -5.625981364300557e-03 3.658588890644368e-01 4.001740356309177e-02 2.938317982171524e-01 1.442372387200780e-02 -5.248389013737689e-02 -7.696156741965711e-01 6.092265442037889e-03 -3.694746899723415e-02 3.037738805908289e-02 1.558155879848270e+00 -5.998051471109495e-02 -3.951691039852874e-02 3.655158845838485e-02 -1.163676119620620e+00 -5.133555449020021e-02 -8.163811463494584e-01 3.021764678775596e-02 5.312058407522416e+00 -6.750631652980796e-02 -8.890650252677428e-01 1.227214936917299e-02 8.695731539003075e-01 1.060277287015012e-02 4.603881697337725e-01 4.369298709488559e-03 -3.775964619498541e+00 1.470362817122262e-03 3.577736910515297e-01 9.851678335574064e-03 1.838589159536246e-02 3.987665784242620e-03 -7.343983702028987e-03 5.929149735258710e-02 -1.539914455874103e-02 -9.846773049899369e-01 -6.099804123771008e-02 7.011450869829942e-02 3.700861366406342e-03 1.450729746964133e+00 2.994981704058556e-02 -2.066129033097336e-01 -2.479264445746046e-02 -1.342991456199377e+00 4.016181616989434e-03 -2.304610001488421e-01 -6.750631652980703e-02 5.615094574474917e+00 -2.105218810866380e-03 -1.453771133702736e+00 1.156087513467196e-02 1.052982466932190e+00 1.156214842260626e-01 2.982070945565803e-01 -1.108997681195924e-02 -3.615969933251312e+00 -2.986337608498548e-02 4.430430805827141e-01 7.878285377369232e-02 -7.853237973899674e-02 4.424064954197272e-02 2.094624347706794e-01 -1.069171798923888e-01 -2.378095585121671e-02 -3.040406123610071e-01 2.718104613238322e-03 -5.306667462752728e-01 -1.176532342503039e-03 9.219671403705239e-01 -4.675678129493727e-03 3.284058789829598e-02 -3.514795682531662e-03 -7.729972233904081e-01 6.684037407816845e-02 -8.890650252677407e-01 -2.105218810865915e-03 3.497472832563778e+00 -1.133093745344463e-01 2.426673485022583e-01 5.586425407438333e-02 5.166446368072302e-01 -1.103386772535780e-02 7.218340317403262e-01 1.819267757633993e-02 -2.835897348153383e+00 -8.552543317018080e-02 -9.538623712140620e-03 -2.549355808105664e-01 3.771893544761554e-03 7.092911146678819e-02 -1.224510476471701e-02 -1.540038767378258e-01 2.783504355221033e-02 -3.167717931780875e-01 -2.126711241561011e-02 -5.043248383754027e-01 -5.346639559824950e-02 1.162860223852523e+00 -2.892184958529148e-02 2.328227498499508e-02 5.442403917828045e-02 -1.481985268023358e+00 1.227214936917285e-02 -1.453771133702736e+00 -1.133093745344465e-01 5.822413281349926e+00 1.932159521763007e-02 3.721048060638430e-01 -4.528405629672336e-02 2.765870695603161e-01 4.832425898537668e-02 4.701579463811468e-01 5.664180203687751e-02 -3.009945816046287e+00 -9.523433883768889e-03 -1.176947838533388e-02 -1.299162181540462e-01 -5.020927832318988e-01 -1.062063786035411e+01 1.577165905840188e-01 2.929790673296268e+00 -4.319837456014883e-02 3.862610276065181e+00 -9.170210502694170e-02 3.739029458400989e-01 7.640103849460694e-02 -3.009286640394203e+00 9.921505560886523e-02 5.429080796252456e-01 -2.926296644446576e-02 8.695731539003052e-01 1.156087513466795e-02 2.426673485022601e-01 1.932159521763140e-02 1.271798926491606e+01 -2.168632974149298e-01 -3.577914352798776e+00 6.638007571870574e-02 -4.545277728851700e+00 9.635141894558005e-02 -3.691828060589523e-01 -1.347669430075235e-01 5.103846149626992e-02 7.510011058040024e-02 2.852036831189135e-02 -5.686588965914462e-02 1.714236855098699e-01 -7.924752746246512e+00 -1.548901262241707e-01 2.228873792216358e+00 7.889158183291890e-02 3.536613555893731e+00 -1.032027957325124e-02 8.711750517158147e-02 4.297507008955318e-02 -3.351233630961208e+00 -7.670930254822790e-02 5.455059274003703e-01 1.060277287015037e-02 1.052982466932191e+00 5.586425407438254e-02 3.721048060638411e-01 -2.168632974149271e-01 9.947798174023806e+00 1.664813844343565e-01 -2.716356734935056e+00 -9.251370289005008e-02 -4.297383406856657e+00 3.688244362189492e-02 -6.833027754809871e-02 -9.671035470151849e-03 8.616528369841718e-02 -5.365792292708176e-02 2.280845303563958e-03 2.984129493699589e+00 -1.120209332373823e-01 -9.318603472345689e+00 1.676700665488773e-01 1.880544924997384e+00 7.493925827274400e-02 1.687520485670390e+00 1.426978736658343e-01 2.853268737722596e-01 -8.167929278467286e-02 -3.218652834484987e+00 2.022082764656144e-01 4.603881697337752e-01 1.156214842260657e-01 5.166446368072281e-01 -4.528405629672462e-02 -3.577914352798777e+00 1.664813844343597e-01 1.209934019136055e+01 -4.198944919199136e-01 -2.048542848452327e+00 -1.694857779129962e-01 -2.501590433509021e+00 8.591285167745402e-02 4.257723825462739e-02 -4.486618513375415e-01 -4.833301851123884e-02 5.048676522141687e-01 -6.981558248245641e-02 2.304233623658468e+00 2.864732460557763e-01 -6.697845941061964e+00 -1.025325037980917e-01 3.970448103196667e-01 4.732920531588498e-02 2.354885594487189e+00 2.296880213633270e-02 8.015686652442836e-01 9.996040159895646e-02 -2.977727530305853e+00 4.369298709488610e-03 2.982070945565827e-01 -1.103386772535728e-02 2.765870695603159e-01 6.638007571870858e-02 -2.716356734935062e+00 -4.198944919199152e-01 8.921942611530056e+00 1.651943617848619e-01 -6.645193707632454e-01 -5.429589837231816e-02 -3.054792658297049e+00 5.291691888165939e-02 -1.449210441512843e-01 1.645169146552871e-01 7.387571999986945e-01 3.987133705902313e+00 5.119307355019101e-02 1.891417231649680e+00 -4.873100582240956e-02 -1.145148415144921e+01 1.410623139842250e-01 2.543210183533033e+00 -1.323831361603812e-01 4.195819255315806e-01 9.056523356556248e-02 4.161243505145453e-01 -4.074393352796463e-02 -3.775964619498539e+00 -1.108997681195825e-02 7.218340317403283e-01 4.832425898537669e-02 -4.545277728851712e+00 -9.251370289005058e-02 -2.048542848452312e+00 1.651943617848614e-01 1.438728460631664e+01 -2.012615461942782e-01 -3.464969895719678e+00 5.451163705717239e-02 -2.510121412066870e-02 2.194232811479540e-01 2.261454290751149e-02 -2.331542608560662e-02 -9.996086680860385e-02 3.871548503704327e+00 2.041051826426925e-01 3.985410371347766e-01 8.281620256595100e-02 -8.576846979767454e+00 -3.784583058026416e-02 2.449618587777578e+00 3.761011699876517e-02 3.109791955985871e-01 7.014648761978461e-02 5.816034937152341e-01 1.470362817120594e-03 -3.615969933251314e+00 1.819267757634104e-02 4.701579463811491e-01 9.635141894556894e-02 -4.297383406856655e+00 -1.694857779129878e-01 -6.645193707632395e-01 -2.012615461942738e-01 1.100464589777317e+01 3.154234731158137e-02 -3.000211259256911e+00 -2.108680040631090e-02 1.858688219683811e-01 1.292492880394175e-01 3.347277722032909e-01 5.307294681482519e-01 -2.248579590591907e-03 1.767640948419750e+00 -2.064435207199566e-03 2.666308634302812e+00 -4.822517529921830e-02 -7.205888808323659e+00 -1.020385031296211e-02 2.173515110295030e-01 2.982872591052313e-02 3.548177440030418e-01 -5.625981364301261e-03 3.577736910515254e-01 -2.986337608498620e-02 -2.835897348153383e+00 5.664180203687732e-02 -3.691828060589441e-01 3.688244362189412e-02 -2.501590433509035e+00 -5.429589837231688e-02 -3.464969895719668e+00 3.154234731158369e-02 1.002151997308062e+01 -3.617877561173230e-02 1.010138328150539e-03 -3.651285912594629e-02 1.207892942984669e-02 -4.000991242548403e-01 1.522389150336316e-01 7.911105182630503e-02 -9.195066611762766e-02 2.437040162311793e+00 -2.992295850118142e-02 2.720093791169215e+00 -5.202200064803686e-02 -7.042359298090192e+00 -7.198465535785684e-03 1.552512530255036e-01 7.493577399703516e-02 3.658588890644390e-01 9.851678335574595e-03 4.430430805827120e-01 -8.552543317018159e-02 -3.009945816046287e+00 -1.347669430075195e-01 -6.833027754810057e-02 8.591285167744890e-02 -3.054792658297052e+00 5.451163705717033e-02 -3.000211259256903e+00 -3.617877561173027e-02 9.427087009756107e+00 -7.177694438806115e-02 -1.214783085111409e-01 -1.298198294553460e-01 -1.745630647983369e+00 -4.262190454949038e-02 9.580449273060516e-03 -3.699062711988985e-02 4.220485664531796e-02 3.227247639797250e-02 7.455831587348059e-02 -1.062790872022526e-02 -2.272542644332945e-01 -2.421886341119509e-02 -2.060857473630759e-02 -1.362458467611074e-02 4.001740356309201e-02 1.838589159536242e-02 7.878285377369237e-02 -9.538623712140724e-03 -9.523433883769090e-03 5.103846149627032e-02 -9.671035470151558e-03 4.257723825462711e-02 5.291691888165907e-02 -2.510121412066868e-02 -2.108680040631091e-02 1.010138328150584e-03 -7.177694438806087e-02 2.206807149117061e+00 -4.689943589539470e-01 -8.237024360311188e-01 1.025781378799628e-01 -9.058720747943826e-02 -3.216666412944700e-02 4.149712491014435e-01 4.364945047873806e-01 -1.277008927485080e-01 1.517495379908941e-01 -8.278347560387472e-02 -1.252417857403426e+00 -1.169591375368646e-02 -3.104118886318434e-02 3.347229505892645e-01 2.938317982171527e-01 3.987665784242519e-03 -7.853237973899731e-02 -2.549355808105663e-01 -1.176947838533360e-02 7.510011058039967e-02 8.616528369841669e-02 -4.486618513375410e-01 -1.449210441512844e-01 2.194232811479551e-01 1.858688219683819e-01 -3.651285912594748e-02 -1.214783085111415e-01 -4.689943589539470e-01 5.535115255364290e+00 1.561294544630661e-01 -2.519978591861611e+00 -2.050839127184461e-02 5.137535140764855e-02 4.205168880467718e-02 -7.433308655348589e-02 -2.179781686186278e-02 -5.404926475527309e-02 -1.394682275517383e-02 -7.841973778572284e-02 -3.050656797715554e-03 -3.131370167687669e-02 5.002210282439277e-03 1.442372387200772e-02 -7.343983702029028e-03 4.424064954197252e-02 3.771893544761800e-03 -1.299162181540460e-01 2.852036831189102e-02 -5.365792292708270e-02 -4.833301851123878e-02 1.645169146552874e-01 2.261454290751166e-02 1.292492880394180e-01 1.207892942984668e-02 -1.298198294553463e-01 -8.237024360311183e-01 1.561294544630661e-01 2.035206735238970e+00 -4.190419784047193e-01 4.407071951802827e-02 -1.101829313768819e-01 -3.967972167677551e-01 -2.464717384617853e-01 4.411839374311118e-02 7.104790957749019e-03 2.701183301550272e-01 7.469865535362752e-01 6.127587064986841e-02 1.925475364681452e-01 -2.155184659509273e-01 -5.248389013737734e-02 5.929149735258721e-02 2.094624347706802e-01 7.092911146678804e-02 -5.020927832318989e-01 -5.686588965914474e-02 2.280845303565308e-03 5.048676522141693e-01 7.387571999986944e-01 -2.331542608560769e-02 3.347277722032882e-01 -4.000991242548388e-01 -1.745630647983367e+00 1.025781378799626e-01 -2.519978591861611e+00 -4.190419784047189e-01 5.953811341962617e+00 
      </Matrix>
    </Transform>
  </Transformations>
  <MVAPdfs/>
  <Weights NTrees="100" AnalysisType="0">
    <BinaryTree type="DecisionTree" boostWeight="8.1167820586147454e-01" itree="0">
      <Node pos="s" depth="0" NCoef="0" IVar="25" Cut="2.2006738185882568e+00" cType="1" res="-9.9000000000000000e+01" rms="0.0000000000000000e+00" purity="5.0000000000000000e-01" nType="0">
        <Node pos="l" depth="1" NCoef="0" IVar="14" Cut="4.1970586776733398e+00" cType="1" res="-9.9000000000000000e+01" rms="0.0000000000000000e+00" purity="6.7500001192092896e-01" nType="0">
          <Node pos="l" depth="2" NCoef="0" IVar="23" Cut="-4.0201740264892578e+00" cType="1" res="-9.9000000000000000e+01" rms="0.0000000000000000e+00" purity="7.8998178243637085e-01" nType="0">
            <Node pos="l" depth="3" NCoef="0" IVar="-1" Cut="0.0000000000000000e+00" cType="1" res="-9.9000000000000000e+01" rms="0.0000000000000000e+00" purity="8.5998290777206421e-01" nType="1"/>
            <Node pos="r" depth="3" NCoef="0" IVar="-1" Cut="0.0000000000000000e+00" cType="1" res="-9.9000000000000000e+01" rms="0.0000000000000000e+00" purity="3.6131507158279419e-01" nType="-1"/>
          </Node>
          <Node pos="r" depth="2" NCoef="0" IVar="-1" Cut="0.0000000000000000e+00" cType="1" res="-9.9000000000000000e+01" rms="0.0000000000000000e+00" purity="2.2463712096214294e-01" nType="-1"/>
        </Node>
        <Node pos="r" depth="1" NCoef="0" IVar="-1" Cut="-5.2567844390869141e+00" cType="1" res="-9.9000000000000000e+01" rms="0.0000000000000000e+00" purity="1.2812499701976776e-01" nType="-1"/>
      </Node>
    </BinaryTree>
    <BinaryTree type="DecisionTree" boostWeight="5.4260145304863971e-01" itree="1">
      <Node pos="s" depth="0" NCoef="0" IVar="25" Cut="2.2006738185882568e+00" cType="1" res="-9.9000000000000000e+01" rms="0.0000000000000000e+00" purity="5.1781868934631348e-01" nType="0">
        <Node pos="l" depth="1" NCoef="0" IVar="7" Cut="2.4328908920288086e+00" cType="1" res="-9.9000000000000000e+01" rms="0.0000000000000000e+00" purity="6.3754373788833618e-01" nType="0">
          <Node pos="l" depth="2" NCoef="0" IVar="-1" Cut="-4.9592342376708984e+00" cType="1" res="-9.9000000000000000e+01" rms="0.0000000000000000e+00" purity="7.6720547676086426e-01" nType="1"/>
          <Node pos="r" depth="2" NCoef="0" IVar="24" Cut="6.2962305545806885e-01" cType="1" res="-9.9000000000000000e+01" rms="0.0000000000000000e+00" purity="3.8579452037811279e-01" nType="0">
            <Node pos="l" depth="3" NCoef="0" IVar="-1" Cut="0.0000000000000000e+00" cType="1" res="-9.9000000000000000e+01" rms="0.0000000000000000e+00" purity="5.9679633378982544e-01" nType="1"/>
            <Node pos="r" depth="3" NCoef="0" IVar="-1" Cut="0.0000000000000000e+00" cType="1" res="-9.9000000000000000e+01" rms="0.0000000000000000e+00" purity="2.0298010110855103e-01" nType="-1"/>
          </Node>
        </Node>
        <Node pos="r" depth="1" NCoef="0" IVar="-1" Cut="-5.2567844390869141e+00" cType="1" res="-9.9000000000000000e+01" rms="0.0000000000000000e+00" purity="2.4862454831600189e-01" nType="-1"/>
      </Node>
    </BinaryTree>
    <BinaryTree type="DecisionTree" boostWeight="4.5005936771855892e-01" itree="2">
      <Node pos="s" depth="0" NCoef="0" IVar="14" Cut="4.5980720520019531e+00" cType="1" res="-9.9000000000000000e+01" rms="0.0000000000000000e+00" purity="5.0036400556564331e-01" nType="0">
        <Node pos="l" depth="1" NCoef="0" IVar="27" Cut="1.7254371643066406e+00" cType="1" res="-9.9000000000000000e+01" rms="0.0000000000000000e+00" purity="5.7935839891433716e-01" nType="0">
          <Node pos="l" depth="2" NCoef="0" IVar="15" Cut="6.7287945747375488e+00" cType="1" res="-9.9000000000000000e+01" rms="0.0000000000000000e+00" purity="6.8139266967773438e-01" nType="0">
            <Node pos="l" depth="3" NCoef="0" IVar="-1" Cut="0.0000000000000000e+00" cType="1" res="-9.9000000000000000e+01" rms="0.0000000000000000e+00" purity="7.7123022079467773e-01" nType="1"/>
            <Node pos="r" depth="3" NCoef="0" IVar="-1" Cut="0.0000000000000000e+00" cType="1" res="-9.9000000000000000e+01" rms="0.0000000000000000e+00" purity="4.0919902920722961e-01" nType="-1"/>
          </Node>
          <Node pos="r" depth="2" NCoef="0" IVar="-1" Cut="-5.4792766571044922e+00" cType="1" res="-9.9000000000000000e+01" rms="0.0000000000000000e+00" purity="3.8247838616371155e-01" nType="-1"/>
        </Node>
        <Node pos="r" depth="1" NCoef="0" IVar="-1" Cut="0.0000000000000000e+00" cType="1" res="-9.9000000000000000e+01" rms="0.0000000000000000e+00" purity="2.0897251367568970e-01" nType="-1"/>
      </Node>
    </BinaryTree>
    <BinaryTree type="DecisionTree" boostWeight="4.1281647433213198e-01" itree="3">
      <Node pos="s" depth="0" NCoef="0" IVar="23" Cut="-4.8656053543090820e+00" cType="1" res="-9.9000000000000000e+01" rms="0.0000000000000000e+00" purity="5.2735233306884766e-01" nType="0">
        <Node pos="l" depth="1" NCoef="0" IVar="19" Cut="-2.7643866539001465e+00" cType="1" res="-9.9000000000000000e+01" rms="0.0000000000000000e+00" purity="6.3563209772109985e-01" nType="0">
          <Node pos="l" depth="2" NCoef="0" IVar="22" Cut="-2.2771332263946533e+00" cType="1" res="-9.9000000000000000e+01" rms="0.0000000000000000e+00" purity="7.0632880926132202e-01" nType="0">
            <Node pos="l" depth="3" NCoef="0" IVar="-1" Cut="0.0000000000000000e+00" cType="1" res="-9.9000000000000000e+01" rms="0.0000000000000000e+00" purity="7.5172561407089233e-01" nType="1"/>
            <Node pos="r" depth="3" NCoef="0" IVar="-1" Cut="0.0000000000000000e+00" cType="1" res="-9.9000000000000000e+01" rms="0.0000000000000000e+00" purity="4.1899356245994568e-01" nType="-1"/>
          </Node>
          <Node pos="r" depth="2" NCoef="0" IVar="-1" Cut="0.0000000000000000e+00" cType="1" res="-9.9000000000000000e+01" rms="0.0000000000000000e+00" purity="3.9891439676284790e-01" nType="-1"/>
        </Node>
        <Node pos="r" depth="1" NCoef="0" IVar="26" Cut="5.6500148773193359e-01" cType="1" res="-9.9000000000000000e+01" rms="0.0000000000000000e+00" purity="3.4929856657981873e-01" nType="0">
          <Node pos="l" depth="2" NCoef="0" IVar="5" Cut="1.6817617416381836e+00" cType="1" res="-9.9000000000000000e+01" rms="0.0000000000000000e+00" purity="4.7344163060188293e-01" nType="0">
            <Node pos="l" depth="3" NCoef="0" IVar="-1" Cut="0.0000000000000000e+00" cType="1" res="-9.9000000000000000e+01" rms="0.0000000000000000e+00" purity="6.0016322135925293e-01" nType="1"/>
            <Node pos="r" depth="3" NCoef="0" IVar="-1" Cut="0.0000000000000000e+00" cType="1" res="-9.9000000000000000e+01" rms="0.0000000000000000e+00" purity="4.1486370563507080e-01" nType="-1"/>
          </Node>
          <Node pos="r" depth="2" NCoef="0" IVar="-1" Cut="0.0000000000000000e+00" cType="1" res="-9.9000000000000000e+01" rms="0.0000000000000000e+00" purity="1.5527716279029846e-01" nType="-1"/>
        </Node>
      </Node>
    </BinaryTree>
    <BinaryTree type="DecisionTree" boostWeight="3.5499055890460585e-01" itree="4">
      <Node pos="s" depth="0" NCoef="0" IVar="24" Cut="1.8570010662078857e+00" cType="1" res="-9.9000000000000000e+01" rms="0.0000000000000000e+00" purity="5.3272235393524170e-01" nType="0">
        <Node pos="l" depth="1" NCoef="0" IVar="25" Cut="1.2437747716903687e+00" cType="1" res="-9.9000000000000000e+01" rms="0.0000000000000000e+00" purity="5.7474768161773682e-01" nType="0">
          <Node pos="l" depth="2" NCoef="0" IVar="-1" Cut="1.7650738954544067e+00" cType="1" res="-9.9000000000000000e+01" rms="0.0000000000000000e+00" purity="7.2627604007720947e-01" nType="1"/>
          <Node pos="r" depth="2" NCoef="0" IVar="26" Cut="3.4136220812797546e-01" cType="1" res="-9.9000000000000000e+01" rms="0.0000000000000000e+00" purity="4.9372303485870361e-01" nType="0">
            <Node pos="l" depth="3" NCoef="0" IVar="-1" Cut="0.0000000000000000e+00" cType="1" res="-9.9000000000000000e+01" rms="0.0000000000000000e+00" purity="5.9037542343139648e-01" nType="1"/>
            <Node pos="r" depth="3" NCoef="0" IVar="-1" Cut="0.0000000000000000e+00" cType="1" res="-9.9000000000000000e+01" rms="0.0000000000000000e+00" purity="3.1138747930526733e-01" nType="-1"/>
          </Node>
        </Node>
        <Node pos="r" depth="1" NCoef="0" IVar="-1" Cut="0.0000000000000000e+00" cType="1" res="-9.9000000000000000e+01" rms="0.0000000000000000e+00" purity="2.6198226213455200e-01" nType="-1"/>
      </Node>
    </BinaryTree>
    <BinaryTree type="DecisionTree" boostWeight="2.9535383317556679e-01" itree="5">
      <Node pos="s" depth="0" NCoef="0" IVar="14" Cut="4.5980720520019531e+00" cType="1" res="-9.9000000000000000e+01" rms="0.0000000000000000e+00" purity="5.0300043821334839e-01" nType="0">
        <Node pos="l" depth="1" NCoef="0" IVar="7" Cut="2.3447637557983398e+00" cType="1" res="-9.9000000000000000e+01" rms="0.0000000000000000e+00" purity="5.5805307626724243e-01" nType="0">
          <Node pos="l" depth="2" NCoef="0" IVar="25" Cut="1.8308476209640503e+00" cType="1" res="-9.9000000000000000e+01" rms="0.0000000000000000e+00" purity="6.4442718029022217e-01" nType="0">
            <Node pos="l" depth="3" NCoef="0" IVar="-1" Cut="0.0000000000000000e+00" cType="1" res="-9.9000000000000000e+01" rms="0.0000000000000000e+00" purity="7.2858977317810059e-01" nType="1"/>
            <Node pos="r" depth="3" NCoef="0" IVar="-1" Cut="0.0000000000000000e+00" cType="1" res="-9.9000000000000000e+01" rms="0.0000000000000000e+00" purity="4.9619835615158081e-01" nType="-1"/>
          </Node>
          <Node pos="r" depth="2" NCoef="0" IVar="6" Cut="2.0273954868316650e+00" cType="1" res="-9.9000000000000000e+01" rms="0.0000000000000000e+00" purity="4.3803817033767700e-01" nType="0">
            <Node pos="l" depth="3" NCoef="0" IVar="-1" Cut="0.0000000000000000e+00" cType="1" res="-9.9000000000000000e+01" rms="0.0000000000000000e+00" purity="5.3781098127365112e-01" nType="1"/>
            <Node pos="r" depth="3" NCoef="0" IVar="-1" Cut="0.0000000000000000e+00" cType="1" res="-9.9000000000000000e+01" rms="0.0000000000000000e+00" purity="3.4586107730865479e-01" nType="-1"/>
          </Node>
        </Node>
        <Node pos="r" depth="1" NCoef="0" IVar="-1" Cut="0.0000000000000000e+00" cType="1" res="-9.9000000000000000e+01" rms="0.0000000000000000e+00" purity="2.9204669594764709e-01" nType="-1"/>
      </Node>
    </BinaryTree>
    <BinaryTree type="DecisionTree" boostWeight="2.8721880679812356e-01" itree="6">
      <Node pos="s" depth="0" NCoef="0" IVar="22" Cut="-2.1833615303039551e+00" cType="1" res="-9.9000000000000000e+01" rms="0.0000000000000000e+00" purity="5.1024633646011353e-01" nType="0">
        <Node pos="l" depth="1" NCoef="0" IVar="6" Cut="2.8770046234130859e+00" cType="1" res="-9.9000000000000000e+01" rms="0.0000000000000000e+00" purity="5.5065548419952393e-01" nType="0">
          <Node pos="l" depth="2" NCoef="0" IVar="7" Cut="2.8107783794403076e+00" cType="1" res="-9.9000000000000000e+01" rms="0.0000000000000000e+00" purity="6.0634636878967285e-01" nType="0">
            <Node pos="l" depth="3" NCoef="0" IVar="-1" Cut="0.0000000000000000e+00" cType="1" res="-9.9000000000000000e+01" rms="0.0000000000000000e+00" purity="6.6188067197799683e-01" nType="1"/>
            <Node pos="r" depth="3" NCoef="0" IVar="-1" Cut="0.0000000000000000e+00" cType="1" res="-9.9000000000000000e+01" rms="0.0000000000000000e+00" purity="4.2607173323631287e-01" nType="-1"/>
          </Node>
          <Node pos="r" depth="2" NCoef="0" IVar="23" Cut="-5.2516994476318359e+00" cType="1" res="-9.9000000000000000e+01" rms="0.0000000000000000e+00" purity="4.0057927370071411e-01" nType="0">
            <Node pos="l" depth="3" NCoef="0" IVar="-1" Cut="0.0000000000000000e+00" cType="1" res="-9.9000000000000000e+01" rms="0.0000000000000000e+00" purity="5.0280767679214478e-01" nType="1"/>
            <Node pos="r" depth="3" NCoef="0" IVar="-1" Cut="0.0000000000000000e+00" cType="1" res="-9.9000000000000000e+01" rms="0.0000000000000000e+00" purity="3.0453294515609741e-01" nType="-1"/>
          </Node>
        </Node>
        <Node pos="r" depth="1" NCoef="0" IVar="-1" Cut="0.0000000000000000e+00" cType="1" res="-9.9000000000000000e+01" rms="0.0000000000000000e+00" purity="3.1610020995140076e-01" nType="-1"/>
      </Node>
    </BinaryTree>
    <BinaryTree type="DecisionTree" boostWeight="2.2645267990804274e-01" itree="7">
      <Node pos="s" depth="0" NCoef="0" IVar="21" Cut="-3.8443145751953125e+00" cType="1" res="-9.9000000000000000e+01" rms="0.0000000000000000e+00" purity="5.0026684999465942e-01" nType="0">
        <Node pos="l" depth="1" NCoef="0" IVar="24" Cut="1.4242404699325562e+00" cType="1" res="-9.9000000000000000e+01" rms="0.0000000000000000e+00" purity="5.4494452476501465e-01" nType="0">
          <Node pos="l" depth="2" NCoef="0" IVar="-1" Cut="2.2826561927795410e+00" cType="1" res="-9.9000000000000000e+01" rms="0.0000000000000000e+00" purity="5.9031295776367188e-01" nType="1"/>
          <Node pos="r" depth="2" NCoef="0" IVar="-1" Cut="0.0000000000000000e+00" cType="1" res="-9.9000000000000000e+01" rms="0.0000000000000000e+00" purity="3.4315484762191772e-01" nType="-1"/>
        </Node>
        <Node pos="r" depth="1" NCoef="0" IVar="-1" Cut="-3.4932262897491455e+00" cType="0" res="-9.9000000000000000e+01" rms="0.0000000000000000e+00" purity="3.6128211021423340e-01" nType="-1"/>
      </Node>
    </BinaryTree>
    <BinaryTree type="DecisionTree" boostWeight="1.9942122394594197e-01" itree="8">
      <Node pos="s" depth="0" NCoef="0" IVar="15" Cut="7.1732721328735352e+00" cType="1" res="-9.9000000000000000e+01" rms="0.0000000000000000e+00" purity="4.8664659261703491e-01" nType="0">
        <Node pos="l" depth="1" NCoef="0" IVar="7" Cut="1.8140677213668823e+00" cType="1" res="-9.9000000000000000e+01" rms="0.0000000000000000e+00" purity="5.1787900924682617e-01" nType="0">
          <Node pos="l" depth="2" NCoef="0" IVar="-1" Cut="1.6287446022033691e+00" cType="1" res="-9.9000000000000000e+01" rms="0.0000000000000000e+00" purity="6.2527871131896973e-01" nType="1"/>
          <Node pos="r" depth="2" NCoef="0" IVar="21" Cut="-4.6386294364929199e+00" cType="1" res="-9.9000000000000000e+01" rms="0.0000000000000000e+00" purity="4.6473944187164307e-01" nType="0">
            <Node pos="l" depth="3" NCoef="0" IVar="-1" Cut="0.0000000000000000e+00" cType="1" res="-9.9000000000000000e+01" rms="0.0000000000000000e+00" purity="5.2806109189987183e-01" nType="1"/>
            <Node pos="r" depth="3" NCoef="0" IVar="-1" Cut="0.0000000000000000e+00" cType="1" res="-9.9000000000000000e+01" rms="0.0000000000000000e+00" purity="4.0139761567115784e-01" nType="-1"/>
          </Node>
        </Node>
        <Node pos="r" depth="1" NCoef="0" IVar="-1" Cut="0.0000000000000000e+00" cType="1" res="-9.9000000000000000e+01" rms="0.0000000000000000e+00" purity="3.2715159654617310e-01" nType="-1"/>
      </Node>
    </BinaryTree>
    <BinaryTree type="DecisionTree" boostWeight="2.4056905539226414e-01" itree="9">
      <Node pos="s" depth="0" NCoef="0" IVar="23" Cut="-5.7110362052917480e+00" cType="1" res="-9.9000000000000000e+01" rms="0.0000000000000000e+00" purity="4.8064610362052917e-01" nType="0">
        <Node pos="l" depth="1" NCoef="0" IVar="7" Cut="1.8835453987121582e+00" cType="1" res="-9.9000000000000000e+01" rms="0.0000000000000000e+00" purity="5.7063859701156616e-01" nType="0">
          <Node pos="l" depth="2" NCoef="0" IVar="-1" Cut="1.7135169506072998e+00" cType="1" res="-9.9000000000000000e+01" rms="0.0000000000000000e+00" purity="6.9287496805191040e-01" nType="1"/>
          <Node pos="r" depth="2" NCoef="0" IVar="6" Cut="2.2121155261993408e+00" cType="1" res="-9.9000000000000000e+01" rms="0.0000000000000000e+00" purity="5.1731896400451660e-01" nType="0">
            <Node pos="l" depth="3" NCoef="0" IVar="-1" Cut="0.0000000000000000e+00" cType="1" res="-9.9000000000000000e+01" rms="0.0000000000000000e+00" purity="5.7104897499084473e-01" nType="1"/>
            <Node pos="r" depth="3" NCoef="0" IVar="-1" Cut="0.0000000000000000e+00" cType="1" res="-9.9000000000000000e+01" rms="0.0000000000000000e+00" purity="4.5001134276390076e-01" nType="-1"/>
          </Node>
        </Node>
        <Node pos="r" depth="1" NCoef="0" IVar="25" Cut="1.7163645029067993e+00" cType="1" res="-9.9000000000000000e+01" rms="0.0000000000000000e+00" purity="4.2995396256446838e-01" nType="0">
          <Node pos="l" depth="2" NCoef="0" IVar="24" Cut="1.0235596895217896e+00" cType="1" res="-9.9000000000000000e+01" rms="0.0000000000000000e+00" purity="5.2175557613372803e-01" nType="0">
            <Node pos="l" depth="3" NCoef="0" IVar="-1" Cut="0.0000000000000000e+00" cType="1" res="-9.9000000000000000e+01" rms="0.0000000000000000e+00" purity="5.7440167665481567e-01" nType="1"/>
            <Node pos="r" depth="3" NCoef="0" IVar="-1" Cut="0.0000000000000000e+00" cType="1" res="-9.9000000000000000e+01" rms="0.0000000000000000e+00" purity="3.7818965315818787e-01" nType="-1"/>
          </Node>
          <Node pos="r" depth="2" NCoef="0" IVar="-1" Cut="-4.6240258216857910e+00" cType="1" res="-9.9000000000000000e+01" rms="0.0000000000000000e+00" purity="3.2814922928810120e-01" nType="-1"/>
        </Node>
      </Node>
    </BinaryTree>
    <BinaryTree type="DecisionTree" boostWeight="1.9006998999397973e-01" itree="10">
      <Node pos="s" depth="0" NCoef="0" IVar="22" Cut="-3.0512778759002686e+00" cType="1" res="-9.9000000000000000e+01" rms="0.0000000000000000e+00" purity="4.8069125413894653e-01" nType="0">
        <Node pos="l" depth="1" NCoef="0" IVar="6" Cut="2.8770046234130859e+00" cType="1" res="-9.9000000000000000e+01" rms="0.0000000000000000e+00" purity="5.2329611778259277e-01" nType="0">
          <Node pos="l" depth="2" NCoef="0" IVar="-1" Cut="1.7856694459915161e+00" cType="1" res="-9.9000000000000000e+01" rms="0.0000000000000000e+00" purity="5.6585639715194702e-01" nType="1"/>
          <Node pos="r" depth="2" NCoef="0" IVar="-1" Cut="0.0000000000000000e+00" cType="1" res="-9.9000000000000000e+01" rms="0.0000000000000000e+00" purity="4.0201860666275024e-01" nType="-1"/>
        </Node>
        <Node pos="r" depth="1" NCoef="0" IVar="18" Cut="-2.1069025993347168e+00" cType="0" res="-9.9000000000000000e+01" rms="0.0000000000000000e+00" purity="3.9244127273559570e-01" nType="0">
          <Node pos="l" depth="2" NCoef="0" IVar="-1" Cut="0.0000000000000000e+00" cType="1" res="-9.9000000000000000e+01" rms="0.0000000000000000e+00" purity="5.4500764608383179e-01" nType="1"/>
          <Node pos="r" depth="2" NCoef="0" IVar="14" Cut="2.6190857887268066e+00" cType="1" res="-9.9000000000000000e+01" rms="0.0000000000000000e+00" purity="3.4890946745872498e-01" nType="0">
            <Node pos="l" depth="3" NCoef="0" IVar="-1" Cut="0.0000000000000000e+00" cType="1" res="-9.9000000000000000e+01" rms="0.0000000000000000e+00" purity="5.1402884721755981e-01" nType="1"/>
            <Node pos="r" depth="3" NCoef="0" IVar="-1" Cut="0.0000000000000000e+00" cType="1" res="-9.9000000000000000e+01" rms="0.0000000000000000e+00" purity="2.6793694496154785e-01" nType="-1"/>
          </Node>
        </Node>
      </Node>
    </BinaryTree>
    <BinaryTree type="DecisionTree" boostWeight="1.8765810833064464e-01" itree="11">
      <Node pos="s" depth="0" NCoef="0" IVar="7" Cut="1.2637453079223633e+00" cType="1" res="-9.9000000000000000e+01" rms="0.0000000000000000e+00" purity="4.6540415287017822e-01" nType="0">
        <Node pos="l" depth="1" NCoef="0" IVar="3" Cut="1.6287446022033691e+00" cType="1" res="-9.9000000000000000e+01" rms="0.0000000000000000e+00" purity="5.8072066307067871e-01" nType="0">
          <Node pos="l" depth="2" NCoef="0" IVar="-1" Cut="0.0000000000000000e+00" cType="1" res="-9.9000000000000000e+01" rms="0.0000000000000000e+00" purity="7.2014182806015015e-01" nType="1"/>
          <Node pos="r" depth="2" NCoef="0" IVar="-1" Cut="0.0000000000000000e+00" cType="1" res="-9.9000000000000000e+01" rms="0.0000000000000000e+00" purity="4.6270284056663513e-01" nType="-1"/>
        </Node>
        <Node pos="r" depth="1" NCoef="0" IVar="23" Cut="-4.8189687728881836e+00" cType="1" res="-9.9000000000000000e+01" rms="0.0000000000000000e+00" purity="4.4134914875030518e-01" nType="0">
          <Node pos="l" depth="2" NCoef="0" IVar="27" Cut="1.4742205142974854e+00" cType="1" res="-9.9000000000000000e+01" rms="0.0000000000000000e+00" purity="4.8061606287956238e-01" nType="0">
            <Node pos="l" depth="3" NCoef="0" IVar="-1" Cut="0.0000000000000000e+00" cType="1" res="-9.9000000000000000e+01" rms="0.0000000000000000e+00" purity="5.3940171003341675e-01" nType="1"/>
            <Node pos="r" depth="3" NCoef="0" IVar="-1" Cut="0.0000000000000000e+00" cType="1" res="-9.9000000000000000e+01" rms="0.0000000000000000e+00" purity="4.1901224851608276e-01" nType="-1"/>
          </Node>
          <Node pos="r" depth="2" NCoef="0" IVar="-1" Cut="1.3744004964828491e+00" cType="1" res="-9.9000000000000000e+01" rms="0.0000000000000000e+00" purity="3.5030731558799744e-01" nType="-1"/>
        </Node>
      </Node>
    </BinaryTree>
    <BinaryTree type="DecisionTree" boostWeight="1.8177387077327425e-01" itree="12">
      <Node pos="s" depth="0" NCoef="0" IVar="22" Cut="-3.0512778759002686e+00" cType="1" res="-9.9000000000000000e+01" rms="0.0000000000000000e+00" purity="4.7670099139213562e-01" nType="0">
        <Node pos="l" depth="1" NCoef="0" IVar="7" Cut="1.7856694459915161e+00" cType="1" res="-9.9000000000000000e+01" rms="0.0000000000000000e+00" purity="5.1286637783050537e-01" nType="0">
          <Node pos="l" depth="2" NCoef="0" IVar="-1" Cut="1.5690599679946899e+00" cType="1" res="-9.9000000000000000e+01" rms="0.0000000000000000e+00" purity="6.0048246383666992e-01" nType="1"/>
          <Node pos="r" depth="2" NCoef="0" IVar="23" Cut="-6.0903248786926270e+00" cType="1" res="-9.9000000000000000e+01" rms="0.0000000000000000e+00" purity="4.7268298268318176e-01" nType="0">
            <Node pos="l" depth="3" NCoef="0" IVar="-1" Cut="0.0000000000000000e+00" cType="1" res="-9.9000000000000000e+01" rms="0.0000000000000000e+00" purity="5.7698214054107666e-01" nType="1"/>
            <Node pos="r" depth="3" NCoef="0" IVar="-1" Cut="0.0000000000000000e+00" cType="1" res="-9.9000000000000000e+01" rms="0.0000000000000000e+00" purity="4.4235140085220337e-01" nType="-1"/>
          </Node>
        </Node>
        <Node pos="r" depth="1" NCoef="0" IVar="2" Cut="1.6122428178787231e+00" cType="1" res="-9.9000000000000000e+01" rms="0.0000000000000000e+00" purity="4.0063461661338806e-01" nType="0">
          <Node pos="l" depth="2" NCoef="0" IVar="4" Cut="1.3074175119400024e+00" cType="1" res="-9.9000000000000000e+01" rms="0.0000000000000000e+00" purity="4.4709455966949463e-01" nType="0">
            <Node pos="l" depth="3" NCoef="0" IVar="-1" Cut="0.0000000000000000e+00" cType="1" res="-9.9000000000000000e+01" rms="0.0000000000000000e+00" purity="5.4639899730682373e-01" nType="1"/>
            <Node pos="r" depth="3" NCoef="0" IVar="-1" Cut="0.0000000000000000e+00" cType="1" res="-9.9000000000000000e+01" rms="0.0000000000000000e+00" purity="3.8627907633781433e-01" nType="-1"/>
          </Node>
          <Node pos="r" depth="2" NCoef="0" IVar="-1" Cut="0.0000000000000000e+00" cType="1" res="-9.9000000000000000e+01" rms="0.0000000000000000e+00" purity="3.0455714464187622e-01" nType="-1"/>
        </Node>
      </Node>
    </BinaryTree>
    <BinaryTree type="DecisionTree" boostWeight="1.5252552747441175e-01" itree="13">
      <Node pos="s" depth="0" NCoef="0" IVar="5" Cut="2.2369389533996582e+00" cType="1" res="-9.9000000000000000e+01" rms="0.0000000000000000e+00" purity="4.8550242185592651e-01" nType="0">
        <Node pos="l" depth="1" NCoef="0" IVar="17" Cut="-4.1064524650573730e+00" cType="0" res="-9.9000000000000000e+01" rms="0.0000000000000000e+00" purity="5.4063904285430908e-01" nType="0">
          <Node pos="l" depth="2" NCoef="0" IVar="-1" Cut="1.4443922042846680e+00" cType="1" res="-9.9000000000000000e+01" rms="0.0000000000000000e+00" purity="6.0185050964355469e-01" nType="1"/>
          <Node pos="r" depth="2" NCoef="0" IVar="25" Cut="1.3384793996810913e+00" cType="1" res="-9.9000000000000000e+01" rms="0.0000000000000000e+00" purity="4.5040288567543030e-01" nType="0">
            <Node pos="l" depth="3" NCoef="0" IVar="-1" Cut="0.0000000000000000e+00" cType="1" res="-9.9000000000000000e+01" rms="0.0000000000000000e+00" purity="5.4956686496734619e-01" nType="1"/>
            <Node pos="r" depth="3" NCoef="0" IVar="-1" Cut="0.0000000000000000e+00" cType="1" res="-9.9000000000000000e+01" rms="0.0000000000000000e+00" purity="3.9225673675537109e-01" nType="-1"/>
          </Node>
        </Node>
        <Node pos="r" depth="1" NCoef="0" IVar="26" Cut="6.6350144147872925e-01" cType="1" res="-9.9000000000000000e+01" rms="0.0000000000000000e+00" purity="4.4756084680557251e-01" nType="0">
          <Node pos="l" depth="2" NCoef="0" IVar="3" Cut="2.2789413928985596e+00" cType="1" res="-9.9000000000000000e+01" rms="0.0000000000000000e+00" purity="4.7133064270019531e-01" nType="0">
            <Node pos="l" depth="3" NCoef="0" IVar="-1" Cut="0.0000000000000000e+00" cType="1" res="-9.9000000000000000e+01" rms="0.0000000000000000e+00" purity="5.0820642709732056e-01" nType="1"/>
            <Node pos="r" depth="3" NCoef="0" IVar="-1" Cut="0.0000000000000000e+00" cType="1" res="-9.9000000000000000e+01" rms="0.0000000000000000e+00" purity="3.5173395276069641e-01" nType="-1"/>
          </Node>
          <Node pos="r" depth="2" NCoef="0" IVar="-1" Cut="0.0000000000000000e+00" cType="1" res="-9.9000000000000000e+01" rms="0.0000000000000000e+00" purity="3.7114524841308594e-01" nType="-1"/>
        </Node>
      </Node>
    </BinaryTree>
    <BinaryTree type="DecisionTree" boostWeight="1.5624677327214254e-01" itree="14">
      <Node pos="s" depth="0" NCoef="0" IVar="22" Cut="-3.0512778759002686e+00" cType="1" res="-9.9000000000000000e+01" rms="0.0000000000000000e+00" purity="4.7385105490684509e-01" nType="0">
        <Node pos="l" depth="1" NCoef="0" IVar="9" Cut="3.4641990661621094e+00" cType="0" res="-9.9000000000000000e+01" rms="0.0000000000000000e+00" purity="5.0489711761474609e-01" nType="0">
          <Node pos="l" depth="2" NCoef="0" IVar="5" Cut="2.3427832126617432e+00" cType="1" res="-9.9000000000000000e+01" rms="0.0000000000000000e+00" purity="5.3053325414657593e-01" nType="0">
            <Node pos="l" depth="3" NCoef="0" IVar="-1" Cut="0.0000000000000000e+00" cType="1" res="-9.9000000000000000e+01" rms="0.0000000000000000e+00" purity="5.8536952733993530e-01" nType="1"/>
            <Node pos="r" depth="3" NCoef="0" IVar="-1" Cut="0.0000000000000000e+00" cType="1" res="-9.9000000000000000e+01" rms="0.0000000000000000e+00" purity="4.8346108198165894e-01" nType="-1"/>
          </Node>
          <Node pos="r" depth="2" NCoef="0" IVar="-1" Cut="1.6405383348464966e+00" cType="1" res="-9.9000000000000000e+01" rms="0.0000000000000000e+00" purity="4.2189404368400574e-01" nType="-1"/>
        </Node>
        <Node pos="r" depth="1" NCoef="0" IVar="19" Cut="-3.2889134883880615e+00" cType="1" res="-9.9000000000000000e+01" rms="0.0000000000000000e+00" purity="4.0841686725616455e-01" nType="0">
          <Node pos="l" depth="2" NCoef="0" IVar="18" Cut="-2.6599521636962891e+00" cType="0" res="-9.9000000000000000e+01" rms="0.0000000000000000e+00" purity="4.7036495804786682e-01" nType="0">
            <Node pos="l" depth="3" NCoef="0" IVar="-1" Cut="0.0000000000000000e+00" cType="1" res="-9.9000000000000000e+01" rms="0.0000000000000000e+00" purity="6.0177248716354370e-01" nType="1"/>
            <Node pos="r" depth="3" NCoef="0" IVar="-1" Cut="0.0000000000000000e+00" cType="1" res="-9.9000000000000000e+01" rms="0.0000000000000000e+00" purity="4.0806314349174500e-01" nType="-1"/>
          </Node>
          <Node pos="r" depth="2" NCoef="0" IVar="-1" Cut="0.0000000000000000e+00" cType="1" res="-9.9000000000000000e+01" rms="0.0000000000000000e+00" purity="3.4709987044334412e-01" nType="-1"/>
        </Node>
      </Node>
    </BinaryTree>
    <BinaryTree type="DecisionTree" boostWeight="9.0142286526879944e-02" itree="15">
      <Node pos="s" depth="0" NCoef="0" IVar="2" Cut="1.9253383874893188e+00" cType="1" res="-9.9000000000000000e+01" rms="0.0000000000000000e+00" purity="4.9003863334655762e-01" nType="0">
        <Node pos="l" depth="1" NCoef="0" IVar="4" Cut="2.4081807136535645e+00" cType="1" res="-9.9000000000000000e+01" rms="0.0000000000000000e+00" purity="5.0682079792022705e-01" nType="0">
          <Node pos="l" depth="2" NCoef="0" IVar="-1" Cut="1.4402606487274170e+00" cType="1" res="-9.9000000000000000e+01" rms="0.0000000000000000e+00" purity="5.2458792924880981e-01" nType="1"/>
          <Node pos="r" depth="2" NCoef="0" IVar="-1" Cut="0.0000000000000000e+00" cType="1" res="-9.9000000000000000e+01" rms="0.0000000000000000e+00" purity="4.1610229015350342e-01" nType="-1"/>
        </Node>
        <Node pos="r" depth="1" NCoef="0" IVar="-1" Cut="0.0000000000000000e+00" cType="1" res="-9.9000000000000000e+01" rms="0.0000000000000000e+00" purity="3.9431455731391907e-01" nType="-1"/>
      </Node>
    </BinaryTree>
    <BinaryTree type="DecisionTree" boostWeight="1.2785600452669596e-01" itree="16">
      <Node pos="s" depth="0" NCoef="0" IVar="7" Cut="1.2637453079223633e+00" cType="1" res="-9.9000000000000000e+01" rms="0.0000000000000000e+00" purity="4.8043382167816162e-01" nType="0">
        <Node pos="l" depth="1" NCoef="0" IVar="23" Cut="-4.5227479934692383e+00" cType="1" res="-9.9000000000000000e+01" rms="0.0000000000000000e+00" purity="5.6469047069549561e-01" nType="0">
          <Node pos="l" depth="2" NCoef="0" IVar="-1" Cut="0.0000000000000000e+00" cType="1" res="-9.9000000000000000e+01" rms="0.0000000000000000e+00" purity="6.5752911567687988e-01" nType="1"/>
          <Node pos="r" depth="2" NCoef="0" IVar="-1" Cut="0.0000000000000000e+00" cType="1" res="-9.9000000000000000e+01" rms="0.0000000000000000e+00" purity="4.8377415537834167e-01" nType="-1"/>
        </Node>
        <Node pos="r" depth="1" NCoef="0" IVar="17" Cut="-3.6499154567718506e+00" cType="0" res="-9.9000000000000000e+01" rms="0.0000000000000000e+00" purity="4.6332687139511108e-01" nType="0">
          <Node pos="l" depth="2" NCoef="0" IVar="3" Cut="1.9771268367767334e+00" cType="1" res="-9.9000000000000000e+01" rms="0.0000000000000000e+00" purity="5.1642012596130371e-01" nType="0">
            <Node pos="l" depth="3" NCoef="0" IVar="-1" Cut="0.0000000000000000e+00" cType="1" res="-9.9000000000000000e+01" rms="0.0000000000000000e+00" purity="5.4322183132171631e-01" nType="1"/>
            <Node pos="r" depth="3" NCoef="0" IVar="-1" Cut="0.0000000000000000e+00" cType="1" res="-9.9000000000000000e+01" rms="0.0000000000000000e+00" purity="4.6547898650169373e-01" nType="-1"/>
          </Node>
          <Node pos="r" depth="2" NCoef="0" IVar="-1" Cut="1.3261063098907471e+00" cType="1" res="-9.9000000000000000e+01" rms="0.0000000000000000e+00" purity="4.2659315466880798e-01" nType="-1"/>
        </Node>
      </Node>
    </BinaryTree>
    <BinaryTree type="DecisionTree" boostWeight="1.2617571325202323e-01" itree="17">
      <Node pos="s" depth="0" NCoef="0" IVar="3" Cut="8.0113166570663452e-01" cType="1" res="-9.9000000000000000e+01" rms="0.0000000000000000e+00" purity="4.9306082725524902e-01" nType="0">
        <Node pos="l" depth="1" NCoef="0" IVar="24" Cut="4.7652271389961243e-01" cType="1" res="-9.9000000000000000e+01" rms="0.0000000000000000e+00" purity="5.6551641225814819e-01" nType="0">
          <Node pos="l" depth="2" NCoef="0" IVar="-1" Cut="0.0000000000000000e+00" cType="1" res="-9.9000000000000000e+01" rms="0.0000000000000000e+00" purity="6.5916049480438232e-01" nType="1"/>
          <Node pos="r" depth="2" NCoef="0" IVar="-1" Cut="0.0000000000000000e+00" cType="1" res="-9.9000000000000000e+01" rms="0.0000000000000000e+00" purity="4.7934100031852722e-01" nType="-1"/>
        </Node>
        <Node pos="r" depth="1" NCoef="0" IVar="23" Cut="-4.3290987014770508e+00" cType="1" res="-9.9000000000000000e+01" rms="0.0000000000000000e+00" purity="4.7546258568763733e-01" nType="0">
          <Node pos="l" depth="2" NCoef="0" IVar="24" Cut="2.0949536561965942e-01" cType="0" res="-9.9000000000000000e+01" rms="0.0000000000000000e+00" purity="4.9834010004997253e-01" nType="0">
            <Node pos="l" depth="3" NCoef="0" IVar="-1" Cut="0.0000000000000000e+00" cType="1" res="-9.9000000000000000e+01" rms="0.0000000000000000e+00" purity="5.3056210279464722e-01" nType="1"/>
            <Node pos="r" depth="3" NCoef="0" IVar="-1" Cut="0.0000000000000000e+00" cType="1" res="-9.9000000000000000e+01" rms="0.0000000000000000e+00" purity="4.3095082044601440e-01" nType="-1"/>
          </Node>
          <Node pos="r" depth="2" NCoef="0" IVar="-1" Cut="0.0000000000000000e+00" cType="1" res="-9.9000000000000000e+01" rms="0.0000000000000000e+00" purity="3.9358678460121155e-01" nType="-1"/>
        </Node>
      </Node>
    </BinaryTree>
    <BinaryTree type="DecisionTree" boostWeight="1.2627403808035861e-01" itree="18">
      <Node pos="s" depth="0" NCoef="0" IVar="3" Cut="8.0113166570663452e-01" cType="1" res="-9.9000000000000000e+01" rms="0.0000000000000000e+00" purity="4.9179306626319885e-01" nType="0">
        <Node pos="l" depth="1" NCoef="0" IVar="-1" Cut="4.7652271389961243e-01" cType="1" res="-9.9000000000000000e+01" rms="0.0000000000000000e+00" purity="5.6756585836410522e-01" nType="1"/>
        <Node pos="r" depth="1" NCoef="0" IVar="25" Cut="1.1675819158554077e+00" cType="1" res="-9.9000000000000000e+01" rms="0.0000000000000000e+00" purity="4.7345951199531555e-01" nType="0">
          <Node pos="l" depth="2" NCoef="0" IVar="24" Cut="2.0949536561965942e-01" cType="0" res="-9.9000000000000000e+01" rms="0.0000000000000000e+00" purity="5.2354955673217773e-01" nType="0">
            <Node pos="l" depth="3" NCoef="0" IVar="-1" Cut="0.0000000000000000e+00" cType="1" res="-9.9000000000000000e+01" rms="0.0000000000000000e+00" purity="5.9852075576782227e-01" nType="1"/>
            <Node pos="r" depth="3" NCoef="0" IVar="-1" Cut="0.0000000000000000e+00" cType="1" res="-9.9000000000000000e+01" rms="0.0000000000000000e+00" purity="4.3112352490425110e-01" nType="-1"/>
          </Node>
          <Node pos="r" depth="2" NCoef="0" IVar="-1" Cut="9.0510022640228271e-01" cType="1" res="-9.9000000000000000e+01" rms="0.0000000000000000e+00" purity="4.4959101080894470e-01" nType="-1"/>
        </Node>
      </Node>
    </BinaryTree>
    <BinaryTree type="DecisionTree" boostWeight="1.0999927762832799e-01" itree="19">
