<?xml version="1.0"?>
<MethodSetup Method="BDT::BDTG">
  <GeneralInfo>
    <Info name="TMVA Release" value="4.2.1 [262657]"/>
    <Info name="ROOT Release" value="6.18/04 [397828]"/>
    <Info name="Creator" value="hchou"/>
    <Info name="Date" value="Sat Mar 14 10:51:47 2020"/>
    <Info name="Host" value="Linux lcgapp-centos7-x86-64-25.cern.ch 3.10.0-957.21.3.el7.x86_64 #1 SMP Tue Jun 18 16:35:19 UTC 2019 x86_64 x86_64 x86_64 GNU/Linux"/>
    <Info name="Dir" value="/afs/cern.ch/user/h/hchou/AMSProject/apflux"/>
    <Info name="Training events" value="250000"/>
    <Info name="TrainingTime" value="9.13186078e+01"/>
    <Info name="AnalysisType" value="Classification"/>
  </GeneralInfo>
  <Options>
    <Option name="V" modified="Yes">True</Option>
    <Option name="VerbosityLevel" modified="Yes">Verbose</Option>
    <Option name="VarTransform" modified="Yes">Decorrelate</Option>
    <Option name="H" modified="Yes">True</Option>
    <Option name="CreateMVAPdfs" modified="Yes">False</Option>
    <Option name="IgnoreNegWeightsInTraining" modified="Yes">True</Option>
    <Option name="NTrees" modified="Yes">100</Option>
    <Option name="MaxDepth" modified="Yes">3</Option>
    <Option name="MinNodeSize" modified="Yes">5%</Option>
    <Option name="nCuts" modified="Yes">20</Option>
    <Option name="BoostType" modified="Yes">Grad</Option>
    <Option name="AdaBoostR2Loss" modified="Yes">quadratic</Option>
    <Option name="UseBaggedBoost" modified="No">False</Option>
    <Option name="Shrinkage" modified="Yes">1.000000e-01</Option>
    <Option name="AdaBoostBeta" modified="Yes">5.000000e-01</Option>
    <Option name="UseRandomisedTrees" modified="Yes">False</Option>
    <Option name="UseNvars" modified="Yes">2</Option>
    <Option name="UsePoissonNvars" modified="Yes">True</Option>
    <Option name="BaggedSampleFraction" modified="Yes">6.000000e-01</Option>
    <Option name="UseYesNoLeaf" modified="Yes">True</Option>
    <Option name="NegWeightTreatment" modified="No">pray</Option>
    <Option name="Css" modified="No">1.000000e+00</Option>
    <Option name="Cts_sb" modified="No">1.000000e+00</Option>
    <Option name="Ctb_ss" modified="No">1.000000e+00</Option>
    <Option name="Cbb" modified="No">1.000000e+00</Option>
    <Option name="NodePurityLimit" modified="Yes">5.000000e-01</Option>
    <Option name="SeparationType" modified="Yes">giniindex</Option>
    <Option name="RegressionLossFunctionBDTG" modified="No">huber</Option>
    <Option name="HuberQuantile" modified="No">7.000000e-01</Option>
    <Option name="DoBoostMonitor" modified="Yes">False</Option>
    <Option name="UseFisherCuts" modified="Yes">False</Option>
    <Option name="MinLinCorrForFisher" modified="Yes">8.000000e-01</Option>
    <Option name="UseExclusiveVars" modified="Yes">False</Option>
    <Option name="DoPreselection" modified="Yes">False</Option>
    <Option name="SigToBkgFraction" modified="Yes">1.000000e+00</Option>
    <Option name="PruneMethod" modified="Yes">nopruning</Option>
    <Option name="PruneStrength" modified="Yes">0.000000e+00</Option>
    <Option name="PruningValFraction" modified="Yes">5.000000e-01</Option>
    <Option name="SkipNormalization" modified="No">False</Option>
    <Option name="nEventsMin" modified="Yes">0</Option>
    <Option name="UseBaggedGrad" modified="Yes">False</Option>
    <Option name="GradBaggingFraction" modified="Yes">6.000000e-01</Option>
    <Option name="UseNTrainEvents" modified="Yes">0</Option>
    <Option name="NNodesMax" modified="Yes">0</Option>
  </Options>
  <Variables NVar="12">
    <Variable VarIndex="0" Expression="lxin" Label="lxin" Title="lxin" Unit="units" Internal="lxin" Type="F" Min="-1.36213408e+01" Max="3.62821341e+00"/>
    <Variable VarIndex="1" Expression="lyin" Label="lyin" Title="lyin" Unit="units" Internal="lyin" Type="F" Min="-1.26075335e+01" Max="5.60300255e+00"/>
    <Variable VarIndex="2" Expression="lxex" Label="lxex" Title="lxex" Unit="units" Internal="lxex" Type="F" Min="-5.39945793e+00" Max="3.47817993e+00"/>
    <Variable VarIndex="3" Expression="lyex" Label="lyex" Title="lyex" Unit="units" Internal="lyex" Type="F" Min="-5.38689899e+00" Max="5.96375608e+00"/>
    <Variable VarIndex="4" Expression="nlxin" Label="nlxin" Title="nlxin" Unit="units" Internal="nlxin" Type="F" Min="3.93887341e-04" Max="6.48450136e+00"/>
    <Variable VarIndex="5" Expression="nlyin" Label="nlyin" Title="nlyin" Unit="units" Internal="nlyin" Type="F" Min="1.57873239e-03" Max="1.99187241e+01"/>
    <Variable VarIndex="6" Expression="nlxex" Label="nlxex" Title="nlxex" Unit="units" Internal="nlxex" Type="F" Min="5.68397902e-02" Max="7.20413017e+00"/>
    <Variable VarIndex="7" Expression="nlyex" Label="nlyex" Title="nlyex" Unit="units" Internal="nlyex" Type="F" Min="7.53777996e-02" Max="3.31219215e+01"/>
    <Variable VarIndex="8" Expression="lxinC" Label="lxinC" Title="lxinC" Unit="units" Internal="lxinC" Type="F" Min="-1.17956791e+01" Max="5.34278679e+00"/>
    <Variable VarIndex="9" Expression="lyinC" Label="lyinC" Title="lyinC" Unit="units" Internal="lyinC" Type="F" Min="-1.30330019e+01" Max="8.29169178e+00"/>
    <Variable VarIndex="10" Expression="lxexC" Label="lxexC" Title="lxexC" Unit="units" Internal="lxexC" Type="F" Min="-5.98990488e+00" Max="4.65408278e+00"/>
    <Variable VarIndex="11" Expression="lyexC" Label="lyexC" Title="lyexC" Unit="units" Internal="lyexC" Type="F" Min="-6.09984732e+00" Max="9.26662731e+00"/>
  </Variables>
  <Spectators NSpec="0"/>
  <Classes NClass="2">
    <Class Name="Signal" Index="0"/>
    <Class Name="Background" Index="1"/>
  </Classes>
  <Transformations NTransformations="1">
    <Transform Name="Decorrelation">
      <Selection>
        <Input NInputs="12">
          <Input Type="Variable" Label="lxin" Expression="lxin"/>
          <Input Type="Variable" Label="lyin" Expression="lyin"/>
          <Input Type="Variable" Label="lxex" Expression="lxex"/>
          <Input Type="Variable" Label="lyex" Expression="lyex"/>
          <Input Type="Variable" Label="nlxin" Expression="nlxin"/>
          <Input Type="Variable" Label="nlyin" Expression="nlyin"/>
          <Input Type="Variable" Label="nlxex" Expression="nlxex"/>
          <Input Type="Variable" Label="nlyex" Expression="nlyex"/>
          <Input Type="Variable" Label="lxinC" Expression="lxinC"/>
          <Input Type="Variable" Label="lyinC" Expression="lyinC"/>
          <Input Type="Variable" Label="lxexC" Expression="lxexC"/>
          <Input Type="Variable" Label="lyexC" Expression="lyexC"/>
        </Input>
        <Output NOutputs="12">
          <Output Type="Variable" Label="lxin" Expression="lxin"/>
          <Output Type="Variable" Label="lyin" Expression="lyin"/>
          <Output Type="Variable" Label="lxex" Expression="lxex"/>
          <Output Type="Variable" Label="lyex" Expression="lyex"/>
          <Output Type="Variable" Label="nlxin" Expression="nlxin"/>
          <Output Type="Variable" Label="nlyin" Expression="nlyin"/>
          <Output Type="Variable" Label="nlxex" Expression="nlxex"/>
          <Output Type="Variable" Label="nlyex" Expression="nlyex"/>
          <Output Type="Variable" Label="lxinC" Expression="lxinC"/>
          <Output Type="Variable" Label="lyinC" Expression="lyinC"/>
          <Output Type="Variable" Label="lxexC" Expression="lxexC"/>
          <Output Type="Variable" Label="lyexC" Expression="lyexC"/>
        </Output>
      </Selection>
      <Matrix Rows="12" Columns="12">
        9.546824384805802e+00 -1.328381993737371e-01 -4.873734680238655e+00 3.489220320291025e-02 1.089004295689419e+00 -2.678255622523604e-02 -4.295671742429609e-01 -2.558744734820965e-02 -8.474594550156491e+00 1.372363498970125e-01 4.432926127323206e+00 -2.658352022153682e-02 -1.328381993737312e-01 7.117682063997087e+00 8.807304640174138e-03 -3.999654100704042e+00 -1.042872754345702e-02 1.041475601156324e+00 -1.447076898573553e-02 -3.215571845278771e-01 1.054855203801572e-01 -5.466152937035657e+00 2.041262294666857e-02 2.949253588874257e+00 -4.873734680238650e+00 8.807304640179286e-03 9.027308166855924e+00 -1.518117553852577e-01 8.702426595700571e-02 -3.549758368880522e-02 6.775243143995491e-01 -3.229933316892043e-02 4.231989360976535e+00 2.296446117213623e-02 -7.543158268335366e+00 1.410663867177990e-01 3.489220320290569e-02 -3.999654100704048e+00 -1.518117553852529e-01 7.247084308511106e+00 -3.093737464719259e-02 -2.248438609885083e-01 -1.759935146007518e-02 4.149368261688469e-01 2.033269368497974e-03 2.690099409490957e+00 1.291474067297114e-01 -4.683437006894635e+00 1.089004295689421e+00 -1.042872754345916e-02 8.702426595700301e-02 -3.093737464719137e-02 4.155739270694159e+00 -1.327725601357174e-01 -1.432867963627384e+00 1.499549655923232e-02 -2.728739514712094e+00 2.937682989108493e-02 1.448240509507502e-01 5.854846229634974e-02 -2.678255622523570e-02 1.041475601156323e+00 -3.549758368880535e-02 -2.248438609885054e-01 -1.327725601357165e-01 4.517486741757521e+00 3.076349632986699e-02 -1.524064918798143e+00 5.929830922359965e-02 -2.814731956550091e+00 5.454623821904574e-02 4.209400749719530e-01 -4.295671742429570e-01 -1.447076898573376e-02 6.775243143995477e-01 -1.759935146007668e-02 -1.432867963627382e+00 3.076349632986702e-02 4.049293416261249e+00 -1.422128705124929e-01 4.371513897031867e-01 3.001835658491756e-02 -2.329588629582167e+00 5.720452366241668e-02 -2.558744734821024e-02 -3.215571845278796e-01 -3.229933316891954e-02 4.149368261688477e-01 1.499549655923164e-02 -1.524064918798143e+00 -1.422128705124929e-01 4.135267826716211e+00 2.358359692300783e-02 2.118194602211880e-01 8.641983645723458e-02 -1.861963961345150e+00 -8.474594550156493e+00 1.054855203801638e-01 4.231989360976542e+00 2.033269368493074e-03 -2.728739514712093e+00 5.929830922360050e-02 4.371513897031914e-01 2.358359692300701e-02 1.053356787541483e+01 -1.855700380760641e-01 -5.006276598572135e+00 3.981392588231947e-02 1.372363498970078e-01 -5.466152937035658e+00 2.296446117213971e-02 2.690099409490951e+00 2.937682989108267e-02 -2.814731956550092e+00 3.001835658491887e-02 2.118194602211859e-01 -1.855700380760586e-01 7.021987601704742e+00 -2.131895408243709e-02 -2.863876849237402e+00 4.432926127323198e+00 2.041262294666263e-02 -7.543158268335366e+00 1.291474067297172e-01 1.448240509507462e-01 5.454623821904539e-02 -2.329588629582168e+00 8.641983645723536e-02 -5.006276598572125e+00 -2.131895408243287e-02 9.725831629273340e+00 -2.728228077420636e-01 -2.658352022153314e-02 2.949253588874266e+00 1.410663867177950e-01 -4.683437006894637e+00 5.854846229635113e-02 4.209400749719565e-01 5.720452366241546e-02 -1.861963961345149e+00 3.981392588231536e-02 -2.863876849237410e+00 -2.728228077420590e-01 5.693551044278234e+00 
      </Matrix>
      <Matrix Rows="12" Columns="12">
        5.598555539728134e+00 -1.945566832129655e-01 -1.359198020745512e+00 3.708116847794809e-02 5.117803679482431e-01 -1.208283495742849e-01 6.803325294686208e-02 1.025347910024993e-01 -4.493598567212414e+00 1.797504973911464e-01 1.015219319102968e+00 -9.816234130317649e-03 -1.945566832129663e-01 4.265091342004705e+00 2.235926918136693e-02 -1.652498388043239e+00 2.669897528354297e-02 3.545316766406611e-01 -9.491510741192150e-02 -3.696622128868542e-01 1.365666452630948e-01 -2.807155440900778e+00 -1.347752002712060e-02 1.735767068236040e+00 -1.359198020745511e+00 2.235926918136660e-02 4.456649109419752e+00 -9.942582002661475e-02 3.602205180067551e-01 -6.465453054657712e-02 -3.140349981616032e-01 -1.340859237068003e-01 1.014538977244990e+00 3.622068079650768e-02 -2.899094945465915e+00 1.053418256390583e-01 3.708116847794876e-02 -1.652498388043240e+00 -9.942582002661488e-02 6.320017675369131e+00 -1.549867134529697e-02 -3.515572970225745e-01 1.577503147728563e-01 3.453643648181826e-01 3.859572940196396e-02 1.362324613306844e+00 -1.197720603442321e-01 -3.244800369244860e+00 5.117803679482419e-01 2.669897528354304e-02 3.602205180067555e-01 -1.549867134529716e-02 3.265775452891496e+00 -1.265179784780757e-01 -5.774654834962308e-01 4.695120956745181e-02 -2.127308148007783e+00 1.663177750953131e-02 -2.133626452197242e-01 3.553467200084453e-02 -1.208283495742852e-01 3.545316766406604e-01 -6.465453054657704e-02 -3.515572970225743e-01 -1.265179784780760e-01 2.403791834671635e+00 5.095060718568994e-02 -1.136489647862302e+00 1.718704672128145e-01 -1.558200985978266e+00 6.246813660049126e-02 4.623531028804370e-01 6.803325294686244e-02 -9.491510741192152e-02 -3.140349981616039e-01 1.577503147728564e-01 -5.774654834962307e-01 5.095060718568979e-02 2.720520055449767e+00 -1.711773014475086e-01 -1.385387201987164e-01 4.045939412752338e-02 -1.129780012788185e+00 -2.873140665346520e-02 1.025347910024994e-01 -3.696622128868535e-01 -1.340859237068003e-01 3.453643648181823e-01 4.695120956745198e-02 -1.136489647862302e+00 -1.711773014475088e-01 2.293075411655411e+00 -1.085401000291756e-01 7.790964447659963e-01 2.720789000935072e-01 -1.373219610885916e+00 -4.493598567212413e+00 1.365666452630938e-01 1.014538977244991e+00 3.859572940196465e-02 -2.127308148007782e+00 1.718704672128140e-01 -1.385387201987161e-01 -1.085401000291753e-01 6.174338891926452e+00 -2.929899928111049e-01 -1.290774245931334e+00 1.544022970501299e-02 1.797504973911474e-01 -2.807155440900778e+00 3.622068079650748e-02 1.362324613306844e+00 1.663177750953167e-02 -1.558200985978268e+00 4.045939412752324e-02 7.790964447659974e-01 -2.929899928111060e-01 3.749685408783614e+00 9.550183388990878e-03 -2.194098176845553e+00 1.015219319102966e+00 -1.347752002712013e-02 -2.899094945465914e+00 -1.197720603442324e-01 -2.133626452197243e-01 6.246813660049159e-02 -1.129780012788185e+00 2.720789000935069e-01 -1.290774245931333e+00 9.550183388990427e-03 4.301758487779745e+00 -1.297576593605934e-01 -9.816234130318124e-03 1.735767068236040e+00 1.053418256390582e-01 -3.244800369244860e+00 3.553467200084420e-02 4.623531028804380e-01 -2.873140665346505e-02 -1.373219610885917e+00 1.544022970501363e-02 -2.194098176845554e+00 -1.297576593605935e-01 4.309910606555516e+00 
      </Matrix>
      <Matrix Rows="12" Columns="12">
        7.602990633738134e+00 -1.791932370278649e-01 -2.956261772994804e+00 -3.341555464920307e-02 8.062377067873481e-01 -3.072024091546508e-02 -6.781501664270215e-02 5.453045454370505e-02 -6.494846024710775e+00 1.557238544146445e-01 2.453124807658661e+00 9.545435837328227e-03 -1.791932370278627e-01 5.704945617527678e+00 6.208729461876082e-02 -3.286861468940709e+00 -3.623603526113711e-03 8.148889625927740e-01 -4.098288943912843e-02 -4.704193273411702e-01 1.405376121957050e-01 -4.149867733299811e+00 -1.800954383096924e-02 2.558973867820839e+00 -2.956261772994803e+00 6.208729461876134e-02 6.644907573231566e+00 -9.042825524575579e-02 3.372102312576882e-01 -1.116854864501217e-01 1.165932675979759e-01 -1.449517595888021e-01 2.368696438303262e+00 5.128666538659462e-02 -5.081170990328395e+00 6.576640719155682e-02 -3.341555464920422e-02 -3.286861468940708e+00 -9.042825524575548e-02 6.392304305509326e+00 -4.481027423603551e-02 -7.071284686048906e-02 5.608227670104046e-02 3.008233070472806e-01 1.376389982040663e-01 2.226942501176274e+00 -7.451376792556225e-02 -4.122636298132631e+00 8.062377067873496e-01 -3.623603526114801e-03 3.372102312576875e-01 -4.481027423603504e-02 3.835588030418971e+00 -1.270227399559502e-01 -1.090866586986839e+00 3.995456899069108e-02 -2.456702734009182e+00 1.532920748996355e-02 -1.071383830654336e-01 8.325705819529575e-02 -3.072024091546440e-02 8.148889625927718e-01 -1.116854864501215e-01 -7.071284686048701e-02 -1.270227399559498e-01 3.471591957655078e+00 2.049817833745227e-02 -1.380327630182249e+00 4.210101889983545e-02 -2.272658285190643e+00 1.613489942127087e-01 4.044366501167129e-01 -6.781501664270144e-02 -4.098288943912828e-02 1.165932675979754e-01 5.608227670104043e-02 -1.090866586986839e+00 2.049817833745222e-02 3.526986053594930e+00 -1.728085429849232e-01 7.627524859384716e-02 4.862871309118124e-02 -1.716188561655936e+00 -6.954239490483898e-03 5.453045454370504e-02 -4.704193273411689e-01 -1.449517595888026e-01 3.008233070472788e-01 3.995456899069091e-02 -1.380327630182249e+00 -1.728085429849237e-01 3.251216543694861e+00 -3.945715019112363e-02 6.110583826418697e-01 1.959542591484385e-01 -1.642599606702233e+00 -6.494846024710776e+00 1.405376121957076e-01 2.368696438303261e+00 1.376389982040650e-01 -2.456702734009180e+00 4.210101889983649e-02 7.627524859384750e-02 -3.945715019112378e-02 8.390918385764842e+00 -2.287004074660828e-01 -2.882372131081045e+00 1.744980486541307e-02 1.557238544146421e-01 -4.149867733299808e+00 5.128666538659510e-02 2.226942501176272e+00 1.532920748996246e-02 -2.272658285190645e+00 4.862871309118130e-02 6.110583826418710e-01 -2.287004074660798e-01 5.418657176801459e+00 -3.781726155477733e-02 -2.660414745218760e+00 2.453124807658659e+00 -1.800954383096993e-02 -5.081170990328395e+00 -7.451376792556200e-02 -1.071383830654350e-01 1.613489942127088e-01 -1.716188561655936e+00 1.959542591484378e-01 -2.882372131081044e+00 -3.781726155477656e-02 6.903315438427725e+00 -2.181064577419077e-01 9.545435837329447e-03 2.558973867820836e+00 6.576640719155680e-02 -4.122636298132630e+00 8.325705819529630e-02 4.044366501167145e-01 -6.954239490483571e-03 -1.642599606702235e+00 1.744980486541164e-02 -2.660414745218759e+00 -2.181064577419079e-01 5.064503375294477e+00 
      </Matrix>
    </Transform>
  </Transformations>
  <MVAPdfs/>
  <Weights NTrees="100" AnalysisType="1">
    <BinaryTree type="DecisionTree" boostWeight="1.0000000000000000e+00" itree="0">
      <Node pos="s" depth="0" NCoef="0" IVar="11" Cut="-2.2833530902862549e+00" cType="1" res="0.0000000000000000e+00" rms="5.0000000000000000e-01" purity="5.0000000000000000e-01" nType="0">
        <Node pos="l" depth="1" NCoef="0" IVar="3" Cut="2.3651905059814453e+00" cType="1" res="2.4208799004554749e-01" rms="4.3748533725738525e-01" purity="7.4208796024322510e-01" nType="0">
          <Node pos="l" depth="2" NCoef="0" IVar="3" Cut="1.9739774465560913e+00" cType="1" res="3.4999638795852661e-01" rms="3.5707497596740723e-01" purity="8.4999638795852661e-01" nType="0">
            <Node pos="l" depth="3" NCoef="0" IVar="-1" Cut="0.0000000000000000e+00" cType="1" res="7.9564772546291351e-02" rms="3.0287978053092957e-01" purity="8.9782387018203735e-01" nType="-99"/>
            <Node pos="r" depth="3" NCoef="0" IVar="-1" Cut="0.0000000000000000e+00" cType="1" res="2.9810650274157524e-02" rms="4.7726631164550781e-01" purity="6.4905327558517456e-01" nType="-99"/>
          </Node>
          <Node pos="r" depth="2" NCoef="0" IVar="-1" Cut="0.0000000000000000e+00" cType="1" res="-3.7578549236059189e-02" rms="4.6335333585739136e-01" purity="3.1210723519325256e-01" nType="-99"/>
        </Node>
        <Node pos="r" depth="1" NCoef="0" IVar="7" Cut="3.0142700672149658e+00" cType="1" res="-2.1985688805580139e-01" rms="4.4906899333000183e-01" purity="2.8014311194419861e-01" nType="0">
          <Node pos="l" depth="2" NCoef="0" IVar="7" Cut="2.4104263782501221e+00" cType="1" res="-2.6278182864189148e-02" rms="4.9930897355079651e-01" purity="4.7372180223464966e-01" nType="0">
            <Node pos="l" depth="3" NCoef="0" IVar="-1" Cut="0.0000000000000000e+00" cType="1" res="3.5355547443032265e-03" rms="4.9968740344047546e-01" purity="5.1767778396606445e-01" nType="-99"/>
            <Node pos="r" depth="3" NCoef="0" IVar="-1" Cut="0.0000000000000000e+00" cType="1" res="-1.2405974790453911e-02" rms="4.9613738059997559e-01" purity="4.3797013163566589e-01" nType="-99"/>
          </Node>
          <Node pos="r" depth="2" NCoef="0" IVar="11" Cut="-1.6761248111724854e+00" cType="1" res="-2.8110536932945251e-01" rms="4.1349700093269348e-01" purity="2.1889463067054749e-01" nType="0">
            <Node pos="l" depth="3" NCoef="0" IVar="-1" Cut="0.0000000000000000e+00" cType="1" res="-3.0427547171711922e-02" rms="4.7629204392433167e-01" purity="3.4786227345466614e-01" nType="-99"/>
            <Node pos="r" depth="3" NCoef="0" IVar="-1" Cut="0.0000000000000000e+00" cType="1" res="-7.0399783551692963e-02" rms="3.5510107874870300e-01" purity="1.4800108969211578e-01" nType="-99"/>
          </Node>
        </Node>
      </Node>
    </BinaryTree>
    <BinaryTree type="DecisionTree" boostWeight="1.0000000000000000e+00" itree="1">
      <Node pos="s" depth="0" NCoef="0" IVar="11" Cut="-2.2833530902862549e+00" cType="1" res="9.6142730399151333e-06" rms="4.8282039165496826e-01" purity="5.0000000000000000e-01" nType="0">
        <Node pos="l" depth="1" NCoef="0" IVar="3" Cut="2.3651905059814453e+00" cType="1" res="2.1793214976787567e-01" rms="4.2559888958930969e-01" purity="7.4208796024322510e-01" nType="0">
          <Node pos="l" depth="2" NCoef="0" IVar="3" Cut="1.5827898979187012e+00" cType="1" res="3.1506523489952087e-01" rms="3.5451662540435791e-01" purity="8.4999638795852661e-01" nType="0">
            <Node pos="l" depth="3" NCoef="0" IVar="-1" Cut="0.0000000000000000e+00" cType="1" res="7.9581268131732941e-02" rms="2.4635528028011322e-01" purity="9.3509662151336670e-01" nType="-99"/>
            <Node pos="r" depth="3" NCoef="0" IVar="-1" Cut="0.0000000000000000e+00" cType="1" res="4.2036835104227066e-02" rms="4.3764346837997437e-01" purity="7.3802423477172852e-01" nType="-99"/>
          </Node>
          <Node pos="r" depth="2" NCoef="0" IVar="-1" Cut="0.0000000000000000e+00" cType="1" res="-3.3870249986648560e-02" rms="4.6335333585739136e-01" purity="3.1210723519325256e-01" nType="-99"/>
        </Node>
        <Node pos="r" depth="1" NCoef="0" IVar="3" Cut="1.2380784749984741e+00" cType="1" res="-1.9790095090866089e-01" rms="4.4500049948692322e-01" purity="2.8014311194419861e-01" nType="0">
          <Node pos="l" depth="2" NCoef="0" IVar="11" Cut="-1.3106259107589722e+00" cType="1" res="-4.6811211854219437e-02" rms="4.8764869570732117e-01" purity="4.2819714546203613e-01" nType="0">
            <Node pos="l" depth="3" NCoef="0" IVar="-1" Cut="0.0000000000000000e+00" cType="1" res="5.1225062459707260e-02" rms="4.3465924263000488e-01" purity="7.3852330446243286e-01" nType="-99"/>
            <Node pos="r" depth="3" NCoef="0" IVar="-1" Cut="0.0000000000000000e+00" cType="1" res="-4.0850307792425156e-02" rms="4.3727120757102966e-01" purity="2.6752671599388123e-01" nType="-99"/>
          </Node>
          <Node pos="r" depth="2" NCoef="0" IVar="9" Cut="-3.8108253479003906e+00" cType="1" res="-2.6915329694747925e-01" rms="4.0425878763198853e-01" purity="2.1032236516475677e-01" nType="0">
            <Node pos="l" depth="3" NCoef="0" IVar="-1" Cut="0.0000000000000000e+00" cType="1" res="-4.2952693998813629e-02" rms="4.3601194024085999e-01" purity="2.6417738199234009e-01" nType="-99"/>
            <Node pos="r" depth="3" NCoef="0" IVar="-1" Cut="0.0000000000000000e+00" cType="1" res="-7.6420828700065613e-02" rms="3.0036592483520508e-01" purity="1.0038857161998749e-01" nType="-99"/>
          </Node>
        </Node>
      </Node>
    </BinaryTree>
    <BinaryTree type="DecisionTree" boostWeight="1.0000000000000000e+00" itree="2">
      <Node pos="s" depth="0" NCoef="0" IVar="11" Cut="-2.2833530902862549e+00" cType="1" res="4.6194247261155397e-05" rms="4.6689680218696594e-01" purity="5.0000000000000000e-01" nType="0">
        <Node pos="l" depth="1" NCoef="0" IVar="3" Cut="2.3651905059814453e+00" cType="1" res="1.9630502164363861e-01" rms="4.1564035415649414e-01" purity="7.4208796024322510e-01" nType="0">
          <Node pos="l" depth="2" NCoef="0" IVar="3" Cut="1.9739774465560913e+00" cType="1" res="2.8377348184585571e-01" rms="3.5227161645889282e-01" purity="8.4999638795852661e-01" nType="0">
            <Node pos="l" depth="3" NCoef="0" IVar="-1" Cut="0.0000000000000000e+00" cType="1" res="6.6324912011623383e-02" rms="3.0139964818954468e-01" purity="8.9782387018203735e-01" nType="-99"/>
            <Node pos="r" depth="3" NCoef="0" IVar="-1" Cut="0.0000000000000000e+00" cType="1" res="2.2755302488803864e-02" rms="4.7726628184318542e-01" purity="6.4905327558517456e-01" nType="-99"/>
          </Node>
          <Node pos="r" depth="2" NCoef="0" IVar="-1" Cut="0.0000000000000000e+00" cType="1" res="-3.0601494014263153e-02" rms="4.6335333585739136e-01" purity="3.1210723519325256e-01" nType="-99"/>
        </Node>
        <Node pos="r" depth="1" NCoef="0" IVar="7" Cut="3.0142700672149658e+00" cType="1" res="-1.7819005250930786e-01" rms="4.3854954838752747e-01" purity="2.8014311194419861e-01" nType="0">
          <Node pos="l" depth="2" NCoef="0" IVar="7" Cut="2.4104263782501221e+00" cType="1" res="-3.7107481621205807e-03" rms="4.8870643973350525e-01" purity="4.7372180223464966e-01" nType="0">
            <Node pos="l" depth="3" NCoef="0" IVar="-1" Cut="0.0000000000000000e+00" cType="1" res="7.4443607591092587e-03" rms="4.9073463678359985e-01" purity="5.1767778396606445e-01" nType="-99"/>
            <Node pos="r" depth="3" NCoef="0" IVar="-1" Cut="0.0000000000000000e+00" cType="1" res="-7.4154068715870380e-03" rms="4.8451977968215942e-01" purity="4.3797013163566589e-01" nType="-99"/>
          </Node>
          <Node pos="r" depth="2" NCoef="0" IVar="11" Cut="-1.6761248111724854e+00" cType="1" res="-2.3339547216892242e-01" rms="4.0611651539802551e-01" purity="2.1889463067054749e-01" nType="0">
            <Node pos="l" depth="3" NCoef="0" IVar="-1" Cut="0.0000000000000000e+00" cType="1" res="-2.4013031274080276e-02" rms="4.6860569715499878e-01" purity="3.4786227345466614e-01" nType="-99"/>
            <Node pos="r" depth="3" NCoef="0" IVar="-1" Cut="0.0000000000000000e+00" cType="1" res="-6.0011755675077438e-02" rms="3.5185214877128601e-01" purity="1.4800108969211578e-01" nType="-99"/>
          </Node>
        </Node>
      </Node>
    </BinaryTree>
    <BinaryTree type="DecisionTree" boostWeight="1.0000000000000000e+00" itree="3">
      <Node pos="s" depth="0" NCoef="0" IVar="11" Cut="-2.2833530902862549e+00" cType="1" res="8.7138811068143696e-05" rms="4.5460960268974304e-01" purity="5.0000000000000000e-01" nType="0">
        <Node pos="l" depth="1" NCoef="0" IVar="3" Cut="2.3651905059814453e+00" cType="1" res="1.7690208554267883e-01" rms="4.0740951895713806e-01" purity="7.4208796024322510e-01" nType="0">
          <Node pos="l" depth="2" NCoef="0" IVar="3" Cut="1.5827898979187012e+00" cType="1" res="2.5569030642509460e-01" rms="3.5044890642166138e-01" purity="8.4999638795852661e-01" nType="0">
            <Node pos="l" depth="3" NCoef="0" IVar="-1" Cut="0.0000000000000000e+00" cType="1" res="6.8199560046195984e-02" rms="2.4635528028011322e-01" purity="9.3509662151336670e-01" nType="-99"/>
            <Node pos="r" depth="3" NCoef="0" IVar="-1" Cut="0.0000000000000000e+00" cType="1" res="3.3883444964885712e-02" rms="4.3616414070129395e-01" purity="7.3802423477172852e-01" nType="-99"/>
          </Node>
          <Node pos="r" depth="2" NCoef="0" IVar="-1" Cut="0.0000000000000000e+00" cType="1" res="-2.7695236727595329e-02" rms="4.6335333585739136e-01" purity="3.1210723519325256e-01" nType="-99"/>
        </Node>
        <Node pos="r" depth="1" NCoef="0" IVar="3" Cut="2.3406763076782227e+00" cType="1" res="-1.6049078106880188e-01" rms="4.3525058031082153e-01" purity="2.8014311194419861e-01" nType="0">
          <Node pos="l" depth="2" NCoef="0" IVar="7" Cut="3.0142700672149658e+00" cType="1" res="-9.9708974361419678e-02" rms="4.5669955015182495e-01" purity="3.4084096550941467e-01" nType="0">
            <Node pos="l" depth="3" NCoef="0" IVar="-1" Cut="0.0000000000000000e+00" cType="1" res="3.2666478306055069e-02" rms="4.6736469864845276e-01" purity="6.4571893215179443e-01" nType="-99"/>
            <Node pos="r" depth="3" NCoef="0" IVar="-1" Cut="0.0000000000000000e+00" cType="1" res="-3.4819249063730240e-02" rms="4.2720714211463928e-01" purity="2.5911846756935120e-01" nType="-99"/>
          </Node>
          <Node pos="r" depth="2" NCoef="0" IVar="-1" Cut="0.0000000000000000e+00" cType="1" res="-6.4296282827854156e-02" rms="3.2664981484413147e-01" purity="1.2461551278829575e-01" nType="-99"/>
        </Node>
      </Node>
    </BinaryTree>
    <BinaryTree type="DecisionTree" boostWeight="1.0000000000000000e+00" itree="4">
      <Node pos="s" depth="0" NCoef="0" IVar="11" Cut="-2.2833530902862549e+00" cType="1" res="1.3471570855472237e-04" rms="4.4323843717575073e-01" purity="5.0000000000000000e-01" nType="0">
        <Node pos="l" depth="1" NCoef="0" IVar="3" Cut="2.3651905059814453e+00" cType="1" res="1.5947492420673370e-01" rms="4.0052670240402222e-01" purity="7.4208796024322510e-01" nType="0">
          <Node pos="l" depth="2" NCoef="0" IVar="10" Cut="-2.0793762207031250e+00" cType="1" res="2.3046086728572845e-01" rms="3.4883084893226624e-01" purity="8.4999638795852661e-01" nType="0">
            <Node pos="l" depth="3" NCoef="0" IVar="-1" Cut="0.0000000000000000e+00" cType="1" res="5.8974333107471466e-02" rms="2.9748040437698364e-01" purity="8.9680427312850952e-01" nType="-99"/>
            <Node pos="r" depth="3" NCoef="0" IVar="-1" Cut="0.0000000000000000e+00" cType="1" res="2.2808842360973358e-02" rms="4.3475136160850525e-01" purity="7.2555714845657349e-01" nType="-99"/>
          </Node>
          <Node pos="r" depth="2" NCoef="0" IVar="-1" Cut="0.0000000000000000e+00" cType="1" res="-2.5094049051403999e-02" rms="4.6335333585739136e-01" purity="3.1210723519325256e-01" nType="-99"/>
        </Node>
        <Node pos="r" depth="1" NCoef="0" IVar="3" Cut="1.2380784749984741e+00" cType="1" res="-1.4457316696643829e-01" rms="4.3033868074417114e-01" purity="2.8014311194419861e-01" nType="0">
          <Node pos="l" depth="2" NCoef="0" IVar="11" Cut="-1.3106259107589722e+00" cType="1" res="-1.2003226205706596e-02" rms="4.6756732463836670e-01" purity="4.2819714546203613e-01" nType="0">
            <Node pos="l" depth="3" NCoef="0" IVar="-1" Cut="0.0000000000000000e+00" cType="1" res="5.0550952553749084e-02" rms="4.2581996321678162e-01" purity="7.3852330446243286e-01" nType="-99"/>
            <Node pos="r" depth="3" NCoef="0" IVar="-1" Cut="0.0000000000000000e+00" cType="1" res="-3.0706746503710747e-02" rms="4.2831480503082275e-01" purity="2.6752671599388123e-01" nType="-99"/>
          </Node>
          <Node pos="r" depth="2" NCoef="0" IVar="9" Cut="-3.8108253479003906e+00" cType="1" res="-2.0709177851676941e-01" rms="3.9652302861213684e-01" purity="2.1032236516475677e-01" nType="0">
            <Node pos="l" depth="3" NCoef="0" IVar="-1" Cut="0.0000000000000000e+00" cType="1" res="-3.2225895673036575e-02" rms="4.2667275667190552e-01" purity="2.6417738199234009e-01" nType="-99"/>
            <Node pos="r" depth="3" NCoef="0" IVar="-1" Cut="0.0000000000000000e+00" cType="1" res="-6.4415216445922852e-02" rms="3.0095344781875610e-01" purity="1.0038857161998749e-01" nType="-99"/>
          </Node>
        </Node>
      </Node>
    </BinaryTree>
    <BinaryTree type="DecisionTree" boostWeight="1.0000000000000000e+00" itree="5">
      <Node pos="s" depth="0" NCoef="0" IVar="11" Cut="-2.2833530902862549e+00" cType="1" res="1.6245865845121443e-04" rms="4.3322291970252991e-01" purity="5.0000000000000000e-01" nType="0">
        <Node pos="l" depth="1" NCoef="0" IVar="3" Cut="2.3651905059814453e+00" cType="1" res="1.4377260208129883e-01" rms="3.9479628205299377e-01" purity="7.4208796024322510e-01" nType="0">
          <Node pos="l" depth="2" NCoef="0" IVar="3" Cut="1.5827898979187012e+00" cType="1" res="2.0773212611675262e-01" rms="3.4743067622184753e-01" purity="8.4999638795852661e-01" nType="0">
            <Node pos="l" depth="3" NCoef="0" IVar="-1" Cut="0.0000000000000000e+00" cType="1" res="6.0634955763816833e-02" rms="2.4531267583370209e-01" purity="9.3509662151336670e-01" nType="-99"/>
            <Node pos="r" depth="3" NCoef="0" IVar="-1" Cut="0.0000000000000000e+00" cType="1" res="2.6534276083111763e-02" rms="4.3416640162467957e-01" purity="7.3802423477172852e-01" nType="-99"/>
          </Node>
          <Node pos="r" depth="2" NCoef="0" IVar="-1" Cut="0.0000000000000000e+00" cType="1" res="-2.2754095494747162e-02" rms="4.6335333585739136e-01" purity="3.1210723519325256e-01" nType="-99"/>
        </Node>
        <Node pos="r" depth="1" NCoef="0" IVar="3" Cut="2.3406763076782227e+00" cType="1" res="-1.3025987148284912e-01" rms="4.2525082826614380e-01" purity="2.8014311194419861e-01" nType="0">
          <Node pos="l" depth="2" NCoef="0" IVar="7" Cut="3.0142700672149658e+00" cType="1" res="-7.7707827091217041e-02" rms="4.4738465547561646e-01" purity="3.4084096550941467e-01" nType="0">
            <Node pos="l" depth="3" NCoef="0" IVar="-1" Cut="0.0000000000000000e+00" cType="1" res="3.1532693654298782e-02" rms="4.5883071422576904e-01" purity="6.4571893215179443e-01" nType="-99"/>
            <Node pos="r" depth="3" NCoef="0" IVar="-1" Cut="0.0000000000000000e+00" cType="1" res="-2.9488246887922287e-02" rms="4.2275160551071167e-01" purity="2.5911846756935120e-01" nType="-99"/>
          </Node>
          <Node pos="r" depth="2" NCoef="0" IVar="-1" Cut="0.0000000000000000e+00" cType="1" res="-5.5837232619524002e-02" rms="3.2578989863395691e-01" purity="1.2461551278829575e-01" nType="-99"/>
        </Node>
      </Node>
    </BinaryTree>
    <BinaryTree type="DecisionTree" boostWeight="1.0000000000000000e+00" itree="6">
      <Node pos="s" depth="0" NCoef="0" IVar="11" Cut="-2.2833530902862549e+00" cType="1" res="1.9918366160709411e-04" rms="4.2505058646202087e-01" purity="5.0000000000000000e-01" nType="0">
        <Node pos="l" depth="1" NCoef="0" IVar="3" Cut="2.3651905059814453e+00" cType="1" res="1.2966875731945038e-01" rms="3.8997063040733337e-01" purity="7.4208796024322510e-01" nType="0">
          <Node pos="l" depth="2" NCoef="0" IVar="10" Cut="-2.0793762207031250e+00" cType="1" res="1.8731112778186798e-01" rms="3.4612107276916504e-01" purity="8.4999638795852661e-01" nType="0">
            <Node pos="l" depth="3" NCoef="0" IVar="-1" Cut="0.0000000000000000e+00" cType="1" res="5.1937855780124664e-02" rms="2.9665824770927429e-01" purity="8.9680427312850952e-01" nType="-99"/>
            <Node pos="r" depth="3" NCoef="0" IVar="-1" Cut="0.0000000000000000e+00" cType="1" res="1.6776189208030701e-02" rms="4.3271446228027344e-01" purity="7.2555714845657349e-01" nType="-99"/>
          </Node>
          <Node pos="r" depth="2" NCoef="0" IVar="-1" Cut="0.0000000000000000e+00" cType="1" res="-2.0641127601265907e-02" rms="4.6335333585739136e-01" purity="3.1210723519325256e-01" nType="-99"/>
        </Node>
        <Node pos="r" depth="1" NCoef="0" IVar="9" Cut="-3.8108253479003906e+00" cType="1" res="-1.1738111078739166e-01" rms="4.2140859365463257e-01" purity="2.8014311194419861e-01" nType="0">
          <Node pos="l" depth="2" NCoef="0" IVar="7" Cut="2.9053261280059814e+00" cType="1" res="-5.4090175777673721e-02" rms="4.4419473409652710e-01" purity="3.5477021336555481e-01" nType="0">
            <Node pos="l" depth="3" NCoef="0" IVar="-1" Cut="0.0000000000000000e+00" cType="1" res="4.5855652540922165e-02" rms="4.2318966984748840e-01" purity="7.1127307415008545e-01" nType="-99"/>
            <Node pos="r" depth="3" NCoef="0" IVar="-1" Cut="0.0000000000000000e+00" cType="1" res="-2.8618101030588150e-02" rms="4.1656181216239929e-01" purity="2.5208017230033875e-01" nType="-99"/>
          </Node>
          <Node pos="r" depth="2" NCoef="0" IVar="11" Cut="-1.2242746353149414e+00" cType="1" res="-2.2476661205291748e-01" rms="3.5467138886451721e-01" purity="1.5352354943752289e-01" nType="0">
            <Node pos="l" depth="3" NCoef="0" IVar="-1" Cut="0.0000000000000000e+00" cType="1" res="-3.6559157073497772e-02" rms="3.8867086172103882e-01" purity="2.0669767260551453e-01" nType="-99"/>
            <Node pos="r" depth="3" NCoef="0" IVar="-1" Cut="0.0000000000000000e+00" cType="1" res="-5.9088215231895447e-02" rms="3.1088986992835999e-01" purity="1.0364257544279099e-01" nType="-99"/>
          </Node>
        </Node>
      </Node>
    </BinaryTree>
    <BinaryTree type="DecisionTree" boostWeight="1.0000000000000000e+00" itree="7">
      <Node pos="s" depth="0" NCoef="0" IVar="11" Cut="-2.2833530902862549e+00" cType="1" res="2.1234431187622249e-04" rms="4.1737049818038940e-01" purity="5.0000000000000000e-01" nType="0">
        <Node pos="l" depth="1" NCoef="0" IVar="3" Cut="2.3651905059814453e+00" cType="1" res="1.1693955957889557e-01" rms="3.8598385453224182e-01" purity="7.4208796024322510e-01" nType="0">
          <Node pos="l" depth="2" NCoef="0" IVar="3" Cut="1.9739774465560913e+00" cType="1" res="1.6888676583766937e-01" rms="3.4502312541007996e-01" purity="8.4999638795852661e-01" nType="0">
            <Node pos="l" depth="3" NCoef="0" IVar="-1" Cut="0.0000000000000000e+00" cType="1" res="4.7872852534055710e-02" rms="2.9735514521598816e-01" purity="8.9782387018203735e-01" nType="-99"/>
            <Node pos="r" depth="3" NCoef="0" IVar="-1" Cut="0.0000000000000000e+00" cType="1" res="6.2283719889819622e-03" rms="4.7284141182899475e-01" purity="6.4905327558517456e-01" nType="-99"/>
          </Node>
          <Node pos="r" depth="2" NCoef="0" IVar="-1" Cut="0.0000000000000000e+00" cType="1" res="-1.8727807328104973e-02" rms="4.6335333585739136e-01" purity="3.1210723519325256e-01" nType="-99"/>
        </Node>
        <Node pos="r" depth="1" NCoef="0" IVar="3" Cut="1.2380784749984741e+00" cType="1" res="-1.0579573363065720e-01" rms="4.1651594638824463e-01" purity="2.8014311194419861e-01" nType="0">
          <Node pos="l" depth="2" NCoef="0" IVar="11" Cut="-1.3106259107589722e+00" cType="1" res="9.8458146676421165e-03" rms="4.4861638545989990e-01" purity="4.2819714546203613e-01" nType="0">
            <Node pos="l" depth="3" NCoef="0" IVar="-1" Cut="0.0000000000000000e+00" cType="1" res="4.8348911106586456e-02" rms="4.1817545890808105e-01" purity="7.3852330446243286e-01" nType="-99"/>
            <Node pos="r" depth="3" NCoef="0" IVar="-1" Cut="0.0000000000000000e+00" cType="1" res="-2.3433648049831390e-02" rms="4.1721066832542419e-01" purity="2.6752671599388123e-01" nType="-99"/>
          </Node>
          <Node pos="r" depth="2" NCoef="0" IVar="11" Cut="-1.7050822973251343e+00" cType="1" res="-1.6033108532428741e-01" rms="3.8872650265693665e-01" purity="2.1032236516475677e-01" nType="0">
            <Node pos="l" depth="3" NCoef="0" IVar="-1" Cut="0.0000000000000000e+00" cType="1" res="-1.6064472496509552e-02" rms="4.4544184207916260e-01" purity="3.0816993117332458e-01" nType="-99"/>
            <Node pos="r" depth="3" NCoef="0" IVar="-1" Cut="0.0000000000000000e+00" cType="1" res="-4.8415347933769226e-02" rms="3.2983118295669556e-01" purity="1.4092703163623810e-01" nType="-99"/>
          </Node>
        </Node>
      </Node>
    </BinaryTree>
    <BinaryTree type="DecisionTree" boostWeight="1.0000000000000000e+00" itree="8">
      <Node pos="s" depth="0" NCoef="0" IVar="11" Cut="-2.2833530902862549e+00" cType="1" res="2.3302301997318864e-04" rms="4.1093331575393677e-01" purity="5.0000000000000000e-01" nType="0">
        <Node pos="l" depth="1" NCoef="0" IVar="3" Cut="2.3651905059814453e+00" cType="1" res="1.0548774152994156e-01" rms="3.8254690170288086e-01" purity="7.4208796024322510e-01" nType="0">
          <Node pos="l" depth="2" NCoef="0" IVar="11" Cut="-2.8743746280670166e+00" cType="1" res="1.5230952203273773e-01" rms="3.4388965368270874e-01" purity="8.4999638795852661e-01" nType="0">
            <Node pos="l" depth="3" NCoef="0" IVar="-1" Cut="0.0000000000000000e+00" cType="1" res="4.9435745924711227e-02" rms="2.7944925427436829e-01" purity="9.0851473808288574e-01" nType="-99"/>
            <Node pos="r" depth="3" NCoef="0" IVar="-1" Cut="0.0000000000000000e+00" cType="1" res="1.7723808065056801e-02" rms="4.0940043330192566e-01" purity="7.6361089944839478e-01" nType="-99"/>
          </Node>
          <Node pos="r" depth="2" NCoef="0" IVar="-1" Cut="0.0000000000000000e+00" cType="1" res="-1.6991842538118362e-02" rms="4.6335333585739136e-01" purity="3.1210723519325256e-01" nType="-99"/>
        </Node>
        <Node pos="r" depth="1" NCoef="0" IVar="3" Cut="2.3406763076782227e+00" cType="1" res="-9.5356084406375885e-02" rms="4.1246011853218079e-01" purity="2.8014311194419861e-01" nType="0">
          <Node pos="l" depth="2" NCoef="0" IVar="11" Cut="-1.3106259107589722e+00" cType="1" res="-4.8970613628625870e-02" rms="4.3366137146949768e-01" purity="3.4084096550941467e-01" nType="0">
            <Node pos="l" depth="3" NCoef="0" IVar="-1" Cut="0.0000000000000000e+00" cType="1" res="1.3518582098186016e-02" rms="4.6004715561866760e-01" purity="4.8770031332969666e-01" nType="-99"/>
            <Node pos="r" depth="3" NCoef="0" IVar="-1" Cut="0.0000000000000000e+00" cType="1" res="-3.3639416098594666e-02" rms="3.7968048453330994e-01" purity="2.0635282993316650e-01" nType="-99"/>
          </Node>
          <Node pos="r" depth="2" NCoef="0" IVar="-1" Cut="0.0000000000000000e+00" cType="1" res="-4.8075124621391296e-02" rms="3.2329353690147400e-01" purity="1.2461551278829575e-01" nType="-99"/>
        </Node>
      </Node>
    </BinaryTree>
    <BinaryTree type="DecisionTree" boostWeight="1.0000000000000000e+00" itree="9">
      <Node pos="s" depth="0" NCoef="0" IVar="9" Cut="-3.2240169048309326e+00" cType="1" res="2.2777057893108577e-04" rms="4.0575841069221497e-01" purity="5.0000000000000000e-01" nType="0">
        <Node pos="l" depth="1" NCoef="0" IVar="10" Cut="-1.5787366628646851e+00" cType="1" res="4.3924640864133835e-02" rms="4.0474933385848999e-01" purity="5.7515949010848999e-01" nType="0">
          <Node pos="l" depth="2" NCoef="0" IVar="7" Cut="4.0225601196289062e+00" cType="1" res="8.9259967207908630e-02" rms="3.9389878511428833e-01" purity="6.3467353582382202e-01" nType="0">
            <Node pos="l" depth="3" NCoef="0" IVar="-1" Cut="0.0000000000000000e+00" cType="1" res="3.4499097615480423e-02" rms="3.7295013666152954e-01" purity="7.2491240501403809e-01" nType="-99"/>
            <Node pos="r" depth="3" NCoef="0" IVar="-1" Cut="0.0000000000000000e+00" cType="1" res="-1.4983518980443478e-02" rms="4.0499469637870789e-01" purity="3.9949867129325867e-01" nType="-99"/>
          </Node>
          <Node pos="r" depth="2" NCoef="0" IVar="3" Cut="1.6138355731964111e+00" cType="1" res="-1.4951272308826447e-01" rms="3.9320448040962219e-01" purity="3.2122418284416199e-01" nType="0">
            <Node pos="l" depth="3" NCoef="0" IVar="-1" Cut="0.0000000000000000e+00" cType="1" res="-6.5593421459197998e-03" rms="4.0906733274459839e-01" purity="5.1095902919769287e-01" nType="-99"/>
            <Node pos="r" depth="3" NCoef="0" IVar="-1" Cut="0.0000000000000000e+00" cType="1" res="-5.0227515399456024e-02" rms="3.6151126027107239e-01" purity="1.9811794161796570e-01" nType="-99"/>
          </Node>
        </Node>
        <Node pos="r" depth="1" NCoef="0" IVar="-1" Cut="0.0000000000000000e+00" cType="1" res="-4.5470446348190308e-02" rms="3.4536781907081604e-01" purity="1.5452204644680023e-01" nType="-99"/>
      </Node>
    </BinaryTree>
    <BinaryTree type="DecisionTree" boostWeight="1.0000000000000000e+00" itree="10">
      <Node pos="s" depth="0" NCoef="0" IVar="11" Cut="-2.2833530902862549e+00" cType="1" res="1.7230266530532390e-04" rms="4.0027573704719543e-01" purity="5.0000000000000000e-01" nType="0">
        <Node pos="l" depth="1" NCoef="0" IVar="3" Cut="2.3651905059814453e+00" cType="1" res="9.0534813702106476e-02" rms="3.7520533800125122e-01" purity="7.4208796024322510e-01" nType="0">
          <Node pos="l" depth="2" NCoef="0" IVar="3" Cut="1.5827898979187012e+00" cType="1" res="1.3087435066699982e-01" rms="3.3978486061096191e-01" purity="8.4999638795852661e-01" nType="0">
            <Node pos="l" depth="3" NCoef="0" IVar="-1" Cut="0.0000000000000000e+00" cType="1" res="4.9266789108514786e-02" rms="2.4275270104408264e-01" purity="9.3509662151336670e-01" nType="-99"/>
            <Node pos="r" depth="3" NCoef="0" IVar="-1" Cut="0.0000000000000000e+00" cType="1" res="1.4110119082033634e-02" rms="4.2578682303428650e-01" purity="7.3802423477172852e-01" nType="-99"/>
          </Node>
          <Node pos="r" depth="2" NCoef="0" IVar="-1" Cut="0.0000000000000000e+00" cType="1" res="-1.4885631389915943e-02" rms="4.5757040381431580e-01" purity="3.1210723519325256e-01" nType="-99"/>
        </Node>
        <Node pos="r" depth="1" NCoef="0" IVar="2" Cut="1.6837489604949951e+00" cType="1" res="-8.1892162561416626e-02" rms="4.0463167428970337e-01" purity="2.8014311194419861e-01" nType="0">
          <Node pos="l" depth="2" NCoef="0" IVar="3" Cut="1.2380784749984741e+00" cType="1" res="-4.4633086770772934e-02" rms="4.2160099744796753e-01" purity="3.2201987504959106e-01" nType="0">
            <Node pos="l" depth="3" NCoef="0" IVar="-1" Cut="0.0000000000000000e+00" cType="1" res="1.5655916184186935e-02" rms="4.4082814455032349e-01" purity="4.8626130819320679e-01" nType="-99"/>
            <Node pos="r" depth="3" NCoef="0" IVar="-1" Cut="0.0000000000000000e+00" cType="1" res="-2.2653672844171524e-02" rms="4.0033668279647827e-01" purity="2.4359469115734100e-01" nType="-99"/>
          </Node>
          <Node pos="r" depth="2" NCoef="0" IVar="-1" Cut="0.0000000000000000e+00" cType="1" res="-4.9499038606882095e-02" rms="2.9840135574340820e-01" purity="1.2738077342510223e-01" nType="-99"/>
        </Node>
      </Node>
    </BinaryTree>
    <BinaryTree type="DecisionTree" boostWeight="1.0000000000000000e+00" itree="11">
      <Node pos="s" depth="0" NCoef="0" IVar="9" Cut="-3.2240169048309326e+00" cType="1" res="1.9694359798450023e-04" rms="3.9635980129241943e-01" purity="5.0000000000000000e-01" nType="0">
        <Node pos="l" depth="1" NCoef="0" IVar="10" Cut="-1.5787366628646851e+00" cType="1" res="3.8278054445981979e-02" rms="3.9685404300689697e-01" purity="5.7515949010848999e-01" nType="0">
          <Node pos="l" depth="2" NCoef="0" IVar="7" Cut="4.0225601196289062e+00" cType="1" res="7.8381083905696869e-02" rms="3.8821163773536682e-01" purity="6.3467353582382202e-01" nType="0">
            <Node pos="l" depth="3" NCoef="0" IVar="-1" Cut="0.0000000000000000e+00" cType="1" res="3.1233217567205429e-02" rms="3.7043109536170959e-01" purity="7.2491240501403809e-01" nType="-99"/>
            <Node pos="r" depth="3" NCoef="0" IVar="-1" Cut="0.0000000000000000e+00" cType="1" res="-1.3415762223303318e-02" rms="4.0057960152626038e-01" purity="3.9949867129325867e-01" nType="-99"/>
          </Node>
          <Node pos="r" depth="2" NCoef="0" IVar="3" Cut="1.6138355731964111e+00" cType="1" res="-1.3283407688140869e-01" rms="3.8768705725669861e-01" purity="3.2122418284416199e-01" nType="0">
            <Node pos="l" depth="3" NCoef="0" IVar="-1" Cut="0.0000000000000000e+00" cType="1" res="-7.4912765994668007e-03" rms="4.0574258565902710e-01" purity="5.1095902919769287e-01" nType="-99"/>
            <Node pos="r" depth="3" NCoef="0" IVar="-1" Cut="0.0000000000000000e+00" cType="1" res="-4.5103780925273895e-02" rms="3.6070954799652100e-01" purity="1.9811794161796570e-01" nType="-99"/>
          </Node>
        </Node>
        <Node pos="r" depth="1" NCoef="0" IVar="-1" Cut="0.0000000000000000e+00" cType="1" res="-4.1283890604972839e-02" rms="3.4350103139877319e-01" purity="1.5452204644680023e-01" nType="-99"/>
      </Node>
    </BinaryTree>
    <BinaryTree type="DecisionTree" boostWeight="1.0000000000000000e+00" itree="12">
      <Node pos="s" depth="0" NCoef="0" IVar="2" Cut="1.6837489604949951e+00" cType="1" res="1.4567053585778922e-04" rms="3.9211186766624451e-01" purity="5.0000000000000000e-01" nType="0">
        <Node pos="l" depth="1" NCoef="0" IVar="11" Cut="-2.1450650691986084e+00" cType="1" res="3.5604823380708694e-02" rms="3.9184364676475525e-01" purity="5.5072385072708130e-01" nType="0">
          <Node pos="l" depth="2" NCoef="0" IVar="3" Cut="2.0207626819610596e+00" cType="1" res="1.1006459593772888e-01" rms="3.5990077257156372e-01" purity="7.5823855400085449e-01" nType="0">
            <Node pos="l" depth="3" NCoef="0" IVar="-1" Cut="0.0000000000000000e+00" cType="1" res="4.4715408235788345e-02" rms="2.8240150213241577e-01" purity="9.0319716930389404e-01" nType="-99"/>
            <Node pos="r" depth="3" NCoef="0" IVar="-1" Cut="0.0000000000000000e+00" cType="1" res="-5.3047557594254613e-04" rms="4.5783680677413940e-01" purity="4.6966156363487244e-01" nType="-99"/>
          </Node>
          <Node pos="r" depth="2" NCoef="0" IVar="3" Cut="1.2380784749984741e+00" cType="1" res="-5.3854923695325851e-02" rms="4.0954548120498657e-01" purity="3.0140513181686401e-01" nType="0">
            <Node pos="l" depth="3" NCoef="0" IVar="-1" Cut="0.0000000000000000e+00" cType="1" res="1.1638712137937546e-02" rms="4.3815597891807556e-01" purity="4.6209430694580078e-01" nType="-99"/>
            <Node pos="r" depth="3" NCoef="0" IVar="-1" Cut="0.0000000000000000e+00" cType="1" res="-2.5066664442420006e-02" rms="3.8315331935882568e-01" purity="2.2014737129211426e-01" nType="-99"/>
          </Node>
        </Node>
        <Node pos="r" depth="1" NCoef="0" IVar="3" Cut="1.3403133153915405e+00" cType="1" res="-1.6245228052139282e-01" rms="3.5001760721206665e-01" purity="2.6740580797195435e-01" nType="0">
          <Node pos="l" depth="2" NCoef="0" IVar="-1" Cut="0.0000000000000000e+00" cType="1" res="-1.4805431477725506e-02" rms="3.5921025276184082e-01" purity="4.3384927511215210e-01" nType="-99"/>
          <Node pos="r" depth="2" NCoef="0" IVar="-1" Cut="0.0000000000000000e+00" cType="1" res="-5.0390921533107758e-02" rms="3.3396166563034058e-01" purity="1.8501973152160645e-01" nType="-99"/>
        </Node>
      </Node>
    </BinaryTree>
    <BinaryTree type="DecisionTree" boostWeight="1.0000000000000000e+00" itree="13">
      <Node pos="s" depth="0" NCoef="0" IVar="9" Cut="-3.2240169048309326e+00" cType="1" res="1.8241266661789268e-04" rms="3.8806432485580444e-01" purity="5.0000000000000000e-01" nType="0">
        <Node pos="l" depth="1" NCoef="0" IVar="3" Cut="2.6679587364196777e+00" cType="1" res="3.3454794436693192e-02" rms="3.8955959677696228e-01" purity="5.7515949010848999e-01" nType="0">
          <Node pos="l" depth="2" NCoef="0" IVar="1" Cut="2.3473045825958252e+00" cType="1" res="6.4246460795402527e-02" rms="3.8519662618637085e-01" purity="6.4239943027496338e-01" nType="0">
            <Node pos="l" depth="3" NCoef="0" IVar="-1" Cut="0.0000000000000000e+00" cType="1" res="3.4024477005004883e-02" rms="3.4288069605827332e-01" purity="7.6842677593231201e-01" nType="-99"/>
            <Node pos="r" depth="3" NCoef="0" IVar="-1" Cut="0.0000000000000000e+00" cType="1" res="-1.2262183241546154e-02" rms="4.2295423150062561e-01" purity="4.2777040600776672e-01" nType="-99"/>
          </Node>
          <Node pos="r" depth="2" NCoef="0" IVar="-1" Cut="0.0000000000000000e+00" cType="1" res="-3.5072579979896545e-02" rms="3.6373230814933777e-01" purity="1.7235510051250458e-01" nType="-99"/>
        </Node>
        <Node pos="r" depth="1" NCoef="0" IVar="-1" Cut="0.0000000000000000e+00" cType="1" res="-3.7597719579935074e-02" rms="3.4171617031097412e-01" purity="1.5452204644680023e-01" nType="-99"/>
      </Node>
    </BinaryTree>
    <BinaryTree type="DecisionTree" boostWeight="1.0000000000000000e+00" itree="14">
      <Node pos="s" depth="0" NCoef="0" IVar="2" Cut="1.6837489604949951e+00" cType="1" res="1.4953366189729422e-04" rms="3.8432717323303223e-01" purity="5.0000000000000000e-01" nType="0">
        <Node pos="l" depth="1" NCoef="0" IVar="10" Cut="-1.8185721635818481e+00" cType="1" res="3.1572546809911728e-02" rms="3.8519641757011414e-01" purity="5.5072385072708130e-01" nType="0">
          <Node pos="l" depth="2" NCoef="0" IVar="3" Cut="2.6679587364196777e+00" cType="1" res="7.1429364383220673e-02" rms="3.7745323777198792e-01" purity="6.1790692806243896e-01" nType="0">
            <Node pos="l" depth="3" NCoef="0" IVar="-1" Cut="0.0000000000000000e+00" cType="1" res="2.4827580899000168e-02" rms="3.6757120490074158e-01" purity="6.8013298511505127e-01" nType="-99"/>
            <Node pos="r" depth="3" NCoef="0" IVar="-1" Cut="0.0000000000000000e+00" cType="1" res="-2.4523016065359116e-02" rms="3.9363715052604675e-01" purity="2.1138526499271393e-01" nType="-99"/>
          </Node>
          <Node pos="r" depth="2" NCoef="0" IVar="11" Cut="-2.6619954109191895e+00" cType="1" res="-1.0100678354501724e-01" rms="3.8099646568298340e-01" purity="3.2724660634994507e-01" nType="0">
            <Node pos="l" depth="3" NCoef="0" IVar="-1" Cut="0.0000000000000000e+00" cType="1" res="5.2328398451209068e-03" rms="3.9825737476348877e-01" purity="6.3903957605361938e-01" nType="-99"/>
            <Node pos="r" depth="3" NCoef="0" IVar="-1" Cut="0.0000000000000000e+00" cType="1" res="-3.5363722592592239e-02" rms="3.6317753791809082e-01" purity="2.0642000436782837e-01" nType="-99"/>
          </Node>
        </Node>
        <Node pos="r" depth="1" NCoef="0" IVar="3" Cut="1.3403133153915405e+00" cType="1" res="-1.4394070208072662e-01" rms="3.4547123312950134e-01" purity="2.6740580797195435e-01" nType="0">
          <Node pos="l" depth="2" NCoef="0" IVar="-1" Cut="0.0000000000000000e+00" cType="1" res="-1.3678466901183128e-02" rms="3.5453775525093079e-01" purity="4.3384927511215210e-01" nType="-99"/>
          <Node pos="r" depth="2" NCoef="0" IVar="-1" Cut="0.0000000000000000e+00" cType="1" res="-4.6071894466876984e-02" rms="3.3209192752838135e-01" purity="1.8501973152160645e-01" nType="-99"/>
        </Node>
      </Node>
    </BinaryTree>
    <BinaryTree type="DecisionTree" boostWeight="1.0000000000000000e+00" itree="15">
      <Node pos="s" depth="0" NCoef="0" IVar="9" Cut="-3.2240169048309326e+00" cType="1" res="9.7447111329529434e-05" rms="3.8099887967109680e-01" purity="5.0000000000000000e-01" nType="0">
        <Node pos="l" depth="1" NCoef="0" IVar="7" Cut="4.0225601196289062e+00" cType="1" res="2.9346652328968048e-02" rms="3.8311493396759033e-01" purity="5.7515949010848999e-01" nType="0">
          <Node pos="l" depth="2" NCoef="0" IVar="10" Cut="-1.8185721635818481e+00" cType="1" res="7.5504921376705170e-02" rms="3.7163144350051880e-01" purity="6.6357135772705078e-01" nType="0">
            <Node pos="l" depth="3" NCoef="0" IVar="-1" Cut="0.0000000000000000e+00" cType="1" res="2.8481144458055496e-02" rms="3.5856312513351440e-01" purity="7.3399001359939575e-01" nType="-99"/>
            <Node pos="r" depth="3" NCoef="0" IVar="-1" Cut="0.0000000000000000e+00" cType="1" res="-1.1933968402445316e-02" rms="3.8812288641929626e-01" purity="4.2251205444335938e-01" nType="-99"/>
          </Node>
          <Node pos="r" depth="2" NCoef="0" IVar="3" Cut="2.0207626819610596e+00" cType="1" res="-8.4934838116168976e-02" rms="3.8716962933540344e-01" purity="3.5626396536827087e-01" nType="0">
            <Node pos="l" depth="3" NCoef="0" IVar="-1" Cut="0.0000000000000000e+00" cType="1" res="-7.1394871920347214e-03" rms="4.0885829925537109e-01" purity="4.8480778932571411e-01" nType="-99"/>
            <Node pos="r" depth="3" NCoef="0" IVar="-1" Cut="0.0000000000000000e+00" cType="1" res="-4.3269030749797821e-02" rms="3.2873639464378357e-01" purity="1.4452162384986877e-01" nType="-99"/>
          </Node>
        </Node>
        <Node pos="r" depth="1" NCoef="0" IVar="-1" Cut="0.0000000000000000e+00" cType="1" res="-3.4353211522102356e-02" rms="3.4017562866210938e-01" purity="1.5452204644680023e-01" nType="-99"/>
      </Node>
    </BinaryTree>
    <BinaryTree type="DecisionTree" boostWeight="1.0000000000000000e+00" itree="16">
      <Node pos="s" depth="0" NCoef="0" IVar="2" Cut="1.6837489604949951e+00" cType="1" res="5.6877292081480846e-05" rms="3.7804836034774780e-01" purity="5.0000000000000000e-01" nType="0">
        <Node pos="l" depth="1" NCoef="0" IVar="11" Cut="-2.1450650691986084e+00" cType="1" res="2.7767745777964592e-02" rms="3.7978261709213257e-01" purity="5.5072385072708130e-01" nType="0">
          <Node pos="l" depth="2" NCoef="0" IVar="10" Cut="-1.5184307098388672e+00" cType="1" res="8.7208069860935211e-02" rms="3.5125932097434998e-01" purity="7.5823855400085449e-01" nType="0">
            <Node pos="l" depth="3" NCoef="0" IVar="-1" Cut="0.0000000000000000e+00" cType="1" res="3.0999716371297836e-02" rms="3.3315163850784302e-01" purity="8.0693322420120239e-01" nType="-99"/>
            <Node pos="r" depth="3" NCoef="0" IVar="-1" Cut="0.0000000000000000e+00" cType="1" res="-1.6608513891696930e-02" rms="4.1351300477981567e-01" purity="4.5831501483917236e-01" nType="-99"/>
          </Node>
          <Node pos="r" depth="2" NCoef="0" IVar="3" Cut="1.2380784749984741e+00" cType="1" res="-4.3646872043609619e-02" rms="3.9992776513099670e-01" purity="3.0140513181686401e-01" nType="0">
            <Node pos="l" depth="3" NCoef="0" IVar="-1" Cut="0.0000000000000000e+00" cType="1" res="1.1229023337364197e-02" rms="4.2890429496765137e-01" purity="4.6209430694580078e-01" nType="-99"/>
            <Node pos="r" depth="3" NCoef="0" IVar="-1" Cut="0.0000000000000000e+00" cType="1" res="-2.2070612758398056e-02" rms="3.7569391727447510e-01" purity="2.2014737129211426e-01" nType="-99"/>
          </Node>
        </Node>
        <Node pos="r" depth="1" NCoef="0" IVar="6" Cut="4.0054183006286621e+00" cType="1" res="-1.2701131403446198e-01" rms="3.4238341450691223e-01" purity="2.6740580797195435e-01" nType="0">
          <Node pos="l" depth="2" NCoef="0" IVar="-1" Cut="0.0000000000000000e+00" cType="1" res="-1.5736920759081841e-02" rms="3.6908361315727234e-01" purity="3.5780903697013855e-01" nType="-99"/>
          <Node pos="r" depth="2" NCoef="0" IVar="-1" Cut="0.0000000000000000e+00" cType="1" res="-4.5774128288030624e-02" rms="3.0933120846748352e-01" purity="1.9413474202156067e-01" nType="-99"/>
        </Node>
      </Node>
    </BinaryTree>
    <BinaryTree type="DecisionTree" boostWeight="1.0000000000000000e+00" itree="17">
      <Node pos="s" depth="0" NCoef="0" IVar="3" Cut="2.6679587364196777e+00" cType="1" res="5.6684231822146103e-05" rms="3.7540018558502197e-01" purity="5.0000000000000000e-01" nType="0">
        <Node pos="l" depth="1" NCoef="0" IVar="7" Cut="4.4008216857910156e+00" cType="1" res="2.4189053103327751e-02" rms="3.7674522399902344e-01" purity="5.6493735313415527e-01" nType="0">
          <Node pos="l" depth="2" NCoef="0" IVar="1" Cut="2.6783220767974854e+00" cType="1" res="5.4068762809038162e-02" rms="3.6768314242362976e-01" purity="6.2374991178512573e-01" nType="0">
            <Node pos="l" depth="3" NCoef="0" IVar="-1" Cut="0.0000000000000000e+00" cType="1" res="2.3510299623012543e-02" rms="3.5110175609588623e-01" purity="6.8758916854858398e-01" nType="-99"/>
            <Node pos="r" depth="3" NCoef="0" IVar="-1" Cut="0.0000000000000000e+00" cType="1" res="-2.6162585243582726e-02" rms="3.9993625879287720e-01" purity="3.1073933839797974e-01" nType="-99"/>
          </Node>
          <Node pos="r" depth="2" NCoef="0" IVar="-1" Cut="0.0000000000000000e+00" cType="1" res="-3.5312369465827942e-02" rms="3.8269275426864624e-01" purity="2.3189893364906311e-01" nType="-99"/>
        </Node>
        <Node pos="r" depth="1" NCoef="0" IVar="-1" Cut="0.0000000000000000e+00" cType="1" res="-3.3186506479978561e-02" rms="3.3957162499427795e-01" purity="1.4911873638629913e-01" nType="-99"/>
      </Node>
    </BinaryTree>
    <BinaryTree type="DecisionTree" boostWeight="1.0000000000000000e+00" itree="18">
      <Node pos="s" depth="0" NCoef="0" IVar="9" Cut="-3.2240169048309326e+00" cType="1" res="1.9963508748332970e-05" rms="3.7251427769660950e-01" purity="5.0000000000000000e-01" nType="0">
        <Node pos="l" depth="1" NCoef="0" IVar="7" Cut="4.0225601196289062e+00" cType="1" res="2.5694871321320534e-02" rms="3.7469771504402161e-01" purity="5.7515949010848999e-01" nType="0">
          <Node pos="l" depth="2" NCoef="0" IVar="3" Cut="1.4343847036361694e+00" cType="1" res="6.3828676939010620e-02" rms="3.6543595790863037e-01" purity="6.6357135772705078e-01" nType="0">
            <Node pos="l" depth="3" NCoef="0" IVar="-1" Cut="0.0000000000000000e+00" cType="1" res="4.1786558926105499e-02" rms="2.6729887723922729e-01" purity="8.6441206932067871e-01" nType="-99"/>
            <Node pos="r" depth="3" NCoef="0" IVar="-1" Cut="0.0000000000000000e+00" cType="1" res="3.7128804251551628e-03" rms="4.0696045756340027e-01" purity="5.3976655006408691e-01" nType="-99"/>
          </Node>
          <Node pos="r" depth="2" NCoef="0" IVar="3" Cut="2.0207626819610596e+00" cType="1" res="-6.8719148635864258e-02" rms="3.8059934973716736e-01" purity="3.5626396536827087e-01" nType="0">
            <Node pos="l" depth="3" NCoef="0" IVar="-1" Cut="0.0000000000000000e+00" cType="1" res="-5.3575448691844940e-03" rms="4.0255153179168701e-01" purity="4.8480778932571411e-01" nType="-99"/>
            <Node pos="r" depth="3" NCoef="0" IVar="-1" Cut="0.0000000000000000e+00" cType="1" res="-3.8427606225013733e-02" rms="3.2689204812049866e-01" purity="1.4452162384986877e-01" nType="-99"/>
          </Node>
        </Node>
        <Node pos="r" depth="1" NCoef="0" IVar="-1" Cut="0.0000000000000000e+00" cType="1" res="-3.1448062509298325e-02" rms="3.3809670805931091e-01" purity="1.5452204644680023e-01" nType="-99"/>
      </Node>
    </BinaryTree>
    <BinaryTree type="DecisionTree" boostWeight="1.0000000000000000e+00" itree="19">
      <Node pos="s" depth="0" NCoef="0" IVar="2" Cut="1.6837489604949951e+00" cType="1" res="1.8772836483549327e-05" rms="3.7020394206047058e-01" purity="5.0000000000000000e-01" nType="0">
        <Node pos="l" depth="1" NCoef="0" IVar="10" Cut="-1.8185721635818481e+00" cType="1" res="2.4433756247162819e-02" rms="3.7269362807273865e-01" purity="5.5072385072708130e-01" nType="0">
          <Node pos="l" depth="2" NCoef="0" IVar="11" Cut="-2.1450650691986084e+00" cType="1" res="5.4968271404504776e-02" rms="3.6714237928390503e-01" purity="6.1790692806243896e-01" nType="0">
            <Node pos="l" depth="3" NCoef="0" IVar="-1" Cut="0.0000000000000000e+00" cType="1" res="2.9160950332880020e-02" rms="3.2645654678344727e-01" purity="8.1509494781494141e-01" nType="-99"/>
            <Node pos="r" depth="3" NCoef="0" IVar="-1" Cut="0.0000000000000000e+00" cType="1" res="-1.2656110338866711e-03" rms="4.0800368785858154e-01" purity="3.5233810544013977e-01" nType="-99"/>
          </Node>
          <Node pos="r" depth="2" NCoef="0" IVar="11" Cut="-2.6619954109191895e+00" cType="1" res="-7.7135950326919556e-02" rms="3.7302049994468689e-01" purity="3.2724660634994507e-01" nType="0">
            <Node pos="l" depth="3" NCoef="0" IVar="-1" Cut="0.0000000000000000e+00" cType="1" res="6.0963029973208904e-03" rms="3.8896724581718445e-01" purity="6.3903957605361938e-01" nType="-99"/>
            <Node pos="r" depth="3" NCoef="0" IVar="-1" Cut="0.0000000000000000e+00" cType="1" res="-2.9527334496378899e-02" rms="3.5906267166137695e-01" purity="2.0642000436782837e-01" nType="-99"/>
          </Node>
        </Node>
        <Node pos="r" depth="1" NCoef="0" IVar="3" Cut="1.3403133153915405e+00" cType="1" res="-1.1193613708019257e-01" rms="3.3660414814949036e-01" purity="2.6740580797195435e-01" nType="0">
          <Node pos="l" depth="2" NCoef="0" IVar="-1" Cut="0.0000000000000000e+00" cType="1" res="-1.0191832669079304e-02" rms="3.4200948476791382e-01" purity="4.3384927511215210e-01" nType="-99"/>
          <Node pos="r" depth="2" NCoef="0" IVar="-1" Cut="0.0000000000000000e+00" cType="1" res="-3.9235573261976242e-02" rms="3.2787701487541199e-01" purity="1.8501973152160645e-01" nType="-99"/>
        </Node>
      </Node>
    </BinaryTree>
    <BinaryTree type="DecisionTree" boostWeight="1.0000000000000000e+00" itree="20">
      <Node pos="s" depth="0" NCoef="0" IVar="3" Cut="1.2018533945083618e+00" cType="1" res="1.8533157344791107e-05" rms="3.6818599700927734e-01" purity="5.0000000000000000e-01" nType="0">
        <Node pos="l" depth="1" NCoef="0" IVar="11" Cut="-1.4037255048751831e+00" cType="1" res="7.4355117976665497e-02" rms="3.3018279075622559e-01" purity="6.7285096645355225e-01" nType="0">
          <Node pos="l" depth="2" NCoef="0" IVar="3" Cut="8.4144681692123413e-01" cType="1" res="1.4566148817539215e-01" rms="2.5615742802619934e-01" purity="9.0761715173721313e-01" nType="0">
            <Node pos="l" depth="3" NCoef="0" IVar="-1" Cut="0.0000000000000000e+00" cType="1" res="5.3165547549724579e-02" rms="2.1688807010650635e-01" purity="9.4076865911483765e-01" nType="-99"/>
            <Node pos="r" depth="3" NCoef="0" IVar="-1" Cut="0.0000000000000000e+00" cType="1" res="3.3802449703216553e-02" rms="3.0047011375427246e-01" purity="8.6031121015548706e-01" nType="-99"/>
          </Node>
          <Node pos="r" depth="2" NCoef="0" IVar="-1" Cut="0.0000000000000000e+00" cType="1" res="-1.0664870031177998e-02" rms="3.9818638563156128e-01" purity="2.8387716412544250e-01" nType="-99"/>
        </Node>
        <Node pos="r" depth="1" NCoef="0" IVar="11" Cut="-2.9153032302856445e+00" cType="1" res="-3.1385317444801331e-02" rms="3.7875103950500488e-01" purity="4.2697829008102417e-01" nType="0">
          <Node pos="l" depth="2" NCoef="0" IVar="10" Cut="-2.3039772510528564e+00" cType="1" res="8.4183081984519958e-02" rms="3.4463381767272949e-01" purity="7.8067797422409058e-01" nType="0">
            <Node pos="l" depth="3" NCoef="0" IVar="-1" Cut="0.0000000000000000e+00" cType="1" res="3.8383804261684418e-02" rms="2.9456686973571777e-01" purity="8.6931520700454712e-01" nType="-99"/>
            <Node pos="r" depth="3" NCoef="0" IVar="-1" Cut="0.0000000000000000e+00" cType="1" res="6.9145807065069675e-03" rms="3.9563667774200439e-01" purity="6.6019266843795776e-01" nType="-99"/>
          </Node>
          <Node pos="r" depth="2" NCoef="0" IVar="10" Cut="-2.2159571647644043e+00" cType="1" res="-6.2577165663242340e-02" rms="3.8149142265319824e-01" purity="3.3151492476463318e-01" nType="0">
            <Node pos="l" depth="3" NCoef="0" IVar="-1" Cut="0.0000000000000000e+00" cType="1" res="-4.1753561235964298e-03" rms="3.9637663960456848e-01" purity="4.1429740190505981e-01" nType="-99"/>
            <Node pos="r" depth="3" NCoef="0" IVar="-1" Cut="0.0000000000000000e+00" cType="1" res="-3.5391651093959808e-02" rms="3.4436339139938354e-01" purity="2.0076414942741394e-01" nType="-99"/>
          </Node>
        </Node>
      </Node>
    </BinaryTree>
    <BinaryTree type="DecisionTree" boostWeight="1.0000000000000000e+00" itree="21">
      <Node pos="s" depth="0" NCoef="0" IVar="2" Cut="1.6837489604949951e+00" cType="1" res="6.0011865571141243e-05" rms="3.6566758155822754e-01" purity="5.0000000000000000e-01" nType="0">
        <Node pos="l" depth="1" NCoef="0" IVar="3" Cut="2.6679587364196777e+00" cType="1" res="2.1665126085281372e-02" rms="3.6883339285850525e-01" purity="5.5072385072708130e-01" nType="0">
          <Node pos="l" depth="2" NCoef="0" IVar="11" Cut="-8.7967884540557861e-01" cType="1" res="4.1660796850919724e-02" rms="3.6658531427383423e-01" purity="6.1479115486145020e-01" nType="0">
            <Node pos="l" depth="3" NCoef="0" IVar="-1" Cut="0.0000000000000000e+00" cType="1" res="1.9037054851651192e-02" rms="3.6097252368927002e-01" purity="6.9091832637786865e-01" nType="-99"/>
            <Node pos="r" depth="3" NCoef="0" IVar="-1" Cut="0.0000000000000000e+00" cType="1" res="-2.5721045210957527e-02" rms="3.6235558986663818e-01" purity="2.0413790643215179e-01" nType="-99"/>
          </Node>
          <Node pos="r" depth="2" NCoef="0" IVar="-1" Cut="0.0000000000000000e+00" cType="1" res="-2.5133913382887840e-02" rms="3.5999822616577148e-01" purity="1.7427082359790802e-01" nType="-99"/>
        </Node>
        <Node pos="r" depth="1" NCoef="0" IVar="6" Cut="4.0054183006286621e+00" cType="1" res="-9.9010236561298370e-02" rms="3.3330884575843811e-01" purity="2.6740580797195435e-01" nType="0">
          <Node pos="l" depth="2" NCoef="0" IVar="-1" Cut="0.0000000000000000e+00" cType="1" res="-1.1297704651951790e-02" rms="3.5973474383354187e-01" purity="3.5780903697013855e-01" nType="-99"/>
          <Node pos="r" depth="2" NCoef="0" IVar="-1" Cut="0.0000000000000000e+00" cType="1" res="-4.0147345513105392e-02" rms="3.0246761441230774e-01" purity="1.9413474202156067e-01" nType="-99"/>
        </Node>
      </Node>
    </BinaryTree>
    <BinaryTree type="DecisionTree" boostWeight="1.0000000000000000e+00" itree="22">
      <Node pos="s" depth="0" NCoef="0" IVar="9" Cut="-3.2240169048309326e+00" cType="1" res="2.7039897759095766e-05" rms="3.6383554339408875e-01" purity="5.0000000000000000e-01" nType="0">
        <Node pos="l" depth="1" NCoef="0" IVar="7" Cut="4.0225601196289062e+00" cType="1" res="2.0677583292126656e-02" rms="3.6658102273941040e-01" purity="5.7515949010848999e-01" nType="0">
          <Node pos="l" depth="2" NCoef="0" IVar="1" Cut="1.5349813699722290e+00" cType="1" res="5.3555313497781754e-02" rms="3.5846859216690063e-01" purity="6.6357135772705078e-01" nType="0">
            <Node pos="l" depth="3" NCoef="0" IVar="-1" Cut="0.0000000000000000e+00" cType="1" res="4.3611578643321991e-02" rms="2.9115009307861328e-01" purity="8.1841820478439331e-01" nType="-99"/>
            <Node pos="r" depth="3" NCoef="0" IVar="-1" Cut="0.0000000000000000e+00" cType="1" res="5.8268662542104721e-03" rms="3.7458303570747375e-01" purity="6.0833698511123657e-01" nType="-99"/>
          </Node>
          <Node pos="r" depth="2" NCoef="0" IVar="3" Cut="2.0207626819610596e+00" cType="1" res="-6.0723118484020233e-02" rms="3.7368723750114441e-01" purity="3.5626396536827087e-01" nType="0">
            <Node pos="l" depth="3" NCoef="0" IVar="-1" Cut="0.0000000000000000e+00" cType="1" res="-5.8640828356146812e-03" rms="3.9562144875526428e-01" purity="4.8480778932571411e-01" nType="-99"/>
            <Node pos="r" depth="3" NCoef="0" IVar="-1" Cut="0.0000000000000000e+00" cType="1" res="-3.4604974091053009e-02" rms="3.2495304942131042e-01" purity="1.4452162384986877e-01" nType="-99"/>
          </Node>
        </Node>
        <Node pos="r" depth="1" NCoef="0" IVar="-1" Cut="0.0000000000000000e+00" cType="1" res="-2.7046389877796173e-02" rms="3.3494493365287781e-01" purity="1.5452204644680023e-01" nType="-99"/>
      </Node>
    </BinaryTree>
    <BinaryTree type="DecisionTree" boostWeight="1.0000000000000000e+00" itree="23">
      <Node pos="s" depth="0" NCoef="0" IVar="10" Cut="-1.4745061397552490e+00" cType="1" res="1.0821612704603467e-05" rms="3.6211398243904114e-01" purity="5.0000000000000000e-01" nType="0">
        <Node pos="l" depth="1" NCoef="0" IVar="3" Cut="2.6679587364196777e+00" cType="1" res="2.0791934803128242e-02" rms="3.6080765724182129e-01" purity="5.5327653884887695e-01" nType="0">
          <Node pos="l" depth="2" NCoef="0" IVar="11" Cut="-1.7283388376235962e+00" cType="1" res="3.7921514362096786e-02" rms="3.5781085491180420e-01" purity="6.1584919691085815e-01" nType="0">
            <Node pos="l" depth="3" NCoef="0" IVar="-1" Cut="0.0000000000000000e+00" cType="1" res="2.4496298283338547e-02" rms="3.4239879250526428e-01" purity="7.8700530529022217e-01" nType="-99"/>
            <Node pos="r" depth="3" NCoef="0" IVar="-1" Cut="0.0000000000000000e+00" cType="1" res="-1.3776271604001522e-02" rms="3.7081742286682129e-01" purity="2.6473927497863770e-01" nType="-99"/>
          </Node>
          <Node pos="r" depth="2" NCoef="0" IVar="-1" Cut="0.0000000000000000e+00" cType="1" res="-2.2193204611539841e-02" rms="3.6163428425788879e-01" purity="1.7782691121101379e-01" nType="-99"/>
        </Node>
        <Node pos="r" depth="1" NCoef="0" IVar="8" Cut="-4.3271098136901855e+00" cType="1" res="-9.1634117066860199e-02" rms="3.5353642702102661e-01" purity="2.6504996418952942e-01" nType="0">
          <Node pos="l" depth="2" NCoef="0" IVar="-1" Cut="0.0000000000000000e+00" cType="1" res="-3.6142535507678986e-02" rms="3.3276990056037903e-01" purity="2.0239116251468658e-01" nType="-99"/>
          <Node pos="r" depth="2" NCoef="0" IVar="-1" Cut="0.0000000000000000e+00" cType="1" res="-6.6622775048017502e-03" rms="3.7491801381111145e-01" purity="3.6531156301498413e-01" nType="-99"/>
        </Node>
      </Node>
    </BinaryTree>
    <BinaryTree type="DecisionTree" boostWeight="1.0000000000000000e+00" itree="24">
      <Node pos="s" depth="0" NCoef="0" IVar="3" Cut="1.2018533945083618e+00" cType="1" res="9.1409001470310614e-06" rms="3.6044126749038696e-01" purity="5.0000000000000000e-01" nType="0">
        <Node pos="l" depth="1" NCoef="0" IVar="11" Cut="-1.4037255048751831e+00" cType="1" res="6.5892376005649567e-02" rms="3.2178243994712830e-01" purity="6.7285096645355225e-01" nType="0">
          <Node pos="l" depth="2" NCoef="0" IVar="3" Cut="8.4144681692123413e-01" cType="1" res="1.1962161213159561e-01" rms="2.5352621078491211e-01" purity="9.0761715173721313e-01" nType="0">
            <Node pos="l" depth="3" NCoef="0" IVar="-1" Cut="0.0000000000000000e+00" cType="1" res="4.9121461808681488e-02" rms="2.1502700448036194e-01" purity="9.4076865911483765e-01" nType="-99"/>
            <Node pos="r" depth="3" NCoef="0" IVar="-1" Cut="0.0000000000000000e+00" cType="1" res="2.9568657279014587e-02" rms="2.9784965515136719e-01" purity="8.6031121015548706e-01" nType="-99"/>
          </Node>
          <Node pos="r" depth="2" NCoef="0" IVar="-1" Cut="0.0000000000000000e+00" cType="1" res="-5.9019429609179497e-03" rms="3.9483931660652161e-01" purity="2.8387716412544250e-01" nType="-99"/>
        </Node>
        <Node pos="r" depth="1" NCoef="0" IVar="11" Cut="-2.9153032302856445e+00" cType="1" res="-2.7823552489280701e-02" rms="3.7209051847457886e-01" purity="4.2697829008102417e-01" nType="0">
          <Node pos="l" depth="2" NCoef="0" IVar="10" Cut="-2.3039772510528564e+00" cType="1" res="6.9381296634674072e-02" rms="3.4052640199661255e-01" purity="7.8067797422409058e-01" nType="0">
            <Node pos="l" depth="3" NCoef="0" IVar="-1" Cut="0.0000000000000000e+00" cType="1" res="3.4321490675210953e-02" rms="2.9290047287940979e-01" purity="8.6931520700454712e-01" nType="-99"/>
            <Node pos="r" depth="3" NCoef="0" IVar="-1" Cut="0.0000000000000000e+00" cType="1" res="5.9278593398630619e-03" rms="3.9126592874526978e-01" purity="6.6019266843795776e-01" nType="-99"/>
          </Node>
          <Node pos="r" depth="2" NCoef="0" IVar="10" Cut="-2.2159571647644043e+00" cType="1" res="-5.4059091955423355e-02" rms="3.7587723135948181e-01" purity="3.3151492476463318e-01" nType="0">
            <Node pos="l" depth="3" NCoef="0" IVar="-1" Cut="0.0000000000000000e+00" cType="1" res="-3.9781816303730011e-03" rms="3.9112642407417297e-01" purity="4.1429740190505981e-01" nType="-99"/>
            <Node pos="r" depth="3" NCoef="0" IVar="-1" Cut="0.0000000000000000e+00" cType="1" res="-3.1780231744050980e-02" rms="3.4156289696693420e-01" purity="2.0076414942741394e-01" nType="-99"/>
          </Node>
        </Node>
      </Node>
    </BinaryTree>
    <BinaryTree type="DecisionTree" boostWeight="1.0000000000000000e+00" itree="25">
      <Node pos="s" depth="0" NCoef="0" IVar="2" Cut="1.6837489604949951e+00" cType="1" res="4.3004525650758296e-05" rms="3.5865887999534607e-01" purity="5.0000000000000000e-01" nType="0">
        <Node pos="l" depth="1" NCoef="0" IVar="9" Cut="-3.7608070373535156e+00" cType="1" res="1.8694773316383362e-02" rms="3.6230245232582092e-01" purity="5.5072385072708130e-01" nType="0">
          <Node pos="l" depth="2" NCoef="0" IVar="7" Cut="2.8101947307586670e+00" cType="1" res="4.5176096260547638e-02" rms="3.5701632499694824e-01" purity="6.3098931312561035e-01" nType="0">
            <Node pos="l" depth="3" NCoef="0" IVar="-1" Cut="0.0000000000000000e+00" cType="1" res="4.2166147381067276e-02" rms="3.4933134913444519e-01" purity="7.8317987918853760e-01" nType="-99"/>
            <Node pos="r" depth="3" NCoef="0" IVar="-1" Cut="0.0000000000000000e+00" cType="1" res="6.0761380009353161e-03" rms="3.5354512929916382e-01" purity="6.0047698020935059e-01" nType="-99"/>
          </Node>
          <Node pos="r" depth="2" NCoef="0" IVar="5" Cut="4.4086327552795410e+00" cType="1" res="-4.4615082442760468e-02" rms="3.6697268486022949e-01" purity="3.5883033275604248e-01" nType="0">
            <Node pos="l" depth="3" NCoef="0" IVar="-1" Cut="0.0000000000000000e+00" cType="1" res="-1.4747782552149147e-04" rms="3.6789768934249878e-01" purity="4.5728355646133423e-01" nType="-99"/>
            <Node pos="r" depth="3" NCoef="0" IVar="-1" Cut="0.0000000000000000e+00" cType="1" res="-2.7956409379839897e-02" rms="3.5717162489891052e-01" purity="2.2586281597614288e-01" nType="-99"/>
          </Node>
        </Node>
        <Node pos="r" depth="1" NCoef="0" IVar="7" Cut="3.3937451839447021e+00" cType="1" res="-8.5484683513641357e-02" rms="3.2814708352088928e-01" purity="2.6740580797195435e-01" nType="0">
          <Node pos="l" depth="2" NCoef="0" IVar="-1" Cut="0.0000000000000000e+00" cType="1" res="-6.5230121836066246e-03" rms="3.5808756947517395e-01" purity="3.8622990250587463e-01" nType="-99"/>
          <Node pos="r" depth="2" NCoef="0" IVar="-1" Cut="0.0000000000000000e+00" cType="1" res="-3.6058843135833740e-02" rms="3.0308690667152405e-01" purity="1.9684864580631256e-01" nType="-99"/>
        </Node>
      </Node>
    </BinaryTree>
    <BinaryTree type="DecisionTree" boostWeight="1.0000000000000000e+00" itree="26">
      <Node pos="s" depth="0" NCoef="0" IVar="3" Cut="1.2018533945083618e+00" cType="1" res="2.5773657398531213e-05" rms="3.5710325837135315e-01" purity="5.0000000000000000e-01" nType="0">
        <Node pos="l" depth="1" NCoef="0" IVar="11" Cut="-1.4037255048751831e+00" cType="1" res="5.9647936373949051e-02" rms="3.1821066141128540e-01" purity="6.7285096645355225e-01" nType="0">
          <Node pos="l" depth="2" NCoef="0" IVar="3" Cut="4.8105373978614807e-01" cType="1" res="1.0738336294889450e-01" rms="2.5224760174751282e-01" purity="9.0761715173721313e-01" nType="0">
            <Node pos="l" depth="3" NCoef="0" IVar="-1" Cut="0.0000000000000000e+00" cType="1" res="5.4670065641403198e-02" rms="1.7066048085689545e-01" purity="9.7236895561218262e-01" nType="-99"/>
            <Node pos="r" depth="3" NCoef="0" IVar="-1" Cut="0.0000000000000000e+00" cType="1" res="3.1218057498335838e-02" rms="2.8301542997360229e-01" purity="8.7540680170059204e-01" nType="-99"/>
          </Node>
          <Node pos="r" depth="2" NCoef="0" IVar="-1" Cut="0.0000000000000000e+00" cType="1" res="-5.0433734431862831e-03" rms="3.9188441634178162e-01" purity="2.8387716412544250e-01" nType="-99"/>
        </Node>
        <Node pos="r" depth="1" NCoef="0" IVar="11" Cut="-2.9153032302856445e+00" cType="1" res="-2.5161899626255035e-02" rms="3.6943501234054565e-01" purity="4.2697829008102417e-01" nType="0">
          <Node pos="l" depth="2" NCoef="0" IVar="10" Cut="-2.3039772510528564e+00" cType="1" res="6.2698379158973694e-02" rms="3.3913964033126831e-01" purity="7.8067797422409058e-01" nType="0">
            <Node pos="l" depth="3" NCoef="0" IVar="-1" Cut="0.0000000000000000e+00" cType="1" res="3.1985111534595490e-02" rms="2.9210859537124634e-01" purity="8.6931520700454712e-01" nType="-99"/>
            <Node pos="r" depth="3" NCoef="0" IVar="-1" Cut="0.0000000000000000e+00" cType="1" res="5.6079528294503689e-03" rms="3.9028829336166382e-01" purity="6.6019266843795776e-01" nType="-99"/>
          </Node>
          <Node pos="r" depth="2" NCoef="0" IVar="3" Cut="1.7942067384719849e+00" cType="1" res="-4.8875343054533005e-02" rms="3.7367132306098938e-01" purity="3.3151492476463318e-01" nType="0">
            <Node pos="l" depth="3" NCoef="0" IVar="-1" Cut="0.0000000000000000e+00" cType="1" res="4.5463694259524345e-03" rms="3.7619149684906006e-01" purity="4.8434764146804810e-01" nType="-99"/>
            <Node pos="r" depth="3" NCoef="0" IVar="-1" Cut="0.0000000000000000e+00" cType="1" res="-2.0811993628740311e-02" rms="3.6893174052238464e-01" purity="2.6463943719863892e-01" nType="-99"/>
          </Node>
        </Node>
      </Node>
    </BinaryTree>
    <BinaryTree type="DecisionTree" boostWeight="1.0000000000000000e+00" itree="27">
      <Node pos="s" depth="0" NCoef="0" IVar="6" Cut="5.6629395484924316e+00" cType="1" res="6.1281862144824117e-05" rms="3.5567587614059448e-01" purity="5.0000000000000000e-01" nType="0">
        <Node pos="l" depth="1" NCoef="0" IVar="3" Cut="1.2018533945083618e+00" cType="1" res="1.0785372927784920e-02" rms="3.5707324743270874e-01" purity="5.2260857820510864e-01" nType="0">
          <Node pos="l" depth="2" NCoef="0" IVar="11" Cut="-1.4037255048751831e+00" cType="1" res="6.7815274000167847e-02" rms="3.1406998634338379e-01" purity="7.0302927494049072e-01" nType="0">
            <Node pos="l" depth="3" NCoef="0" IVar="-1" Cut="0.0000000000000000e+00" cType="1" res="3.8704302161931992e-02" rms="2.4288751184940338e-01" purity="9.1795659065246582e-01" nType="-99"/>
            <Node pos="r" depth="3" NCoef="0" IVar="-1" Cut="0.0000000000000000e+00" cType="1" res="8.8525970932096243e-04" rms="4.0505167841911316e-01" purity="3.1347897648811340e-01" nType="-99"/>
          </Node>
          <Node pos="r" depth="2" NCoef="0" IVar="11" Cut="-1.7691359519958496e+00" cType="1" res="-1.3227346353232861e-02" rms="3.7108957767486572e-01" purity="4.4664159417152405e-01" nType="0">
            <Node pos="l" depth="3" NCoef="0" IVar="-1" Cut="0.0000000000000000e+00" cType="1" res="5.8979936875402927e-03" rms="3.8751792907714844e-01" purity="5.8167314529418945e-01" nType="-99"/>
            <Node pos="r" depth="3" NCoef="0" IVar="-1" Cut="0.0000000000000000e+00" cType="1" res="-2.5322113186120987e-02" rms="3.2078078389167786e-01" purity="1.5722858905792236e-01" nType="-99"/>
          </Node>
        </Node>
        <Node pos="r" depth="1" NCoef="0" IVar="-1" Cut="0.0000000000000000e+00" cType="1" res="-3.6102838814258575e-02" rms="3.1281816959381104e-01" purity="2.3602484166622162e-01" nType="-99"/>
      </Node>
    </BinaryTree>
    <BinaryTree type="DecisionTree" boostWeight="1.0000000000000000e+00" itree="28">
      <Node pos="s" depth="0" NCoef="0" IVar="2" Cut="1.6837489604949951e+00" cType="1" res="6.1912054661661386e-05" rms="3.5438954830169678e-01" purity="5.0000000000000000e-01" nType="0">
        <Node pos="l" depth="1" NCoef="0" IVar="10" Cut="-8.9967316389083862e-01" cType="1" res="1.6558753326535225e-02" rms="3.5848715901374817e-01" purity="5.5072385072708130e-01" nType="0">
          <Node pos="l" depth="2" NCoef="0" IVar="3" Cut="2.6679587364196777e+00" cType="1" res="2.9983870685100555e-02" rms="3.5733693838119507e-01" purity="5.8973902463912964e-01" nType="0">
            <Node pos="l" depth="3" NCoef="0" IVar="-1" Cut="0.0000000000000000e+00" cType="1" res="1.3105611316859722e-02" rms="3.5288798809051514e-01" purity="6.5350133180618286e-01" nType="-99"/>
            <Node pos="r" depth="3" NCoef="0" IVar="-1" Cut="0.0000000000000000e+00" cType="1" res="-1.6110606491565704e-02" rms="3.7201690673828125e-01" purity="1.9307529926300049e-01" nType="-99"/>
          </Node>
          <Node pos="r" depth="2" NCoef="0" IVar="-1" Cut="0.0000000000000000e+00" cType="1" res="-2.5751676410436630e-02" rms="3.4939667582511902e-01" purity="2.3781794309616089e-01" nType="-99"/>
        </Node>
        <Node pos="r" depth="1" NCoef="0" IVar="6" Cut="4.0054183006286621e+00" cType="1" res="-7.5584359467029572e-02" rms="3.2438704371452332e-01" purity="2.6740580797195435e-01" nType="0">
          <Node pos="l" depth="2" NCoef="0" IVar="-1" Cut="0.0000000000000000e+00" cType="1" res="-8.0874050036072731e-03" rms="3.5110908746719360e-01" purity="3.5780903697013855e-01" nType="-99"/>
          <Node pos="r" depth="2" NCoef="0" IVar="-1" Cut="0.0000000000000000e+00" cType="1" res="-3.5152606666088104e-02" rms="2.9538306593894958e-01" purity="1.9413474202156067e-01" nType="-99"/>
        </Node>
      </Node>
    </BinaryTree>
    <BinaryTree type="DecisionTree" boostWeight="1.0000000000000000e+00" itree="29">
      <Node pos="s" depth="0" NCoef="0" IVar="10" Cut="-1.4745061397552490e+00" cType="1" res="3.6375116906128824e-05" rms="3.5340994596481323e-01" purity="5.0000000000000000e-01" nType="0">
        <Node pos="l" depth="1" NCoef="0" IVar="9" Cut="-3.9670808315277100e+00" cType="1" res="1.5604405663907528e-02" rms="3.5296258330345154e-01" purity="5.5327653884887695e-01" nType="0">
          <Node pos="l" depth="2" NCoef="0" IVar="7" Cut="4.0225601196289062e+00" cType="1" res="4.2546920478343964e-02" rms="3.5202246904373169e-01" purity="6.1893308162689209e-01" nType="0">
            <Node pos="l" depth="3" NCoef="0" IVar="-1" Cut="0.0000000000000000e+00" cType="1" res="2.2841570898890495e-02" rms="3.4294131398200989e-01" purity="7.2987860441207886e-01" nType="-99"/>
            <Node pos="r" depth="3" NCoef="0" IVar="-1" Cut="0.0000000000000000e+00" cType="1" res="-1.0519415140151978e-02" rms="3.5947704315185547e-01" purity="3.6807420849800110e-01" nType="-99"/>
          </Node>
          <Node pos="r" depth="2" NCoef="0" IVar="11" Cut="-2.2967801094055176e+00" cType="1" res="-2.6019133627414703e-02" rms="3.5036057233810425e-01" purity="4.5184352993965149e-01" nType="0">
            <Node pos="l" depth="3" NCoef="0" IVar="-1" Cut="0.0000000000000000e+00" cType="1" res="5.9224017895758152e-03" rms="3.5237765312194824e-01" purity="7.2444957494735718e-01" nType="-99"/>
            <Node pos="r" depth="3" NCoef="0" IVar="-1" Cut="0.0000000000000000e+00" cType="1" res="-2.0566731691360474e-02" rms="3.4256356954574585e-01" purity="1.7825698852539062e-01" nType="-99"/>
          </Node>
        </Node>
        <Node pos="r" depth="1" NCoef="0" IVar="4" Cut="4.3800454139709473e+00" cType="1" res="-6.8618811666965485e-02" rms="3.4714525938034058e-01" purity="2.6504996418952942e-01" nType="0">
          <Node pos="l" depth="2" NCoef="0" IVar="-1" Cut="0.0000000000000000e+00" cType="1" res="-3.1206917017698288e-02" rms="3.2829689979553223e-01" purity="2.0501293241977692e-01" nType="-99"/>
          <Node pos="r" depth="2" NCoef="0" IVar="-1" Cut="0.0000000000000000e+00" cType="1" res="-4.6890680678188801e-03" rms="3.6530473828315735e-01" purity="3.4816822409629822e-01" nType="-99"/>
        </Node>
      </Node>
    </BinaryTree>
    <BinaryTree type="DecisionTree" boostWeight="1.0000000000000000e+00" itree="30">
      <Node pos="s" depth="0" NCoef="0" IVar="3" Cut="1.2018533945083618e+00" cType="1" res="2.1010466298321262e-05" rms="3.5224983096122742e-01" purity="5.0000000000000000e-01" nType="0">
        <Node pos="l" depth="1" NCoef="0" IVar="11" Cut="-1.4037255048751831e+00" cType="1" res="4.8885531723499298e-02" rms="3.1298834085464478e-01" purity="6.7285096645355225e-01" nType="0">
          <Node pos="l" depth="2" NCoef="0" IVar="3" Cut="8.4144681692123413e-01" cType="1" res="8.6075149476528168e-02" rms="2.4949645996093750e-01" purity="9.0761715173721313e-01" nType="0">
            <Node pos="l" depth="3" NCoef="0" IVar="-1" Cut="0.0000000000000000e+00" cType="1" res="4.2875032871961594e-02" rms="2.1054345369338989e-01" purity="9.4076865911483765e-01" nType="-99"/>
            <Node pos="r" depth="3" NCoef="0" IVar="-1" Cut="0.0000000000000000e+00" cType="1" res="2.2341029718518257e-02" rms="2.9470837116241455e-01" purity="8.6031121015548706e-01" nType="-99"/>
          </Node>
          <Node pos="r" depth="2" NCoef="0" IVar="-1" Cut="0.0000000000000000e+00" cType="1" res="-3.3885317388921976e-03" rms="3.8864514231681824e-01" purity="2.8387716412544250e-01" nType="-99"/>
        </Node>
        <Node pos="r" depth="1" NCoef="0" IVar="3" Cut="2.0396320819854736e+00" cType="1" res="-2.0622044801712036e-02" rms="3.6562120914459229e-01" purity="4.2697829008102417e-01" nType="0">
          <Node pos="l" depth="2" NCoef="0" IVar="11" Cut="-1.6748850345611572e+00" cType="1" res="1.9541231915354729e-02" rms="3.5585838556289673e-01" purity="5.8753013610839844e-01" nType="0">
            <Node pos="l" depth="3" NCoef="0" IVar="-1" Cut="0.0000000000000000e+00" cType="1" res="1.8301477655768394e-02" rms="3.6097767949104309e-01" purity="7.6015579700469971e-01" nType="-99"/>
            <Node pos="r" depth="3" NCoef="0" IVar="-1" Cut="0.0000000000000000e+00" cType="1" res="-2.2376554086804390e-02" rms="3.2309362292289734e-01" purity="1.7305184900760651e-01" nType="-99"/>
          </Node>
          <Node pos="r" depth="2" NCoef="0" IVar="2" Cut="1.2280654907226562e+00" cType="1" res="-5.9447694569826126e-02" rms="3.7070360779762268e-01" purity="2.7177357673645020e-01" nType="0">
            <Node pos="l" depth="3" NCoef="0" IVar="-1" Cut="0.0000000000000000e+00" cType="1" res="-8.4574939683079720e-03" rms="3.9343890547752380e-01" purity="3.3400073647499084e-01" nType="-99"/>
            <Node pos="r" depth="3" NCoef="0" IVar="-1" Cut="0.0000000000000000e+00" cType="1" res="-3.3839210867881775e-02" rms="3.1621441245079041e-01" purity="1.5273505449295044e-01" nType="-99"/>
          </Node>
        </Node>
      </Node>
    </BinaryTree>
    <BinaryTree type="DecisionTree" boostWeight="1.0000000000000000e+00" itree="31">
      <Node pos="s" depth="0" NCoef="0" IVar="2" Cut="1.6837489604949951e+00" cType="1" res="3.1209521694108844e-05" rms="3.5101139545440674e-01" purity="5.0000000000000000e-01" nType="0">
        <Node pos="l" depth="1" NCoef="0" IVar="8" Cut="-4.6126070022583008e+00" cType="1" res="1.4113441109657288e-02" rms="3.5558688640594482e-01" purity="5.5072385072708130e-01" nType="0">
          <Node pos="l" depth="2" NCoef="0" IVar="0" Cut="1.6421093940734863e+00" cType="1" res="-5.5291339755058289e-02" rms="3.5168045759201050e-01" purity="3.8009440898895264e-01" nType="0">
            <Node pos="l" depth="3" NCoef="0" IVar="-1" Cut="0.0000000000000000e+00" cType="1" res="-2.0293619018048048e-03" rms="3.5181048512458801e-01" purity="4.8519173264503479e-01" nType="-99"/>
            <Node pos="r" depth="3" NCoef="0" IVar="-1" Cut="0.0000000000000000e+00" cType="1" res="-3.1265139579772949e-02" rms="3.4413316845893860e-01" purity="2.6869079470634460e-01" nType="-99"/>
          </Node>
          <Node pos="r" depth="2" NCoef="0" IVar="9" Cut="-3.7608070373535156e+00" cType="1" res="3.1531989574432373e-02" rms="3.5443350672721863e-01" purity="5.9354680776596069e-01" nType="0">
            <Node pos="l" depth="3" NCoef="0" IVar="-1" Cut="0.0000000000000000e+00" cType="1" res="1.6047837212681770e-02" rms="3.4788659214973450e-01" purity="6.7184007167816162e-01" nType="-99"/>
            <Node pos="r" depth="3" NCoef="0" IVar="-1" Cut="0.0000000000000000e+00" cType="1" res="-7.1703069843351841e-03" rms="3.6515823006629944e-01" purity="3.8959309458732605e-01" nType="-99"/>
          </Node>
        </Node>
        <Node pos="r" depth="1" NCoef="0" IVar="7" Cut="3.3937451839447021e+00" cType="1" res="-6.4542859792709351e-02" rms="3.2141059637069702e-01" purity="2.6740580797195435e-01" nType="0">
          <Node pos="l" depth="2" NCoef="0" IVar="-1" Cut="0.0000000000000000e+00" cType="1" res="-2.8543297667056322e-03" rms="3.5084593296051025e-01" purity="3.8622990250587463e-01" nType="-99"/>
          <Node pos="r" depth="2" NCoef="0" IVar="-1" Cut="0.0000000000000000e+00" cType="1" res="-3.1507138162851334e-02" rms="2.9783028364181519e-01" purity="1.9684864580631256e-01" nType="-99"/>
        </Node>
      </Node>
    </BinaryTree>
    <BinaryTree type="DecisionTree" boostWeight="1.0000000000000000e+00" itree="32">
      <Node pos="s" depth="0" NCoef="0" IVar="3" Cut="1.2018533945083618e+00" cType="1" res="1.4384773749043234e-05" rms="3.5001662373542786e-01" purity="5.0000000000000000e-01" nType="0">
        <Node pos="l" depth="1" NCoef="0" IVar="3" Cut="5.7350969314575195e-01" cType="1" res="4.4684823602437973e-02" rms="3.1095421314239502e-01" purity="6.7285096645355225e-01" nType="0">
          <Node pos="l" depth="2" NCoef="0" IVar="9" Cut="-4.2157735824584961e+00" cType="1" res="9.8923094570636749e-02" rms="3.0641636252403259e-01" purity="7.1545118093490601e-01" nType="0">
            <Node pos="l" depth="3" NCoef="0" IVar="-1" Cut="0.0000000000000000e+00" cType="1" res="4.7536037862300873e-02" rms="2.6113751530647278e-01" purity="8.5212600231170654e-01" nType="-99"/>
            <Node pos="r" depth="3" NCoef="0" IVar="-1" Cut="0.0000000000000000e+00" cType="1" res="2.4321982637047768e-02" rms="3.3680373430252075e-01" purity="5.9791260957717896e-01" nType="-99"/>
          </Node>
          <Node pos="r" depth="2" NCoef="0" IVar="11" Cut="-2.0402088165283203e+00" cType="1" res="4.9167359247803688e-03" rms="3.0823397636413574e-01" purity="6.4161598682403564e-01" nType="0">
            <Node pos="l" depth="3" NCoef="0" IVar="-1" Cut="0.0000000000000000e+00" cType="1" res="3.0707772821187973e-02" rms="2.3707613348960876e-01" purity="9.2945599555969238e-01" nType="-99"/>
            <Node pos="r" depth="3" NCoef="0" IVar="-1" Cut="0.0000000000000000e+00" cType="1" res="-1.6722656786441803e-02" rms="3.5904285311698914e-01" purity="3.1988260149955750e-01" nType="-99"/>
          </Node>
        </Node>
        <Node pos="r" depth="1" NCoef="0" IVar="11" Cut="-2.9153032302856445e+00" cType="1" res="-1.8856858834624290e-02" rms="3.6362057924270630e-01" purity="4.2697829008102417e-01" nType="0">
          <Node pos="l" depth="2" NCoef="0" IVar="10" Cut="-2.3039772510528564e+00" cType="1" res="5.2241805940866470e-02" rms="3.3507090806961060e-01" purity="7.8067797422409058e-01" nType="0">
            <Node pos="l" depth="3" NCoef="0" IVar="-1" Cut="0.0000000000000000e+00" cType="1" res="2.8089709579944611e-02" rms="2.9044920206069946e-01" purity="8.6931520700454712e-01" nType="-99"/>
            <Node pos="r" depth="3" NCoef="0" IVar="-1" Cut="0.0000000000000000e+00" cType="1" res="5.7452837936580181e-03" rms="3.8532871007919312e-01" purity="6.6019266843795776e-01" nType="-99"/>
          </Node>
          <Node pos="r" depth="2" NCoef="0" IVar="7" Cut="3.2097048759460449e+00" cType="1" res="-3.8046352565288544e-02" rms="3.6860701441764832e-01" purity="3.3151492476463318e-01" nType="0">
            <Node pos="l" depth="3" NCoef="0" IVar="-1" Cut="0.0000000000000000e+00" cType="1" res="5.8673406019806862e-03" rms="3.7697014212608337e-01" purity="4.3905547261238098e-01" nType="-99"/>
            <Node pos="r" depth="3" NCoef="0" IVar="-1" Cut="0.0000000000000000e+00" cType="1" res="-1.9303537905216217e-02" rms="3.6111590266227722e-01" purity="2.8033751249313354e-01" nType="-99"/>
          </Node>
        </Node>
      </Node>
    </BinaryTree>
    <BinaryTree type="DecisionTree" boostWeight="1.0000000000000000e+00" itree="33">
      <Node pos="s" depth="0" NCoef="0" IVar="6" Cut="5.6629395484924316e+00" cType="1" res="2.8393356842570938e-05" rms="3.4873935580253601e-01" purity="5.0000000000000000e-01" nType="0">
        <Node pos="l" depth="1" NCoef="0" IVar="3" Cut="2.6679587364196777e+00" cType="1" res="8.4416065365076065e-03" rms="3.5076990723609924e-01" purity="5.2260857820510864e-01" nType="0">
          <Node pos="l" depth="2" NCoef="0" IVar="7" Cut="4.4008216857910156e+00" cType="1" res="2.0935500040650368e-02" rms="3.5164135694503784e-01" purity="5.8996433019638062e-01" nType="0">
            <Node pos="l" depth="3" NCoef="0" IVar="-1" Cut="0.0000000000000000e+00" cType="1" res="1.2627271004021168e-02" rms="3.4231895208358765e-01" purity="6.4858549833297729e-01" nType="-99"/>
            <Node pos="r" depth="3" NCoef="0" IVar="-1" Cut="0.0000000000000000e+00" cType="1" res="-2.5970527902245522e-02" rms="3.8241463899612427e-01" purity="2.4788126349449158e-01" nType="-99"/>
          </Node>
          <Node pos="r" depth="2" NCoef="0" IVar="-1" Cut="0.0000000000000000e+00" cType="1" res="-1.8699767068028450e-02" rms="3.3795559406280518e-01" purity="1.5545828640460968e-01" nType="-99"/>
        </Node>
        <Node pos="r" depth="1" NCoef="0" IVar="-1" Cut="0.0000000000000000e+00" cType="1" res="-3.0656622722744942e-02" rms="3.0750450491905212e-01" purity="2.3602484166622162e-01" nType="-99"/>
      </Node>
    </BinaryTree>
    <BinaryTree type="DecisionTree" boostWeight="1.0000000000000000e+00" itree="34">
      <Node pos="s" depth="0" NCoef="0" IVar="10" Cut="-1.4745061397552490e+00" cType="1" res="6.6321258600510191e-06" rms="3.4780538082122803e-01" purity="5.0000000000000000e-01" nType="0">
        <Node pos="l" depth="1" NCoef="0" IVar="9" Cut="-3.9670808315277100e+00" cType="1" res="1.2788878753781319e-02" rms="3.4779497981071472e-01" purity="5.5327653884887695e-01" nType="0">
          <Node pos="l" depth="2" NCoef="0" IVar="7" Cut="4.0225601196289062e+00" cType="1" res="3.4832641482353210e-02" rms="3.4687045216560364e-01" purity="6.1893308162689209e-01" nType="0">
            <Node pos="l" depth="3" NCoef="0" IVar="-1" Cut="0.0000000000000000e+00" cType="1" res="1.9423352554440498e-02" rms="3.3949154615402222e-01" purity="7.2987860441207886e-01" nType="-99"/>
            <Node pos="r" depth="3" NCoef="0" IVar="-1" Cut="0.0000000000000000e+00" cType="1" res="-8.6270570755004883e-03" rms="3.5497424006462097e-01" purity="3.6807420849800110e-01" nType="-99"/>
          </Node>
          <Node pos="r" depth="2" NCoef="0" IVar="11" Cut="-2.2967801094055176e+00" cType="1" res="-2.1266570314764977e-02" rms="3.4647229313850403e-01" purity="4.5184352993965149e-01" nType="0">
            <Node pos="l" depth="3" NCoef="0" IVar="-1" Cut="0.0000000000000000e+00" cType="1" res="4.7939931973814964e-03" rms="3.4929537773132324e-01" purity="7.2444957494735718e-01" nType="-99"/>
            <Node pos="r" depth="3" NCoef="0" IVar="-1" Cut="0.0000000000000000e+00" cType="1" res="-1.7413204535841942e-02" rms="3.3988556265830994e-01" purity="1.7825698852539062e-01" nType="-99"/>
          </Node>
        </Node>
        <Node pos="r" depth="1" NCoef="0" IVar="8" Cut="-4.3271098136901855e+00" cType="1" res="-5.6363217532634735e-02" rms="3.4220218658447266e-01" purity="2.6504996418952942e-01" nType="0">
          <Node pos="l" depth="2" NCoef="0" IVar="-1" Cut="0.0000000000000000e+00" cType="1" res="-2.6952529326081276e-02" rms="3.2416564226150513e-01" purity="2.0239116251468658e-01" nType="-99"/>
          <Node pos="r" depth="2" NCoef="0" IVar="-1" Cut="0.0000000000000000e+00" cType="1" res="-2.5900057516992092e-03" rms="3.6423194408416748e-01" purity="3.6531156301498413e-01" nType="-99"/>
        </Node>
      </Node>
    </BinaryTree>
    <BinaryTree type="DecisionTree" boostWeight="1.0000000000000000e+00" itree="35">
      <Node pos="s" depth="0" NCoef="0" IVar="3" Cut="1.2018533945083618e+00" cType="1" res="-3.3303572308795992e-06" rms="3.4703382849693298e-01" purity="5.0000000000000000e-01" nType="0">
        <Node pos="l" depth="1" NCoef="0" IVar="3" Cut="5.7350969314575195e-01" cType="1" res="4.1021361947059631e-02" rms="3.0694186687469482e-01" purity="6.7285096645355225e-01" nType="0">
          <Node pos="l" depth="2" NCoef="0" IVar="9" Cut="-4.2157735824584961e+00" cType="1" res="8.9969411492347717e-02" rms="3.0388563871383667e-01" purity="7.1545118093490601e-01" nType="0">
            <Node pos="l" depth="3" NCoef="0" IVar="-1" Cut="0.0000000000000000e+00" cType="1" res="4.4308893382549286e-02" rms="2.5708717107772827e-01" purity="8.5212600231170654e-01" nType="-99"/>
            <Node pos="r" depth="3" NCoef="0" IVar="-1" Cut="0.0000000000000000e+00" cType="1" res="2.3477023467421532e-02" rms="3.3636394143104553e-01" purity="5.9791260957717896e-01" nType="-99"/>
          </Node>
          <Node pos="r" depth="2" NCoef="0" IVar="11" Cut="-2.0402088165283203e+00" cType="1" res="5.1321256905794144e-03" rms="3.0419951677322388e-01" purity="6.4161598682403564e-01" nType="0">
            <Node pos="l" depth="3" NCoef="0" IVar="-1" Cut="0.0000000000000000e+00" cType="1" res="2.8508946299552917e-02" rms="2.3586812615394592e-01" purity="9.2945599555969238e-01" nType="-99"/>
            <Node pos="r" depth="3" NCoef="0" IVar="-1" Cut="0.0000000000000000e+00" cType="1" res="-1.4524907805025578e-02" rms="3.5599613189697266e-01" purity="3.1988260149955750e-01" nType="-99"/>
          </Node>
        </Node>
