<?xml version="1.0"?>
<MethodSetup Method="BDT::BDTG">
  <GeneralInfo>
    <Info name="TMVA Release" value="4.2.1 [262657]"/>
    <Info name="ROOT Release" value="6.18/04 [397828]"/>
    <Info name="Creator" value="hchou"/>
    <Info name="Date" value="Fri Mar 13 17:50:16 2020"/>
    <Info name="Host" value="Linux lcgapp-centos7-x86-64-25.cern.ch 3.10.0-957.21.3.el7.x86_64 #1 SMP Tue Jun 18 16:35:19 UTC 2019 x86_64 x86_64 x86_64 GNU/Linux"/>
    <Info name="Dir" value="/afs/cern.ch/user/h/hchou/AMSProject/apflux"/>
    <Info name="Training events" value="250000"/>
    <Info name="TrainingTime" value="9.83792100e+01"/>
    <Info name="AnalysisType" value="Classification"/>
  </GeneralInfo>
  <Options>
    <Option name="V" modified="Yes">True</Option>
    <Option name="VerbosityLevel" modified="Yes">Verbose</Option>
    <Option name="VarTransform" modified="Yes">Decorrelate</Option>
    <Option name="H" modified="Yes">True</Option>
    <Option name="CreateMVAPdfs" modified="Yes">False</Option>
    <Option name="IgnoreNegWeightsInTraining" modified="Yes">True</Option>
    <Option name="NTrees" modified="Yes">100</Option>
    <Option name="MaxDepth" modified="Yes">3</Option>
    <Option name="MinNodeSize" modified="Yes">5%</Option>
    <Option name="nCuts" modified="Yes">20</Option>
    <Option name="BoostType" modified="Yes">Grad</Option>
    <Option name="AdaBoostR2Loss" modified="Yes">quadratic</Option>
    <Option name="UseBaggedBoost" modified="No">False</Option>
    <Option name="Shrinkage" modified="Yes">1.000000e-01</Option>
    <Option name="AdaBoostBeta" modified="Yes">5.000000e-01</Option>
    <Option name="UseRandomisedTrees" modified="Yes">False</Option>
    <Option name="UseNvars" modified="Yes">2</Option>
    <Option name="UsePoissonNvars" modified="Yes">True</Option>
    <Option name="BaggedSampleFraction" modified="Yes">6.000000e-01</Option>
    <Option name="UseYesNoLeaf" modified="Yes">True</Option>
    <Option name="NegWeightTreatment" modified="No">pray</Option>
    <Option name="Css" modified="No">1.000000e+00</Option>
    <Option name="Cts_sb" modified="No">1.000000e+00</Option>
    <Option name="Ctb_ss" modified="No">1.000000e+00</Option>
    <Option name="Cbb" modified="No">1.000000e+00</Option>
    <Option name="NodePurityLimit" modified="Yes">5.000000e-01</Option>
    <Option name="SeparationType" modified="Yes">giniindex</Option>
    <Option name="RegressionLossFunctionBDTG" modified="No">huber</Option>
    <Option name="HuberQuantile" modified="No">7.000000e-01</Option>
    <Option name="DoBoostMonitor" modified="Yes">False</Option>
    <Option name="UseFisherCuts" modified="Yes">False</Option>
    <Option name="MinLinCorrForFisher" modified="Yes">8.000000e-01</Option>
    <Option name="UseExclusiveVars" modified="Yes">False</Option>
    <Option name="DoPreselection" modified="Yes">False</Option>
    <Option name="SigToBkgFraction" modified="Yes">1.000000e+00</Option>
    <Option name="PruneMethod" modified="Yes">nopruning</Option>
    <Option name="PruneStrength" modified="Yes">0.000000e+00</Option>
    <Option name="PruningValFraction" modified="Yes">5.000000e-01</Option>
    <Option name="SkipNormalization" modified="No">False</Option>
    <Option name="nEventsMin" modified="Yes">0</Option>
    <Option name="UseBaggedGrad" modified="Yes">False</Option>
    <Option name="GradBaggingFraction" modified="Yes">6.000000e-01</Option>
    <Option name="UseNTrainEvents" modified="Yes">0</Option>
    <Option name="NNodesMax" modified="Yes">0</Option>
  </Options>
  <Variables NVar="10">
    <Variable VarIndex="0" Expression="lxin" Label="lxin" Title="lxin" Unit="units" Internal="lxin" Type="F" Min="-1.43131180e+01" Max="3.63619494e+00"/>
    <Variable VarIndex="1" Expression="lyin" Label="lyin" Title="lyin" Unit="units" Internal="lyin" Type="F" Min="-8.29461575e+00" Max="6.13294172e+00"/>
    <Variable VarIndex="2" Expression="lxex" Label="lxex" Title="lxex" Unit="units" Internal="lxex" Type="F" Min="-9.54836369e+00" Max="3.47817993e+00"/>
    <Variable VarIndex="3" Expression="lyex" Label="lyex" Title="lyex" Unit="units" Internal="lyex" Type="F" Min="-5.62161398e+00" Max="5.97065973e+00"/>
    <Variable VarIndex="4" Expression="nlxin" Label="nlxin" Title="nlxin" Unit="units" Internal="nlxin" Type="F" Min="6.44195941e-04" Max="6.88762856e+00"/>
    <Variable VarIndex="5" Expression="nlyin" Label="nlyin" Title="nlyin" Unit="units" Internal="nlyin" Type="F" Min="1.93728767e-02" Max="2.08976021e+01"/>
    <Variable VarIndex="6" Expression="nlxex" Label="nlxex" Title="nlxex" Unit="units" Internal="nlxex" Type="F" Min="8.76429025e-03" Max="7.83990812e+00"/>
    <Variable VarIndex="7" Expression="nlyex" Label="nlyex" Title="nlyex" Unit="units" Internal="nlyex" Type="F" Min="7.59664476e-02" Max="3.75671310e+01"/>
    <Variable VarIndex="8" Expression="lyinC" Label="lyinC" Title="lyinC" Unit="units" Internal="lyinC" Type="F" Min="-8.83702660e+00" Max="7.79565907e+00"/>
    <Variable VarIndex="9" Expression="lyexC" Label="lyexC" Title="lyexC" Unit="units" Internal="lyexC" Type="F" Min="-6.42896032e+00" Max="9.77897167e+00"/>
  </Variables>
  <Spectators NSpec="0"/>
  <Classes NClass="2">
    <Class Name="Signal" Index="0"/>
    <Class Name="Background" Index="1"/>
  </Classes>
  <Transformations NTransformations="1">
    <Transform Name="Decorrelation">
      <Selection>
        <Input NInputs="10">
          <Input Type="Variable" Label="lxin" Expression="lxin"/>
          <Input Type="Variable" Label="lyin" Expression="lyin"/>
          <Input Type="Variable" Label="lxex" Expression="lxex"/>
          <Input Type="Variable" Label="lyex" Expression="lyex"/>
          <Input Type="Variable" Label="nlxin" Expression="nlxin"/>
          <Input Type="Variable" Label="nlyin" Expression="nlyin"/>
          <Input Type="Variable" Label="nlxex" Expression="nlxex"/>
          <Input Type="Variable" Label="nlyex" Expression="nlyex"/>
          <Input Type="Variable" Label="lyinC" Expression="lyinC"/>
          <Input Type="Variable" Label="lyexC" Expression="lyexC"/>
        </Input>
        <Output NOutputs="10">
          <Output Type="Variable" Label="lxin" Expression="lxin"/>
          <Output Type="Variable" Label="lyin" Expression="lyin"/>
          <Output Type="Variable" Label="lxex" Expression="lxex"/>
          <Output Type="Variable" Label="lyex" Expression="lyex"/>
          <Output Type="Variable" Label="nlxin" Expression="nlxin"/>
          <Output Type="Variable" Label="nlyin" Expression="nlyin"/>
          <Output Type="Variable" Label="nlxex" Expression="nlxex"/>
          <Output Type="Variable" Label="nlyex" Expression="nlyex"/>
          <Output Type="Variable" Label="lyinC" Expression="lyinC"/>
          <Output Type="Variable" Label="lyexC" Expression="lyexC"/>
        </Output>
      </Selection>
      <Matrix Rows="10" Columns="10">
        2.130477142501803e+00 -3.195627940984444e-02 -8.129607353874412e-01 1.376055329022620e-02 -1.071094925080306e+00 1.765856153600126e-02 8.762122758111078e-02 -1.364433540766856e-02 -1.056919522061551e-02 1.725683810010024e-02 -3.195627940984437e-02 7.234129511586639e+00 1.924994742007404e-02 -4.112019542873803e+00 2.419938418925970e-02 1.054221553565395e+00 -1.496411131687099e-03 -3.357354723960104e-01 -5.556374843665267e+00 3.037133424672314e+00 -8.129607353874412e-01 1.924994742007376e-02 2.587012046569015e+00 -3.082316222810556e-02 2.903474694755032e-01 1.246597729836813e-02 -1.186730370242337e+00 4.500179529034928e-02 8.555394925991212e-03 -7.628391892840866e-02 1.376055329022602e-02 -4.112019542873806e+00 -3.082316222810561e-02 7.361716941178512e+00 -3.355566037026516e-03 -2.450379861510915e-01 3.000393944328951e-02 4.279219751539260e-01 2.775145547769314e+00 -4.772422222258536e+00 -1.071094925080306e+00 2.419938418925944e-02 2.903474694755033e-01 -3.355566037026199e-03 3.209737450608852e+00 -9.615900694338550e-02 -1.681352431089631e+00 3.572032283492966e-02 -3.564571700632149e-02 2.586883256273409e-02 1.765856153600136e-02 1.054221553565396e+00 1.246597729836801e-02 -2.450379861510900e-01 -9.615900694338562e-02 4.577295397105249e+00 5.318881938520911e-02 -1.498163669594809e+00 -2.865266503295953e+00 4.329820252962134e-01 8.762122758111068e-02 -1.496411131686436e-03 -1.186730370242337e+00 3.000393944328888e-02 -1.681352431089631e+00 5.318881938520899e-02 3.405708148389476e+00 -1.157123633407843e-01 8.842799308496100e-04 -1.513354748305182e-02 -1.364433540766854e-02 -3.357354723960121e-01 4.500179529034938e-02 4.279219751539243e-01 3.572032283492960e-02 -1.498163669594810e+00 -1.157123633407844e-01 4.171845450103892e+00 2.093396026573042e-01 -1.895561588732510e+00 -1.056919522061564e-02 -5.556374843665270e+00 8.555394925991083e-03 2.775145547769310e+00 -3.564571700632163e-02 -2.865266503295952e+00 8.842799308500099e-04 2.093396026573026e-01 7.121548854838055e+00 -2.929207767993073e+00 1.725683810010031e-02 3.037133424672317e+00 -7.628391892840858e-02 -4.772422222258533e+00 2.586883256273441e-02 4.329820252962144e-01 -1.513354748305228e-02 -1.895561588732511e+00 -2.929207767993075e+00 5.777497036472966e+00 
      </Matrix>
      <Matrix Rows="10" Columns="10">
        1.954575004177189e+00 -6.308671946037991e-02 -4.224029864457016e-01 6.598907237672692e-02 -1.070912770238874e+00 1.871512490336909e-02 1.284264198727857e-02 4.564983782732015e-03 -4.327211419894756e-02 -7.716950103155195e-04 -6.308671946038011e-02 4.357932585462924e+00 1.435568014912564e-02 -1.679888778108599e+00 7.489597330154903e-02 4.693297374125009e-01 -9.686274487899153e-02 -3.198331751569572e-01 -2.949666628718702e+00 1.742724895550470e+00 -4.224029864457014e-01 1.435568014912571e-02 2.199922414418207e+00 -1.820187042525406e-01 2.306027286941740e-01 -1.830553789738475e-03 -1.128834210960392e+00 8.436215539633544e-02 1.907689383803476e-02 3.955607914854710e-03 6.598907237672716e-02 -1.679888778108599e+00 -1.820187042525407e-01 6.541390702147260e+00 -1.741205200063272e-02 -3.004939540856956e-01 1.162797378293926e-01 5.522140963174412e-01 1.343056989504945e+00 -3.505790736049264e+00 -1.070912770238873e+00 7.489597330154879e-02 2.306027286941745e-01 -1.741205200063228e-02 2.381431052579550e+00 -6.365268812581121e-02 -8.272606479762485e-01 3.694924903170171e-02 -8.734700011759348e-02 2.005687555267986e-02 1.871512490336893e-02 4.693297374125013e-01 -1.830553789738620e-03 -3.004939540856969e-01 -6.365268812581100e-02 2.816546929198639e+00 6.155648312428282e-02 -8.694385533838371e-01 -1.903513523998936e+00 3.594521302074797e-01 1.284264198727811e-02 -9.686274487899146e-02 -1.128834210960391e+00 1.162797378293925e-01 -8.272606479762480e-01 6.155648312428268e-02 2.382303553555408e+00 -1.133433790449992e-01 4.181601583318630e-02 -6.562339364465575e-02 4.564983782732228e-03 -3.198331751569570e-01 8.436215539633532e-02 5.522140963174418e-01 3.694924903170135e-02 -8.694385533838365e-01 -1.133433790449989e-01 2.789790435815511e+00 5.881904832648285e-01 -1.715425743611054e+00 -4.327211419894736e-02 -2.949666628718703e+00 1.907689383803492e-02 1.343056989504946e+00 -8.734700011759383e-02 -1.903513523998935e+00 4.181601583318625e-02 5.881904832648291e-01 4.091920043561208e+00 -2.126532946297595e+00 -7.716950103158204e-04 1.742724895550470e+00 3.955607914854858e-03 -3.505790736049264e+00 2.005687555268040e-02 3.594521302074780e-01 -6.562339364465607e-02 -1.715425743611054e+00 -2.126532946297593e+00 4.684621618468685e+00 
      </Matrix>
      <Matrix Rows="10" Columns="10">
        2.068024245427761e+00 -4.796361829494499e-02 -6.977216419581164e-01 6.011906651487604e-02 -1.088762306543834e+00 4.915973618403196e-03 9.108475396465952e-02 7.993268833054653e-03 -2.237462588864127e-02 2.048418502198637e-02 -4.796361829494485e-02 5.814474493146603e+00 4.498172585829965e-02 -3.368215088971000e+00 4.004634251507876e-02 8.904277903790356e-01 -3.684632501875760e-02 -4.757400982121002e-01 -4.275022684877737e+00 2.614988306655525e+00 -6.977216419581167e-01 4.498172585829991e-02 2.440060668292321e+00 -1.281585710975860e-01 3.089159830521022e-01 2.191803498820680e-02 -1.198105353329794e+00 2.628010760105942e-02 1.158185929912623e-02 -9.125895464449998e-02 6.011906651487597e-02 -3.368215088970998e+00 -1.281585710975855e-01 6.509424687906822e+00 5.847406390780074e-03 -1.159325463320683e-01 4.942851753615626e-02 3.174236807486872e-01 2.300829619480431e+00 -4.220022029002591e+00 -1.088762306543835e+00 4.004634251507870e-02 3.089159830521017e-01 5.847406390780081e-03 2.903726935390294e+00 -9.610595769982716e-02 -1.361781722357812e+00 5.232203170843189e-02 -6.530538000590301e-02 5.577856769199019e-02 4.915973618403353e-03 8.904277903790352e-01 2.191803498820659e-02 -1.159325463320684e-01 -9.610595769982731e-02 3.874584242269338e+00 6.249158013248227e-02 -1.158143202293465e+00 -2.583977705653889e+00 3.371985256032957e-01 9.108475396466002e-02 -3.684632501875758e-02 -1.198105353329793e+00 4.942851753615637e-02 -1.361781722357813e+00 6.249158013248208e-02 3.031690874730143e+00 -1.285262054871240e-01 2.434823639224840e-02 -6.393391373409180e-02 7.993268833054561e-03 -4.757400982120988e-01 2.628010760105964e-02 3.174236807486863e-01 5.232203170843205e-02 -1.158143202293464e+00 -1.285262054871243e-01 3.510974076026403e+00 4.748540379054996e-01 -1.785831037688077e+00 -2.237462588864148e-02 -4.275022684877736e+00 1.158185929912647e-02 2.300829619480433e+00 -6.530538000590302e-02 -2.583977705653890e+00 2.434823639224838e-02 4.748540379055014e-01 5.717860843314087e+00 -2.641079369238566e+00 2.048418502198632e-02 2.614988306655523e+00 -9.125895464450029e-02 -4.220022029002591e+00 5.577856769199015e-02 3.371985256032954e-01 -6.393391373409152e-02 -1.785831037688077e+00 -2.641079369238564e+00 5.218074788682051e+00 
      </Matrix>
    </Transform>
  </Transformations>
  <MVAPdfs/>
  <Weights NTrees="100" AnalysisType="1">
    <BinaryTree type="DecisionTree" boostWeight="1.0000000000000000e+00" itree="0">
      <Node pos="s" depth="0" NCoef="0" IVar="9" Cut="-3.0215005874633789e+00" cType="1" res="0.0000000000000000e+00" rms="5.0000000000000000e-01" purity="5.0000000000000000e-01" nType="0">
        <Node pos="l" depth="1" NCoef="0" IVar="3" Cut="2.1543049812316895e+00" cType="1" res="2.6905333995819092e-01" rms="4.2143836617469788e-01" purity="7.6905333995819092e-01" nType="0">
          <Node pos="l" depth="2" NCoef="0" IVar="3" Cut="1.7793377637863159e+00" cType="1" res="3.9613047242164612e-01" rms="3.0509123206138611e-01" purity="8.9613044261932373e-01" nType="0">
            <Node pos="l" depth="3" NCoef="0" IVar="-1" Cut="0.0000000000000000e+00" cType="1" res="8.6507365107536316e-02" rms="2.5082242488861084e-01" purity="9.3253684043884277e-01" nType="-99"/>
            <Node pos="r" depth="3" NCoef="0" IVar="-1" Cut="0.0000000000000000e+00" cType="1" res="5.6408770382404327e-02" rms="4.1285744309425354e-01" purity="7.8204387426376343e-01" nType="-99"/>
          </Node>
          <Node pos="r" depth="2" NCoef="0" IVar="4" Cut="2.1396515369415283e+00" cType="1" res="-7.1390688419342041e-02" rms="4.9487712979316711e-01" purity="4.2860931158065796e-01" nType="0">
            <Node pos="l" depth="3" NCoef="0" IVar="-1" Cut="0.0000000000000000e+00" cType="1" res="-2.2394070401787758e-02" rms="4.8730137944221497e-01" purity="3.8802963495254517e-01" nType="-99"/>
            <Node pos="r" depth="3" NCoef="0" IVar="-1" Cut="0.0000000000000000e+00" cType="1" res="-5.6321313604712486e-03" rms="4.9920633435249329e-01" purity="4.7183933854103088e-01" nType="-99"/>
          </Node>
        </Node>
        <Node pos="r" depth="1" NCoef="0" IVar="7" Cut="3.8904569149017334e+00" cType="1" res="-1.9181226193904877e-01" rms="4.6174457669258118e-01" purity="3.0818772315979004e-01" nType="0">
          <Node pos="l" depth="2" NCoef="0" IVar="3" Cut="1.7445806264877319e+00" cType="1" res="3.9400123059749603e-02" rms="4.9844521284103394e-01" purity="5.3940010070800781e-01" nType="0">
            <Node pos="l" depth="3" NCoef="0" IVar="-1" Cut="0.0000000000000000e+00" cType="1" res="6.0664497315883636e-02" rms="3.9748641848564148e-01" purity="8.0332249402999878e-01" nType="-99"/>
            <Node pos="r" depth="3" NCoef="0" IVar="-1" Cut="0.0000000000000000e+00" cType="1" res="-3.3669892698526382e-02" rms="4.7080618143081665e-01" purity="3.3165052533149719e-01" nType="-99"/>
          </Node>
          <Node pos="r" depth="2" NCoef="0" IVar="9" Cut="-2.3592302799224854e+00" cType="1" res="-2.5638067722320557e-01" rms="4.2926558852195740e-01" purity="2.4361930787563324e-01" nType="0">
            <Node pos="l" depth="3" NCoef="0" IVar="-1" Cut="0.0000000000000000e+00" cType="1" res="-2.2045573219656944e-02" rms="4.8769849538803101e-01" purity="3.8977214694023132e-01" nType="-99"/>
            <Node pos="r" depth="3" NCoef="0" IVar="-1" Cut="0.0000000000000000e+00" cType="1" res="-6.8372435867786407e-02" rms="3.6487019062042236e-01" purity="1.5813784301280975e-01" nType="-99"/>
          </Node>
        </Node>
      </Node>
    </BinaryTree>
    <BinaryTree type="DecisionTree" boostWeight="1.0000000000000000e+00" itree="1">
      <Node pos="s" depth="0" NCoef="0" IVar="9" Cut="-3.0215005874633789e+00" cType="1" res="1.2815175978175830e-05" rms="4.8214188218116760e-01" purity="5.0000000000000000e-01" nType="0">
        <Node pos="l" depth="1" NCoef="0" IVar="3" Cut="2.1543049812316895e+00" cType="1" res="2.4221238493919373e-01" rms="4.1078332066535950e-01" purity="7.6905333995819092e-01" nType="0">
          <Node pos="l" depth="2" NCoef="0" IVar="3" Cut="1.4043710231781006e+00" cType="1" res="3.5660618543624878e-01" rms="3.0380150675773621e-01" purity="8.9613044261932373e-01" nType="0">
            <Node pos="l" depth="3" NCoef="0" IVar="-1" Cut="0.0000000000000000e+00" cType="1" res="8.3768665790557861e-02" rms="1.9858950376510620e-01" purity="9.5887058973312378e-01" nType="-99"/>
            <Node pos="r" depth="3" NCoef="0" IVar="-1" Cut="0.0000000000000000e+00" cType="1" res="5.9713862836360931e-02" rms="3.7220552563667297e-01" purity="8.3283621072769165e-01" nType="-99"/>
          </Node>
          <Node pos="r" depth="2" NCoef="0" IVar="4" Cut="2.1396515369415283e+00" cType="1" res="-6.4252607524394989e-02" rms="4.9454033374786377e-01" purity="4.2860931158065796e-01" nType="0">
            <Node pos="l" depth="3" NCoef="0" IVar="-1" Cut="0.0000000000000000e+00" cType="1" res="-2.0165147259831429e-02" rms="4.8730140924453735e-01" purity="3.8802963495254517e-01" nType="-99"/>
            <Node pos="r" depth="3" NCoef="0" IVar="-1" Cut="0.0000000000000000e+00" cType="1" res="-5.0690877251327038e-03" rms="4.9920633435249329e-01" purity="4.7183933854103088e-01" nType="-99"/>
          </Node>
        </Node>
        <Node pos="r" depth="1" NCoef="0" IVar="3" Cut="1.8085287809371948e+00" cType="1" res="-1.7265498638153076e-01" rms="4.5414975285530090e-01" purity="3.0818772315979004e-01" nType="0">
          <Node pos="l" depth="2" NCoef="0" IVar="9" Cut="-1.9552280902862549e+00" cType="1" res="-5.7140752673149109e-02" rms="4.8296573758125305e-01" purity="4.2639076709747314e-01" nType="0">
            <Node pos="l" depth="3" NCoef="0" IVar="-1" Cut="0.0000000000000000e+00" cType="1" res="3.4835904836654663e-02" rms="4.6274361014366150e-01" purity="6.6570699214935303e-01" nType="-99"/>
            <Node pos="r" depth="3" NCoef="0" IVar="-1" Cut="0.0000000000000000e+00" cType="1" res="-4.6869486570358276e-02" rms="4.1968527436256409e-01" purity="2.4381777644157410e-01" nType="-99"/>
          </Node>
          <Node pos="r" depth="2" NCoef="0" IVar="7" Cut="4.2702302932739258e+00" cType="1" res="-2.8430724143981934e-01" rms="3.9343011379241943e-01" purity="1.9393658638000488e-01" nType="0">
            <Node pos="l" depth="3" NCoef="0" IVar="-1" Cut="0.0000000000000000e+00" cType="1" res="-3.7742275744676590e-02" rms="4.5397412776947021e-01" purity="2.9265838861465454e-01" nType="-99"/>
            <Node pos="r" depth="3" NCoef="0" IVar="-1" Cut="0.0000000000000000e+00" cType="1" res="-6.7827448248863220e-02" rms="3.4332403540611267e-01" purity="1.3844454288482666e-01" nType="-99"/>
          </Node>
        </Node>
      </Node>
    </BinaryTree>
    <BinaryTree type="DecisionTree" boostWeight="1.0000000000000000e+00" itree="2">
      <Node pos="s" depth="0" NCoef="0" IVar="9" Cut="-3.0215005874633789e+00" cType="1" res="5.0449893024051562e-05" rms="4.6653985977172852e-01" purity="5.0000000000000000e-01" nType="0">
        <Node pos="l" depth="1" NCoef="0" IVar="3" Cut="2.1543049812316895e+00" cType="1" res="2.1819292008876801e-01" rms="4.0196365118026733e-01" purity="7.6905333995819092e-01" nType="0">
          <Node pos="l" depth="2" NCoef="0" IVar="2" Cut="-5.7330101728439331e-01" cType="1" res="3.2122382521629333e-01" rms="3.0272367596626282e-01" purity="8.9613044261932373e-01" nType="0">
            <Node pos="l" depth="3" NCoef="0" IVar="-1" Cut="0.0000000000000000e+00" cType="1" res="7.2744570672512054e-02" rms="2.5299638509750366e-01" purity="9.3014901876449585e-01" nType="-99"/>
            <Node pos="r" depth="3" NCoef="0" IVar="-1" Cut="0.0000000000000000e+00" cType="1" res="4.7686208039522171e-02" rms="3.9009523391723633e-01" purity="8.0829125642776489e-01" nType="-99"/>
          </Node>
          <Node pos="r" depth="2" NCoef="0" IVar="4" Cut="2.1396515369415283e+00" cType="1" res="-5.7830438017845154e-02" rms="4.9426746368408203e-01" purity="4.2860931158065796e-01" nType="0">
            <Node pos="l" depth="3" NCoef="0" IVar="-1" Cut="0.0000000000000000e+00" cType="1" res="-1.8173595890402794e-02" rms="4.8730137944221497e-01" purity="3.8802963495254517e-01" nType="-99"/>
            <Node pos="r" depth="3" NCoef="0" IVar="-1" Cut="0.0000000000000000e+00" cType="1" res="-4.5625716447830200e-03" rms="4.9920633435249329e-01" purity="4.7183933854103088e-01" nType="-99"/>
          </Node>
        </Node>
        <Node pos="r" depth="1" NCoef="0" IVar="7" Cut="3.8904569149017334e+00" cType="1" res="-1.5546667575836182e-01" rms="4.4669070839881897e-01" purity="3.0818772315979004e-01" nType="0">
          <Node pos="l" depth="2" NCoef="0" IVar="5" Cut="5.5954504013061523e+00" cType="1" res="4.7010630369186401e-02" rms="4.8143759369850159e-01" purity="5.3940010070800781e-01" nType="0">
            <Node pos="l" depth="3" NCoef="0" IVar="-1" Cut="0.0000000000000000e+00" cType="1" res="5.4293632507324219e-02" rms="4.0259954333305359e-01" purity="7.7641129493713379e-01" nType="-99"/>
            <Node pos="r" depth="3" NCoef="0" IVar="-1" Cut="0.0000000000000000e+00" cType="1" res="-2.8632063418626785e-02" rms="4.6131762862205505e-01" purity="3.3800211548805237e-01" nType="-99"/>
          </Node>
          <Node pos="r" depth="2" NCoef="0" IVar="9" Cut="-2.3592302799224854e+00" cType="1" res="-2.1201053261756897e-01" rms="4.1938111186027527e-01" purity="2.4361930787563324e-01" nType="0">
            <Node pos="l" depth="3" NCoef="0" IVar="-1" Cut="0.0000000000000000e+00" cType="1" res="-1.7200574278831482e-02" rms="4.7777929902076721e-01" purity="3.8977214694023132e-01" nType="-99"/>
            <Node pos="r" depth="3" NCoef="0" IVar="-1" Cut="0.0000000000000000e+00" cType="1" res="-5.7967543601989746e-02" rms="3.6114367842674255e-01" purity="1.5813784301280975e-01" nType="-99"/>
          </Node>
        </Node>
      </Node>
    </BinaryTree>
    <BinaryTree type="DecisionTree" boostWeight="1.0000000000000000e+00" itree="3">
      <Node pos="s" depth="0" NCoef="0" IVar="9" Cut="-3.0215005874633789e+00" cType="1" res="9.5107439847197384e-05" rms="4.5363757014274597e-01" purity="5.0000000000000000e-01" nType="0">
        <Node pos="l" depth="1" NCoef="0" IVar="3" Cut="2.1543049812316895e+00" cType="1" res="1.9664233922958374e-01" rms="3.9468088746070862e-01" purity="7.6905333995819092e-01" nType="0">
          <Node pos="l" depth="2" NCoef="0" IVar="3" Cut="1.7793377637863159e+00" cType="1" res="2.8947201371192932e-01" rms="3.0183860659599304e-01" purity="8.9613044261932373e-01" nType="0">
            <Node pos="l" depth="3" NCoef="0" IVar="-1" Cut="0.0000000000000000e+00" cType="1" res="6.7518420517444611e-02" rms="2.4931937456130981e-01" purity="9.3253684043884277e-01" nType="-99"/>
            <Node pos="r" depth="3" NCoef="0" IVar="-1" Cut="0.0000000000000000e+00" cType="1" res="3.9681814610958099e-02" rms="4.1142275929450989e-01" purity="7.8204387426376343e-01" nType="-99"/>
          </Node>
          <Node pos="r" depth="2" NCoef="0" IVar="4" Cut="2.1396515369415283e+00" cType="1" res="-5.2051581442356110e-02" rms="4.9404639005661011e-01" purity="4.2860931158065796e-01" nType="0">
            <Node pos="l" depth="3" NCoef="0" IVar="-1" Cut="0.0000000000000000e+00" cType="1" res="-1.6388544812798500e-02" rms="4.8730137944221497e-01" purity="3.8802963495254517e-01" nType="-99"/>
            <Node pos="r" depth="3" NCoef="0" IVar="-1" Cut="0.0000000000000000e+00" cType="1" res="-4.1068275459110737e-03" rms="4.9920633435249329e-01" purity="4.7183933854103088e-01" nType="-99"/>
          </Node>
        </Node>
        <Node pos="r" depth="1" NCoef="0" IVar="3" Cut="1.8085287809371948e+00" cType="1" res="-1.4002643525600433e-01" rms="4.4075873494148254e-01" purity="3.0818772315979004e-01" nType="0">
          <Node pos="l" depth="2" NCoef="0" IVar="9" Cut="-1.9552280902862549e+00" cType="1" res="-3.5554580390453339e-02" rms="4.6647557616233826e-01" purity="4.2639076709747314e-01" nType="0">
            <Node pos="l" depth="3" NCoef="0" IVar="-1" Cut="0.0000000000000000e+00" cType="1" res="3.3098671585321426e-02" rms="4.5689716935157776e-01" purity="6.6570699214935303e-01" nType="-99"/>
            <Node pos="r" depth="3" NCoef="0" IVar="-1" Cut="0.0000000000000000e+00" cType="1" res="-3.8575161248445511e-02" rms="4.1298186779022217e-01" purity="2.4381777644157410e-01" nType="-99"/>
          </Node>
          <Node pos="r" depth="2" NCoef="0" IVar="3" Cut="2.5886077880859375e+00" cType="1" res="-2.4100548028945923e-01" rms="3.8854968547821045e-01" purity="1.9393658638000488e-01" nType="0">
            <Node pos="l" depth="3" NCoef="0" IVar="-1" Cut="0.0000000000000000e+00" cType="1" res="-3.7144716829061508e-02" rms="4.2466270923614502e-01" purity="2.5231239199638367e-01" nType="-99"/>
            <Node pos="r" depth="3" NCoef="0" IVar="-1" Cut="0.0000000000000000e+00" cType="1" res="-6.4618460834026337e-02" rms="3.2083162665367126e-01" purity="1.1883075535297394e-01" nType="-99"/>
          </Node>
        </Node>
      </Node>
    </BinaryTree>
    <BinaryTree type="DecisionTree" boostWeight="1.0000000000000000e+00" itree="4">
      <Node pos="s" depth="0" NCoef="0" IVar="9" Cut="-3.0215005874633789e+00" cType="1" res="1.4442414976656437e-04" rms="4.4225701689720154e-01" purity="5.0000000000000000e-01" nType="0">
        <Node pos="l" depth="1" NCoef="0" IVar="3" Cut="2.1543049812316895e+00" cType="1" res="1.7729204893112183e-01" rms="3.8858628273010254e-01" purity="7.6905333995819092e-01" nType="0">
          <Node pos="l" depth="2" NCoef="0" IVar="3" Cut="1.4043710231781006e+00" cType="1" res="2.6095765829086304e-01" rms="3.0094441771507263e-01" purity="8.9613044261932373e-01" nType="0">
            <Node pos="l" depth="3" NCoef="0" IVar="-1" Cut="0.0000000000000000e+00" cType="1" res="6.8271905183792114e-02" rms="1.9807267189025879e-01" purity="9.5887058973312378e-01" nType="-99"/>
            <Node pos="r" depth="3" NCoef="0" IVar="-1" Cut="0.0000000000000000e+00" cType="1" res="4.4686045497655869e-02" rms="3.7029883265495300e-01" purity="8.3283621072769165e-01" nType="-99"/>
          </Node>
          <Node pos="r" depth="2" NCoef="0" IVar="4" Cut="2.1396515369415283e+00" cType="1" res="-4.6851053833961487e-02" rms="4.9386724829673767e-01" purity="4.2860931158065796e-01" nType="0">
            <Node pos="l" depth="3" NCoef="0" IVar="-1" Cut="0.0000000000000000e+00" cType="1" res="-1.4784775674343109e-02" rms="4.8730137944221497e-01" purity="3.8802963495254517e-01" nType="-99"/>
            <Node pos="r" depth="3" NCoef="0" IVar="-1" Cut="0.0000000000000000e+00" cType="1" res="-3.6967010237276554e-03" rms="4.9920633435249329e-01" purity="4.7183933854103088e-01" nType="-99"/>
          </Node>
        </Node>
        <Node pos="r" depth="1" NCoef="0" IVar="7" Cut="3.8904569149017334e+00" cType="1" res="-1.2614683806896210e-01" rms="4.3481019139289856e-01" purity="3.0818772315979004e-01" nType="0">
          <Node pos="l" depth="2" NCoef="0" IVar="3" Cut="1.7445806264877319e+00" cType="1" res="5.6736651808023453e-02" rms="4.6463689208030701e-01" purity="5.3940010070800781e-01" nType="0">
            <Node pos="l" depth="3" NCoef="0" IVar="-1" Cut="0.0000000000000000e+00" cType="1" res="5.3823899477720261e-02" rms="3.7673446536064148e-01" purity="8.0332249402999878e-01" nType="-99"/>
            <Node pos="r" depth="3" NCoef="0" IVar="-1" Cut="0.0000000000000000e+00" cType="1" res="-2.1850390359759331e-02" rms="4.6149086952209473e-01" purity="3.3165052533149719e-01" nType="-99"/>
          </Node>
          <Node pos="r" depth="2" NCoef="0" IVar="9" Cut="-2.3592302799224854e+00" cType="1" res="-1.7721892893314362e-01" rms="4.1184881329536438e-01" purity="2.4361930787563324e-01" nType="0">
            <Node pos="l" depth="3" NCoef="0" IVar="-1" Cut="0.0000000000000000e+00" cType="1" res="-1.3753777369856834e-02" rms="4.6978428959846497e-01" purity="3.8977214694023132e-01" nType="-99"/>
            <Node pos="r" depth="3" NCoef="0" IVar="-1" Cut="0.0000000000000000e+00" cType="1" res="-5.0440508872270584e-02" rms="3.5866200923919678e-01" purity="1.5813784301280975e-01" nType="-99"/>
          </Node>
        </Node>
      </Node>
    </BinaryTree>
    <BinaryTree type="DecisionTree" boostWeight="1.0000000000000000e+00" itree="5">
      <Node pos="s" depth="0" NCoef="0" IVar="9" Cut="-3.0215005874633789e+00" cType="1" res="1.9499850168358535e-04" rms="4.3285939097404480e-01" purity="5.0000000000000000e-01" nType="0">
        <Node pos="l" depth="1" NCoef="0" IVar="3" Cut="2.1543049812316895e+00" cType="1" res="1.5989053249359131e-01" rms="3.8356155157089233e-01" purity="7.6905333995819092e-01" nType="0">
          <Node pos="l" depth="2" NCoef="0" IVar="2" Cut="-5.7330101728439331e-01" cType="1" res="2.3531365394592285e-01" rms="3.0019539594650269e-01" purity="8.9613044261932373e-01" nType="0">
            <Node pos="l" depth="3" NCoef="0" IVar="-1" Cut="0.0000000000000000e+00" cType="1" res="5.9799663722515106e-02" rms="2.5181248784065247e-01" purity="9.3014901876449585e-01" nType="-99"/>
            <Node pos="r" depth="3" NCoef="0" IVar="-1" Cut="0.0000000000000000e+00" cType="1" res="3.4222800284624100e-02" rms="3.8738328218460083e-01" purity="8.0829125642776489e-01" nType="-99"/>
          </Node>
          <Node pos="r" depth="2" NCoef="0" IVar="4" Cut="2.1396515369415283e+00" cType="1" res="-4.2170602828264236e-02" rms="4.9372205138206482e-01" purity="4.2860931158065796e-01" nType="0">
            <Node pos="l" depth="3" NCoef="0" IVar="-1" Cut="0.0000000000000000e+00" cType="1" res="-1.3341307640075684e-02" rms="4.8730137944221497e-01" purity="3.8802963495254517e-01" nType="-99"/>
            <Node pos="r" depth="3" NCoef="0" IVar="-1" Cut="0.0000000000000000e+00" cType="1" res="-3.3275799360126257e-03" rms="4.9920633435249329e-01" purity="4.7183933854103088e-01" nType="-99"/>
          </Node>
        </Node>
        <Node pos="r" depth="1" NCoef="0" IVar="8" Cut="-4.6680560111999512e+00" cType="1" res="-1.1365440487861633e-01" rms="4.3002045154571533e-01" purity="3.0818772315979004e-01" nType="0">
          <Node pos="l" depth="2" NCoef="0" IVar="7" Cut="4.5671544075012207e+00" cType="1" res="-5.1914494484663010e-02" rms="4.4673237204551697e-01" purity="3.7757077813148499e-01" nType="0">
            <Node pos="l" depth="3" NCoef="0" IVar="-1" Cut="0.0000000000000000e+00" cType="1" res="2.3850096389651299e-02" rms="4.5194545388221741e-01" purity="5.7960116863250732e-01" nType="-99"/>
            <Node pos="r" depth="3" NCoef="0" IVar="-1" Cut="0.0000000000000000e+00" cType="1" res="-3.6376461386680603e-02" rms="4.0143766999244690e-01" purity="2.3116682469844818e-01" nType="-99"/>
          </Node>
          <Node pos="r" depth="2" NCoef="0" IVar="3" Cut="1.5358277559280396e+00" cType="1" res="-2.4846144020557404e-01" rms="3.5556855797767639e-01" purity="1.5669220685958862e-01" nType="0">
            <Node pos="l" depth="3" NCoef="0" IVar="-1" Cut="0.0000000000000000e+00" cType="1" res="-3.8264561444520950e-02" rms="4.0584301948547363e-01" purity="2.2072924673557281e-01" nType="-99"/>
            <Node pos="r" depth="3" NCoef="0" IVar="-1" Cut="0.0000000000000000e+00" cType="1" res="-6.3346542418003082e-02" rms="2.9646068811416626e-01" purity="1.0354977846145630e-01" nType="-99"/>
          </Node>
        </Node>
      </Node>
    </BinaryTree>
    <BinaryTree type="DecisionTree" boostWeight="1.0000000000000000e+00" itree="6">
      <Node pos="s" depth="0" NCoef="0" IVar="9" Cut="-3.0215005874633789e+00" cType="1" res="2.2460422769654542e-04" rms="4.2438092827796936e-01" purity="5.0000000000000000e-01" nType="0">
        <Node pos="l" depth="1" NCoef="0" IVar="3" Cut="2.1543049812316895e+00" cType="1" res="1.4421769976615906e-01" rms="3.7939849495887756e-01" purity="7.6905333995819092e-01" nType="0">
          <Node pos="l" depth="2" NCoef="0" IVar="3" Cut="1.7793377637863159e+00" cType="1" res="2.1221818029880524e-01" rms="2.9952535033226013e-01" purity="8.9613044261932373e-01" nType="0">
            <Node pos="l" depth="3" NCoef="0" IVar="-1" Cut="0.0000000000000000e+00" cType="1" res="5.6303657591342926e-02" rms="2.4826306104660034e-01" purity="9.3253684043884277e-01" nType="-99"/>
            <Node pos="r" depth="3" NCoef="0" IVar="-1" Cut="0.0000000000000000e+00" cType="1" res="2.8214806690812111e-02" rms="4.1018930077552795e-01" purity="7.8204387426376343e-01" nType="-99"/>
          </Node>
          <Node pos="r" depth="2" NCoef="0" IVar="4" Cut="2.1396515369415283e+00" cType="1" res="-3.7957970052957535e-02" rms="4.9360442161560059e-01" purity="4.2860931158065796e-01" nType="0">
            <Node pos="l" depth="3" NCoef="0" IVar="-1" Cut="0.0000000000000000e+00" cType="1" res="-1.2040409259498119e-02" rms="4.8730137944221497e-01" purity="3.8802963495254517e-01" nType="-99"/>
            <Node pos="r" depth="3" NCoef="0" IVar="-1" Cut="0.0000000000000000e+00" cType="1" res="-2.9953408520668745e-03" rms="4.9920633435249329e-01" purity="4.7183933854103088e-01" nType="-99"/>
          </Node>
        </Node>
        <Node pos="r" depth="1" NCoef="0" IVar="3" Cut="1.8085287809371948e+00" cType="1" res="-1.0243028402328491e-01" rms="4.2491844296455383e-01" purity="3.0818772315979004e-01" nType="0">
          <Node pos="l" depth="2" NCoef="0" IVar="9" Cut="-1.9552280902862549e+00" cType="1" res="-1.0784544982016087e-02" rms="4.4688126444816589e-01" purity="4.2639076709747314e-01" nType="0">
            <Node pos="l" depth="3" NCoef="0" IVar="-1" Cut="0.0000000000000000e+00" cType="1" res="3.2775759696960449e-02" rms="4.4522207975387573e-01" purity="6.6570699214935303e-01" nType="-99"/>
            <Node pos="r" depth="3" NCoef="0" IVar="-1" Cut="0.0000000000000000e+00" cType="1" res="-3.0462663620710373e-02" rms="4.0152803063392639e-01" purity="2.4381777644157410e-01" nType="-99"/>
          </Node>
          <Node pos="r" depth="2" NCoef="0" IVar="2" Cut="-1.1080564260482788e+00" cType="1" res="-1.9101203978061676e-01" rms="3.8220909237861633e-01" purity="1.9393658638000488e-01" nType="0">
            <Node pos="l" depth="3" NCoef="0" IVar="-1" Cut="0.0000000000000000e+00" cType="1" res="-2.4397548288106918e-02" rms="4.2819988727569580e-01" purity="2.7095106244087219e-01" nType="-99"/>
            <Node pos="r" depth="3" NCoef="0" IVar="-1" Cut="0.0000000000000000e+00" cType="1" res="-5.1736969500780106e-02" rms="3.3733603358268738e-01" purity="1.4110463857650757e-01" nType="-99"/>
          </Node>
        </Node>
      </Node>
    </BinaryTree>
    <BinaryTree type="DecisionTree" boostWeight="1.0000000000000000e+00" itree="7">
      <Node pos="s" depth="0" NCoef="0" IVar="9" Cut="-3.0215005874633789e+00" cType="1" res="2.5572313461452723e-04" rms="4.1711193323135376e-01" purity="5.0000000000000000e-01" nType="0">
        <Node pos="l" depth="1" NCoef="0" IVar="3" Cut="2.1543049812316895e+00" cType="1" res="1.3010901212692261e-01" rms="3.7593930959701538e-01" purity="7.6905333995819092e-01" nType="0">
          <Node pos="l" depth="2" NCoef="0" IVar="2" Cut="-5.7330101728439331e-01" cType="1" res="1.9142784178256989e-01" rms="2.9890024662017822e-01" purity="8.9613044261932373e-01" nType="0">
            <Node pos="l" depth="3" NCoef="0" IVar="-1" Cut="0.0000000000000000e+00" cType="1" res="5.3560536354780197e-02" rms="2.5143706798553467e-01" purity="9.3014901876449585e-01" nType="-99"/>
            <Node pos="r" depth="3" NCoef="0" IVar="-1" Cut="0.0000000000000000e+00" cType="1" res="2.7650283649563789e-02" rms="3.8637951016426086e-01" purity="8.0829125642776489e-01" nType="-99"/>
          </Node>
          <Node pos="r" depth="2" NCoef="0" IVar="4" Cut="2.1396515369415283e+00" cType="1" res="-3.4166254103183746e-02" rms="4.9350905418395996e-01" purity="4.2860931158065796e-01" nType="0">
            <Node pos="l" depth="3" NCoef="0" IVar="-1" Cut="0.0000000000000000e+00" cType="1" res="-1.0866901837289333e-02" rms="4.8730137944221497e-01" purity="3.8802963495254517e-01" nType="-99"/>
            <Node pos="r" depth="3" NCoef="0" IVar="-1" Cut="0.0000000000000000e+00" cType="1" res="-2.6962838601320982e-03" rms="4.9920633435249329e-01" purity="4.7183933854103088e-01" nType="-99"/>
          </Node>
        </Node>
        <Node pos="r" depth="1" NCoef="0" IVar="3" Cut="1.8085287809371948e+00" cType="1" res="-9.2318683862686157e-02" rms="4.2032057046890259e-01" purity="3.0818772315979004e-01" nType="0">
          <Node pos="l" depth="2" NCoef="0" IVar="9" Cut="-1.9552280902862549e+00" cType="1" res="-9.7590005025267601e-03" rms="4.4220462441444397e-01" purity="4.2639076709747314e-01" nType="0">
            <Node pos="l" depth="3" NCoef="0" IVar="-1" Cut="0.0000000000000000e+00" cType="1" res="2.9544841498136520e-02" rms="4.4528645277023315e-01" purity="6.6570699214935303e-01" nType="-99"/>
            <Node pos="r" depth="3" NCoef="0" IVar="-1" Cut="0.0000000000000000e+00" cType="1" res="-2.7839453890919685e-02" rms="4.0168461203575134e-01" purity="2.4381777644157410e-01" nType="-99"/>
          </Node>
          <Node pos="r" depth="2" NCoef="0" IVar="3" Cut="2.5886077880859375e+00" cType="1" res="-1.7211814224720001e-01" rms="3.8140359520912170e-01" purity="1.9393658638000488e-01" nType="0">
            <Node pos="l" depth="3" NCoef="0" IVar="-1" Cut="0.0000000000000000e+00" cType="1" res="-2.5563700124621391e-02" rms="4.1675749421119690e-01" purity="2.5231239199638367e-01" nType="-99"/>
            <Node pos="r" depth="3" NCoef="0" IVar="-1" Cut="0.0000000000000000e+00" cType="1" res="-5.2648931741714478e-02" rms="3.1728690862655640e-01" purity="1.1883075535297394e-01" nType="-99"/>
          </Node>
        </Node>
      </Node>
    </BinaryTree>
    <BinaryTree type="DecisionTree" boostWeight="1.0000000000000000e+00" itree="8">
      <Node pos="s" depth="0" NCoef="0" IVar="3" Cut="2.2364249229431152e+00" cType="1" res="2.7661627973429859e-04" rms="4.1110217571258545e-01" purity="5.0000000000000000e-01" nType="0">
        <Node pos="l" depth="1" NCoef="0" IVar="9" Cut="-2.6631681919097900e+00" cType="1" res="6.4876250922679901e-02" rms="3.9702138304710388e-01" purity="6.1443603038787842e-01" nType="0">
          <Node pos="l" depth="2" NCoef="0" IVar="2" Cut="-4.2482540011405945e-01" cType="1" res="1.7576748132705688e-01" rms="3.3584311604499817e-01" purity="8.4775418043136597e-01" nType="0">
            <Node pos="l" depth="3" NCoef="0" IVar="-1" Cut="0.0000000000000000e+00" cType="1" res="5.1239818334579468e-02" rms="2.9597243666648865e-01" purity="8.9077758789062500e-01" nType="-99"/>
            <Node pos="r" depth="3" NCoef="0" IVar="-1" Cut="0.0000000000000000e+00" cType="1" res="1.2590978294610977e-02" rms="4.2259243130683899e-01" purity="7.0284301042556763e-01" nType="-99"/>
          </Node>
          <Node pos="r" depth="2" NCoef="0" IVar="7" Cut="3.8880162239074707e+00" cType="1" res="-7.3457151651382446e-02" rms="4.2317923903465271e-01" purity="3.2337877154350281e-01" nType="0">
            <Node pos="l" depth="3" NCoef="0" IVar="-1" Cut="0.0000000000000000e+00" cType="1" res="3.8594089448451996e-02" rms="4.1497445106506348e-01" purity="7.0510715246200562e-01" nType="-99"/>
            <Node pos="r" depth="3" NCoef="0" IVar="-1" Cut="0.0000000000000000e+00" cType="1" res="-2.9542226344347000e-02" rms="4.0139493346214294e-01" purity="2.3362635076045990e-01" nType="-99"/>
          </Node>
        </Node>
        <Node pos="r" depth="1" NCoef="0" IVar="2" Cut="-5.1086455583572388e-01" cType="1" res="-1.5119409561157227e-01" rms="4.0368020534515381e-01" purity="2.3167489469051361e-01" nType="0">
          <Node pos="l" depth="2" NCoef="0" IVar="3" Cut="2.6060781478881836e+00" cType="1" res="-8.6671106517314911e-02" rms="4.3732306361198425e-01" purity="3.0059644579887390e-01" nType="0">
            <Node pos="l" depth="3" NCoef="0" IVar="-1" Cut="0.0000000000000000e+00" cType="1" res="3.9735008031129837e-03" rms="4.6804752945899963e-01" purity="4.2168217897415161e-01" nType="-99"/>
            <Node pos="r" depth="3" NCoef="0" IVar="-1" Cut="0.0000000000000000e+00" cType="1" res="-3.5233695060014725e-02" rms="3.9691752195358276e-01" purity="2.1365113556385040e-01" nType="-99"/>
          </Node>
          <Node pos="r" depth="2" NCoef="0" IVar="-1" Cut="0.0000000000000000e+00" cType="1" res="-5.6894525885581970e-02" rms="3.0796831846237183e-01" purity="1.1317279189825058e-01" nType="-99"/>
        </Node>
      </Node>
    </BinaryTree>
    <BinaryTree type="DecisionTree" boostWeight="1.0000000000000000e+00" itree="9">
      <Node pos="s" depth="0" NCoef="0" IVar="8" Cut="-4.3681321144104004e+00" cType="1" res="2.8140796348452568e-04" rms="4.0405943989753723e-01" purity="5.0000000000000000e-01" nType="0">
        <Node pos="l" depth="1" NCoef="0" IVar="3" Cut="2.6275904178619385e+00" cType="1" res="4.4403288513422012e-02" rms="4.0206441283226013e-01" purity="5.7255846261978149e-01" nType="0">
          <Node pos="l" depth="2" NCoef="0" IVar="1" Cut="2.7038109302520752e+00" cType="1" res="8.5401087999343872e-02" rms="3.9399975538253784e-01" purity="6.4751434326171875e-01" nType="0">
            <Node pos="l" depth="3" NCoef="0" IVar="-1" Cut="0.0000000000000000e+00" cType="1" res="3.6474339663982391e-02" rms="3.5601967573165894e-01" purity="7.6370668411254883e-01" nType="-99"/>
            <Node pos="r" depth="3" NCoef="0" IVar="-1" Cut="0.0000000000000000e+00" cType="1" res="-1.5419390052556992e-02" rms="4.3037936091423035e-01" purity="3.8350155949592590e-01" nType="-99"/>
          </Node>
          <Node pos="r" depth="2" NCoef="0" IVar="-1" Cut="0.0000000000000000e+00" cType="1" res="-3.7458658218383789e-02" rms="3.7565311789512634e-01" purity="1.8435181677341461e-01" nType="-99"/>
        </Node>
        <Node pos="r" depth="1" NCoef="0" IVar="3" Cut="1.4682824611663818e+00" cType="1" res="-1.9311760365962982e-01" rms="3.5267138481140137e-01" purity="1.8195521831512451e-01" nType="0">
          <Node pos="l" depth="2" NCoef="0" IVar="-1" Cut="0.0000000000000000e+00" cType="1" res="-2.8776993975043297e-02" rms="3.9712974429130554e-01" purity="2.4660694599151611e-01" nType="-99"/>
          <Node pos="r" depth="2" NCoef="0" IVar="-1" Cut="0.0000000000000000e+00" cType="1" res="-5.2885651588439941e-02" rms="3.1254711747169495e-01" purity="1.3945396244525909e-01" nType="-99"/>
        </Node>
      </Node>
    </BinaryTree>
    <BinaryTree type="DecisionTree" boostWeight="1.0000000000000000e+00" itree="10">
      <Node pos="s" depth="0" NCoef="0" IVar="9" Cut="-3.0215005874633789e+00" cType="1" res="2.3634904937352985e-04" rms="3.9859995245933533e-01" purity="5.0000000000000000e-01" nType="0">
        <Node pos="l" depth="1" NCoef="0" IVar="3" Cut="2.1543049812316895e+00" cType="1" res="1.0250506550073624e-01" rms="3.6358967423439026e-01" purity="7.6905333995819092e-01" nType="0">
          <Node pos="l" depth="2" NCoef="0" IVar="3" Cut="1.4043710231781006e+00" cType="1" res="1.4593605697154999e-01" rms="2.9642087221145630e-01" purity="8.9613044261932373e-01" nType="0">
            <Node pos="l" depth="3" NCoef="0" IVar="-1" Cut="0.0000000000000000e+00" cType="1" res="5.3677603602409363e-02" rms="1.9677929580211639e-01" purity="9.5887058973312378e-01" nType="-99"/>
            <Node pos="r" depth="3" NCoef="0" IVar="-1" Cut="0.0000000000000000e+00" cType="1" res="2.5759091600775719e-02" rms="3.6516383290290833e-01" purity="8.3283621072769165e-01" nType="-99"/>
          </Node>
          <Node pos="r" depth="2" NCoef="0" IVar="4" Cut="2.1396515369415283e+00" cType="1" res="-1.3848040252923965e-02" rms="4.8205116391181946e-01" purity="4.2860931158065796e-01" nType="0">
            <Node pos="l" depth="3" NCoef="0" IVar="-1" Cut="0.0000000000000000e+00" cType="1" res="-6.2085599638521671e-03" rms="4.7598430514335632e-01" purity="3.8802963495254517e-01" nType="-99"/>
            <Node pos="r" depth="3" NCoef="0" IVar="-1" Cut="0.0000000000000000e+00" cType="1" res="6.9975282531231642e-04" rms="4.8783561587333679e-01" purity="4.7183933854103088e-01" nType="-99"/>
          </Node>
        </Node>
        <Node pos="r" depth="1" NCoef="0" IVar="3" Cut="9.8946726322174072e-01" cType="1" res="-7.2672590613365173e-02" rms="4.0636643767356873e-01" purity="3.0818772315979004e-01" nType="0">
          <Node pos="l" depth="2" NCoef="0" IVar="7" Cut="5.2438521385192871e+00" cType="1" res="6.8164475262165070e-02" rms="4.2740800976753235e-01" purity="4.8536902666091919e-01" nType="0">
            <Node pos="l" depth="3" NCoef="0" IVar="-1" Cut="0.0000000000000000e+00" cType="1" res="2.2721253335475922e-02" rms="3.9368137717247009e-01" purity="5.7280689477920532e-01" nType="-99"/>
            <Node pos="r" depth="3" NCoef="0" IVar="-1" Cut="0.0000000000000000e+00" cType="1" res="6.2708021141588688e-03" rms="4.5977404713630676e-01" purity="3.8512396812438965e-01" nType="-99"/>
          </Node>
          <Node pos="r" depth="2" NCoef="0" IVar="2" Cut="-7.4056893587112427e-01" cType="1" res="-1.1167668551206589e-01" rms="3.9148491621017456e-01" purity="2.5911828875541687e-01" nType="0">
            <Node pos="l" depth="3" NCoef="0" IVar="-1" Cut="0.0000000000000000e+00" cType="1" res="-1.0709691792726517e-02" rms="4.2133197188377380e-01" purity="3.3539828658103943e-01" nType="-99"/>
            <Node pos="r" depth="3" NCoef="0" IVar="-1" Cut="0.0000000000000000e+00" cType="1" res="-4.4195592403411865e-02" rms="3.3078271150588989e-01" purity="1.5935334563255310e-01" nType="-99"/>
          </Node>
        </Node>
      </Node>
    </BinaryTree>
    <BinaryTree type="DecisionTree" boostWeight="1.0000000000000000e+00" itree="11">
      <Node pos="s" depth="0" NCoef="0" IVar="8" Cut="-4.3681321144104004e+00" cType="1" res="2.6085827266797423e-04" rms="3.9491635560989380e-01" purity="5.0000000000000000e-01" nType="0">
        <Node pos="l" depth="1" NCoef="0" IVar="3" Cut="2.6275904178619385e+00" cType="1" res="3.9050444960594177e-02" rms="3.9432427287101746e-01" purity="5.7255846261978149e-01" nType="0">
          <Node pos="l" depth="2" NCoef="0" IVar="1" Cut="2.7038109302520752e+00" cType="1" res="7.4214033782482147e-02" rms="3.8823056221008301e-01" purity="6.4751434326171875e-01" nType="0">
            <Node pos="l" depth="3" NCoef="0" IVar="-1" Cut="0.0000000000000000e+00" cType="1" res="3.2782714813947678e-02" rms="3.5378006100654602e-01" purity="7.6370668411254883e-01" nType="-99"/>
            <Node pos="r" depth="3" NCoef="0" IVar="-1" Cut="0.0000000000000000e+00" cType="1" res="-1.3281530700623989e-02" rms="4.2790707945823669e-01" purity="3.8350155949592590e-01" nType="-99"/>
          </Node>
          <Node pos="r" depth="2" NCoef="0" IVar="-1" Cut="0.0000000000000000e+00" cType="1" res="-3.3148672431707382e-02" rms="3.7499159574508667e-01" purity="1.8435181677341461e-01" nType="-99"/>
        </Node>
        <Node pos="r" depth="1" NCoef="0" IVar="3" Cut="1.4682824611663818e+00" cType="1" res="-1.6976515948772430e-01" rms="3.5000440478324890e-01" purity="1.8195521831512451e-01" nType="0">
          <Node pos="l" depth="2" NCoef="0" IVar="-1" Cut="0.0000000000000000e+00" cType="1" res="-2.6652064174413681e-02" rms="3.9555913209915161e-01" purity="2.4660694599151611e-01" nType="-99"/>
          <Node pos="r" depth="2" NCoef="0" IVar="-1" Cut="0.0000000000000000e+00" cType="1" res="-4.7962613403797150e-02" rms="3.1141385436058044e-01" purity="1.3945396244525909e-01" nType="-99"/>
        </Node>
      </Node>
    </BinaryTree>
    <BinaryTree type="DecisionTree" boostWeight="1.0000000000000000e+00" itree="12">
      <Node pos="s" depth="0" NCoef="0" IVar="9" Cut="-3.0215005874633789e+00" cType="1" res="2.1707675477955490e-04" rms="3.9077368378639221e-01" purity="5.0000000000000000e-01" nType="0">
        <Node pos="l" depth="1" NCoef="0" IVar="2" Cut="-5.7330101728439331e-01" cType="1" res="8.7833434343338013e-02" rms="3.5898515582084656e-01" purity="7.6905333995819092e-01" nType="0">
          <Node pos="l" depth="2" NCoef="0" IVar="3" Cut="1.6882809400558472e+00" cType="1" res="1.3287296891212463e-01" rms="3.2573691010475159e-01" purity="8.3212196826934814e-01" nType="0">
            <Node pos="l" depth="3" NCoef="0" IVar="-1" Cut="0.0000000000000000e+00" cType="1" res="5.0445955246686935e-02" rms="1.9311097264289856e-01" purity="9.6060979366302490e-01" nType="-99"/>
            <Node pos="r" depth="3" NCoef="0" IVar="-1" Cut="0.0000000000000000e+00" cType="1" res="2.3499147966504097e-02" rms="4.2167490720748901e-01" purity="6.9473892450332642e-01" nType="-99"/>
          </Node>
          <Node pos="r" depth="2" NCoef="0" IVar="2" Cut="-1.6699005663394928e-01" cType="1" res="-1.7261821776628494e-02" rms="4.0769305825233459e-01" purity="6.2188893556594849e-01" nType="0">
            <Node pos="l" depth="3" NCoef="0" IVar="-1" Cut="0.0000000000000000e+00" cType="1" res="1.9462659955024719e-02" rms="3.6908140778541565e-01" purity="7.4220913648605347e-01" nType="-99"/>
            <Node pos="r" depth="3" NCoef="0" IVar="-1" Cut="0.0000000000000000e+00" cType="1" res="-2.1703181788325310e-02" rms="4.2052003741264343e-01" purity="5.2950340509414673e-01" nType="-99"/>
          </Node>
        </Node>
        <Node pos="r" depth="1" NCoef="0" IVar="7" Cut="3.8904569149017334e+00" cType="1" res="-6.2245968729257584e-02" rms="4.0040114521980286e-01" purity="3.0818772315979004e-01" nType="0">
          <Node pos="l" depth="2" NCoef="0" IVar="5" Cut="5.5954504013061523e+00" cType="1" res="7.2104409337043762e-02" rms="4.0740045905113220e-01" purity="5.3940010070800781e-01" nType="0">
            <Node pos="l" depth="3" NCoef="0" IVar="-1" Cut="0.0000000000000000e+00" cType="1" res="4.7007378190755844e-02" rms="3.5974913835525513e-01" purity="7.7641129493713379e-01" nType="-99"/>
            <Node pos="r" depth="3" NCoef="0" IVar="-1" Cut="0.0000000000000000e+00" cType="1" res="-1.1234683915972710e-02" rms="4.0571555495262146e-01" purity="3.3800211548805237e-01" nType="-99"/>
          </Node>
          <Node pos="r" depth="2" NCoef="0" IVar="2" Cut="-1.0829192399978638e-01" cType="1" res="-9.9764689803123474e-02" rms="3.9024841785430908e-01" purity="2.4361930787563324e-01" nType="0">
            <Node pos="l" depth="3" NCoef="0" IVar="-1" Cut="0.0000000000000000e+00" cType="1" res="-1.4342924579977989e-02" rms="4.1158935427665710e-01" purity="2.8801575303077698e-01" nType="-99"/>
            <Node pos="r" depth="3" NCoef="0" IVar="-1" Cut="0.0000000000000000e+00" cType="1" res="-5.2926886826753616e-02" rms="2.7534359693527222e-01" purity="9.6239857375621796e-02" nType="-99"/>
          </Node>
        </Node>
      </Node>
    </BinaryTree>
    <BinaryTree type="DecisionTree" boostWeight="1.0000000000000000e+00" itree="13">
      <Node pos="s" depth="0" NCoef="0" IVar="3" Cut="2.2364249229431152e+00" cType="1" res="2.3189299099612981e-04" rms="3.8703468441963196e-01" purity="5.0000000000000000e-01" nType="0">
        <Node pos="l" depth="1" NCoef="0" IVar="9" Cut="-1.8295257091522217e+00" cType="1" res="4.6566553413867950e-02" rms="3.7564945220947266e-01" purity="6.1443603038787842e-01" nType="0">
          <Node pos="l" depth="2" NCoef="0" IVar="7" Cut="4.8508038520812988e+00" cType="1" res="1.0250853002071381e-01" rms="3.6162328720092773e-01" purity="7.5138258934020996e-01" nType="0">
            <Node pos="l" depth="3" NCoef="0" IVar="-1" Cut="0.0000000000000000e+00" cType="1" res="4.3665774166584015e-02" rms="3.0430185794830322e-01" purity="8.5513234138488770e-01" nType="-99"/>
            <Node pos="r" depth="3" NCoef="0" IVar="-1" Cut="0.0000000000000000e+00" cType="1" res="3.3876185771077871e-03" rms="4.1460785269737244e-01" purity="6.0326123237609863e-01" nType="-99"/>
          </Node>
          <Node pos="r" depth="2" NCoef="0" IVar="8" Cut="-5.9185457229614258e+00" cType="1" res="-1.1724840849637985e-01" rms="3.6796045303344727e-01" purity="2.1341514587402344e-01" nType="0">
            <Node pos="l" depth="3" NCoef="0" IVar="-1" Cut="0.0000000000000000e+00" cType="1" res="-3.2312106341123581e-03" rms="4.0574824810028076e-01" purity="3.5537320375442505e-01" nType="-99"/>
            <Node pos="r" depth="3" NCoef="0" IVar="-1" Cut="0.0000000000000000e+00" cType="1" res="-4.1508093476295471e-02" rms="3.3262896537780762e-01" purity="1.3639900088310242e-01" nType="-99"/>
          </Node>
        </Node>
        <Node pos="r" depth="1" NCoef="0" IVar="2" Cut="-5.1086455583572388e-01" cType="1" res="-1.0841182619333267e-01" rms="3.9155948162078857e-01" purity="2.3167489469051361e-01" nType="0">
          <Node pos="l" depth="2" NCoef="0" IVar="3" Cut="2.6060781478881836e+00" cType="1" res="-5.8334361761808395e-02" rms="4.2681720852851868e-01" purity="3.0059644579887390e-01" nType="0">
            <Node pos="l" depth="3" NCoef="0" IVar="-1" Cut="0.0000000000000000e+00" cType="1" res="2.7177620213478804e-03" rms="4.5819762349128723e-01" purity="4.2168217897415161e-01" nType="-99"/>
            <Node pos="r" depth="3" NCoef="0" IVar="-1" Cut="0.0000000000000000e+00" cType="1" res="-2.5605872273445129e-02" rms="3.9495795965194702e-01" purity="2.1365113556385040e-01" nType="-99"/>
          </Node>
          <Node pos="r" depth="2" NCoef="0" IVar="-1" Cut="0.0000000000000000e+00" cType="1" res="-4.7040466219186783e-02" rms="3.0328604578971863e-01" purity="1.1317279189825058e-01" nType="-99"/>
        </Node>
      </Node>
    </BinaryTree>
    <BinaryTree type="DecisionTree" boostWeight="1.0000000000000000e+00" itree="14">
      <Node pos="s" depth="0" NCoef="0" IVar="8" Cut="-4.3681321144104004e+00" cType="1" res="2.0408521231729537e-04" rms="3.8278609514236450e-01" purity="5.0000000000000000e-01" nType="0">
        <Node pos="l" depth="1" NCoef="0" IVar="2" Cut="3.7602555751800537e-01" cType="1" res="3.1915396451950073e-02" rms="3.8363099098205566e-01" purity="5.7255846261978149e-01" nType="0">
          <Node pos="l" depth="2" NCoef="0" IVar="3" Cut="1.8085287809371948e+00" cType="1" res="5.4506368935108185e-02" rms="3.8103273510932922e-01" purity="6.0880249738693237e-01" nType="0">
            <Node pos="l" depth="3" NCoef="0" IVar="-1" Cut="0.0000000000000000e+00" cType="1" res="2.9818069189786911e-02" rms="3.2546138763427734e-01" purity="7.6938980817794800e-01" nType="-99"/>
            <Node pos="r" depth="3" NCoef="0" IVar="-1" Cut="0.0000000000000000e+00" cType="1" res="-2.7533045504242182e-03" rms="4.2775002121925354e-01" purity="4.2082050442695618e-01" nType="-99"/>
          </Node>
          <Node pos="r" depth="2" NCoef="0" IVar="-1" Cut="0.0000000000000000e+00" cType="1" res="-4.2321618646383286e-02" rms="3.4445211291313171e-01" purity="2.4413827061653137e-01" nType="-99"/>
        </Node>
        <Node pos="r" depth="1" NCoef="0" IVar="3" Cut="1.4682824611663818e+00" cType="1" res="-1.3879579305648804e-01" rms="3.4634950757026672e-01" purity="1.8195521831512451e-01" nType="0">
          <Node pos="l" depth="2" NCoef="0" IVar="-1" Cut="0.0000000000000000e+00" cType="1" res="-2.0804682746529579e-02" rms="3.9198347926139832e-01" purity="2.4660694599151611e-01" nType="-99"/>
          <Node pos="r" depth="2" NCoef="0" IVar="-1" Cut="0.0000000000000000e+00" cType="1" res="-4.3206404894590378e-02" rms="3.0767372250556946e-01" purity="1.3945396244525909e-01" nType="-99"/>
        </Node>
      </Node>
    </BinaryTree>
    <BinaryTree type="DecisionTree" boostWeight="1.0000000000000000e+00" itree="15">
      <Node pos="s" depth="0" NCoef="0" IVar="9" Cut="-3.0215005874633789e+00" cType="1" res="1.7221804591827095e-04" rms="3.8004675507545471e-01" purity="5.0000000000000000e-01" nType="0">
        <Node pos="l" depth="1" NCoef="0" IVar="2" Cut="-5.7330101728439331e-01" cType="1" res="7.2536326944828033e-02" rms="3.5183030366897583e-01" purity="7.6905333995819092e-01" nType="0">
          <Node pos="l" depth="2" NCoef="0" IVar="5" Cut="6.1495413780212402e+00" cType="1" res="1.1035219579935074e-01" rms="3.2301267981529236e-01" purity="8.3212196826934814e-01" nType="0">
            <Node pos="l" depth="3" NCoef="0" IVar="-1" Cut="0.0000000000000000e+00" cType="1" res="3.6292273551225662e-02" rms="2.9430580139160156e-01" purity="8.6718237400054932e-01" nType="-99"/>
            <Node pos="r" depth="3" NCoef="0" IVar="-1" Cut="0.0000000000000000e+00" cType="1" res="1.7250375822186470e-02" rms="4.0856227278709412e-01" purity="7.0383399724960327e-01" nType="-99"/>
          </Node>
          <Node pos="r" depth="2" NCoef="0" IVar="6" Cut="2.6290221214294434e+00" cType="1" res="-1.5703240409493446e-02" rms="3.9754238724708557e-01" purity="6.2188893556594849e-01" nType="0">
            <Node pos="l" depth="3" NCoef="0" IVar="-1" Cut="0.0000000000000000e+00" cType="1" res="1.8590083345770836e-02" rms="3.6952731013298035e-01" purity="7.3854625225067139e-01" nType="-99"/>
            <Node pos="r" depth="3" NCoef="0" IVar="-1" Cut="0.0000000000000000e+00" cType="1" res="-2.0479084923863411e-02" rms="4.0483328700065613e-01" purity="5.3418219089508057e-01" nType="-99"/>
          </Node>
        </Node>
        <Node pos="r" depth="1" NCoef="0" IVar="7" Cut="4.5671544075012207e+00" cType="1" res="-5.1417265087366104e-02" rms="3.9084938168525696e-01" purity="3.0818772315979004e-01" nType="0">
          <Node pos="l" depth="2" NCoef="0" IVar="8" Cut="-5.0362491607666016e+00" cType="1" res="2.4858007207512856e-02" rms="3.9398041367530823e-01" purity="4.3464216589927673e-01" nType="0">
            <Node pos="l" depth="3" NCoef="0" IVar="-1" Cut="0.0000000000000000e+00" cType="1" res="2.9738770797848701e-02" rms="4.0052157640457153e-01" purity="5.9891927242279053e-01" nType="-99"/>
            <Node pos="r" depth="3" NCoef="0" IVar="-1" Cut="0.0000000000000000e+00" cType="1" res="-3.9132051169872284e-02" rms="3.0761936306953430e-01" purity="1.5635418891906738e-01" nType="-99"/>
          </Node>
          <Node pos="r" depth="2" NCoef="0" IVar="3" Cut="1.4490101337432861e+00" cType="1" res="-1.0405608266592026e-01" rms="3.7984406948089600e-01" purity="2.2091946005821228e-01" nType="0">
            <Node pos="l" depth="3" NCoef="0" IVar="-1" Cut="0.0000000000000000e+00" cType="1" res="-5.9749572537839413e-03" rms="4.2779663205146790e-01" purity="3.2683470845222473e-01" nType="-99"/>
            <Node pos="r" depth="3" NCoef="0" IVar="-1" Cut="0.0000000000000000e+00" cType="1" res="-3.8347415626049042e-02" rms="3.3380603790283203e-01" purity="1.4981432259082794e-01" nType="-99"/>
          </Node>
        </Node>
      </Node>
    </BinaryTree>
    <BinaryTree type="DecisionTree" boostWeight="1.0000000000000000e+00" itree="16">
      <Node pos="s" depth="0" NCoef="0" IVar="3" Cut="2.2364249229431152e+00" cType="1" res="1.3451158883981407e-04" rms="3.7649706006050110e-01" purity="5.0000000000000000e-01" nType="0">
        <Node pos="l" depth="1" NCoef="0" IVar="9" Cut="-1.8295257091522217e+00" cType="1" res="3.8289826363325119e-02" rms="3.6590558290481567e-01" purity="6.1443603038787842e-01" nType="0">
          <Node pos="l" depth="2" NCoef="0" IVar="2" Cut="-4.2482540011405945e-01" cType="1" res="8.6053065955638885e-02" rms="3.5535222291946411e-01" purity="7.5138258934020996e-01" nType="0">
            <Node pos="l" depth="3" NCoef="0" IVar="-1" Cut="0.0000000000000000e+00" cType="1" res="3.4239225089550018e-02" rms="3.3025950193405151e-01" purity="8.1241971254348755e-01" nType="-99"/>
            <Node pos="r" depth="3" NCoef="0" IVar="-1" Cut="0.0000000000000000e+00" cType="1" res="-6.4348652958869934e-03" rms="4.0223804116249084e-01" purity="5.6593638658523560e-01" nType="-99"/>
          </Node>
          <Node pos="r" depth="2" NCoef="0" IVar="3" Cut="8.8808387517929077e-01" cType="1" res="-1.0157533735036850e-01" rms="3.6046290397644043e-01" purity="2.1341514587402344e-01" nType="0">
            <Node pos="l" depth="3" NCoef="0" IVar="-1" Cut="0.0000000000000000e+00" cType="1" res="-4.2290668934583664e-03" rms="4.1474565863609314e-01" purity="3.1146427989006042e-01" nType="-99"/>
            <Node pos="r" depth="3" NCoef="0" IVar="-1" Cut="0.0000000000000000e+00" cType="1" res="-3.9705794304609299e-02" rms="3.0320668220520020e-01" purity="1.4456050097942352e-01" nType="-99"/>
          </Node>
        </Node>
        <Node pos="r" depth="1" NCoef="0" IVar="2" Cut="-5.1086455583572388e-01" cType="1" res="-8.9330591261386871e-02" rms="3.8570669293403625e-01" purity="2.3167489469051361e-01" nType="0">
          <Node pos="l" depth="2" NCoef="0" IVar="3" Cut="2.6060781478881836e+00" cType="1" res="-4.7745808959007263e-02" rms="4.2167469859123230e-01" purity="3.0059644579887390e-01" nType="0">
            <Node pos="l" depth="3" NCoef="0" IVar="-1" Cut="0.0000000000000000e+00" cType="1" res="3.0835533980280161e-03" rms="4.5205631852149963e-01" purity="4.2168217897415161e-01" nType="-99"/>
            <Node pos="r" depth="3" NCoef="0" IVar="-1" Cut="0.0000000000000000e+00" cType="1" res="-2.2434277459979057e-02" rms="3.9242321252822876e-01" purity="2.1365113556385040e-01" nType="-99"/>
          </Node>
          <Node pos="r" depth="2" NCoef="0" IVar="-1" Cut="0.0000000000000000e+00" cType="1" res="-4.1802685707807541e-02" rms="3.0125343799591064e-01" purity="1.1317279189825058e-01" nType="-99"/>
        </Node>
      </Node>
    </BinaryTree>
    <BinaryTree type="DecisionTree" boostWeight="1.0000000000000000e+00" itree="17">
      <Node pos="s" depth="0" NCoef="0" IVar="3" Cut="1.3784637451171875e+00" cType="1" res="1.0638492676662281e-04" rms="3.7336811423301697e-01" purity="5.0000000000000000e-01" nType="0">
        <Node pos="l" depth="1" NCoef="0" IVar="9" Cut="-1.9494452476501465e+00" cType="1" res="7.6471187174320221e-02" rms="3.3123183250427246e-01" purity="6.7604851722717285e-01" nType="0">
          <Node pos="l" depth="2" NCoef="0" IVar="3" Cut="1.0404260158538818e+00" cType="1" res="1.4599612355232239e-01" rms="2.6691573858261108e-01" purity="8.9920163154602051e-01" nType="0">
            <Node pos="l" depth="3" NCoef="0" IVar="-1" Cut="0.0000000000000000e+00" cType="1" res="5.1979459822177887e-02" rms="2.2919070720672607e-01" purity="9.3266707658767700e-01" nType="-99"/>
            <Node pos="r" depth="3" NCoef="0" IVar="-1" Cut="0.0000000000000000e+00" cType="1" res="3.1214324757456779e-02" rms="3.1557324528694153e-01" purity="8.4397292137145996e-01" nType="-99"/>
          </Node>
          <Node pos="r" depth="2" NCoef="0" IVar="-1" Cut="0.0000000000000000e+00" cType="1" res="-1.1936359107494354e-02" rms="3.9328089356422424e-01" purity="2.7340531349182129e-01" nType="-99"/>
        </Node>
        <Node pos="r" depth="1" NCoef="0" IVar="7" Cut="4.9652266502380371e+00" cType="1" res="-3.9611205458641052e-02" rms="3.8760122656822205e-01" purity="4.0843656659126282e-01" nType="0">
          <Node pos="l" depth="2" NCoef="0" IVar="9" Cut="-2.5306851863861084e+00" cType="1" res="8.4123304113745689e-03" rms="3.9107343554496765e-01" purity="4.7349822521209717e-01" nType="0">
            <Node pos="l" depth="3" NCoef="0" IVar="-1" Cut="0.0000000000000000e+00" cType="1" res="1.6890751197934151e-02" rms="3.9972755312919617e-01" purity="6.2479078769683838e-01" nType="-99"/>
            <Node pos="r" depth="3" NCoef="0" IVar="-1" Cut="0.0000000000000000e+00" cType="1" res="-2.3404527455568314e-02" rms="3.5365873575210571e-01" purity="2.1522806584835052e-01" nType="-99"/>
          </Node>
          <Node pos="r" depth="2" NCoef="0" IVar="9" Cut="-2.5673723220825195e+00" cType="1" res="-1.2535125017166138e-01" rms="3.6597624421119690e-01" purity="2.9227706789970398e-01" nType="0">
            <Node pos="l" depth="3" NCoef="0" IVar="-1" Cut="0.0000000000000000e+00" cType="1" res="-1.9985223188996315e-02" rms="4.1667690873146057e-01" purity="4.5336076617240906e-01" nType="-99"/>
            <Node pos="r" depth="3" NCoef="0" IVar="-1" Cut="0.0000000000000000e+00" cType="1" res="-4.7245353460311890e-02" rms="2.8081172704696655e-01" purity="9.0891771018505096e-02" nType="-99"/>
          </Node>
        </Node>
      </Node>
    </BinaryTree>
    <BinaryTree type="DecisionTree" boostWeight="1.0000000000000000e+00" itree="18">
      <Node pos="s" depth="0" NCoef="0" IVar="2" Cut="-8.3761173486709595e-01" cType="1" res="1.1065529542975128e-04" rms="3.7028741836547852e-01" purity="5.0000000000000000e-01" nType="0">
        <Node pos="l" depth="1" NCoef="0" IVar="9" Cut="-1.9678508043289185e+00" cType="1" res="4.7646701335906982e-02" rms="3.7295579910278320e-01" purity="5.8446794748306274e-01" nType="0">
          <Node pos="l" depth="2" NCoef="0" IVar="3" Cut="2.1615214347839355e+00" cType="1" res="8.3053156733512878e-02" rms="3.6309552192687988e-01" purity="6.9754076004028320e-01" nType="0">
            <Node pos="l" depth="3" NCoef="0" IVar="-1" Cut="0.0000000000000000e+00" cType="1" res="3.4976176917552948e-02" rms="3.1091645359992981e-01" purity="8.4793812036514282e-01" nType="-99"/>
            <Node pos="r" depth="3" NCoef="0" IVar="-1" Cut="0.0000000000000000e+00" cType="1" res="2.8311552014201880e-03" rms="4.4431301951408386e-01" purity="3.8559243083000183e-01" nType="-99"/>
          </Node>
          <Node pos="r" depth="2" NCoef="0" IVar="-1" Cut="0.0000000000000000e+00" cType="1" res="-1.4516707509756088e-02" rms="3.8190349936485291e-01" purity="2.4711531400680542e-01" nType="-99"/>
        </Node>
        <Node pos="r" depth="1" NCoef="0" IVar="6" Cut="3.5245299339294434e+00" cType="1" res="-5.9372477233409882e-02" rms="3.5814136266708374e-01" purity="3.9430302381515503e-01" nType="0">
          <Node pos="l" depth="2" NCoef="0" IVar="9" Cut="-3.3485393524169922e+00" cType="1" res="-1.9125245511531830e-02" rms="3.6384651064872742e-01" purity="4.5153936743736267e-01" nType="0">
            <Node pos="l" depth="3" NCoef="0" IVar="-1" Cut="0.0000000000000000e+00" cType="1" res="2.6078507304191589e-02" rms="3.2552105188369751e-01" purity="8.1010550260543823e-01" nType="-99"/>
            <Node pos="r" depth="3" NCoef="0" IVar="-1" Cut="0.0000000000000000e+00" cType="1" res="-1.6300162300467491e-02" rms="3.6897483468055725e-01" purity="3.0710563063621521e-01" nType="-99"/>
          </Node>
          <Node pos="r" depth="2" NCoef="0" IVar="-1" Cut="0.0000000000000000e+00" cType="1" res="-4.0622547268867493e-02" rms="3.2425135374069214e-01" purity="2.5683981180191040e-01" nType="-99"/>
        </Node>
      </Node>
    </BinaryTree>
    <BinaryTree type="DecisionTree" boostWeight="1.0000000000000000e+00" itree="19">
      <Node pos="s" depth="0" NCoef="0" IVar="8" Cut="-4.3681321144104004e+00" cType="1" res="1.2534123379737139e-04" rms="3.6792752146720886e-01" purity="5.0000000000000000e-01" nType="0">
        <Node pos="l" depth="1" NCoef="0" IVar="2" Cut="3.7602555751800537e-01" cType="1" res="2.4493783712387085e-02" rms="3.7000524997711182e-01" purity="5.7255846261978149e-01" nType="0">
          <Node pos="l" depth="2" NCoef="0" IVar="7" Cut="3.6100473403930664e+00" cType="1" res="4.2149111628532410e-02" rms="3.6921906471252441e-01" purity="6.0880249738693237e-01" nType="0">
            <Node pos="l" depth="3" NCoef="0" IVar="-1" Cut="0.0000000000000000e+00" cType="1" res="4.3433383107185364e-02" rms="3.5401585698127747e-01" purity="7.6679313182830811e-01" nType="-99"/>
            <Node pos="r" depth="3" NCoef="0" IVar="-1" Cut="0.0000000000000000e+00" cType="1" res="6.2437150627374649e-03" rms="3.6736997961997986e-01" purity="5.8625257015228271e-01" nType="-99"/>
          </Node>
          <Node pos="r" depth="2" NCoef="0" IVar="-1" Cut="0.0000000000000000e+00" cType="1" res="-3.5677146166563034e-02" rms="3.3727067708969116e-01" purity="2.4413827061653137e-01" nType="-99"/>
        </Node>
        <Node pos="r" depth="1" NCoef="0" IVar="7" Cut="4.8394103050231934e+00" cType="1" res="-1.0668861865997314e-01" rms="3.3858230710029602e-01" purity="1.8195521831512451e-01" nType="0">
          <Node pos="l" depth="2" NCoef="0" IVar="-1" Cut="0.0000000000000000e+00" cType="1" res="-3.9125416427850723e-02" rms="2.7928614616394043e-01" purity="1.4823167026042938e-01" nType="-99"/>
          <Node pos="r" depth="2" NCoef="0" IVar="-1" Cut="0.0000000000000000e+00" cType="1" res="-1.7865518108010292e-02" rms="3.9037472009658813e-01" purity="2.1924951672554016e-01" nType="-99"/>
        </Node>
      </Node>
    </BinaryTree>
    <BinaryTree type="DecisionTree" boostWeight="1.0000000000000000e+00" itree="20">
      <Node pos="s" depth="0" NCoef="0" IVar="3" Cut="1.3784637451171875e+00" cType="1" res="8.8214655988849699e-05" rms="3.6608868837356567e-01" purity="5.0000000000000000e-01" nType="0">
        <Node pos="l" depth="1" NCoef="0" IVar="9" Cut="-1.9494452476501465e+00" cType="1" res="6.8339303135871887e-02" rms="3.2385542988777161e-01" purity="6.7604851722717285e-01" nType="0">
          <Node pos="l" depth="2" NCoef="0" IVar="3" Cut="1.0404260158538818e+00" cType="1" res="1.2537266314029694e-01" rms="2.6391765475273132e-01" purity="8.9920163154602051e-01" nType="0">
            <Node pos="l" depth="3" NCoef="0" IVar="-1" Cut="0.0000000000000000e+00" cType="1" res="4.8507135361433029e-02" rms="2.2665117681026459e-01" purity="9.3266707658767700e-01" nType="-99"/>
            <Node pos="r" depth="3" NCoef="0" IVar="-1" Cut="0.0000000000000000e+00" cType="1" res="2.7640920132398605e-02" rms="3.1264260411262512e-01" purity="8.4397292137145996e-01" nType="-99"/>
          </Node>
          <Node pos="r" depth="2" NCoef="0" IVar="-1" Cut="0.0000000000000000e+00" cType="1" res="-8.7213404476642609e-03" rms="3.8985851407051086e-01" purity="2.7340531349182129e-01" nType="-99"/>
        </Node>
        <Node pos="r" depth="1" NCoef="0" IVar="7" Cut="4.9652266502380371e+00" cType="1" res="-3.5409405827522278e-02" rms="3.8143566250801086e-01" purity="4.0843656659126282e-01" nType="0">
          <Node pos="l" depth="2" NCoef="0" IVar="9" Cut="-2.5306851863861084e+00" cType="1" res="7.7017047442495823e-03" rms="3.8498327136039734e-01" purity="4.7349822521209717e-01" nType="0">
            <Node pos="l" depth="3" NCoef="0" IVar="-1" Cut="0.0000000000000000e+00" cType="1" res="1.4806838706135750e-02" rms="3.9561599493026733e-01" purity="6.2479078769683838e-01" nType="-99"/>
            <Node pos="r" depth="3" NCoef="0" IVar="-1" Cut="0.0000000000000000e+00" cType="1" res="-2.0587928593158722e-02" rms="3.4973487257957458e-01" purity="2.1522806584835052e-01" nType="-99"/>
          </Node>
          <Node pos="r" depth="2" NCoef="0" IVar="9" Cut="-2.5673723220825195e+00" cType="1" res="-1.1237892508506775e-01" rms="3.6248624324798584e-01" purity="2.9227706789970398e-01" nType="0">
            <Node pos="l" depth="3" NCoef="0" IVar="-1" Cut="0.0000000000000000e+00" cType="1" res="-1.8767884001135826e-02" rms="4.1324141621589661e-01" purity="4.5336076617240906e-01" nType="-99"/>
            <Node pos="r" depth="3" NCoef="0" IVar="-1" Cut="0.0000000000000000e+00" cType="1" res="-4.4026128947734833e-02" rms="2.7982142567634583e-01" purity="9.0891771018505096e-02" nType="-99"/>
          </Node>
        </Node>
      </Node>
    </BinaryTree>
    <BinaryTree type="DecisionTree" boostWeight="1.0000000000000000e+00" itree="21">
      <Node pos="s" depth="0" NCoef="0" IVar="2" Cut="-8.3761173486709595e-01" cType="1" res="9.2100439360365272e-05" rms="3.6374026536941528e-01" purity="5.0000000000000000e-01" nType="0">
        <Node pos="l" depth="1" NCoef="0" IVar="9" Cut="-1.9678508043289185e+00" cType="1" res="4.1522659361362457e-02" rms="3.6765193939208984e-01" purity="5.8446794748306274e-01" nType="0">
          <Node pos="l" depth="2" NCoef="0" IVar="3" Cut="2.1615214347839355e+00" cType="1" res="7.0530466735363007e-02" rms="3.5931220650672913e-01" purity="6.9754076004028320e-01" nType="0">
            <Node pos="l" depth="3" NCoef="0" IVar="-1" Cut="0.0000000000000000e+00" cType="1" res="3.1294472515583038e-02" rms="3.0842933058738708e-01" purity="8.4793812036514282e-01" nType="-99"/>
            <Node pos="r" depth="3" NCoef="0" IVar="-1" Cut="0.0000000000000000e+00" cType="1" res="2.5417073629796505e-03" rms="4.4086000323295593e-01" purity="3.8559243083000183e-01" nType="-99"/>
          </Node>
          <Node pos="r" depth="2" NCoef="0" IVar="-1" Cut="0.0000000000000000e+00" cType="1" res="-1.1672678403556347e-02" rms="3.7849101424217224e-01" purity="2.4711531400680542e-01" nType="-99"/>
        </Node>
        <Node pos="r" depth="1" NCoef="0" IVar="6" Cut="3.5245299339294434e+00" cType="1" res="-5.1751069724559784e-02" rms="3.5198205709457397e-01" purity="3.9430302381515503e-01" nType="0">
          <Node pos="l" depth="2" NCoef="0" IVar="3" Cut="1.3175994157791138e+00" cType="1" res="-1.6085123643279076e-02" rms="3.5831281542778015e-01" purity="4.5153936743736267e-01" nType="0">
            <Node pos="l" depth="3" NCoef="0" IVar="-1" Cut="0.0000000000000000e+00" cType="1" res="2.0423077046871185e-02" rms="3.1889519095420837e-01" purity="6.8122202157974243e-01" nType="-99"/>
            <Node pos="r" depth="3" NCoef="0" IVar="-1" Cut="0.0000000000000000e+00" cType="1" res="-1.5050617977976799e-02" rms="3.6833801865577698e-01" purity="3.4479215741157532e-01" nType="-99"/>
          </Node>
          <Node pos="r" depth="2" NCoef="0" IVar="-1" Cut="0.0000000000000000e+00" cType="1" res="-3.7193421274423599e-02" rms="3.2046735286712646e-01" purity="2.5683981180191040e-01" nType="-99"/>
        </Node>
      </Node>
    </BinaryTree>
    <BinaryTree type="DecisionTree" boostWeight="1.0000000000000000e+00" itree="22">
      <Node pos="s" depth="0" NCoef="0" IVar="8" Cut="-4.3681321144104004e+00" cType="1" res="9.9518700153566897e-05" rms="3.6197078227996826e-01" purity="5.0000000000000000e-01" nType="0">
        <Node pos="l" depth="1" NCoef="0" IVar="7" Cut="3.6100473403930664e+00" cType="1" res="2.1042378619313240e-02" rms="3.6444124579429626e-01" purity="5.7255846261978149e-01" nType="0">
          <Node pos="l" depth="2" NCoef="0" IVar="-1" Cut="0.0000000000000000e+00" cType="1" res="3.6254778504371643e-02" rms="3.5935807228088379e-01" purity="7.3450273275375366e-01" nType="-99"/>
          <Node pos="r" depth="2" NCoef="0" IVar="9" Cut="-2.1791989803314209e+00" cType="1" res="3.7866472266614437e-03" rms="3.6184957623481750e-01" purity="5.4965060949325562e-01" nType="0">
            <Node pos="l" depth="3" NCoef="0" IVar="-1" Cut="0.0000000000000000e+00" cType="1" res="1.0854162275791168e-02" rms="3.6222711205482483e-01" purity="6.7122602462768555e-01" nType="-99"/>
            <Node pos="r" depth="3" NCoef="0" IVar="-1" Cut="0.0000000000000000e+00" cType="1" res="-2.8194772079586983e-02" rms="3.3824458718299866e-01" purity="1.6582651436328888e-01" nType="-99"/>
          </Node>
        </Node>
        <Node pos="r" depth="1" NCoef="0" IVar="7" Cut="4.8394103050231934e+00" cType="1" res="-9.1699115931987762e-02" rms="3.3586788177490234e-01" purity="1.8195521831512451e-01" nType="0">
          <Node pos="l" depth="2" NCoef="0" IVar="-1" Cut="0.0000000000000000e+00" cType="1" res="-3.6070365458726883e-02" rms="2.7642980217933655e-01" purity="1.4823167026042938e-01" nType="-99"/>
          <Node pos="r" depth="2" NCoef="0" IVar="-1" Cut="0.0000000000000000e+00" cType="1" res="-1.5320507809519768e-02" rms="3.8824737071990967e-01" purity="2.1924951672554016e-01" nType="-99"/>
        </Node>
      </Node>
    </BinaryTree>
    <BinaryTree type="DecisionTree" boostWeight="1.0000000000000000e+00" itree="23">
      <Node pos="s" depth="0" NCoef="0" IVar="3" Cut="2.2364249229431152e+00" cType="1" res="5.6080847571138293e-05" rms="3.6030241847038269e-01" purity="5.0000000000000000e-01" nType="0">
        <Node pos="l" depth="1" NCoef="0" IVar="9" Cut="-1.8295257091522217e+00" cType="1" res="2.8275465592741966e-02" rms="3.4930640459060669e-01" purity="6.1443603038787842e-01" nType="0">
          <Node pos="l" depth="2" NCoef="0" IVar="7" Cut="4.8508038520812988e+00" cType="1" res="5.7949043810367584e-02" rms="3.4334051609039307e-01" purity="7.5138258934020996e-01" nType="0">
            <Node pos="l" depth="3" NCoef="0" IVar="-1" Cut="0.0000000000000000e+00" cType="1" res="3.3302847295999527e-02" rms="2.9249966144561768e-01" purity="8.5513234138488770e-01" nType="-99"/>
            <Node pos="r" depth="3" NCoef="0" IVar="-1" Cut="0.0000000000000000e+00" cType="1" res="-1.7976581584662199e-03" rms="3.9613661170005798e-01" purity="6.0326123237609863e-01" nType="-99"/>
          </Node>
          <Node pos="r" depth="2" NCoef="0" IVar="8" Cut="-5.9185457229614258e+00" cType="1" res="-5.8617703616619110e-02" rms="3.5211732983589172e-01" purity="2.1341514587402344e-01" nType="0">
            <Node pos="l" depth="3" NCoef="0" IVar="-1" Cut="0.0000000000000000e+00" cType="1" res="5.2633355371654034e-03" rms="3.8509711623191833e-01" purity="3.5537320375442505e-01" nType="-99"/>
            <Node pos="r" depth="3" NCoef="0" IVar="-1" Cut="0.0000000000000000e+00" cType="1" res="-2.9146695509552956e-02" rms="3.2479864358901978e-01" purity="1.3639900088310242e-01" nType="-99"/>
          </Node>
        </Node>
        <Node pos="r" depth="1" NCoef="0" IVar="3" Cut="3.0535309314727783e+00" cType="1" res="-6.6111639142036438e-02" rms="3.7665411829948425e-01" purity="2.3167489469051361e-01" nType="0">
          <Node pos="l" depth="2" NCoef="0" IVar="9" Cut="-2.9357500076293945e+00" cType="1" res="-3.4763101488351822e-02" rms="3.9974415302276611e-01" purity="2.8518089652061462e-01" nType="0">
            <Node pos="l" depth="3" NCoef="0" IVar="-1" Cut="0.0000000000000000e+00" cType="1" res="9.4208382070064545e-03" rms="4.6411979198455811e-01" purity="4.6830570697784424e-01" nType="-99"/>
            <Node pos="r" depth="3" NCoef="0" IVar="-1" Cut="0.0000000000000000e+00" cType="1" res="-2.3834358900785446e-02" rms="3.4259018301963806e-01" purity="1.6722321510314941e-01" nType="-99"/>
          </Node>
          <Node pos="r" depth="2" NCoef="0" IVar="-1" Cut="0.0000000000000000e+00" cType="1" res="-3.7848126143217087e-02" rms="3.0902540683746338e-01" purity="1.1393015086650848e-01" nType="-99"/>
        </Node>
      </Node>
    </BinaryTree>
    <BinaryTree type="DecisionTree" boostWeight="1.0000000000000000e+00" itree="24">
      <Node pos="s" depth="0" NCoef="0" IVar="3" Cut="1.3784637451171875e+00" cType="1" res="4.2219693568767980e-05" rms="3.5836327075958252e-01" purity="5.0000000000000000e-01" nType="0">
        <Node pos="l" depth="1" NCoef="0" IVar="9" Cut="-1.9494452476501465e+00" cType="1" res="5.8621220290660858e-02" rms="3.1589716672897339e-01" purity="6.7604851722717285e-01" nType="0">
          <Node pos="l" depth="2" NCoef="0" IVar="3" Cut="1.0404260158538818e+00" cType="1" res="1.0017275810241699e-01" rms="2.6092061400413513e-01" purity="8.9920163154602051e-01" nType="0">
            <Node pos="l" depth="3" NCoef="0" IVar="-1" Cut="0.0000000000000000e+00" cType="1" res="4.3923038989305496e-02" rms="2.2400002181529999e-01" purity="9.3266707658767700e-01" nType="-99"/>
            <Node pos="r" depth="3" NCoef="0" IVar="-1" Cut="0.0000000000000000e+00" cType="1" res="2.2688485682010651e-02" rms="3.0984443426132202e-01" purity="8.4397292137145996e-01" nType="-99"/>
          </Node>
          <Node pos="r" depth="2" NCoef="0" IVar="-1" Cut="0.0000000000000000e+00" cType="1" res="-4.3422072194516659e-03" rms="3.8506230711936951e-01" purity="2.7340531349182129e-01" nType="-99"/>
        </Node>
        <Node pos="r" depth="1" NCoef="0" IVar="2" Cut="-5.1086455583572388e-01" cType="1" res="-3.0424915254116058e-02" rms="3.7497133016586304e-01" purity="4.0843656659126282e-01" nType="0">
          <Node pos="l" depth="2" NCoef="0" IVar="7" Cut="4.9652266502380371e+00" cType="1" res="5.7155606336891651e-03" rms="3.8566869497299194e-01" purity="4.9339291453361511e-01" nType="0">
            <Node pos="l" depth="3" NCoef="0" IVar="-1" Cut="0.0000000000000000e+00" cType="1" res="1.2870877981185913e-02" rms="3.8196188211441040e-01" purity="5.6704372167587280e-01" nType="-99"/>
            <Node pos="r" depth="3" NCoef="0" IVar="-1" Cut="0.0000000000000000e+00" cType="1" res="-1.8631732091307640e-02" rms="3.8058182597160339e-01" purity="3.6220693588256836e-01" nType="-99"/>
          </Node>
          <Node pos="r" depth="2" NCoef="0" IVar="6" Cut="2.8826491832733154e+00" cType="1" res="-1.0498689115047455e-01" rms="3.3994421362876892e-01" purity="2.3316182196140289e-01" nType="0">
            <Node pos="l" depth="3" NCoef="0" IVar="-1" Cut="0.0000000000000000e+00" cType="1" res="-1.5080904588103294e-02" rms="3.6281925439834595e-01" purity="3.0548375844955444e-01" nType="-99"/>
            <Node pos="r" depth="3" NCoef="0" IVar="-1" Cut="0.0000000000000000e+00" cType="1" res="-4.3457921594381332e-02" rms="3.0786380171775818e-01" purity="1.6214470565319061e-01" nType="-99"/>
          </Node>
        </Node>
      </Node>
    </BinaryTree>
    <BinaryTree type="DecisionTree" boostWeight="1.0000000000000000e+00" itree="25">
      <Node pos="s" depth="0" NCoef="0" IVar="2" Cut="3.7602555751800537e-01" cType="1" res="5.3160798415774480e-05" rms="3.5650542378425598e-01" purity="5.0000000000000000e-01" nType="0">
        <Node pos="l" depth="1" NCoef="0" IVar="3" Cut="2.6275904178619385e+00" cType="1" res="1.3607301749289036e-02" rms="3.5890933871269226e-01" purity="5.3338515758514404e-01" nType="0">
          <Node pos="l" depth="2" NCoef="0" IVar="9" Cut="-2.6631681919097900e+00" cType="1" res="3.1259197741746902e-02" rms="3.5561990737915039e-01" purity="6.0211282968521118e-01" nType="0">
            <Node pos="l" depth="3" NCoef="0" IVar="-1" Cut="0.0000000000000000e+00" cType="1" res="2.3855071514844894e-02" rms="3.3082157373428345e-01" purity="8.1727653741836548e-01" nType="-99"/>
            <Node pos="r" depth="3" NCoef="0" IVar="-1" Cut="0.0000000000000000e+00" cType="1" res="-6.7678354680538177e-03" rms="3.7806990742683411e-01" purity="3.2052099704742432e-01" nType="-99"/>
          </Node>
          <Node pos="r" depth="2" NCoef="0" IVar="-1" Cut="0.0000000000000000e+00" cType="1" res="-2.1243702620267868e-02" rms="3.6203750967979431e-01" purity="1.8059115111827850e-01" nType="-99"/>
        </Node>
        <Node pos="r" depth="1" NCoef="0" IVar="-1" Cut="0.0000000000000000e+00" cType="1" res="-3.4843821078538895e-02" rms="3.1043785810470581e-01" purity="2.0785900950431824e-01" nType="-99"/>
      </Node>
    </BinaryTree>
    <BinaryTree type="DecisionTree" boostWeight="1.0000000000000000e+00" itree="26">
      <Node pos="s" depth="0" NCoef="0" IVar="3" Cut="5.2050250768661499e-01" cType="1" res="5.1500082918209955e-05" rms="3.5523170232772827e-01" purity="5.0000000000000000e-01" nType="0">
        <Node pos="l" depth="1" NCoef="0" IVar="8" Cut="-5.2144179344177246e+00" cType="1" res="1.0817770659923553e-01" rms="3.1753972172737122e-01" purity="7.0710146427154541e-01" nType="0">
          <Node pos="l" depth="2" NCoef="0" IVar="-1" Cut="0.0000000000000000e+00" cType="1" res="4.7794852405786514e-02" rms="2.6859742403030396e-01" purity="8.4741288423538208e-01" nType="-99"/>
          <Node pos="r" depth="2" NCoef="0" IVar="-1" Cut="0.0000000000000000e+00" cType="1" res="2.3508783429861069e-02" rms="3.5633501410484314e-01" purity="5.6437087059020996e-01" nType="-99"/>
        </Node>
        <Node pos="r" depth="1" NCoef="0" IVar="7" Cut="4.4883904457092285e+00" cType="1" res="-1.3429579325020313e-02" rms="3.5736784338951111e-01" purity="4.7417876124382019e-01" nType="0">
          <Node pos="l" depth="2" NCoef="0" IVar="8" Cut="-5.0732631683349609e+00" cType="1" res="4.3467652052640915e-02" rms="3.4804141521453857e-01" purity="5.8566224575042725e-01" nType="0">
            <Node pos="l" depth="3" NCoef="0" IVar="-1" Cut="0.0000000000000000e+00" cType="1" res="2.6384668424725533e-02" rms="3.6834409832954407e-01" purity="6.6437947750091553e-01" nType="-99"/>
            <Node pos="r" depth="3" NCoef="0" IVar="-1" Cut="0.0000000000000000e+00" cType="1" res="-4.8252358101308346e-03" rms="3.1444618105888367e-01" purity="5.0112444162368774e-01" nType="-99"/>
          </Node>
          <Node pos="r" depth="2" NCoef="0" IVar="9" Cut="-2.5673723220825195e+00" cType="1" res="-5.3344175219535828e-02" rms="3.5841712355613708e-01" purity="3.9597079157829285e-01" nType="0">
            <Node pos="l" depth="3" NCoef="0" IVar="-1" Cut="0.0000000000000000e+00" cType="1" res="-2.4317416828125715e-03" rms="3.8528892397880554e-01" purity="5.9913814067840576e-01" nType="-99"/>
            <Node pos="r" depth="3" NCoef="0" IVar="-1" Cut="0.0000000000000000e+00" cType="1" res="-3.2003603875637054e-02" rms="3.1196695566177368e-01" purity="1.3786998391151428e-01" nType="-99"/>
          </Node>
        </Node>
      </Node>
    </BinaryTree>
    <BinaryTree type="DecisionTree" boostWeight="1.0000000000000000e+00" itree="27">
      <Node pos="s" depth="0" NCoef="0" IVar="2" Cut="-8.3761173486709595e-01" cType="1" res="2.1593137716990896e-05" rms="3.5348787903785706e-01" purity="5.0000000000000000e-01" nType="0">
        <Node pos="l" depth="1" NCoef="0" IVar="7" Cut="4.4883904457092285e+00" cType="1" res="3.3788505941629410e-02" rms="3.5910052061080933e-01" purity="5.8446794748306274e-01" nType="0">
          <Node pos="l" depth="2" NCoef="0" IVar="8" Cut="-4.8407626152038574e+00" cType="1" res="7.8738868236541748e-02" rms="3.2837951183319092e-01" purity="7.0654356479644775e-01" nType="0">
            <Node pos="l" depth="3" NCoef="0" IVar="-1" Cut="0.0000000000000000e+00" cType="1" res="3.5888865590095520e-02" rms="3.3161708712577820e-01" purity="7.9623448848724365e-01" nType="-99"/>
            <Node pos="r" depth="3" NCoef="0" IVar="-1" Cut="0.0000000000000000e+00" cType="1" res="-4.5658699236810207e-03" rms="3.0109572410583496e-01" purity="5.1585525274276733e-01" nType="-99"/>
          </Node>
          <Node pos="r" depth="2" NCoef="0" IVar="3" Cut="1.4490101337432861e+00" cType="1" res="2.0131410565227270e-03" rms="3.7609168887138367e-01" purity="4.9817276000976562e-01" nType="0">
            <Node pos="l" depth="3" NCoef="0" IVar="-1" Cut="0.0000000000000000e+00" cType="1" res="1.7637172713875771e-02" rms="3.5681802034378052e-01" purity="6.1675101518630981e-01" nType="-99"/>
            <Node pos="r" depth="3" NCoef="0" IVar="-1" Cut="0.0000000000000000e+00" cType="1" res="-8.5099786520004272e-03" rms="3.8373613357543945e-01" purity="4.2525571584701538e-01" nType="-99"/>
          </Node>
        </Node>
        <Node pos="r" depth="1" NCoef="0" IVar="6" Cut="3.5245299339294434e+00" cType="1" res="-4.2231850326061249e-02" rms="3.4166780114173889e-01" purity="3.9430302381515503e-01" nType="0">
          <Node pos="l" depth="2" NCoef="0" IVar="9" Cut="-3.3485393524169922e+00" cType="1" res="-1.2371447868645191e-02" rms="3.4856536984443665e-01" purity="4.5153936743736267e-01" nType="0">
            <Node pos="l" depth="3" NCoef="0" IVar="-1" Cut="0.0000000000000000e+00" cType="1" res="2.0862856879830360e-02" rms="3.1740108132362366e-01" purity="8.1010550260543823e-01" nType="-99"/>
            <Node pos="r" depth="3" NCoef="0" IVar="-1" Cut="0.0000000000000000e+00" cType="1" res="-1.2325862422585487e-02" rms="3.5562136769294739e-01" purity="3.0710563063621521e-01" nType="-99"/>
          </Node>
          <Node pos="r" depth="2" NCoef="0" IVar="-1" Cut="0.0000000000000000e+00" cType="1" res="-3.3582493662834167e-02" rms="3.1307849287986755e-01" purity="2.5683981180191040e-01" nType="-99"/>
        </Node>
      </Node>
    </BinaryTree>
    <BinaryTree type="DecisionTree" boostWeight="1.0000000000000000e+00" itree="28">
      <Node pos="s" depth="0" NCoef="0" IVar="6" Cut="4.6317176818847656e+00" cType="1" res="2.2951637220103294e-05" rms="3.5193333029747009e-01" purity="5.0000000000000000e-01" nType="0">
        <Node pos="l" depth="1" NCoef="0" IVar="2" Cut="-1.2813390791416168e-01" cType="1" res="1.0724552907049656e-02" rms="3.5279065370559692e-01" purity="5.2109891176223755e-01" nType="0">
          <Node pos="l" depth="2" NCoef="0" IVar="3" Cut="2.7670650482177734e+00" cType="1" res="3.1154267489910126e-02" rms="3.5574162006378174e-01" purity="5.7589352130889893e-01" nType="0">
            <Node pos="l" depth="3" NCoef="0" IVar="-1" Cut="0.0000000000000000e+00" cType="1" res="1.3850353658199310e-02" rms="3.5189661383628845e-01" purity="6.3324230909347534e-01" nType="-99"/>
            <Node pos="r" depth="3" NCoef="0" IVar="-1" Cut="0.0000000000000000e+00" cType="1" res="-2.0662216469645500e-02" rms="3.6421334743499756e-01" purity="1.8018305301666260e-01" nType="-99"/>
          </Node>
          <Node pos="r" depth="2" NCoef="0" IVar="6" Cut="2.2704098224639893e+00" cType="1" res="-7.5582362711429596e-02" rms="3.2621484994888306e-01" purity="2.8961485624313354e-01" nType="0">
            <Node pos="l" depth="3" NCoef="0" IVar="-1" Cut="0.0000000000000000e+00" cType="1" res="-2.3812199942767620e-03" rms="3.5010448098182678e-01" purity="3.9802828431129456e-01" nType="-99"/>
            <Node pos="r" depth="3" NCoef="0" IVar="-1" Cut="0.0000000000000000e+00" cType="1" res="-3.2866433262825012e-02" rms="3.0822423100471497e-01" purity="2.3574638366699219e-01" nType="-99"/>
          </Node>
        </Node>
        <Node pos="r" depth="1" NCoef="0" IVar="-1" Cut="0.0000000000000000e+00" cType="1" res="-3.5169344395399094e-02" rms="3.1852632761001587e-01" purity="2.6380294561386108e-01" nType="-99"/>
      </Node>
    </BinaryTree>
    <BinaryTree type="DecisionTree" boostWeight="1.0000000000000000e+00" itree="29">
      <Node pos="s" depth="0" NCoef="0" IVar="3" Cut="1.3784637451171875e+00" cType="1" res="-1.4554942708855378e-06" rms="3.5062199831008911e-01" purity="5.0000000000000000e-01" nType="0">
        <Node pos="l" depth="1" NCoef="0" IVar="9" Cut="-1.9494452476501465e+00" cType="1" res="4.8117689788341522e-02" rms="3.0903992056846619e-01" purity="6.7604851722717285e-01" nType="0">
          <Node pos="l" depth="2" NCoef="0" IVar="7" Cut="4.9813294410705566e+00" cType="1" res="8.2906790077686310e-02" rms="2.5670737028121948e-01" purity="8.9920163154602051e-01" nType="0">
            <Node pos="l" depth="3" NCoef="0" IVar="-1" Cut="0.0000000000000000e+00" cType="1" res="4.4672563672065735e-02" rms="1.8254478275775909e-01" purity="9.6228170394897461e-01" nType="-99"/>
            <Node pos="r" depth="3" NCoef="0" IVar="-1" Cut="0.0000000000000000e+00" cType="1" res="1.4781518839299679e-02" rms="3.6740732192993164e-01" purity="7.6262533664703369e-01" nType="-99"/>
          </Node>
          <Node pos="r" depth="2" NCoef="0" IVar="-1" Cut="0.0000000000000000e+00" cType="1" res="-3.9722644723951817e-03" rms="3.7789237499237061e-01" purity="2.7340531349182129e-01" nType="-99"/>
        </Node>
        <Node pos="r" depth="1" NCoef="0" IVar="7" Cut="4.9652266502380371e+00" cType="1" res="-2.5028385221958160e-02" rms="3.6792886257171631e-01" purity="4.0843656659126282e-01" nType="0">
          <Node pos="l" depth="2" NCoef="0" IVar="9" Cut="-2.5306851863861084e+00" cType="1" res="5.4606306366622448e-03" rms="3.7101745605468750e-01" purity="4.7349822521209717e-01" nType="0">
            <Node pos="l" depth="3" NCoef="0" IVar="-1" Cut="0.0000000000000000e+00" cType="1" res="1.1191965080797672e-02" rms="3.8382449746131897e-01" purity="6.2479078769683838e-01" nType="-99"/>
            <Node pos="r" depth="3" NCoef="0" IVar="-1" Cut="0.0000000000000000e+00" cType="1" res="-1.5951635316014290e-02" rms="3.3959051966667175e-01" purity="2.1522806584835052e-01" nType="-99"/>
          </Node>
          <Node pos="r" depth="2" NCoef="0" IVar="2" Cut="-1.3135690689086914e+00" cType="1" res="-7.9462729394435883e-02" rms="3.5591310262680054e-01" purity="2.9227706789970398e-01" nType="0">
            <Node pos="l" depth="3" NCoef="0" IVar="-1" Cut="0.0000000000000000e+00" cType="1" res="-1.0666444897651672e-02" rms="3.8006740808486938e-01" purity="3.8139805197715759e-01" nType="-99"/>
            <Node pos="r" depth="3" NCoef="0" IVar="-1" Cut="0.0000000000000000e+00" cType="1" res="-2.9736114665865898e-02" rms="3.4038084745407104e-01" purity="2.4487181007862091e-01" nType="-99"/>
          </Node>
        </Node>
      </Node>
    </BinaryTree>
    <BinaryTree type="DecisionTree" boostWeight="1.0000000000000000e+00" itree="30">
      <Node pos="s" depth="0" NCoef="0" IVar="4" Cut="9.6270126104354858e-01" cType="1" res="2.6363704819232225e-05" rms="3.4943678975105286e-01" purity="5.0000000000000000e-01" nType="0">
        <Node pos="l" depth="1" NCoef="0" IVar="-1" Cut="0.0000000000000000e+00" cType="1" res="-3.1260836869478226e-02" rms="3.1953385472297668e-01" purity="2.5568884611129761e-01" nType="-99"/>
        <Node pos="r" depth="1" NCoef="0" IVar="8" Cut="-4.3681321144104004e+00" cType="1" res="1.0300214402377605e-02" rms="3.5064458847045898e-01" purity="5.2448093891143799e-01" nType="0">
          <Node pos="l" depth="2" NCoef="0" IVar="1" Cut="2.6273407936096191e+00" cType="1" res="2.5850823149085045e-02" rms="3.5166576504707336e-01" purity="5.9789657592773438e-01" nType="0">
            <Node pos="l" depth="3" NCoef="0" IVar="-1" Cut="0.0000000000000000e+00" cType="1" res="1.6852477565407753e-02" rms="3.2689413428306580e-01" purity="6.7488527297973633e-01" nType="-99"/>
            <Node pos="r" depth="3" NCoef="0" IVar="-1" Cut="0.0000000000000000e+00" cType="1" res="-8.2461135461926460e-03" rms="3.9618971943855286e-01" purity="4.2292603850364685e-01" nType="-99"/>
          </Node>
          <Node pos="r" depth="2" NCoef="0" IVar="0" Cut="-1.3271046876907349e+00" cType="1" res="-6.0117691755294800e-02" rms="3.3712062239646912e-01" purity="1.9203223288059235e-01" nType="0">
            <Node pos="l" depth="3" NCoef="0" IVar="-1" Cut="0.0000000000000000e+00" cType="1" res="-1.8387502059340477e-02" rms="3.3380767703056335e-01" purity="1.9190797209739685e-01" nType="-99"/>
            <Node pos="r" depth="3" NCoef="0" IVar="-1" Cut="0.0000000000000000e+00" cType="1" res="-1.8341567367315292e-02" rms="3.4031084179878235e-01" purity="1.9215309619903564e-01" nType="-99"/>
          </Node>
        </Node>
      </Node>
    </BinaryTree>
    <BinaryTree type="DecisionTree" boostWeight="1.0000000000000000e+00" itree="31">
      <Node pos="s" depth="0" NCoef="0" IVar="3" Cut="5.2050250768661499e-01" cType="1" res="1.3606161701318342e-05" rms="3.4854432940483093e-01" purity="5.0000000000000000e-01" nType="0">
        <Node pos="l" depth="1" NCoef="0" IVar="8" Cut="-5.2144179344177246e+00" cType="1" res="9.1401122510433197e-02" rms="3.1326583027839661e-01" purity="7.0710146427154541e-01" nType="0">
          <Node pos="l" depth="2" NCoef="0" IVar="-1" Cut="0.0000000000000000e+00" cType="1" res="4.3098986148834229e-02" rms="2.6420128345489502e-01" purity="8.4741288423538208e-01" nType="-99"/>
          <Node pos="r" depth="2" NCoef="0" IVar="-1" Cut="0.0000000000000000e+00" cType="1" res="2.1182669326663017e-02" rms="3.5359221696853638e-01" purity="5.6437087059020996e-01" nType="-99"/>
        </Node>
        <Node pos="r" depth="1" NCoef="0" IVar="9" Cut="-2.1788737773895264e+00" cType="1" res="-1.1380508542060852e-02" rms="3.5103133320808411e-01" purity="4.7417876124382019e-01" nType="0">
          <Node pos="l" depth="2" NCoef="0" IVar="3" Cut="2.4816346168518066e+00" cType="1" res="1.5301248058676720e-02" rms="3.6357301473617554e-01" purity="6.0068964958190918e-01" nType="0">
            <Node pos="l" depth="3" NCoef="0" IVar="-1" Cut="0.0000000000000000e+00" cType="1" res="1.2522066012024879e-02" rms="3.5619717836380005e-01" purity="7.2522133588790894e-01" nType="-99"/>
            <Node pos="r" depth="3" NCoef="0" IVar="-1" Cut="0.0000000000000000e+00" cType="1" res="-1.7226595431566238e-02" rms="3.7444272637367249e-01" purity="2.1675236523151398e-01" nType="-99"/>
          </Node>
          <Node pos="r" depth="2" NCoef="0" IVar="7" Cut="4.3001546859741211e+00" cType="1" res="-7.6003275811672211e-02" rms="3.0921846628189087e-01" purity="1.6777154803276062e-01" nType="0">
            <Node pos="l" depth="3" NCoef="0" IVar="-1" Cut="0.0000000000000000e+00" cType="1" res="-3.7355115637183189e-03" rms="3.5578173398971558e-01" purity="3.2126584649085999e-01" nType="-99"/>
            <Node pos="r" depth="3" NCoef="0" IVar="-1" Cut="0.0000000000000000e+00" cType="1" res="-3.4048769623041153e-02" rms="2.8102812170982361e-01" purity="9.7985975444316864e-02" nType="-99"/>
          </Node>
        </Node>
      </Node>
    </BinaryTree>
    <BinaryTree type="DecisionTree" boostWeight="1.0000000000000000e+00" itree="32">
      <Node pos="s" depth="0" NCoef="0" IVar="2" Cut="-8.3761173486709595e-01" cType="1" res="-1.6035392036428675e-05" rms="3.4734654426574707e-01" purity="5.0000000000000000e-01" nType="0">
        <Node pos="l" depth="1" NCoef="0" IVar="7" Cut="4.4883904457092285e+00" cType="1" res="2.7718475088477135e-02" rms="3.5408985614776611e-01" purity="5.8446794748306274e-01" nType="0">
          <Node pos="l" depth="2" NCoef="0" IVar="8" Cut="-4.8407626152038574e+00" cType="1" res="6.4913645386695862e-02" rms="3.2285663485527039e-01" purity="7.0654356479644775e-01" nType="0">
            <Node pos="l" depth="3" NCoef="0" IVar="-1" Cut="0.0000000000000000e+00" cType="1" res="3.1518932431936264e-02" rms="3.2815358042716980e-01" purity="7.9623448848724365e-01" nType="-99"/>
            <Node pos="r" depth="3" NCoef="0" IVar="-1" Cut="0.0000000000000000e+00" cType="1" res="-4.5617278665304184e-03" rms="2.9649204015731812e-01" purity="5.1585525274276733e-01" nType="-99"/>
          </Node>
          <Node pos="r" depth="2" NCoef="0" IVar="3" Cut="1.4490101337432861e+00" cType="1" res="1.4252483379095793e-03" rms="3.7236601114273071e-01" purity="4.9817276000976562e-01" nType="0">
            <Node pos="l" depth="3" NCoef="0" IVar="-1" Cut="0.0000000000000000e+00" cType="1" res="1.4854156412184238e-02" rms="3.5372769832611084e-01" purity="6.1675101518630981e-01" nType="-99"/>
            <Node pos="r" depth="3" NCoef="0" IVar="-1" Cut="0.0000000000000000e+00" cType="1" res="-7.2045121341943741e-03" rms="3.8086754083633423e-01" purity="4.2525571584701538e-01" nType="-99"/>
          </Node>
        </Node>
        <Node pos="r" depth="1" NCoef="0" IVar="6" Cut="2.8826491832733154e+00" cType="1" res="-3.4720972180366516e-02" rms="3.3550542593002319e-01" purity="3.9430302381515503e-01" nType="0">
          <Node pos="l" depth="2" NCoef="0" IVar="3" Cut="1.8920853137969971e+00" cType="1" res="2.4655065499246120e-03" rms="3.4728094935417175e-01" purity="4.6861720085144043e-01" nType="0">
